
Options: -Q -P 100 -S 1 -I 30 -W weka.classifiers.trees.J48 -- -C 0.25 -M 2 

AdaBoostM1: Base classifiers and their weights: 

J48 pruned tree
------------------

mass <= 27.8
|   plas <= 143: tested_negative (134.0/3.0)
|   plas > 143
|   |   pedi <= 0.569
|   |   |   plas <= 148: tested_positive (2.0)
|   |   |   plas > 148: tested_negative (7.0)
|   |   pedi > 0.569: tested_positive (5.0)
mass > 27.8
|   plas <= 127
|   |   age <= 29
|   |   |   skin <= 29
|   |   |   |   preg <= 6: tested_negative (54.0/1.0)
|   |   |   |   preg > 6
|   |   |   |   |   preg <= 9: tested_positive (2.0)
|   |   |   |   |   preg > 9: tested_negative (2.0)
|   |   |   skin > 29
|   |   |   |   pres <= 66
|   |   |   |   |   insu <= 99
|   |   |   |   |   |   preg <= 4
|   |   |   |   |   |   |   skin <= 38: tested_positive (8.0)
|   |   |   |   |   |   |   skin > 38
|   |   |   |   |   |   |   |   pres <= 44: tested_positive (2.0)
|   |   |   |   |   |   |   |   pres > 44: tested_negative (2.0)
|   |   |   |   |   |   preg > 4: tested_negative (2.0)
|   |   |   |   |   insu > 99: tested_negative (4.0)
|   |   |   |   pres > 66
|   |   |   |   |   preg <= 1: tested_negative (15.0)
|   |   |   |   |   preg > 1
|   |   |   |   |   |   skin <= 31: tested_positive (2.0)
|   |   |   |   |   |   skin > 31
|   |   |   |   |   |   |   pres <= 78: tested_negative (10.0)
|   |   |   |   |   |   |   pres > 78
|   |   |   |   |   |   |   |   age <= 28: tested_negative (5.0/1.0)
|   |   |   |   |   |   |   |   age > 28: tested_positive (2.0)
|   |   age > 29
|   |   |   plas <= 108
|   |   |   |   preg <= 11: tested_negative (32.0/2.0)
|   |   |   |   preg > 11
|   |   |   |   |   pres <= 70: tested_negative (5.0)
|   |   |   |   |   pres > 70: tested_positive (7.0)
|   |   |   plas > 108
|   |   |   |   pres <= 70
|   |   |   |   |   plas <= 116: tested_positive (4.0)
|   |   |   |   |   plas > 116: tested_negative (7.0/1.0)
|   |   |   |   pres > 70: tested_positive (13.0)
|   plas > 127
|   |   preg <= 7
|   |   |   insu <= 474
|   |   |   |   mass <= 42.8
|   |   |   |   |   pedi <= 0.306
|   |   |   |   |   |   pedi <= 0.269
|   |   |   |   |   |   |   pedi <= 0.221: tested_negative (11.0/1.0)
|   |   |   |   |   |   |   pedi > 0.221
|   |   |   |   |   |   |   |   plas <= 144: tested_negative (3.0)
|   |   |   |   |   |   |   |   plas > 144: tested_positive (7.0)
|   |   |   |   |   |   pedi > 0.269: tested_negative (13.0)
|   |   |   |   |   pedi > 0.306
|   |   |   |   |   |   pres <= 72
|   |   |   |   |   |   |   skin <= 33: tested_positive (23.0)
|   |   |   |   |   |   |   skin > 33
|   |   |   |   |   |   |   |   insu <= 70: tested_positive (4.0)
|   |   |   |   |   |   |   |   insu > 70: tested_negative (2.0)
|   |   |   |   |   |   pres > 72
|   |   |   |   |   |   |   pedi <= 0.719
|   |   |   |   |   |   |   |   insu <= 78: tested_negative (12.0/1.0)
|   |   |   |   |   |   |   |   insu > 78
|   |   |   |   |   |   |   |   |   pres <= 78: tested_negative (2.0)
|   |   |   |   |   |   |   |   |   pres > 78: tested_positive (6.0)
|   |   |   |   |   |   |   pedi > 0.719: tested_positive (6.0)
|   |   |   |   mass > 42.8: tested_positive (14.0)
|   |   |   insu > 474: tested_negative (7.0)
|   |   preg > 7
|   |   |   pres <= 86: tested_positive (21.0)
|   |   |   pres > 86: tested_negative (4.0/1.0)

Number of Leaves  : 	38

Size of the tree : 	75


Weight: 1.81

J48 pruned tree
------------------

plas <= 165
|   age <= 28
|   |   skin <= 0
|   |   |   plas <= 116: tested_negative (27.0/1.0)
|   |   |   plas > 116
|   |   |   |   plas <= 148: tested_positive (19.0)
|   |   |   |   plas > 148: tested_negative (3.0)
|   |   skin > 0
|   |   |   age <= 22: tested_negative (48.0/1.0)
|   |   |   age > 22
|   |   |   |   preg <= 3
|   |   |   |   |   plas <= 127
|   |   |   |   |   |   pres <= 82: tested_negative (45.0/3.0)
|   |   |   |   |   |   pres > 82
|   |   |   |   |   |   |   plas <= 107: tested_positive (6.0)
|   |   |   |   |   |   |   plas > 107: tested_negative (2.0)
|   |   |   |   |   plas > 127
|   |   |   |   |   |   pres <= 78
|   |   |   |   |   |   |   age <= 24
|   |   |   |   |   |   |   |   preg <= 0: tested_positive (2.0)
|   |   |   |   |   |   |   |   preg > 0: tested_negative (3.0)
|   |   |   |   |   |   |   age > 24: tested_positive (9.0)
|   |   |   |   |   |   pres > 78: tested_negative (3.0)
|   |   |   |   preg > 3: tested_negative (17.0)
|   age > 28
|   |   skin <= 40
|   |   |   preg <= 9
|   |   |   |   plas <= 93: tested_negative (9.0)
|   |   |   |   plas > 93
|   |   |   |   |   preg <= 1
|   |   |   |   |   |   plas <= 143
|   |   |   |   |   |   |   pres <= 68
|   |   |   |   |   |   |   |   plas <= 114: tested_negative (2.0)
|   |   |   |   |   |   |   |   plas > 114: tested_positive (8.0)
|   |   |   |   |   |   |   pres > 68: tested_positive (26.0)
|   |   |   |   |   |   plas > 143: tested_negative (2.0)
|   |   |   |   |   preg > 1
|   |   |   |   |   |   skin <= 37
|   |   |   |   |   |   |   insu <= 90
|   |   |   |   |   |   |   |   mass <= 23.4: tested_negative (5.0)
|   |   |   |   |   |   |   |   mass > 23.4
|   |   |   |   |   |   |   |   |   plas <= 143
|   |   |   |   |   |   |   |   |   |   insu <= 78
|   |   |   |   |   |   |   |   |   |   |   insu <= 0
|   |   |   |   |   |   |   |   |   |   |   |   skin <= 0
|   |   |   |   |   |   |   |   |   |   |   |   |   pres <= 82
|   |   |   |   |   |   |   |   |   |   |   |   |   |   plas <= 106: tested_negative (2.0)
|   |   |   |   |   |   |   |   |   |   |   |   |   |   plas > 106
|   |   |   |   |   |   |   |   |   |   |   |   |   |   |   age <= 30
|   |   |   |   |   |   |   |   |   |   |   |   |   |   |   |   pres <= 70: tested_negative (5.0)
|   |   |   |   |   |   |   |   |   |   |   |   |   |   |   |   pres > 70: tested_positive (3.0)
|   |   |   |   |   |   |   |   |   |   |   |   |   |   |   age > 30
|   |   |   |   |   |   |   |   |   |   |   |   |   |   |   |   pedi <= 0.24: tested_negative (7.0/1.0)
|   |   |   |   |   |   |   |   |   |   |   |   |   |   |   |   pedi > 0.24: tested_positive (24.0)
|   |   |   |   |   |   |   |   |   |   |   |   |   pres > 82: tested_negative (3.0)
|   |   |   |   |   |   |   |   |   |   |   |   skin > 0: tested_positive (9.0)
|   |   |   |   |   |   |   |   |   |   |   insu > 0: tested_negative (3.0)
|   |   |   |   |   |   |   |   |   |   insu > 78: tested_positive (7.0)
|   |   |   |   |   |   |   |   |   plas > 143: tested_positive (15.0)
|   |   |   |   |   |   |   insu > 90
|   |   |   |   |   |   |   |   insu <= 170: tested_negative (13.0)
|   |   |   |   |   |   |   |   insu > 170
|   |   |   |   |   |   |   |   |   skin <= 32
|   |   |   |   |   |   |   |   |   |   skin <= 17: tested_negative (2.0)
|   |   |   |   |   |   |   |   |   |   skin > 17: tested_positive (13.0)
|   |   |   |   |   |   |   |   |   skin > 32: tested_negative (8.0/1.0)
|   |   |   |   |   |   skin > 37: tested_positive (11.0)
|   |   |   preg > 9
|   |   |   |   plas <= 152: tested_positive (33.0/2.0)
|   |   |   |   plas > 152: tested_negative (2.0)
|   |   skin > 40
|   |   |   insu <= 77: tested_negative (9.0)
|   |   |   insu > 77
|   |   |   |   mass <= 34.8: tested_negative (3.0)
|   |   |   |   mass > 34.8: tested_positive (3.0)
plas > 165: tested_positive (50.0/1.0)

Number of Leaves  : 	39

Size of the tree : 	77


Weight: 2.28

J48 pruned tree
------------------

mass <= 30.4
|   mass <= 29.7
|   |   mass <= 28.7
|   |   |   pres <= 54
|   |   |   |   preg <= 2: tested_negative (4.0)
|   |   |   |   preg > 2: tested_positive (11.0)
|   |   |   pres > 54
|   |   |   |   age <= 26: tested_negative (28.0)
|   |   |   |   age > 26
|   |   |   |   |   preg <= 0
|   |   |   |   |   |   pres <= 68: tested_negative (2.0)
|   |   |   |   |   |   pres > 68: tested_positive (7.0)
|   |   |   |   |   preg > 0
|   |   |   |   |   |   insu <= 68
|   |   |   |   |   |   |   pres <= 72
|   |   |   |   |   |   |   |   age <= 58
|   |   |   |   |   |   |   |   |   age <= 35
|   |   |   |   |   |   |   |   |   |   mass <= 26.2: tested_negative (4.0)
|   |   |   |   |   |   |   |   |   |   mass > 26.2: tested_positive (7.0)
|   |   |   |   |   |   |   |   |   age > 35: tested_negative (15.0/1.0)
|   |   |   |   |   |   |   |   age > 58: tested_positive (3.0)
|   |   |   |   |   |   |   pres > 72: tested_negative (41.0/1.0)
|   |   |   |   |   |   insu > 68
|   |   |   |   |   |   |   mass <= 25.1: tested_negative (4.0)
|   |   |   |   |   |   |   mass > 25.1: tested_positive (11.0/1.0)
|   |   mass > 28.7: tested_positive (9.0/1.0)
|   mass > 29.7: tested_negative (33.0/1.0)
mass > 30.4
|   mass <= 33.7
|   |   preg <= 9
|   |   |   mass <= 31.2
|   |   |   |   mass <= 31
|   |   |   |   |   age <= 33: tested_positive (15.0/2.0)
|   |   |   |   |   age > 33: tested_negative (4.0/1.0)
|   |   |   |   mass > 31: tested_negative (8.0)
|   |   |   mass > 31.2
|   |   |   |   preg <= 3
|   |   |   |   |   plas <= 104
|   |   |   |   |   |   plas <= 97: tested_negative (2.0)
|   |   |   |   |   |   plas > 97: tested_positive (2.0)
|   |   |   |   |   plas > 104: tested_positive (50.0)
|   |   |   |   preg > 3
|   |   |   |   |   pedi <= 0.239: tested_negative (4.0)
|   |   |   |   |   pedi > 0.239
|   |   |   |   |   |   pedi <= 0.443: tested_positive (8.0)
|   |   |   |   |   |   pedi > 0.443
|   |   |   |   |   |   |   pres <= 72: tested_negative (2.0)
|   |   |   |   |   |   |   pres > 72: tested_positive (3.0)
|   |   preg > 9: tested_negative (7.0)
|   mass > 33.7
|   |   mass <= 41.5
|   |   |   insu <= 225
|   |   |   |   plas <= 133
|   |   |   |   |   insu <= 155
|   |   |   |   |   |   skin <= 32
|   |   |   |   |   |   |   pres <= 72
|   |   |   |   |   |   |   |   skin <= 29: tested_negative (31.0)
|   |   |   |   |   |   |   |   skin > 29: tested_positive (2.0)
|   |   |   |   |   |   |   pres > 72
|   |   |   |   |   |   |   |   plas <= 125
|   |   |   |   |   |   |   |   |   plas <= 91: tested_negative (2.0)
|   |   |   |   |   |   |   |   |   plas > 91: tested_positive (8.0)
|   |   |   |   |   |   |   |   plas > 125: tested_negative (3.0)
|   |   |   |   |   |   skin > 32: tested_negative (26.0)
|   |   |   |   |   insu > 155
|   |   |   |   |   |   age <= 29: tested_negative (2.0)
|   |   |   |   |   |   age > 29: tested_positive (8.0)
|   |   |   |   plas > 133
|   |   |   |   |   age <= 56
|   |   |   |   |   |   skin <= 43: tested_positive (33.0/2.0)
|   |   |   |   |   |   skin > 43: tested_negative (2.0)
|   |   |   |   |   age > 56: tested_negative (7.0)
|   |   |   insu > 225: tested_negative (16.0)
|   |   mass > 41.5
|   |   |   pedi <= 0.197: tested_negative (4.0)
|   |   |   pedi > 0.197
|   |   |   |   plas <= 117
|   |   |   |   |   age <= 25: tested_negative (3.0)
|   |   |   |   |   age > 25: tested_positive (9.0/1.0)
|   |   |   |   plas > 117: tested_positive (21.0)

Number of Leaves  : 	41

Size of the tree : 	81


Weight: 2.0

J48 pruned tree
------------------

plas <= 154
|   mass <= 30.1
|   |   plas <= 104: tested_negative (37.0)
|   |   plas > 104
|   |   |   age <= 27: tested_negative (31.0/1.0)
|   |   |   age > 27
|   |   |   |   pres <= 72
|   |   |   |   |   insu <= 70: tested_positive (17.0)
|   |   |   |   |   insu > 70
|   |   |   |   |   |   preg <= 3: tested_positive (3.0)
|   |   |   |   |   |   preg > 3: tested_negative (5.0/1.0)
|   |   |   |   pres > 72
|   |   |   |   |   insu <= 22
|   |   |   |   |   |   preg <= 0: tested_positive (2.0)
|   |   |   |   |   |   preg > 0: tested_negative (34.0/1.0)
|   |   |   |   |   insu > 22
|   |   |   |   |   |   insu <= 105: tested_positive (4.0)
|   |   |   |   |   |   insu > 105: tested_negative (2.0)
|   mass > 30.1
|   |   pedi <= 0.128: tested_positive (28.0)
|   |   pedi > 0.128
|   |   |   plas <= 145
|   |   |   |   pedi <= 1.101
|   |   |   |   |   age <= 43
|   |   |   |   |   |   pres <= 104
|   |   |   |   |   |   |   pres <= 76
|   |   |   |   |   |   |   |   preg <= 1
|   |   |   |   |   |   |   |   |   mass <= 32: tested_negative (5.0)
|   |   |   |   |   |   |   |   |   mass > 32
|   |   |   |   |   |   |   |   |   |   pedi <= 0.199
|   |   |   |   |   |   |   |   |   |   |   plas <= 112: tested_negative (2.0)
|   |   |   |   |   |   |   |   |   |   |   plas > 112: tested_positive (2.0)
|   |   |   |   |   |   |   |   |   |   pedi > 0.199: tested_positive (28.0)
|   |   |   |   |   |   |   |   preg > 1
|   |   |   |   |   |   |   |   |   preg <= 2: tested_negative (8.0)
|   |   |   |   |   |   |   |   |   preg > 2
|   |   |   |   |   |   |   |   |   |   insu <= 144
|   |   |   |   |   |   |   |   |   |   |   insu <= 85
|   |   |   |   |   |   |   |   |   |   |   |   plas <= 101: tested_negative (10.0)
|   |   |   |   |   |   |   |   |   |   |   |   plas > 101
|   |   |   |   |   |   |   |   |   |   |   |   |   plas <= 114
|   |   |   |   |   |   |   |   |   |   |   |   |   |   plas <= 111
|   |   |   |   |   |   |   |   |   |   |   |   |   |   |   pres <= 68: tested_negative (2.0)
|   |   |   |   |   |   |   |   |   |   |   |   |   |   |   pres > 68: tested_positive (4.0)
|   |   |   |   |   |   |   |   |   |   |   |   |   |   plas > 111: tested_positive (7.0)
|   |   |   |   |   |   |   |   |   |   |   |   |   plas > 114: tested_negative (3.0)
|   |   |   |   |   |   |   |   |   |   |   insu > 85: tested_positive (4.0)
|   |   |   |   |   |   |   |   |   |   insu > 144: tested_negative (7.0)
|   |   |   |   |   |   |   pres > 76
|   |   |   |   |   |   |   |   plas <= 136: tested_negative (37.0/2.0)
|   |   |   |   |   |   |   |   plas > 136
|   |   |   |   |   |   |   |   |   preg <= 2: tested_negative (3.0)
|   |   |   |   |   |   |   |   |   preg > 2: tested_positive (5.0)
|   |   |   |   |   |   pres > 104: tested_positive (7.0)
|   |   |   |   |   age > 43
|   |   |   |   |   |   age <= 60
|   |   |   |   |   |   |   pres <= 78
|   |   |   |   |   |   |   |   pedi <= 0.254: tested_negative (4.0)
|   |   |   |   |   |   |   |   pedi > 0.254
|   |   |   |   |   |   |   |   |   pres <= 30: tested_negative (2.0)
|   |   |   |   |   |   |   |   |   pres > 30: tested_positive (7.0)
|   |   |   |   |   |   |   pres > 78: tested_positive (20.0)
|   |   |   |   |   |   age > 60: tested_negative (2.0)
|   |   |   |   pedi > 1.101: tested_positive (19.0)
|   |   |   plas > 145
|   |   |   |   age <= 47: tested_negative (18.0)
|   |   |   |   age > 47: tested_positive (2.0)
plas > 154
|   age <= 27
|   |   pedi <= 0.527: tested_negative (12.0/1.0)
|   |   pedi > 0.527: tested_positive (5.0)
|   age > 27
|   |   age <= 56: tested_positive (61.0/2.0)
|   |   age > 56
|   |   |   pedi <= 0.554: tested_negative (8.0)
|   |   |   pedi > 0.554: tested_positive (4.0)

Number of Leaves  : 	39

Size of the tree : 	77


Weight: 2.08

J48 pruned tree
------------------

pedi <= 1.318
|   pedi <= 1.174
|   |   plas <= 87: tested_negative (23.0/1.0)
|   |   plas > 87
|   |   |   insu <= 170
|   |   |   |   plas <= 179
|   |   |   |   |   pres <= 86
|   |   |   |   |   |   plas <= 165
|   |   |   |   |   |   |   plas <= 156
|   |   |   |   |   |   |   |   plas <= 133
|   |   |   |   |   |   |   |   |   mass <= 27.3: tested_negative (32.0/1.0)
|   |   |   |   |   |   |   |   |   mass > 27.3
|   |   |   |   |   |   |   |   |   |   insu <= 0
|   |   |   |   |   |   |   |   |   |   |   skin <= 39
|   |   |   |   |   |   |   |   |   |   |   |   mass <= 34
|   |   |   |   |   |   |   |   |   |   |   |   |   preg <= 4
|   |   |   |   |   |   |   |   |   |   |   |   |   |   pedi <= 0.801
|   |   |   |   |   |   |   |   |   |   |   |   |   |   |   skin <= 21: tested_positive (18.0/1.0)
|   |   |   |   |   |   |   |   |   |   |   |   |   |   |   skin > 21: tested_negative (4.0/1.0)
|   |   |   |   |   |   |   |   |   |   |   |   |   |   pedi > 0.801: tested_negative (3.0)
|   |   |   |   |   |   |   |   |   |   |   |   |   preg > 4: tested_positive (36.0)
|   |   |   |   |   |   |   |   |   |   |   |   mass > 34
|   |   |   |   |   |   |   |   |   |   |   |   |   skin <= 28
|   |   |   |   |   |   |   |   |   |   |   |   |   |   preg <= 6
|   |   |   |   |   |   |   |   |   |   |   |   |   |   |   age <= 24: tested_negative (3.0)
|   |   |   |   |   |   |   |   |   |   |   |   |   |   |   age > 24: tested_positive (10.0/2.0)
|   |   |   |   |   |   |   |   |   |   |   |   |   |   preg > 6: tested_negative (6.0)
|   |   |   |   |   |   |   |   |   |   |   |   |   skin > 28: tested_positive (8.0)
|   |   |   |   |   |   |   |   |   |   |   skin > 39: tested_negative (10.0)
|   |   |   |   |   |   |   |   |   |   insu > 0
|   |   |   |   |   |   |   |   |   |   |   mass <= 45.3
|   |   |   |   |   |   |   |   |   |   |   |   skin <= 26
|   |   |   |   |   |   |   |   |   |   |   |   |   pres <= 76: tested_negative (5.0)
|   |   |   |   |   |   |   |   |   |   |   |   |   pres > 76: tested_positive (5.0)
|   |   |   |   |   |   |   |   |   |   |   |   skin > 26: tested_negative (20.0)
|   |   |   |   |   |   |   |   |   |   |   mass > 45.3: tested_positive (4.0)
|   |   |   |   |   |   |   |   plas > 133
|   |   |   |   |   |   |   |   |   mass <= 40.2
|   |   |   |   |   |   |   |   |   |   mass <= 31.2
|   |   |   |   |   |   |   |   |   |   |   pedi <= 0.199: tested_negative (4.0)
|   |   |   |   |   |   |   |   |   |   |   pedi > 0.199
|   |   |   |   |   |   |   |   |   |   |   |   plas <= 138
|   |   |   |   |   |   |   |   |   |   |   |   |   pres <= 72: tested_positive (3.0)
|   |   |   |   |   |   |   |   |   |   |   |   |   pres > 72: tested_negative (2.0)
|   |   |   |   |   |   |   |   |   |   |   |   plas > 138: tested_positive (16.0)
|   |   |   |   |   |   |   |   |   |   mass > 31.2: tested_positive (26.0)
|   |   |   |   |   |   |   |   |   mass > 40.2: tested_negative (5.0/1.0)
|   |   |   |   |   |   |   plas > 156
|   |   |   |   |   |   |   |   age <= 33: tested_positive (2.0)
|   |   |   |   |   |   |   |   age > 33: tested_negative (18.0)
|   |   |   |   |   |   plas > 165: tested_positive (16.0)
|   |   |   |   |   pres > 86
|   |   |   |   |   |   mass <= 46.7
|   |   |   |   |   |   |   preg <= 10: tested_negative (22.0)
|   |   |   |   |   |   |   preg > 10: tested_positive (3.0/1.0)
|   |   |   |   |   |   mass > 46.7: tested_positive (5.0)
|   |   |   |   plas > 179
|   |   |   |   |   plas <= 194: tested_negative (24.0/1.0)
|   |   |   |   |   plas > 194: tested_positive (2.0)
|   |   |   insu > 170
|   |   |   |   age <= 40
|   |   |   |   |   preg <= 1: tested_negative (4.0)
|   |   |   |   |   preg > 1
|   |   |   |   |   |   mass <= 27.7: tested_negative (3.0)
|   |   |   |   |   |   mass > 27.7
|   |   |   |   |   |   |   age <= 39: tested_positive (27.0)
|   |   |   |   |   |   |   age > 39: tested_negative (2.0)
|   |   |   |   age > 40: tested_positive (36.0)
|   pedi > 1.174: tested_positive (29.0)
pedi > 1.318: tested_negative (25.0/1.0)

Number of Leaves  : 	36

Size of the tree : 	71


Weight: 2.15

J48 pruned tree
------------------

plas <= 165
|   insu <= 271
|   |   skin <= 28
|   |   |   preg <= 6
|   |   |   |   mass <= 31
|   |   |   |   |   mass <= 27.1
|   |   |   |   |   |   pres <= 54: tested_positive (7.0)
|   |   |   |   |   |   pres > 54
|   |   |   |   |   |   |   mass <= 26.1: tested_negative (11.0/1.0)
|   |   |   |   |   |   |   mass > 26.1: tested_positive (4.0/1.0)
|   |   |   |   |   mass > 27.1: tested_negative (50.0)
|   |   |   |   mass > 31
|   |   |   |   |   plas <= 93: tested_negative (12.0)
|   |   |   |   |   plas > 93
|   |   |   |   |   |   age <= 49
|   |   |   |   |   |   |   mass <= 34.5
|   |   |   |   |   |   |   |   plas <= 109: tested_negative (4.0)
|   |   |   |   |   |   |   |   plas > 109
|   |   |   |   |   |   |   |   |   pedi <= 0.411
|   |   |   |   |   |   |   |   |   |   insu <= 152: tested_positive (27.0/1.0)
|   |   |   |   |   |   |   |   |   |   insu > 152: tested_negative (2.0)
|   |   |   |   |   |   |   |   |   pedi > 0.411
|   |   |   |   |   |   |   |   |   |   preg <= 1: tested_negative (7.0/1.0)
|   |   |   |   |   |   |   |   |   |   preg > 1: tested_positive (2.0)
|   |   |   |   |   |   |   mass > 34.5
|   |   |   |   |   |   |   |   pedi <= 0.134: tested_positive (3.0)
|   |   |   |   |   |   |   |   pedi > 0.134
|   |   |   |   |   |   |   |   |   insu <= 64
|   |   |   |   |   |   |   |   |   |   mass <= 38.5: tested_negative (17.0)
|   |   |   |   |   |   |   |   |   |   mass > 38.5: tested_positive (3.0/1.0)
|   |   |   |   |   |   |   |   |   insu > 64
|   |   |   |   |   |   |   |   |   |   insu <= 190: tested_positive (4.0)
|   |   |   |   |   |   |   |   |   |   insu > 190: tested_negative (2.0)
|   |   |   |   |   |   age > 49: tested_positive (7.0)
|   |   |   preg > 6
|   |   |   |   mass <= 27.4
|   |   |   |   |   pres <= 61: tested_positive (4.0)
|   |   |   |   |   pres > 61
|   |   |   |   |   |   pres <= 80: tested_negative (20.0)
|   |   |   |   |   |   pres > 80: tested_positive (3.0)
|   |   |   |   mass > 27.4
|   |   |   |   |   preg <= 9: tested_positive (25.0)
|   |   |   |   |   preg > 9
|   |   |   |   |   |   skin <= 0: tested_negative (5.0/1.0)
|   |   |   |   |   |   skin > 0: tested_positive (7.0)
|   |   skin > 28
|   |   |   plas <= 84: tested_positive (16.0)
|   |   |   plas > 84
|   |   |   |   plas <= 101
|   |   |   |   |   pedi <= 0.551: tested_negative (17.0)
|   |   |   |   |   pedi > 0.551: tested_positive (5.0)
|   |   |   |   plas > 101
|   |   |   |   |   age <= 49
|   |   |   |   |   |   age <= 22
|   |   |   |   |   |   |   pres <= 66: tested_positive (7.0)
|   |   |   |   |   |   |   pres > 66: tested_negative (10.0)
|   |   |   |   |   |   age > 22
|   |   |   |   |   |   |   preg <= 2: tested_positive (45.0/1.0)
|   |   |   |   |   |   |   preg > 2
|   |   |   |   |   |   |   |   pedi <= 0.248: tested_positive (13.0)
|   |   |   |   |   |   |   |   pedi > 0.248
|   |   |   |   |   |   |   |   |   pres <= 85
|   |   |   |   |   |   |   |   |   |   skin <= 36: tested_negative (6.0/1.0)
|   |   |   |   |   |   |   |   |   |   skin > 36: tested_positive (13.0)
|   |   |   |   |   |   |   |   |   pres > 85: tested_negative (7.0/1.0)
|   |   |   |   |   age > 49: tested_negative (7.0/1.0)
|   insu > 271
|   |   age <= 42: tested_negative (22.0)
|   |   age > 42: tested_positive (3.0)
plas > 165
|   pres <= 70
|   |   preg <= 4: tested_negative (9.0)
|   |   preg > 4: tested_positive (10.0)
|   pres > 70
|   |   age <= 53: tested_positive (41.0)
|   |   age > 53
|   |   |   plas <= 176: tested_positive (2.0)
|   |   |   plas > 176: tested_negative (2.0)

Number of Leaves  : 	40

Size of the tree : 	79


Weight: 2.05

J48 pruned tree
------------------

plas <= 165
|   pres <= 84
|   |   pres <= 30
|   |   |   pedi <= 0.197: tested_negative (6.0/1.0)
|   |   |   pedi > 0.197: tested_positive (22.0/2.0)
|   |   pres > 30
|   |   |   plas <= 101
|   |   |   |   insu <= 210
|   |   |   |   |   mass <= 34.6
|   |   |   |   |   |   skin <= 30: tested_negative (19.0)
|   |   |   |   |   |   skin > 30: tested_positive (5.0/1.0)
|   |   |   |   |   mass > 34.6: tested_negative (37.0)
|   |   |   |   insu > 210: tested_positive (5.0)
|   |   |   plas > 101
|   |   |   |   age <= 21: tested_negative (13.0)
|   |   |   |   age > 21
|   |   |   |   |   mass <= 37.9
|   |   |   |   |   |   plas <= 164
|   |   |   |   |   |   |   skin <= 34
|   |   |   |   |   |   |   |   mass <= 35
|   |   |   |   |   |   |   |   |   insu <= 200
|   |   |   |   |   |   |   |   |   |   insu <= 152
|   |   |   |   |   |   |   |   |   |   |   preg <= 3
|   |   |   |   |   |   |   |   |   |   |   |   preg <= 2
|   |   |   |   |   |   |   |   |   |   |   |   |   skin <= 18
|   |   |   |   |   |   |   |   |   |   |   |   |   |   plas <= 131
|   |   |   |   |   |   |   |   |   |   |   |   |   |   |   plas <= 121: tested_positive (4.0/1.0)
|   |   |   |   |   |   |   |   |   |   |   |   |   |   |   plas > 121: tested_negative (6.0)
|   |   |   |   |   |   |   |   |   |   |   |   |   |   plas > 131: tested_positive (5.0)
|   |   |   |   |   |   |   |   |   |   |   |   |   skin > 18: tested_negative (7.0)
|   |   |   |   |   |   |   |   |   |   |   |   preg > 2: tested_positive (11.0/1.0)
|   |   |   |   |   |   |   |   |   |   |   preg > 3
|   |   |   |   |   |   |   |   |   |   |   |   insu <= 0
|   |   |   |   |   |   |   |   |   |   |   |   |   age <= 29: tested_negative (9.0)
|   |   |   |   |   |   |   |   |   |   |   |   |   age > 29
|   |   |   |   |   |   |   |   |   |   |   |   |   |   mass <= 28
|   |   |   |   |   |   |   |   |   |   |   |   |   |   |   age <= 58: tested_negative (22.0/1.0)
|   |   |   |   |   |   |   |   |   |   |   |   |   |   |   age > 58: tested_positive (3.0)
|   |   |   |   |   |   |   |   |   |   |   |   |   |   mass > 28
|   |   |   |   |   |   |   |   |   |   |   |   |   |   |   skin <= 0
|   |   |   |   |   |   |   |   |   |   |   |   |   |   |   |   pres <= 78
|   |   |   |   |   |   |   |   |   |   |   |   |   |   |   |   |   pres <= 70
|   |   |   |   |   |   |   |   |   |   |   |   |   |   |   |   |   |   mass <= 32.7: tested_negative (4.0)
|   |   |   |   |   |   |   |   |   |   |   |   |   |   |   |   |   |   mass > 32.7: tested_positive (3.0)
|   |   |   |   |   |   |   |   |   |   |   |   |   |   |   |   |   pres > 70: tested_positive (9.0)
|   |   |   |   |   |   |   |   |   |   |   |   |   |   |   |   pres > 78: tested_negative (8.0)
|   |   |   |   |   |   |   |   |   |   |   |   |   |   |   skin > 0: tested_positive (8.0)
|   |   |   |   |   |   |   |   |   |   |   |   insu > 0: tested_negative (16.0)
|   |   |   |   |   |   |   |   |   |   insu > 152
|   |   |   |   |   |   |   |   |   |   |   mass <= 34.3: tested_positive (14.0)
|   |   |   |   |   |   |   |   |   |   |   mass > 34.3: tested_negative (4.0)
|   |   |   |   |   |   |   |   |   insu > 200: tested_negative (8.0)
|   |   |   |   |   |   |   |   mass > 35
|   |   |   |   |   |   |   |   |   age <= 27
|   |   |   |   |   |   |   |   |   |   plas <= 121: tested_positive (3.0)
|   |   |   |   |   |   |   |   |   |   plas > 121: tested_negative (2.0)
|   |   |   |   |   |   |   |   |   age > 27: tested_positive (10.0)
|   |   |   |   |   |   |   skin > 34
|   |   |   |   |   |   |   |   preg <= 1
|   |   |   |   |   |   |   |   |   preg <= 0: tested_positive (2.0)
|   |   |   |   |   |   |   |   |   preg > 0: tested_negative (4.0)
|   |   |   |   |   |   |   |   preg > 1
|   |   |   |   |   |   |   |   |   pres <= 68
|   |   |   |   |   |   |   |   |   |   pres <= 62: tested_positive (2.0)
|   |   |   |   |   |   |   |   |   |   pres > 62: tested_negative (2.0)
|   |   |   |   |   |   |   |   |   pres > 68: tested_positive (23.0)
|   |   |   |   |   |   plas > 164: tested_negative (12.0)
|   |   |   |   |   mass > 37.9
|   |   |   |   |   |   preg <= 5
|   |   |   |   |   |   |   skin <= 43: tested_negative (36.0/2.0)
|   |   |   |   |   |   |   skin > 43: tested_positive (2.0)
|   |   |   |   |   |   preg > 5: tested_positive (4.0)
|   pres > 84
|   |   insu <= 146
|   |   |   skin <= 36
|   |   |   |   mass <= 30.1
|   |   |   |   |   preg <= 6: tested_negative (2.0)
|   |   |   |   |   preg > 6: tested_positive (2.0)
|   |   |   |   mass > 30.1: tested_positive (53.0/1.0)
|   |   |   skin > 36
|   |   |   |   pedi <= 0.757: tested_negative (9.0/1.0)
|   |   |   |   pedi > 0.757: tested_positive (3.0)
|   |   insu > 146
|   |   |   pedi <= 0.161: tested_positive (2.0)
|   |   |   pedi > 0.161: tested_negative (12.0)
plas > 165
|   plas <= 189: tested_positive (23.0)
|   plas > 189
|   |   skin <= 7: tested_positive (2.0)
|   |   skin > 7: tested_negative (3.0)

Number of Leaves  : 	46

Size of the tree : 	91


Weight: 2.18

J48 pruned tree
------------------

mass <= 26.3
|   plas <= 127: tested_negative (19.0)
|   plas > 127
|   |   pedi <= 0.262: tested_negative (6.0)
|   |   pedi > 0.262
|   |   |   mass <= 25.6: tested_positive (6.0)
|   |   |   mass > 25.6: tested_negative (2.0)
mass > 26.3
|   mass <= 27.5
|   |   plas <= 131: tested_positive (37.0/1.0)
|   |   plas > 131
|   |   |   skin <= 7: tested_negative (3.0)
|   |   |   skin > 7: tested_positive (3.0)
|   mass > 27.5
|   |   preg <= 1
|   |   |   insu <= 215
|   |   |   |   insu <= 184
|   |   |   |   |   skin <= 35
|   |   |   |   |   |   pres <= 84
|   |   |   |   |   |   |   mass <= 32.9
|   |   |   |   |   |   |   |   insu <= 130: tested_negative (13.0/2.0)
|   |   |   |   |   |   |   |   insu > 130: tested_positive (3.0)
|   |   |   |   |   |   |   mass > 32.9
|   |   |   |   |   |   |   |   age <= 43
|   |   |   |   |   |   |   |   |   pres <= 70: tested_positive (29.0)
|   |   |   |   |   |   |   |   |   pres > 70
|   |   |   |   |   |   |   |   |   |   age <= 29: tested_negative (4.0)
|   |   |   |   |   |   |   |   |   |   age > 29: tested_positive (14.0)
|   |   |   |   |   |   |   |   age > 43: tested_negative (5.0)
|   |   |   |   |   |   pres > 84: tested_positive (19.0)
|   |   |   |   |   skin > 35
|   |   |   |   |   |   mass <= 48.3
|   |   |   |   |   |   |   plas <= 171: tested_negative (14.0)
|   |   |   |   |   |   |   plas > 171: tested_positive (2.0)
|   |   |   |   |   |   mass > 48.3: tested_positive (5.0)
|   |   |   |   insu > 184: tested_negative (8.0)
|   |   |   insu > 215: tested_positive (13.0)
|   |   preg > 1
|   |   |   pres <= 65
|   |   |   |   age <= 43
|   |   |   |   |   plas <= 84: tested_positive (3.0)
|   |   |   |   |   plas > 84
|   |   |   |   |   |   preg <= 5: tested_negative (37.0/1.0)
|   |   |   |   |   |   preg > 5
|   |   |   |   |   |   |   plas <= 110: tested_negative (3.0)
|   |   |   |   |   |   |   plas > 110: tested_positive (2.0)
|   |   |   |   age > 43: tested_positive (5.0)
|   |   |   pres > 65
|   |   |   |   skin <= 43
|   |   |   |   |   pres <= 82
|   |   |   |   |   |   pres <= 80
|   |   |   |   |   |   |   age <= 48
|   |   |   |   |   |   |   |   pres <= 74
|   |   |   |   |   |   |   |   |   insu <= 370
|   |   |   |   |   |   |   |   |   |   age <= 28
|   |   |   |   |   |   |   |   |   |   |   preg <= 3
|   |   |   |   |   |   |   |   |   |   |   |   pres <= 68: tested_negative (2.0)
|   |   |   |   |   |   |   |   |   |   |   |   pres > 68: tested_positive (7.0)
|   |   |   |   |   |   |   |   |   |   |   preg > 3: tested_negative (10.0/1.0)
|   |   |   |   |   |   |   |   |   |   age > 28
|   |   |   |   |   |   |   |   |   |   |   skin <= 18
|   |   |   |   |   |   |   |   |   |   |   |   preg <= 4: tested_negative (5.0/1.0)
|   |   |   |   |   |   |   |   |   |   |   |   preg > 4: tested_positive (15.0/1.0)
|   |   |   |   |   |   |   |   |   |   |   skin > 18: tested_positive (25.0)
|   |   |   |   |   |   |   |   |   insu > 370: tested_negative (5.0)
|   |   |   |   |   |   |   |   pres > 74
|   |   |   |   |   |   |   |   |   pedi <= 0.933
|   |   |   |   |   |   |   |   |   |   skin <= 25
|   |   |   |   |   |   |   |   |   |   |   age <= 46: tested_positive (6.0)
|   |   |   |   |   |   |   |   |   |   |   age > 46: tested_negative (2.0)
|   |   |   |   |   |   |   |   |   |   skin > 25
|   |   |   |   |   |   |   |   |   |   |   age <= 45
|   |   |   |   |   |   |   |   |   |   |   |   mass <= 32
|   |   |   |   |   |   |   |   |   |   |   |   |   skin <= 33: tested_negative (6.0)
|   |   |   |   |   |   |   |   |   |   |   |   |   skin > 33: tested_positive (2.0)
|   |   |   |   |   |   |   |   |   |   |   |   mass > 32: tested_negative (21.0)
|   |   |   |   |   |   |   |   |   |   |   age > 45: tested_positive (2.0)
|   |   |   |   |   |   |   |   |   pedi > 0.933: tested_positive (4.0)
|   |   |   |   |   |   |   age > 48: tested_negative (12.0)
|   |   |   |   |   |   pres > 80: tested_positive (16.0)
|   |   |   |   |   pres > 82
|   |   |   |   |   |   mass <= 40.6
|   |   |   |   |   |   |   age <= 24: tested_positive (3.0)
|   |   |   |   |   |   |   age > 24
|   |   |   |   |   |   |   |   age <= 50: tested_negative (42.0/2.0)
|   |   |   |   |   |   |   |   age > 50: tested_positive (5.0/1.0)
|   |   |   |   |   |   mass > 40.6: tested_positive (4.0)
|   |   |   |   skin > 43: tested_positive (12.0)

Number of Leaves  : 	45

Size of the tree : 	89


Weight: 2.1

J48 pruned tree
------------------

plas <= 103
|   skin <= 24: tested_negative (26.0)
|   skin > 24
|   |   skin <= 26: tested_positive (7.0)
|   |   skin > 26
|   |   |   pres <= 58: tested_positive (3.0)
|   |   |   pres > 58
|   |   |   |   preg <= 7: tested_negative (34.0)
|   |   |   |   preg > 7
|   |   |   |   |   insu <= 0: tested_positive (4.0)
|   |   |   |   |   insu > 0: tested_negative (15.0/1.0)
plas > 103
|   mass <= 33.7
|   |   preg <= 9
|   |   |   pedi <= 0.816
|   |   |   |   preg <= 0
|   |   |   |   |   pedi <= 0.278: tested_positive (16.0)
|   |   |   |   |   pedi > 0.278
|   |   |   |   |   |   pedi <= 0.471: tested_negative (2.0)
|   |   |   |   |   |   pedi > 0.471
|   |   |   |   |   |   |   mass <= 31
|   |   |   |   |   |   |   |   plas <= 108: tested_positive (4.0)
|   |   |   |   |   |   |   |   plas > 108: tested_negative (2.0)
|   |   |   |   |   |   |   mass > 31: tested_positive (12.0)
|   |   |   |   preg > 0
|   |   |   |   |   pedi <= 0.127: tested_negative (8.0)
|   |   |   |   |   pedi > 0.127
|   |   |   |   |   |   preg <= 6
|   |   |   |   |   |   |   plas <= 111: tested_negative (10.0)
|   |   |   |   |   |   |   plas > 111
|   |   |   |   |   |   |   |   pres <= 74
|   |   |   |   |   |   |   |   |   pedi <= 0.627
|   |   |   |   |   |   |   |   |   |   pedi <= 0.299
|   |   |   |   |   |   |   |   |   |   |   insu <= 55
|   |   |   |   |   |   |   |   |   |   |   |   mass <= 0: tested_negative (2.0)
|   |   |   |   |   |   |   |   |   |   |   |   mass > 0: tested_positive (5.0)
|   |   |   |   |   |   |   |   |   |   |   insu > 55: tested_negative (3.0)
|   |   |   |   |   |   |   |   |   |   pedi > 0.299: tested_positive (43.0/1.0)
|   |   |   |   |   |   |   |   |   pedi > 0.627: tested_negative (11.0/1.0)
|   |   |   |   |   |   |   |   pres > 74
|   |   |   |   |   |   |   |   |   skin <= 12: tested_negative (12.0)
|   |   |   |   |   |   |   |   |   skin > 12
|   |   |   |   |   |   |   |   |   |   pedi <= 0.331: tested_positive (2.0)
|   |   |   |   |   |   |   |   |   |   pedi > 0.331: tested_negative (4.0)
|   |   |   |   |   |   preg > 6
|   |   |   |   |   |   |   skin <= 12
|   |   |   |   |   |   |   |   plas <= 112: tested_negative (3.0)
|   |   |   |   |   |   |   |   plas > 112: tested_positive (10.0/1.0)
|   |   |   |   |   |   |   skin > 12: tested_positive (18.0)
|   |   |   pedi > 0.816: tested_positive (26.0/1.0)
|   |   preg > 9
|   |   |   plas <= 117: tested_positive (8.0)
|   |   |   plas > 117: tested_negative (21.0)
|   mass > 33.7
|   |   plas <= 182
|   |   |   skin <= 37
|   |   |   |   insu <= 90
|   |   |   |   |   mass <= 35.7: tested_negative (24.0/1.0)
|   |   |   |   |   mass > 35.7
|   |   |   |   |   |   skin <= 28
|   |   |   |   |   |   |   plas <= 146
|   |   |   |   |   |   |   |   mass <= 38.2: tested_positive (6.0/1.0)
|   |   |   |   |   |   |   |   mass > 38.2
|   |   |   |   |   |   |   |   |   preg <= 10: tested_negative (17.0)
|   |   |   |   |   |   |   |   |   preg > 10: tested_positive (2.0)
|   |   |   |   |   |   |   plas > 146: tested_positive (6.0)
|   |   |   |   |   |   skin > 28: tested_positive (5.0)
|   |   |   |   insu > 90
|   |   |   |   |   plas <= 154
|   |   |   |   |   |   mass <= 42.3: tested_negative (42.0)
|   |   |   |   |   |   mass > 42.3
|   |   |   |   |   |   |   preg <= 2: tested_positive (2.0)
|   |   |   |   |   |   |   preg > 2: tested_negative (5.0)
|   |   |   |   |   plas > 154: tested_positive (3.0)
|   |   |   skin > 37
|   |   |   |   pedi <= 0.271: tested_negative (3.0)
|   |   |   |   pedi > 0.271
|   |   |   |   |   skin <= 42: tested_positive (9.0)
|   |   |   |   |   skin > 42
|   |   |   |   |   |   preg <= 3: tested_negative (5.0/1.0)
|   |   |   |   |   |   preg > 3: tested_positive (2.0)
|   |   plas > 182
|   |   |   insu <= 495: tested_positive (17.0)
|   |   |   insu > 495: tested_negative (2.0)

Number of Leaves  : 	43

Size of the tree : 	85


Weight: 2.36

J48 pruned tree
------------------

age <= 53
|   insu <= 258
|   |   plas <= 159
|   |   |   skin <= 41
|   |   |   |   preg <= 7
|   |   |   |   |   mass <= 26.2: tested_negative (28.0)
|   |   |   |   |   mass > 26.2
|   |   |   |   |   |   pres <= 88
|   |   |   |   |   |   |   skin <= 38
|   |   |   |   |   |   |   |   insu <= 185
|   |   |   |   |   |   |   |   |   skin <= 33
|   |   |   |   |   |   |   |   |   |   mass <= 35.2
|   |   |   |   |   |   |   |   |   |   |   mass <= 33.8
|   |   |   |   |   |   |   |   |   |   |   |   insu <= 135
|   |   |   |   |   |   |   |   |   |   |   |   |   plas <= 113
|   |   |   |   |   |   |   |   |   |   |   |   |   |   preg <= 6: tested_negative (26.0/2.0)
|   |   |   |   |   |   |   |   |   |   |   |   |   |   preg > 6: tested_positive (2.0)
|   |   |   |   |   |   |   |   |   |   |   |   |   plas > 113
|   |   |   |   |   |   |   |   |   |   |   |   |   |   skin <= 28
|   |   |   |   |   |   |   |   |   |   |   |   |   |   |   pres <= 72
|   |   |   |   |   |   |   |   |   |   |   |   |   |   |   |   age <= 38: tested_positive (21.0/1.0)
|   |   |   |   |   |   |   |   |   |   |   |   |   |   |   |   age > 38: tested_negative (6.0)
|   |   |   |   |   |   |   |   |   |   |   |   |   |   |   pres > 72
|   |   |   |   |   |   |   |   |   |   |   |   |   |   |   |   plas <= 122: tested_positive (2.0)
|   |   |   |   |   |   |   |   |   |   |   |   |   |   |   |   plas > 122
|   |   |   |   |   |   |   |   |   |   |   |   |   |   |   |   |   pres <= 86: tested_negative (16.0/1.0)
|   |   |   |   |   |   |   |   |   |   |   |   |   |   |   |   |   pres > 86: tested_positive (2.0)
|   |   |   |   |   |   |   |   |   |   |   |   |   |   skin > 28: tested_positive (11.0)
|   |   |   |   |   |   |   |   |   |   |   |   insu > 135: tested_negative (11.0)
|   |   |   |   |   |   |   |   |   |   |   mass > 33.8
|   |   |   |   |   |   |   |   |   |   |   |   pedi <= 0.171: tested_negative (5.0)
|   |   |   |   |   |   |   |   |   |   |   |   pedi > 0.171: tested_positive (41.0)
|   |   |   |   |   |   |   |   |   |   mass > 35.2
|   |   |   |   |   |   |   |   |   |   |   skin <= 26
|   |   |   |   |   |   |   |   |   |   |   |   preg <= 3
|   |   |   |   |   |   |   |   |   |   |   |   |   pedi <= 0.254: tested_positive (10.0/1.0)
|   |   |   |   |   |   |   |   |   |   |   |   |   pedi > 0.254
|   |   |   |   |   |   |   |   |   |   |   |   |   |   pres <= 68: tested_negative (10.0)
|   |   |   |   |   |   |   |   |   |   |   |   |   |   pres > 68: tested_positive (5.0/1.0)
|   |   |   |   |   |   |   |   |   |   |   |   preg > 3: tested_negative (7.0)
|   |   |   |   |   |   |   |   |   |   |   skin > 26: tested_negative (28.0)
|   |   |   |   |   |   |   |   |   skin > 33
|   |   |   |   |   |   |   |   |   |   age <= 27: tested_positive (21.0)
|   |   |   |   |   |   |   |   |   |   age > 27
|   |   |   |   |   |   |   |   |   |   |   plas <= 125: tested_negative (3.0)
|   |   |   |   |   |   |   |   |   |   |   plas > 125: tested_positive (2.0)
|   |   |   |   |   |   |   |   insu > 185: tested_negative (12.0/1.0)
|   |   |   |   |   |   |   skin > 38: tested_negative (12.0/1.0)
|   |   |   |   |   |   pres > 88: tested_negative (15.0/1.0)
|   |   |   |   preg > 7
|   |   |   |   |   plas <= 88: tested_negative (8.0)
|   |   |   |   |   plas > 88
|   |   |   |   |   |   pedi <= 0.944
|   |   |   |   |   |   |   mass <= 31.6
|   |   |   |   |   |   |   |   mass <= 29.5
|   |   |   |   |   |   |   |   |   plas <= 119: tested_positive (16.0)
|   |   |   |   |   |   |   |   |   plas > 119
|   |   |   |   |   |   |   |   |   |   plas <= 141: tested_negative (2.0)
|   |   |   |   |   |   |   |   |   |   plas > 141: tested_positive (4.0)
|   |   |   |   |   |   |   |   mass > 29.5: tested_negative (9.0/1.0)
|   |   |   |   |   |   |   mass > 31.6: tested_positive (24.0)
|   |   |   |   |   |   pedi > 0.944: tested_negative (3.0)
|   |   |   skin > 41
|   |   |   |   insu <= 40: tested_negative (3.0)
|   |   |   |   insu > 40: tested_positive (17.0)
|   |   plas > 159
|   |   |   pres <= 70
|   |   |   |   pres <= 66: tested_positive (5.0/1.0)
|   |   |   |   pres > 66: tested_negative (2.0)
|   |   |   pres > 70: tested_positive (15.0)
|   insu > 258: tested_negative (22.0/1.0)
age > 53
|   preg <= 3: tested_positive (2.0)
|   preg > 3: tested_negative (33.0)

Number of Leaves  : 	38

Size of the tree : 	75


Weight: 2.07

J48 pruned tree
------------------

pres <= 96
|   pres <= 64
|   |   pres <= 50
|   |   |   pedi <= 0.302: tested_positive (9.0)
|   |   |   pedi > 0.302: tested_negative (6.0/1.0)
|   |   pres > 50
|   |   |   age <= 22
|   |   |   |   insu <= 71: tested_positive (5.0)
|   |   |   |   insu > 71: tested_negative (4.0)
|   |   |   age > 22
|   |   |   |   preg <= 6: tested_negative (52.0/3.0)
|   |   |   |   preg > 6
|   |   |   |   |   pedi <= 0.294: tested_negative (5.0)
|   |   |   |   |   pedi > 0.294: tested_positive (6.0/1.0)
|   pres > 64
|   |   mass <= 32.8
|   |   |   plas <= 83: tested_negative (17.0)
|   |   |   plas > 83
|   |   |   |   mass <= 26.5: tested_negative (23.0/1.0)
|   |   |   |   mass > 26.5
|   |   |   |   |   insu <= 155
|   |   |   |   |   |   preg <= 7
|   |   |   |   |   |   |   mass <= 29.7
|   |   |   |   |   |   |   |   pedi <= 0.248: tested_negative (5.0)
|   |   |   |   |   |   |   |   pedi > 0.248
|   |   |   |   |   |   |   |   |   pedi <= 0.575: tested_positive (16.0)
|   |   |   |   |   |   |   |   |   pedi > 0.575: tested_negative (7.0/1.0)
|   |   |   |   |   |   |   mass > 29.7
|   |   |   |   |   |   |   |   age <= 25
|   |   |   |   |   |   |   |   |   preg <= 3: tested_positive (3.0)
|   |   |   |   |   |   |   |   |   preg > 3: tested_negative (2.0)
|   |   |   |   |   |   |   |   age > 25
|   |   |   |   |   |   |   |   |   pedi <= 0.554: tested_negative (23.0)
|   |   |   |   |   |   |   |   |   pedi > 0.554
|   |   |   |   |   |   |   |   |   |   age <= 30: tested_negative (7.0)
|   |   |   |   |   |   |   |   |   |   age > 30: tested_positive (2.0)
|   |   |   |   |   |   preg > 7: tested_positive (13.0/1.0)
|   |   |   |   |   insu > 155: tested_positive (23.0)
|   |   mass > 32.8
|   |   |   pedi <= 0.198
|   |   |   |   pres <= 72: tested_positive (3.0)
|   |   |   |   pres > 72: tested_negative (12.0)
|   |   |   pedi > 0.198
|   |   |   |   mass <= 33.3: tested_positive (30.0)
|   |   |   |   mass > 33.3
|   |   |   |   |   pres <= 68
|   |   |   |   |   |   pres <= 65: tested_positive (3.0)
|   |   |   |   |   |   pres > 65
|   |   |   |   |   |   |   plas <= 179: tested_negative (11.0/1.0)
|   |   |   |   |   |   |   plas > 179: tested_positive (2.0)
|   |   |   |   |   pres > 68
|   |   |   |   |   |   plas <= 154
|   |   |   |   |   |   |   pres <= 85
|   |   |   |   |   |   |   |   pres <= 80
|   |   |   |   |   |   |   |   |   age <= 28: tested_negative (9.0)
|   |   |   |   |   |   |   |   |   age > 28
|   |   |   |   |   |   |   |   |   |   plas <= 97: tested_negative (3.0)
|   |   |   |   |   |   |   |   |   |   plas > 97
|   |   |   |   |   |   |   |   |   |   |   preg <= 11
|   |   |   |   |   |   |   |   |   |   |   |   plas <= 139: tested_positive (25.0)
|   |   |   |   |   |   |   |   |   |   |   |   plas > 139: tested_negative (2.0)
|   |   |   |   |   |   |   |   |   |   |   preg > 11: tested_negative (2.0)
|   |   |   |   |   |   |   |   pres > 80
|   |   |   |   |   |   |   |   |   mass <= 39.1: tested_positive (30.0)
|   |   |   |   |   |   |   |   |   mass > 39.1: tested_negative (12.0)
|   |   |   |   |   |   |   pres > 85
|   |   |   |   |   |   |   |   pres <= 88
|   |   |   |   |   |   |   |   |   preg <= 1: tested_positive (2.0)
|   |   |   |   |   |   |   |   |   preg > 1: tested_negative (9.0)
|   |   |   |   |   |   |   |   pres > 88: tested_positive (2.0)
|   |   |   |   |   |   plas > 154: tested_positive (41.0/1.0)
pres > 96
|   plas <= 125: tested_negative (2.0)
|   plas > 125: tested_positive (33.0)

Number of Leaves  : 	38

Size of the tree : 	75


Weight: 2.07

J48 pruned tree
------------------

plas <= 101
|   pedi <= 0.787
|   |   insu <= 79: tested_negative (43.0)
|   |   insu > 79
|   |   |   plas <= 91: tested_positive (3.0)
|   |   |   plas > 91: tested_negative (13.0/1.0)
|   pedi > 0.787
|   |   preg <= 2: tested_negative (2.0)
|   |   preg > 2: tested_positive (5.0)
plas > 101
|   preg <= 9
|   |   age <= 27
|   |   |   age <= 25
|   |   |   |   pres <= 88
|   |   |   |   |   age <= 21
|   |   |   |   |   |   preg <= 0: tested_negative (7.0)
|   |   |   |   |   |   preg > 0
|   |   |   |   |   |   |   pedi <= 0.411: tested_negative (3.0)
|   |   |   |   |   |   |   pedi > 0.411: tested_positive (2.0)
|   |   |   |   |   age > 21
|   |   |   |   |   |   mass <= 30.8
|   |   |   |   |   |   |   age <= 24: tested_negative (4.0)
|   |   |   |   |   |   |   age > 24: tested_positive (2.0)
|   |   |   |   |   |   mass > 30.8
|   |   |   |   |   |   |   pres <= 70: tested_positive (40.0)
|   |   |   |   |   |   |   pres > 70
|   |   |   |   |   |   |   |   preg <= 3
|   |   |   |   |   |   |   |   |   preg <= 1
|   |   |   |   |   |   |   |   |   |   age <= 23: tested_positive (7.0/1.0)
|   |   |   |   |   |   |   |   |   |   age > 23: tested_negative (8.0)
|   |   |   |   |   |   |   |   |   preg > 1: tested_positive (16.0)
|   |   |   |   |   |   |   |   preg > 3: tested_negative (2.0)
|   |   |   |   pres > 88: tested_negative (12.0)
|   |   |   age > 25
|   |   |   |   skin <= 17
|   |   |   |   |   plas <= 142: tested_negative (2.0)
|   |   |   |   |   plas > 142: tested_positive (2.0)
|   |   |   |   skin > 17: tested_negative (33.0/1.0)
|   |   age > 27
|   |   |   pedi <= 0.19
|   |   |   |   preg <= 6: tested_negative (13.0)
|   |   |   |   preg > 6: tested_positive (8.0/1.0)
|   |   |   pedi > 0.19
|   |   |   |   skin <= 16
|   |   |   |   |   pedi <= 0.411
|   |   |   |   |   |   pres <= 65
|   |   |   |   |   |   |   skin <= 0: tested_negative (4.0)
|   |   |   |   |   |   |   skin > 0: tested_positive (6.0)
|   |   |   |   |   |   pres > 65: tested_positive (37.0/3.0)
|   |   |   |   |   pedi > 0.411
|   |   |   |   |   |   plas <= 106: tested_positive (4.0)
|   |   |   |   |   |   plas > 106
|   |   |   |   |   |   |   plas <= 194: tested_negative (25.0/1.0)
|   |   |   |   |   |   |   plas > 194: tested_positive (2.0)
|   |   |   |   skin > 16
|   |   |   |   |   preg <= 6
|   |   |   |   |   |   age <= 32
|   |   |   |   |   |   |   age <= 31
|   |   |   |   |   |   |   |   plas <= 140: tested_positive (33.0)
|   |   |   |   |   |   |   |   plas > 140
|   |   |   |   |   |   |   |   |   preg <= 2: tested_negative (4.0)
|   |   |   |   |   |   |   |   |   preg > 2: tested_positive (15.0/1.0)
|   |   |   |   |   |   |   age > 31: tested_negative (3.0)
|   |   |   |   |   |   age > 32: tested_positive (63.0)
|   |   |   |   |   preg > 6
|   |   |   |   |   |   plas <= 145: tested_negative (6.0/1.0)
|   |   |   |   |   |   plas > 145: tested_positive (6.0)
|   preg > 9
|   |   insu <= 140
|   |   |   pedi <= 0.258: tested_negative (19.0)
|   |   |   pedi > 0.258
|   |   |   |   insu <= 70: tested_positive (3.0)
|   |   |   |   insu > 70: tested_negative (2.0)
|   |   insu > 140: tested_positive (2.0)

Number of Leaves  : 	38

Size of the tree : 	75


Weight: 2.0

J48 pruned tree
------------------

skin <= 43
|   age <= 23
|   |   preg <= 1
|   |   |   skin <= 34: tested_negative (26.0)
|   |   |   skin > 34
|   |   |   |   plas <= 120: tested_positive (2.0)
|   |   |   |   plas > 120: tested_negative (5.0)
|   |   preg > 1
|   |   |   age <= 21: tested_negative (2.0)
|   |   |   age > 21
|   |   |   |   skin <= 15: tested_positive (8.0)
|   |   |   |   skin > 15
|   |   |   |   |   pres <= 76: tested_negative (5.0)
|   |   |   |   |   pres > 76: tested_positive (4.0/1.0)
|   age > 23
|   |   skin <= 41
|   |   |   pedi <= 0.527
|   |   |   |   pedi <= 0.412
|   |   |   |   |   skin <= 28
|   |   |   |   |   |   mass <= 35.7
|   |   |   |   |   |   |   mass <= 29.7
|   |   |   |   |   |   |   |   preg <= 11
|   |   |   |   |   |   |   |   |   skin <= 0
|   |   |   |   |   |   |   |   |   |   preg <= 8
|   |   |   |   |   |   |   |   |   |   |   age <= 58
|   |   |   |   |   |   |   |   |   |   |   |   age <= 35
|   |   |   |   |   |   |   |   |   |   |   |   |   mass <= 27.1: tested_negative (4.0)
|   |   |   |   |   |   |   |   |   |   |   |   |   mass > 27.1: tested_positive (5.0/1.0)
|   |   |   |   |   |   |   |   |   |   |   |   age > 35: tested_negative (5.0)
|   |   |   |   |   |   |   |   |   |   |   age > 58: tested_positive (3.0)
|   |   |   |   |   |   |   |   |   |   preg > 8: tested_positive (4.0)
|   |   |   |   |   |   |   |   |   skin > 0: tested_positive (13.0)
|   |   |   |   |   |   |   |   preg > 11: tested_negative (6.0)
|   |   |   |   |   |   |   mass > 29.7
|   |   |   |   |   |   |   |   plas <= 140: tested_negative (42.0/1.0)
|   |   |   |   |   |   |   |   plas > 140
|   |   |   |   |   |   |   |   |   insu <= 22: tested_positive (8.0)
|   |   |   |   |   |   |   |   |   insu > 22: tested_negative (11.0)
|   |   |   |   |   |   mass > 35.7
|   |   |   |   |   |   |   skin <= 26: tested_positive (22.0/1.0)
|   |   |   |   |   |   |   skin > 26: tested_negative (2.0)
|   |   |   |   |   skin > 28
|   |   |   |   |   |   pedi <= 0.189: tested_negative (10.0)
|   |   |   |   |   |   pedi > 0.189
|   |   |   |   |   |   |   mass <= 35.1
|   |   |   |   |   |   |   |   pedi <= 0.344: tested_positive (32.0)
|   |   |   |   |   |   |   |   pedi > 0.344
|   |   |   |   |   |   |   |   |   pres <= 72: tested_negative (2.0)
|   |   |   |   |   |   |   |   |   pres > 72: tested_positive (8.0)
|   |   |   |   |   |   |   mass > 35.1
|   |   |   |   |   |   |   |   plas <= 129
|   |   |   |   |   |   |   |   |   age <= 43: tested_negative (8.0)
|   |   |   |   |   |   |   |   |   age > 43: tested_positive (2.0)
|   |   |   |   |   |   |   |   plas > 129: tested_positive (7.0)
|   |   |   |   pedi > 0.412
|   |   |   |   |   plas <= 136: tested_negative (29.0)
|   |   |   |   |   plas > 136: tested_positive (2.0)
|   |   |   pedi > 0.527
|   |   |   |   pedi <= 1.321
|   |   |   |   |   mass <= 26.6: tested_negative (10.0/1.0)
|   |   |   |   |   mass > 26.6
|   |   |   |   |   |   skin <= 27
|   |   |   |   |   |   |   skin <= 25
|   |   |   |   |   |   |   |   age <= 27: tested_negative (3.0)
|   |   |   |   |   |   |   |   age > 27: tested_positive (39.0/3.0)
|   |   |   |   |   |   |   skin > 25
|   |   |   |   |   |   |   |   preg <= 7: tested_negative (7.0)
|   |   |   |   |   |   |   |   preg > 7: tested_positive (2.0)
|   |   |   |   |   |   skin > 27: tested_positive (55.0/1.0)
|   |   |   |   pedi > 1.321: tested_negative (10.0)
|   |   skin > 41
|   |   |   mass <= 40.7: tested_negative (16.0)
|   |   |   mass > 40.7: tested_positive (3.0)
skin > 43
|   plas <= 96: tested_negative (3.0)
|   plas > 96: tested_positive (36.0/1.0)

Number of Leaves  : 	39

Size of the tree : 	77


Weight: 2.31

J48 pruned tree
------------------

mass <= 28.6
|   plas <= 164
|   |   pres <= 70
|   |   |   insu <= 240
|   |   |   |   preg <= 2: tested_negative (14.0)
|   |   |   |   preg > 2
|   |   |   |   |   age <= 35
|   |   |   |   |   |   mass <= 27.4: tested_positive (7.0/1.0)
|   |   |   |   |   |   mass > 27.4: tested_negative (2.0)
|   |   |   |   |   age > 35: tested_negative (11.0/1.0)
|   |   |   insu > 240: tested_positive (3.0)
|   |   pres > 70
|   |   |   plas <= 133: tested_negative (35.0)
|   |   |   plas > 133
|   |   |   |   pres <= 85: tested_negative (11.0/1.0)
|   |   |   |   pres > 85: tested_positive (2.0)
|   plas > 164: tested_positive (8.0)
mass > 28.6
|   skin <= 35
|   |   plas <= 94
|   |   |   preg <= 10: tested_negative (23.0/1.0)
|   |   |   preg > 10: tested_positive (3.0)
|   |   plas > 94
|   |   |   preg <= 1
|   |   |   |   pedi <= 0.411
|   |   |   |   |   pedi <= 0.203
|   |   |   |   |   |   plas <= 113: tested_negative (2.0)
|   |   |   |   |   |   plas > 113: tested_positive (5.0)
|   |   |   |   |   pedi > 0.203: tested_positive (58.0)
|   |   |   |   pedi > 0.411
|   |   |   |   |   pres <= 70
|   |   |   |   |   |   age <= 38: tested_positive (18.0)
|   |   |   |   |   |   age > 38: tested_negative (2.0)
|   |   |   |   |   pres > 70
|   |   |   |   |   |   plas <= 153: tested_negative (14.0)
|   |   |   |   |   |   plas > 153
|   |   |   |   |   |   |   mass <= 45.5: tested_positive (3.0)
|   |   |   |   |   |   |   mass > 45.5: tested_negative (2.0)
|   |   |   preg > 1
|   |   |   |   insu <= 342
|   |   |   |   |   pres <= 64
|   |   |   |   |   |   pedi <= 0.341: tested_negative (19.0)
|   |   |   |   |   |   pedi > 0.341
|   |   |   |   |   |   |   preg <= 3: tested_negative (5.0)
|   |   |   |   |   |   |   preg > 3: tested_positive (2.0)
|   |   |   |   |   pres > 64
|   |   |   |   |   |   pres <= 86
|   |   |   |   |   |   |   plas <= 145
|   |   |   |   |   |   |   |   plas <= 106
|   |   |   |   |   |   |   |   |   preg <= 12: tested_negative (9.0)
|   |   |   |   |   |   |   |   |   preg > 12: tested_positive (3.0/1.0)
|   |   |   |   |   |   |   |   plas > 106
|   |   |   |   |   |   |   |   |   preg <= 9
|   |   |   |   |   |   |   |   |   |   preg <= 2
|   |   |   |   |   |   |   |   |   |   |   plas <= 122: tested_negative (4.0)
|   |   |   |   |   |   |   |   |   |   |   plas > 122: tested_positive (3.0)
|   |   |   |   |   |   |   |   |   |   preg > 2
|   |   |   |   |   |   |   |   |   |   |   plas <= 124: tested_positive (28.0)
|   |   |   |   |   |   |   |   |   |   |   plas > 124
|   |   |   |   |   |   |   |   |   |   |   |   plas <= 129: tested_negative (3.0)
|   |   |   |   |   |   |   |   |   |   |   |   plas > 129: tested_positive (16.0)
|   |   |   |   |   |   |   |   |   preg > 9: tested_negative (3.0)
|   |   |   |   |   |   |   plas > 145
|   |   |   |   |   |   |   |   plas <= 167
|   |   |   |   |   |   |   |   |   preg <= 5: tested_negative (15.0)
|   |   |   |   |   |   |   |   |   preg > 5
|   |   |   |   |   |   |   |   |   |   plas <= 156: tested_positive (2.0)
|   |   |   |   |   |   |   |   |   |   plas > 156: tested_negative (2.0)
|   |   |   |   |   |   |   |   plas > 167: tested_positive (3.0)
|   |   |   |   |   |   pres > 86: tested_negative (10.0/1.0)
|   |   |   |   insu > 342: tested_positive (17.0)
|   skin > 35
|   |   mass <= 45.3
|   |   |   plas <= 167
|   |   |   |   plas <= 136
|   |   |   |   |   age <= 28: tested_negative (32.0/1.0)
|   |   |   |   |   age > 28
|   |   |   |   |   |   plas <= 104: tested_negative (11.0)
|   |   |   |   |   |   plas > 104: tested_positive (6.0)
|   |   |   |   plas > 136: tested_negative (27.0)
|   |   |   plas > 167
|   |   |   |   preg <= 3: tested_positive (4.0)
|   |   |   |   preg > 3: tested_negative (2.0)
|   |   mass > 45.3: tested_positive (12.0)

Number of Leaves  : 	43

Size of the tree : 	85


Weight: 2.41

J48 pruned tree
------------------

plas <= 110
|   insu <= 165
|   |   pres <= 80
|   |   |   insu <= 88
|   |   |   |   plas <= 103
|   |   |   |   |   preg <= 11
|   |   |   |   |   |   insu <= 83: tested_negative (26.0)
|   |   |   |   |   |   insu > 83: tested_positive (3.0/1.0)
|   |   |   |   |   preg > 11: tested_positive (2.0)
|   |   |   |   plas > 103
|   |   |   |   |   insu <= 22
|   |   |   |   |   |   pedi <= 0.269: tested_negative (4.0)
|   |   |   |   |   |   pedi > 0.269
|   |   |   |   |   |   |   preg <= 3: tested_negative (2.0)
|   |   |   |   |   |   |   preg > 3: tested_positive (4.0)
|   |   |   |   |   insu > 22: tested_positive (4.0)
|   |   |   insu > 88: tested_negative (18.0)
|   |   pres > 80
|   |   |   pres <= 86
|   |   |   |   pedi <= 0.612
|   |   |   |   |   preg <= 2: tested_positive (4.0)
|   |   |   |   |   preg > 2: tested_negative (2.0)
|   |   |   |   pedi > 0.612: tested_positive (11.0)
|   |   |   pres > 86: tested_negative (4.0)
|   insu > 165
|   |   plas <= 100: tested_positive (22.0)
|   |   plas > 100: tested_negative (3.0)
plas > 110
|   plas <= 113: tested_positive (41.0)
|   plas > 113
|   |   preg <= 9
|   |   |   pres <= 72
|   |   |   |   preg <= 0: tested_positive (20.0)
|   |   |   |   preg > 0
|   |   |   |   |   mass <= 37.6
|   |   |   |   |   |   preg <= 3: tested_positive (64.0/3.0)
|   |   |   |   |   |   preg > 3
|   |   |   |   |   |   |   pedi <= 0.262: tested_negative (4.0)
|   |   |   |   |   |   |   pedi > 0.262
|   |   |   |   |   |   |   |   mass <= 34.6
|   |   |   |   |   |   |   |   |   insu <= 70: tested_positive (25.0)
|   |   |   |   |   |   |   |   |   insu > 70
|   |   |   |   |   |   |   |   |   |   preg <= 4: tested_negative (2.0)
|   |   |   |   |   |   |   |   |   |   preg > 4: tested_positive (3.0)
|   |   |   |   |   |   |   |   mass > 34.6: tested_negative (3.0)
|   |   |   |   |   mass > 37.6: tested_negative (8.0)
|   |   |   pres > 72
|   |   |   |   skin <= 25
|   |   |   |   |   pedi <= 0.703
|   |   |   |   |   |   preg <= 1: tested_negative (6.0)
|   |   |   |   |   |   preg > 1
|   |   |   |   |   |   |   pedi <= 0.433
|   |   |   |   |   |   |   |   preg <= 7
|   |   |   |   |   |   |   |   |   skin <= 15
|   |   |   |   |   |   |   |   |   |   preg <= 5
|   |   |   |   |   |   |   |   |   |   |   age <= 31: tested_negative (2.0)
|   |   |   |   |   |   |   |   |   |   |   age > 31
|   |   |   |   |   |   |   |   |   |   |   |   age <= 39: tested_positive (10.0)
|   |   |   |   |   |   |   |   |   |   |   |   age > 39
|   |   |   |   |   |   |   |   |   |   |   |   |   pedi <= 0.289: tested_negative (2.0)
|   |   |   |   |   |   |   |   |   |   |   |   |   pedi > 0.289: tested_positive (3.0)
|   |   |   |   |   |   |   |   |   |   preg > 5: tested_negative (8.0)
|   |   |   |   |   |   |   |   |   skin > 15: tested_positive (13.0)
|   |   |   |   |   |   |   |   preg > 7: tested_positive (16.0)
|   |   |   |   |   |   |   pedi > 0.433: tested_negative (4.0)
|   |   |   |   |   pedi > 0.703: tested_positive (22.0)
|   |   |   |   skin > 25
|   |   |   |   |   preg <= 7
|   |   |   |   |   |   plas <= 167
|   |   |   |   |   |   |   skin <= 40: tested_negative (41.0/2.0)
|   |   |   |   |   |   |   skin > 40
|   |   |   |   |   |   |   |   plas <= 132: tested_positive (7.0)
|   |   |   |   |   |   |   |   plas > 132
|   |   |   |   |   |   |   |   |   preg <= 3: tested_negative (7.0)
|   |   |   |   |   |   |   |   |   preg > 3: tested_positive (3.0/1.0)
|   |   |   |   |   |   plas > 167: tested_positive (7.0/1.0)
|   |   |   |   |   preg > 7: tested_positive (7.0)
|   |   preg > 9
|   |   |   mass <= 35.5: tested_negative (15.0)
|   |   |   mass > 35.5
|   |   |   |   plas <= 149: tested_positive (6.0)
|   |   |   |   plas > 149: tested_negative (3.0)

Number of Leaves  : 	42

Size of the tree : 	83


Weight: 2.1

J48 pruned tree
------------------

pres <= 64
|   pres <= 40: tested_positive (16.0/2.0)
|   pres > 40
|   |   mass <= 29.6: tested_negative (46.0)
|   |   mass > 29.6
|   |   |   pedi <= 0.129: tested_positive (5.0)
|   |   |   pedi > 0.129
|   |   |   |   skin <= 39
|   |   |   |   |   skin <= 36
|   |   |   |   |   |   insu <= 152
|   |   |   |   |   |   |   mass <= 29.9: tested_positive (2.0)
|   |   |   |   |   |   |   mass > 29.9
|   |   |   |   |   |   |   |   preg <= 1: tested_positive (3.0/1.0)
|   |   |   |   |   |   |   |   preg > 1: tested_negative (27.0/1.0)
|   |   |   |   |   |   insu > 152: tested_positive (3.0)
|   |   |   |   |   skin > 36: tested_positive (4.0)
|   |   |   |   skin > 39: tested_negative (15.0)
pres > 64
|   pres <= 100
|   |   preg <= 7
|   |   |   pres <= 90
|   |   |   |   preg <= 3
|   |   |   |   |   mass <= 36.6
|   |   |   |   |   |   pres <= 68
|   |   |   |   |   |   |   pedi <= 0.251: tested_positive (3.0)
|   |   |   |   |   |   |   pedi > 0.251: tested_negative (10.0/1.0)
|   |   |   |   |   |   pres > 68
|   |   |   |   |   |   |   skin <= 25
|   |   |   |   |   |   |   |   mass <= 31.2
|   |   |   |   |   |   |   |   |   mass <= 30.5
|   |   |   |   |   |   |   |   |   |   age <= 28
|   |   |   |   |   |   |   |   |   |   |   pedi <= 0.345: tested_negative (3.0)
|   |   |   |   |   |   |   |   |   |   |   pedi > 0.345: tested_positive (2.0)
|   |   |   |   |   |   |   |   |   |   age > 28: tested_positive (12.0)
|   |   |   |   |   |   |   |   |   mass > 30.5: tested_negative (3.0)
|   |   |   |   |   |   |   |   mass > 31.2: tested_positive (56.0)
|   |   |   |   |   |   |   skin > 25
|   |   |   |   |   |   |   |   age <= 26: tested_negative (7.0)
|   |   |   |   |   |   |   |   age > 26
|   |   |   |   |   |   |   |   |   insu <= 22: tested_negative (2.0)
|   |   |   |   |   |   |   |   |   insu > 22: tested_positive (11.0/1.0)
|   |   |   |   |   mass > 36.6
|   |   |   |   |   |   skin <= 41
|   |   |   |   |   |   |   plas <= 104: tested_positive (3.0/1.0)
|   |   |   |   |   |   |   plas > 104: tested_negative (20.0/1.0)
|   |   |   |   |   |   skin > 41: tested_positive (7.0)
|   |   |   |   preg > 3
|   |   |   |   |   plas <= 138
|   |   |   |   |   |   age <= 42: tested_negative (52.0/3.0)
|   |   |   |   |   |   age > 42
|   |   |   |   |   |   |   pres <= 84: tested_positive (5.0)
|   |   |   |   |   |   |   pres > 84: tested_negative (2.0)
|   |   |   |   |   plas > 138
|   |   |   |   |   |   pres <= 74: tested_negative (21.0/1.0)
|   |   |   |   |   |   pres > 74: tested_positive (22.0/1.0)
|   |   |   pres > 90: tested_negative (14.0)
|   |   preg > 7
|   |   |   age <= 51
|   |   |   |   pres <= 72: tested_positive (21.0/1.0)
|   |   |   |   pres > 72
|   |   |   |   |   preg <= 9: tested_positive (28.0)
|   |   |   |   |   preg > 9: tested_negative (8.0/1.0)
|   |   |   age > 51
|   |   |   |   insu <= 328: tested_negative (7.0)
|   |   |   |   insu > 328: tested_positive (2.0)
|   pres > 100: tested_positive (19.0/1.0)

Number of Leaves  : 	34

Size of the tree : 	67


Weight: 2.13

J48 pruned tree
------------------

mass <= 23.7
|   plas <= 166: tested_negative (25.0/1.0)
|   plas > 166: tested_positive (2.0)
mass > 23.7
|   age <= 27
|   |   age <= 21: tested_negative (16.0)
|   |   age > 21
|   |   |   insu <= 191
|   |   |   |   insu <= 176
|   |   |   |   |   plas <= 84: tested_positive (9.0/1.0)
|   |   |   |   |   plas > 84
|   |   |   |   |   |   mass <= 46.2
|   |   |   |   |   |   |   age <= 25
|   |   |   |   |   |   |   |   pedi <= 0.661
|   |   |   |   |   |   |   |   |   pedi <= 0.431
|   |   |   |   |   |   |   |   |   |   plas <= 110: tested_negative (4.0)
|   |   |   |   |   |   |   |   |   |   plas > 110
|   |   |   |   |   |   |   |   |   |   |   pedi <= 0.126: tested_negative (4.0)
|   |   |   |   |   |   |   |   |   |   |   pedi > 0.126
|   |   |   |   |   |   |   |   |   |   |   |   plas <= 143
|   |   |   |   |   |   |   |   |   |   |   |   |   preg <= 3: tested_positive (13.0)
|   |   |   |   |   |   |   |   |   |   |   |   |   preg > 3
|   |   |   |   |   |   |   |   |   |   |   |   |   |   preg <= 4: tested_negative (2.0)
|   |   |   |   |   |   |   |   |   |   |   |   |   |   preg > 4: tested_positive (5.0)
|   |   |   |   |   |   |   |   |   |   |   |   plas > 143: tested_negative (2.0)
|   |   |   |   |   |   |   |   |   pedi > 0.431: tested_negative (20.0)
|   |   |   |   |   |   |   |   pedi > 0.661: tested_positive (9.0)
|   |   |   |   |   |   |   age > 25: tested_negative (31.0/1.0)
|   |   |   |   |   |   mass > 46.2: tested_positive (7.0)
|   |   |   |   insu > 176: tested_positive (12.0)
|   |   |   insu > 191: tested_negative (18.0)
|   age > 27
|   |   pres <= 58
|   |   |   mass <= 28.4: tested_positive (6.0)
|   |   |   mass > 28.4
|   |   |   |   mass <= 40.2: tested_negative (21.0)
|   |   |   |   mass > 40.2: tested_positive (3.0)
|   |   pres > 58
|   |   |   pedi <= 0.151: tested_positive (13.0)
|   |   |   pedi > 0.151
|   |   |   |   pedi <= 0.198: tested_negative (12.0)
|   |   |   |   pedi > 0.198
|   |   |   |   |   pedi <= 0.234: tested_positive (21.0)
|   |   |   |   |   pedi > 0.234
|   |   |   |   |   |   plas <= 97: tested_negative (12.0/1.0)
|   |   |   |   |   |   plas > 97
|   |   |   |   |   |   |   pedi <= 0.391
|   |   |   |   |   |   |   |   pedi <= 0.38
|   |   |   |   |   |   |   |   |   insu <= 370
|   |   |   |   |   |   |   |   |   |   plas <= 188
|   |   |   |   |   |   |   |   |   |   |   skin <= 41
|   |   |   |   |   |   |   |   |   |   |   |   insu <= 115
|   |   |   |   |   |   |   |   |   |   |   |   |   preg <= 9
|   |   |   |   |   |   |   |   |   |   |   |   |   |   insu <= 96
|   |   |   |   |   |   |   |   |   |   |   |   |   |   |   mass <= 28
|   |   |   |   |   |   |   |   |   |   |   |   |   |   |   |   age <= 29: tested_positive (6.0)
|   |   |   |   |   |   |   |   |   |   |   |   |   |   |   |   age > 29
|   |   |   |   |   |   |   |   |   |   |   |   |   |   |   |   |   age <= 58: tested_negative (5.0)
|   |   |   |   |   |   |   |   |   |   |   |   |   |   |   |   |   age > 58: tested_positive (2.0)
|   |   |   |   |   |   |   |   |   |   |   |   |   |   |   mass > 28: tested_positive (24.0/1.0)
|   |   |   |   |   |   |   |   |   |   |   |   |   |   insu > 96: tested_negative (4.0)
|   |   |   |   |   |   |   |   |   |   |   |   |   preg > 9: tested_negative (10.0)
|   |   |   |   |   |   |   |   |   |   |   |   insu > 115: tested_positive (19.0)
|   |   |   |   |   |   |   |   |   |   |   skin > 41: tested_negative (4.0)
|   |   |   |   |   |   |   |   |   |   plas > 188: tested_negative (5.0)
|   |   |   |   |   |   |   |   |   insu > 370: tested_negative (7.0)
|   |   |   |   |   |   |   |   pedi > 0.38: tested_negative (9.0)
|   |   |   |   |   |   |   pedi > 0.391
|   |   |   |   |   |   |   |   pedi <= 1.321
|   |   |   |   |   |   |   |   |   skin <= 21
|   |   |   |   |   |   |   |   |   |   age <= 31: tested_negative (6.0)
|   |   |   |   |   |   |   |   |   |   age > 31
|   |   |   |   |   |   |   |   |   |   |   skin <= 19
|   |   |   |   |   |   |   |   |   |   |   |   mass <= 25.2: tested_negative (2.0)
|   |   |   |   |   |   |   |   |   |   |   |   mass > 25.2: tested_positive (18.0/1.0)
|   |   |   |   |   |   |   |   |   |   |   skin > 19: tested_negative (2.0)
|   |   |   |   |   |   |   |   |   skin > 21
|   |   |   |   |   |   |   |   |   |   plas <= 152
|   |   |   |   |   |   |   |   |   |   |   pedi <= 0.507
|   |   |   |   |   |   |   |   |   |   |   |   preg <= 2: tested_positive (8.0)
|   |   |   |   |   |   |   |   |   |   |   |   preg > 2: tested_negative (2.0)
|   |   |   |   |   |   |   |   |   |   |   pedi > 0.507: tested_positive (42.0)
|   |   |   |   |   |   |   |   |   |   plas > 152
|   |   |   |   |   |   |   |   |   |   |   plas <= 169
|   |   |   |   |   |   |   |   |   |   |   |   preg <= 4: tested_positive (2.0)
|   |   |   |   |   |   |   |   |   |   |   |   preg > 4: tested_negative (4.0)
|   |   |   |   |   |   |   |   |   |   |   plas > 169: tested_positive (8.0)
|   |   |   |   |   |   |   |   pedi > 1.321: tested_negative (5.0)

Number of Leaves  : 	45

Size of the tree : 	89


Weight: 2.44

J48 pruned tree
------------------

age <= 62
|   preg <= 9
|   |   mass <= 42.2
|   |   |   pedi <= 0.218
|   |   |   |   preg <= 0: tested_positive (3.0/1.0)
|   |   |   |   preg > 0
|   |   |   |   |   age <= 25
|   |   |   |   |   |   preg <= 2: tested_negative (7.0)
|   |   |   |   |   |   preg > 2: tested_positive (3.0)
|   |   |   |   |   age > 25: tested_negative (33.0)
|   |   |   pedi > 0.218
|   |   |   |   plas <= 147
|   |   |   |   |   mass <= 35.7
|   |   |   |   |   |   plas <= 74: tested_negative (9.0)
|   |   |   |   |   |   plas > 74
|   |   |   |   |   |   |   pedi <= 0.248
|   |   |   |   |   |   |   |   mass <= 29.3
|   |   |   |   |   |   |   |   |   plas <= 126: tested_negative (2.0)
|   |   |   |   |   |   |   |   |   plas > 126: tested_positive (4.0)
|   |   |   |   |   |   |   |   mass > 29.3: tested_positive (10.0)
|   |   |   |   |   |   |   pedi > 0.248
|   |   |   |   |   |   |   |   age <= 51
|   |   |   |   |   |   |   |   |   age <= 33
|   |   |   |   |   |   |   |   |   |   insu <= 176
|   |   |   |   |   |   |   |   |   |   |   preg <= 6
|   |   |   |   |   |   |   |   |   |   |   |   pedi <= 0.997
|   |   |   |   |   |   |   |   |   |   |   |   |   preg <= 0
|   |   |   |   |   |   |   |   |   |   |   |   |   |   mass <= 31.2: tested_negative (3.0)
|   |   |   |   |   |   |   |   |   |   |   |   |   |   mass > 31.2: tested_positive (9.0)
|   |   |   |   |   |   |   |   |   |   |   |   |   preg > 0
|   |   |   |   |   |   |   |   |   |   |   |   |   |   mass <= 34.9
|   |   |   |   |   |   |   |   |   |   |   |   |   |   |   insu <= 36
|   |   |   |   |   |   |   |   |   |   |   |   |   |   |   |   age <= 22: tested_positive (3.0)
|   |   |   |   |   |   |   |   |   |   |   |   |   |   |   |   age > 22
|   |   |   |   |   |   |   |   |   |   |   |   |   |   |   |   |   mass <= 29.8
|   |   |   |   |   |   |   |   |   |   |   |   |   |   |   |   |   |   plas <= 114: tested_negative (4.0)
|   |   |   |   |   |   |   |   |   |   |   |   |   |   |   |   |   |   plas > 114: tested_positive (5.0)
|   |   |   |   |   |   |   |   |   |   |   |   |   |   |   |   |   mass > 29.8: tested_negative (19.0/1.0)
|   |   |   |   |   |   |   |   |   |   |   |   |   |   |   insu > 36: tested_negative (24.0)
|   |   |   |   |   |   |   |   |   |   |   |   |   |   mass > 34.9: tested_positive (4.0)
|   |   |   |   |   |   |   |   |   |   |   |   pedi > 0.997: tested_positive (5.0)
|   |   |   |   |   |   |   |   |   |   |   preg > 6: tested_positive (6.0)
|   |   |   |   |   |   |   |   |   |   insu > 176: tested_positive (8.0)
|   |   |   |   |   |   |   |   |   age > 33
|   |   |   |   |   |   |   |   |   |   insu <= 100
|   |   |   |   |   |   |   |   |   |   |   pedi <= 0.332: tested_positive (3.0)
|   |   |   |   |   |   |   |   |   |   |   pedi > 0.332: tested_negative (18.0/3.0)
|   |   |   |   |   |   |   |   |   |   insu > 100: tested_negative (17.0)
|   |   |   |   |   |   |   |   age > 51: tested_positive (8.0)
|   |   |   |   |   mass > 35.7
|   |   |   |   |   |   preg <= 3: tested_negative (28.0/1.0)
|   |   |   |   |   |   preg > 3
|   |   |   |   |   |   |   plas <= 137: tested_negative (9.0/1.0)
|   |   |   |   |   |   |   plas > 137: tested_positive (3.0)
|   |   |   |   plas > 147
|   |   |   |   |   skin <= 41
|   |   |   |   |   |   pedi <= 0.319
|   |   |   |   |   |   |   pres <= 76: tested_negative (8.0)
|   |   |   |   |   |   |   pres > 76: tested_positive (4.0)
|   |   |   |   |   |   pedi > 0.319: tested_positive (36.0/1.0)
|   |   |   |   |   skin > 41: tested_negative (9.0/1.0)
|   |   mass > 42.2
|   |   |   pedi <= 0.197
|   |   |   |   plas <= 102: tested_positive (2.0)
|   |   |   |   plas > 102: tested_negative (8.0)
|   |   |   pedi > 0.197
|   |   |   |   skin <= 34
|   |   |   |   |   age <= 26: tested_negative (4.0)
|   |   |   |   |   age > 26: tested_positive (4.0)
|   |   |   |   skin > 34: tested_positive (42.0)
|   preg > 9
|   |   age <= 29: tested_negative (5.0)
|   |   age > 29: tested_positive (49.0/1.0)
age > 62: tested_negative (43.0/1.0)

Number of Leaves  : 	38

Size of the tree : 	75


Weight: 1.88

J48 pruned tree
------------------

plas <= 165
|   mass <= 27.7
|   |   pedi <= 0.251
|   |   |   skin <= 13
|   |   |   |   pres <= 85: tested_negative (21.0)
|   |   |   |   pres > 85: tested_positive (2.0)
|   |   |   skin > 13: tested_positive (3.0)
|   |   pedi > 0.251
|   |   |   pres <= 74
|   |   |   |   insu <= 110: tested_positive (17.0/2.0)
|   |   |   |   insu > 110: tested_negative (18.0/1.0)
|   |   |   pres > 74: tested_negative (17.0)
|   mass > 27.7
|   |   preg <= 0
|   |   |   pedi <= 0.219: tested_negative (4.0)
|   |   |   pedi > 0.219: tested_positive (34.0/2.0)
|   |   preg > 0
|   |   |   mass <= 37.9
|   |   |   |   plas <= 163
|   |   |   |   |   pres <= 75
|   |   |   |   |   |   insu <= 146
|   |   |   |   |   |   |   mass <= 32
|   |   |   |   |   |   |   |   age <= 41: tested_negative (18.0/2.0)
|   |   |   |   |   |   |   |   age > 41: tested_positive (7.0/1.0)
|   |   |   |   |   |   |   mass > 32
|   |   |   |   |   |   |   |   plas <= 109: tested_negative (6.0)
|   |   |   |   |   |   |   |   plas > 109
|   |   |   |   |   |   |   |   |   age <= 31
|   |   |   |   |   |   |   |   |   |   plas <= 129: tested_negative (7.0/1.0)
|   |   |   |   |   |   |   |   |   |   plas > 129: tested_positive (17.0)
|   |   |   |   |   |   |   |   |   age > 31: tested_positive (31.0)
|   |   |   |   |   |   insu > 146
|   |   |   |   |   |   |   age <= 44: tested_negative (23.0)
|   |   |   |   |   |   |   age > 44: tested_positive (3.0)
|   |   |   |   |   pres > 75
|   |   |   |   |   |   skin <= 22
|   |   |   |   |   |   |   age <= 51
|   |   |   |   |   |   |   |   pedi <= 0.303: tested_negative (7.0)
|   |   |   |   |   |   |   |   pedi > 0.303: tested_positive (2.0)
|   |   |   |   |   |   |   age > 51: tested_positive (12.0)
|   |   |   |   |   |   skin > 22: tested_positive (57.0/1.0)
|   |   |   |   plas > 163: tested_negative (11.0)
|   |   |   mass > 37.9
|   |   |   |   plas <= 157
|   |   |   |   |   preg <= 7
|   |   |   |   |   |   mass <= 45.3: tested_negative (57.0/2.0)
|   |   |   |   |   |   mass > 45.3
|   |   |   |   |   |   |   insu <= 180: tested_positive (5.0)
|   |   |   |   |   |   |   insu > 180: tested_negative (5.0)
|   |   |   |   |   preg > 7
|   |   |   |   |   |   pedi <= 1.136: tested_positive (8.0)
|   |   |   |   |   |   pedi > 1.136: tested_negative (4.0)
|   |   |   |   plas > 157: tested_positive (7.0)
plas > 165
|   age <= 58: tested_positive (52.0/2.0)
|   age > 58: tested_negative (6.0)

Number of Leaves  : 	29

Size of the tree : 	57


Weight: 2.05

J48 pruned tree
------------------

mass <= 26.3: tested_negative (44.0/1.0)
mass > 26.3
|   age <= 62
|   |   insu <= 140
|   |   |   skin <= 38
|   |   |   |   plas <= 179
|   |   |   |   |   plas <= 146
|   |   |   |   |   |   preg <= 0
|   |   |   |   |   |   |   pedi <= 0.258
|   |   |   |   |   |   |   |   pedi <= 0.197: tested_negative (2.0)
|   |   |   |   |   |   |   |   pedi > 0.197: tested_positive (4.0)
|   |   |   |   |   |   |   pedi > 0.258: tested_negative (32.0/2.0)
|   |   |   |   |   |   preg > 0
|   |   |   |   |   |   |   plas <= 73: tested_negative (9.0)
|   |   |   |   |   |   |   plas > 73
|   |   |   |   |   |   |   |   pedi <= 1.001
|   |   |   |   |   |   |   |   |   pres <= 76
|   |   |   |   |   |   |   |   |   |   pedi <= 0.126: tested_negative (6.0)
|   |   |   |   |   |   |   |   |   |   pedi > 0.126
|   |   |   |   |   |   |   |   |   |   |   preg <= 8
|   |   |   |   |   |   |   |   |   |   |   |   pedi <= 0.385: tested_positive (39.0/1.0)
|   |   |   |   |   |   |   |   |   |   |   |   pedi > 0.385
|   |   |   |   |   |   |   |   |   |   |   |   |   preg <= 4: tested_negative (4.0)
|   |   |   |   |   |   |   |   |   |   |   |   |   preg > 4
|   |   |   |   |   |   |   |   |   |   |   |   |   |   plas <= 103: tested_negative (3.0)
|   |   |   |   |   |   |   |   |   |   |   |   |   |   plas > 103: tested_positive (11.0)
|   |   |   |   |   |   |   |   |   |   |   preg > 8
|   |   |   |   |   |   |   |   |   |   |   |   skin <= 16: tested_negative (12.0/1.0)
|   |   |   |   |   |   |   |   |   |   |   |   skin > 16: tested_positive (4.0)
|   |   |   |   |   |   |   |   |   pres > 76
|   |   |   |   |   |   |   |   |   |   skin <= 31
|   |   |   |   |   |   |   |   |   |   |   age <= 24: tested_positive (3.0)
|   |   |   |   |   |   |   |   |   |   |   age > 24
|   |   |   |   |   |   |   |   |   |   |   |   skin <= 0
|   |   |   |   |   |   |   |   |   |   |   |   |   preg <= 3: tested_positive (2.0)
|   |   |   |   |   |   |   |   |   |   |   |   |   preg > 3: tested_negative (8.0/1.0)
|   |   |   |   |   |   |   |   |   |   |   |   skin > 0: tested_negative (24.0)
|   |   |   |   |   |   |   |   |   |   skin > 31
|   |   |   |   |   |   |   |   |   |   |   insu <= 48: tested_positive (11.0)
|   |   |   |   |   |   |   |   |   |   |   insu > 48: tested_negative (2.0)
|   |   |   |   |   |   |   |   pedi > 1.001: tested_positive (10.0)
|   |   |   |   |   plas > 146
|   |   |   |   |   |   age <= 52: tested_positive (32.0/1.0)
|   |   |   |   |   |   age > 52: tested_negative (2.0)
|   |   |   |   plas > 179: tested_negative (12.0)
|   |   |   skin > 38
|   |   |   |   age <= 44: tested_negative (38.0)
|   |   |   |   age > 44: tested_positive (3.0/1.0)
|   |   insu > 140
|   |   |   mass <= 32.9: tested_positive (46.0/4.0)
|   |   |   mass > 32.9
|   |   |   |   skin <= 39
|   |   |   |   |   insu <= 165: tested_positive (9.0)
|   |   |   |   |   insu > 165
|   |   |   |   |   |   pedi <= 0.361
|   |   |   |   |   |   |   plas <= 157
|   |   |   |   |   |   |   |   plas <= 118: tested_positive (2.0)
|   |   |   |   |   |   |   |   plas > 118: tested_negative (2.0)
|   |   |   |   |   |   |   plas > 157: tested_positive (7.0)
|   |   |   |   |   |   pedi > 0.361: tested_negative (19.0/1.0)
|   |   |   |   skin > 39
|   |   |   |   |   insu <= 205: tested_negative (4.0)
|   |   |   |   |   insu > 205: tested_positive (27.0)
|   age > 62
|   |   preg <= 4: tested_positive (2.0)
|   |   preg > 4: tested_negative (26.0)

Number of Leaves  : 	34

Size of the tree : 	67


Weight: 2.32

J48 pruned tree
------------------

plas <= 164
|   preg <= 10
|   |   plas <= 156
|   |   |   plas <= 133
|   |   |   |   mass <= 27.8
|   |   |   |   |   pres <= 52: tested_positive (4.0)
|   |   |   |   |   pres > 52: tested_negative (61.0/1.0)
|   |   |   |   mass > 27.8
|   |   |   |   |   mass <= 34.7
|   |   |   |   |   |   skin <= 33
|   |   |   |   |   |   |   pedi <= 0.745
|   |   |   |   |   |   |   |   pedi <= 0.528
|   |   |   |   |   |   |   |   |   age <= 23: tested_positive (9.0)
|   |   |   |   |   |   |   |   |   age > 23
|   |   |   |   |   |   |   |   |   |   pedi <= 0.255
|   |   |   |   |   |   |   |   |   |   |   preg <= 3: tested_positive (13.0)
|   |   |   |   |   |   |   |   |   |   |   preg > 3
|   |   |   |   |   |   |   |   |   |   |   |   skin <= 13: tested_positive (3.0)
|   |   |   |   |   |   |   |   |   |   |   |   skin > 13: tested_negative (3.0)
|   |   |   |   |   |   |   |   |   |   pedi > 0.255
|   |   |   |   |   |   |   |   |   |   |   plas <= 117
|   |   |   |   |   |   |   |   |   |   |   |   plas <= 113: tested_negative (8.0)
|   |   |   |   |   |   |   |   |   |   |   |   plas > 113: tested_positive (4.0)
|   |   |   |   |   |   |   |   |   |   |   plas > 117: tested_negative (28.0/1.0)
|   |   |   |   |   |   |   |   pedi > 0.528
|   |   |   |   |   |   |   |   |   plas <= 112
|   |   |   |   |   |   |   |   |   |   preg <= 1: tested_positive (5.0)
|   |   |   |   |   |   |   |   |   |   preg > 1: tested_negative (2.0)
|   |   |   |   |   |   |   |   |   plas > 112: tested_positive (16.0)
|   |   |   |   |   |   |   pedi > 0.745: tested_negative (14.0)
|   |   |   |   |   |   skin > 33: tested_positive (19.0)
|   |   |   |   |   mass > 34.7
|   |   |   |   |   |   pedi <= 0.128: tested_positive (7.0)
|   |   |   |   |   |   pedi > 0.128
|   |   |   |   |   |   |   preg <= 7
|   |   |   |   |   |   |   |   pedi <= 0.741: tested_negative (62.0/5.0)
|   |   |   |   |   |   |   |   pedi > 0.741: tested_positive (5.0/1.0)
|   |   |   |   |   |   |   preg > 7: tested_positive (7.0/1.0)
|   |   |   plas > 133
|   |   |   |   plas <= 136: tested_positive (26.0/1.0)
|   |   |   |   plas > 136
|   |   |   |   |   skin <= 37
|   |   |   |   |   |   pres <= 70: tested_positive (23.0/1.0)
|   |   |   |   |   |   pres > 70
|   |   |   |   |   |   |   pres <= 78
|   |   |   |   |   |   |   |   plas <= 147: tested_negative (16.0)
|   |   |   |   |   |   |   |   plas > 147: tested_positive (4.0/1.0)
|   |   |   |   |   |   |   pres > 78
|   |   |   |   |   |   |   |   plas <= 138: tested_negative (2.0)
|   |   |   |   |   |   |   |   plas > 138: tested_positive (9.0)
|   |   |   |   |   skin > 37: tested_negative (10.0)
|   |   plas > 156
|   |   |   pres <= 90: tested_negative (26.0)
|   |   |   pres > 90: tested_positive (2.0)
|   preg > 10
|   |   skin <= 35: tested_positive (26.0/2.0)
|   |   skin > 35: tested_negative (3.0)
plas > 164
|   age <= 63
|   |   pres <= 65
|   |   |   age <= 29: tested_negative (3.0)
|   |   |   age > 29: tested_positive (4.0)
|   |   pres > 65: tested_positive (34.0)
|   age > 63: tested_negative (3.0)

Number of Leaves  : 	33

Size of the tree : 	65


Weight: 2.02

J48 pruned tree
------------------

plas <= 183
|   plas <= 89
|   |   insu <= 58: tested_negative (26.0/1.0)
|   |   insu > 58: tested_positive (2.0)
|   plas > 89
|   |   pedi <= 0.217
|   |   |   pres <= 85
|   |   |   |   preg <= 0: tested_positive (3.0/1.0)
|   |   |   |   preg > 0: tested_negative (30.0)
|   |   |   pres > 85: tested_positive (4.0)
|   |   pedi > 0.217
|   |   |   mass <= 36.2
|   |   |   |   insu <= 258
|   |   |   |   |   pedi <= 0.631
|   |   |   |   |   |   age <= 36
|   |   |   |   |   |   |   pres <= 82
|   |   |   |   |   |   |   |   plas <= 97: tested_negative (5.0)
|   |   |   |   |   |   |   |   plas > 97
|   |   |   |   |   |   |   |   |   mass <= 33.8
|   |   |   |   |   |   |   |   |   |   mass <= 30.1
|   |   |   |   |   |   |   |   |   |   |   pedi <= 0.319: tested_positive (10.0)
|   |   |   |   |   |   |   |   |   |   |   pedi > 0.319
|   |   |   |   |   |   |   |   |   |   |   |   preg <= 3
|   |   |   |   |   |   |   |   |   |   |   |   |   plas <= 122: tested_negative (2.0)
|   |   |   |   |   |   |   |   |   |   |   |   |   plas > 122: tested_positive (2.0)
|   |   |   |   |   |   |   |   |   |   |   |   preg > 3: tested_negative (6.0/1.0)
|   |   |   |   |   |   |   |   |   |   mass > 30.1: tested_positive (35.0/1.0)
|   |   |   |   |   |   |   |   |   mass > 33.8
|   |   |   |   |   |   |   |   |   |   age <= 30: tested_negative (7.0)
|   |   |   |   |   |   |   |   |   |   age > 30: tested_positive (2.0)
|   |   |   |   |   |   |   pres > 82
|   |   |   |   |   |   |   |   preg <= 4: tested_negative (16.0)
|   |   |   |   |   |   |   |   preg > 4: tested_positive (3.0)
|   |   |   |   |   |   age > 36
|   |   |   |   |   |   |   mass <= 34.3
|   |   |   |   |   |   |   |   preg <= 5
|   |   |   |   |   |   |   |   |   age <= 43: tested_negative (11.0)
|   |   |   |   |   |   |   |   |   age > 43
|   |   |   |   |   |   |   |   |   |   skin <= 35: tested_positive (5.0)
|   |   |   |   |   |   |   |   |   |   skin > 35: tested_negative (2.0)
|   |   |   |   |   |   |   |   preg > 5: tested_negative (33.0)
|   |   |   |   |   |   |   mass > 34.3: tested_positive (6.0)
|   |   |   |   |   pedi > 0.631
|   |   |   |   |   |   age <= 29
|   |   |   |   |   |   |   pedi <= 0.955: tested_negative (17.0)
|   |   |   |   |   |   |   pedi > 0.955: tested_positive (2.0)
|   |   |   |   |   |   age > 29
|   |   |   |   |   |   |   pres <= 46: tested_negative (5.0)
|   |   |   |   |   |   |   pres > 46
|   |   |   |   |   |   |   |   mass <= 27.1
|   |   |   |   |   |   |   |   |   plas <= 145: tested_negative (5.0/1.0)
|   |   |   |   |   |   |   |   |   plas > 145: tested_positive (3.0)
|   |   |   |   |   |   |   |   mass > 27.1: tested_positive (59.0/1.0)
|   |   |   |   insu > 258: tested_negative (23.0/1.0)
|   |   |   mass > 36.2
|   |   |   |   age <= 23: tested_negative (6.0)
|   |   |   |   age > 23
|   |   |   |   |   pres <= 86
|   |   |   |   |   |   preg <= 2
|   |   |   |   |   |   |   skin <= 46
|   |   |   |   |   |   |   |   preg <= 1
|   |   |   |   |   |   |   |   |   age <= 43
|   |   |   |   |   |   |   |   |   |   insu <= 83: tested_positive (29.0)
|   |   |   |   |   |   |   |   |   |   insu > 83
|   |   |   |   |   |   |   |   |   |   |   plas <= 116: tested_negative (2.0)
|   |   |   |   |   |   |   |   |   |   |   plas > 116: tested_positive (3.0)
|   |   |   |   |   |   |   |   |   age > 43: tested_negative (3.0)
|   |   |   |   |   |   |   |   preg > 1: tested_negative (6.0/1.0)
|   |   |   |   |   |   |   skin > 46: tested_negative (4.0)
|   |   |   |   |   |   preg > 2: tested_positive (35.0)
|   |   |   |   |   pres > 86
|   |   |   |   |   |   insu <= 135: tested_positive (5.0)
|   |   |   |   |   |   insu > 135: tested_negative (9.0)
plas > 183
|   insu <= 64: tested_positive (5.0/1.0)
|   insu > 64: tested_negative (30.0)

Number of Leaves  : 	39

Size of the tree : 	77


Weight: 2.18

J48 pruned tree
------------------

age <= 60
|   insu <= 170
|   |   pedi <= 0.153
|   |   |   mass <= 35.5
|   |   |   |   age <= 34: tested_negative (5.0/1.0)
|   |   |   |   age > 34: tested_positive (12.0/1.0)
|   |   |   mass > 35.5: tested_positive (14.0)
|   |   pedi > 0.153
|   |   |   pedi <= 0.218: tested_negative (44.0)
|   |   |   pedi > 0.218
|   |   |   |   insu <= 36
|   |   |   |   |   insu <= 0
|   |   |   |   |   |   pedi <= 0.237: tested_positive (12.0)
|   |   |   |   |   |   pedi > 0.237
|   |   |   |   |   |   |   plas <= 160
|   |   |   |   |   |   |   |   plas <= 140
|   |   |   |   |   |   |   |   |   mass <= 27.1
|   |   |   |   |   |   |   |   |   |   plas <= 133: tested_negative (12.0)
|   |   |   |   |   |   |   |   |   |   plas > 133: tested_positive (2.0)
|   |   |   |   |   |   |   |   |   mass > 27.1
|   |   |   |   |   |   |   |   |   |   skin <= 40
|   |   |   |   |   |   |   |   |   |   |   mass <= 38.1
|   |   |   |   |   |   |   |   |   |   |   |   plas <= 129
|   |   |   |   |   |   |   |   |   |   |   |   |   pres <= 56: tested_negative (3.0)
|   |   |   |   |   |   |   |   |   |   |   |   |   pres > 56
|   |   |   |   |   |   |   |   |   |   |   |   |   |   preg <= 4
|   |   |   |   |   |   |   |   |   |   |   |   |   |   |   pres <= 65: tested_positive (3.0)
|   |   |   |   |   |   |   |   |   |   |   |   |   |   |   pres > 65: tested_negative (6.0/1.0)
|   |   |   |   |   |   |   |   |   |   |   |   |   |   preg > 4
|   |   |   |   |   |   |   |   |   |   |   |   |   |   |   pres <= 76: tested_positive (31.0)
|   |   |   |   |   |   |   |   |   |   |   |   |   |   |   pres > 76
|   |   |   |   |   |   |   |   |   |   |   |   |   |   |   |   age <= 47: tested_negative (3.0)
|   |   |   |   |   |   |   |   |   |   |   |   |   |   |   |   age > 47: tested_positive (3.0)
|   |   |   |   |   |   |   |   |   |   |   |   plas > 129: tested_positive (11.0)
|   |   |   |   |   |   |   |   |   |   |   mass > 38.1
|   |   |   |   |   |   |   |   |   |   |   |   age <= 41: tested_negative (8.0)
|   |   |   |   |   |   |   |   |   |   |   |   age > 41: tested_positive (2.0)
|   |   |   |   |   |   |   |   |   |   skin > 40: tested_negative (3.0)
|   |   |   |   |   |   |   |   plas > 140: tested_negative (21.0/1.0)
|   |   |   |   |   |   |   plas > 160: tested_positive (11.0)
|   |   |   |   |   insu > 0: tested_positive (11.0)
|   |   |   |   insu > 36
|   |   |   |   |   preg <= 1
|   |   |   |   |   |   pedi <= 0.345: tested_negative (6.0)
|   |   |   |   |   |   pedi > 0.345
|   |   |   |   |   |   |   pres <= 62: tested_negative (6.0/1.0)
|   |   |   |   |   |   |   pres > 62
|   |   |   |   |   |   |   |   pres <= 78: tested_positive (9.0)
|   |   |   |   |   |   |   |   pres > 78
|   |   |   |   |   |   |   |   |   mass <= 35.7: tested_positive (2.0)
|   |   |   |   |   |   |   |   |   mass > 35.7: tested_negative (2.0)
|   |   |   |   |   preg > 1
|   |   |   |   |   |   mass <= 34.9
|   |   |   |   |   |   |   pedi <= 0.254
|   |   |   |   |   |   |   |   preg <= 3: tested_positive (4.0)
|   |   |   |   |   |   |   |   preg > 3: tested_negative (7.0)
|   |   |   |   |   |   |   pedi > 0.254: tested_negative (62.0/1.0)
|   |   |   |   |   |   mass > 34.9
|   |   |   |   |   |   |   pres <= 75: tested_positive (4.0)
|   |   |   |   |   |   |   pres > 75: tested_negative (5.0)
|   insu > 170
|   |   age <= 26
|   |   |   plas <= 167
|   |   |   |   plas <= 135
|   |   |   |   |   pres <= 62: tested_negative (2.0)
|   |   |   |   |   pres > 62: tested_positive (4.0/1.0)
|   |   |   |   plas > 135: tested_negative (11.0)
|   |   |   plas > 167: tested_positive (3.0)
|   |   age > 26
|   |   |   pres <= 70
|   |   |   |   skin <= 28: tested_positive (17.0)
|   |   |   |   skin > 28
|   |   |   |   |   plas <= 135: tested_negative (3.0)
|   |   |   |   |   plas > 135
|   |   |   |   |   |   plas <= 191: tested_positive (24.0/1.0)
|   |   |   |   |   |   plas > 191: tested_negative (2.0)
|   |   |   pres > 70: tested_positive (38.0)
age > 60: tested_negative (33.0/1.0)

Number of Leaves  : 	40

Size of the tree : 	79


Weight: 2.19

J48 pruned tree
------------------

plas <= 103
|   mass <= 44.1
|   |   age <= 24
|   |   |   age <= 23: tested_negative (5.0)
|   |   |   age > 23: tested_positive (5.0)
|   |   age > 24
|   |   |   age <= 38: tested_negative (37.0)
|   |   |   age > 38
|   |   |   |   skin <= 15: tested_positive (3.0)
|   |   |   |   skin > 15: tested_negative (22.0/1.0)
|   mass > 44.1: tested_positive (5.0)
plas > 103
|   preg <= 7
|   |   pres <= 100
|   |   |   skin <= 41
|   |   |   |   plas <= 189
|   |   |   |   |   mass <= 44.5
|   |   |   |   |   |   pres <= 84
|   |   |   |   |   |   |   preg <= 6
|   |   |   |   |   |   |   |   age <= 49
|   |   |   |   |   |   |   |   |   age <= 38
|   |   |   |   |   |   |   |   |   |   mass <= 26.5: tested_negative (7.0)
|   |   |   |   |   |   |   |   |   |   mass > 26.5
|   |   |   |   |   |   |   |   |   |   |   plas <= 157
|   |   |   |   |   |   |   |   |   |   |   |   age <= 24
|   |   |   |   |   |   |   |   |   |   |   |   |   pres <= 0: tested_positive (4.0)
|   |   |   |   |   |   |   |   |   |   |   |   |   pres > 0
|   |   |   |   |   |   |   |   |   |   |   |   |   |   preg <= 1
|   |   |   |   |   |   |   |   |   |   |   |   |   |   |   insu <= 135
|   |   |   |   |   |   |   |   |   |   |   |   |   |   |   |   mass <= 32.8: tested_negative (2.0)
|   |   |   |   |   |   |   |   |   |   |   |   |   |   |   |   mass > 32.8: tested_positive (6.0)
|   |   |   |   |   |   |   |   |   |   |   |   |   |   |   insu > 135: tested_negative (7.0)
|   |   |   |   |   |   |   |   |   |   |   |   |   |   preg > 1: tested_negative (9.0)
|   |   |   |   |   |   |   |   |   |   |   |   age > 24
|   |   |   |   |   |   |   |   |   |   |   |   |   plas <= 146
|   |   |   |   |   |   |   |   |   |   |   |   |   |   plas <= 110
|   |   |   |   |   |   |   |   |   |   |   |   |   |   |   mass <= 35.7: tested_negative (12.0)
|   |   |   |   |   |   |   |   |   |   |   |   |   |   |   mass > 35.7: tested_positive (3.0)
|   |   |   |   |   |   |   |   |   |   |   |   |   |   plas > 110
|   |   |   |   |   |   |   |   |   |   |   |   |   |   |   age <= 32
|   |   |   |   |   |   |   |   |   |   |   |   |   |   |   |   preg <= 2
|   |   |   |   |   |   |   |   |   |   |   |   |   |   |   |   |   pres <= 78
|   |   |   |   |   |   |   |   |   |   |   |   |   |   |   |   |   |   pedi <= 0.329
|   |   |   |   |   |   |   |   |   |   |   |   |   |   |   |   |   |   |   pres <= 30: tested_positive (5.0)
|   |   |   |   |   |   |   |   |   |   |   |   |   |   |   |   |   |   |   pres > 30: tested_negative (4.0)
|   |   |   |   |   |   |   |   |   |   |   |   |   |   |   |   |   |   pedi > 0.329: tested_positive (13.0)
|   |   |   |   |   |   |   |   |   |   |   |   |   |   |   |   |   pres > 78: tested_negative (3.0)
|   |   |   |   |   |   |   |   |   |   |   |   |   |   |   |   preg > 2
|   |   |   |   |   |   |   |   |   |   |   |   |   |   |   |   |   pedi <= 0.395: tested_positive (22.0)
|   |   |   |   |   |   |   |   |   |   |   |   |   |   |   |   |   pedi > 0.395: tested_negative (3.0/1.0)
|   |   |   |   |   |   |   |   |   |   |   |   |   |   |   age > 32: tested_positive (24.0)
|   |   |   |   |   |   |   |   |   |   |   |   |   plas > 146: tested_negative (5.0)
|   |   |   |   |   |   |   |   |   |   |   plas > 157: tested_positive (20.0)
|   |   |   |   |   |   |   |   |   age > 38
|   |   |   |   |   |   |   |   |   |   plas <= 114: tested_positive (2.0)
|   |   |   |   |   |   |   |   |   |   plas > 114: tested_negative (17.0/1.0)
|   |   |   |   |   |   |   |   age > 49: tested_positive (12.0)
|   |   |   |   |   |   |   preg > 6: tested_positive (14.0)
|   |   |   |   |   |   pres > 84
|   |   |   |   |   |   |   preg <= 3: tested_positive (9.0/1.0)
|   |   |   |   |   |   |   preg > 3: tested_negative (27.0)
|   |   |   |   |   mass > 44.5: tested_negative (12.0)
|   |   |   |   plas > 189: tested_negative (14.0)
|   |   |   skin > 41
|   |   |   |   skin <= 54: tested_negative (18.0)
|   |   |   |   skin > 54: tested_positive (2.0)
|   |   pres > 100: tested_positive (16.0)
|   preg > 7
|   |   age <= 51
|   |   |   pres <= 68
|   |   |   |   pres <= 66: tested_positive (10.0)
|   |   |   |   pres > 66: tested_negative (4.0)
|   |   |   pres > 68: tested_positive (52.0/1.0)
|   |   age > 51
|   |   |   plas <= 145: tested_negative (17.0)
|   |   |   plas > 145: tested_positive (9.0/1.0)

Number of Leaves  : 	39

Size of the tree : 	77


Weight: 2.51

J48 pruned tree
------------------

age <= 62
|   pedi <= 0.198
|   |   mass <= 33.3
|   |   |   pres <= 72: tested_negative (14.0/1.0)
|   |   |   pres > 72: tested_positive (5.0/1.0)
|   |   mass > 33.3: tested_negative (20.0)
|   pedi > 0.198
|   |   skin <= 43
|   |   |   pedi <= 1.292
|   |   |   |   pedi <= 1.174
|   |   |   |   |   age <= 42
|   |   |   |   |   |   preg <= 8
|   |   |   |   |   |   |   mass <= 28.2
|   |   |   |   |   |   |   |   age <= 38
|   |   |   |   |   |   |   |   |   age <= 26
|   |   |   |   |   |   |   |   |   |   preg <= 2: tested_negative (7.0)
|   |   |   |   |   |   |   |   |   |   preg > 2: tested_positive (5.0)
|   |   |   |   |   |   |   |   |   age > 26: tested_positive (29.0/1.0)
|   |   |   |   |   |   |   |   age > 38: tested_negative (2.0)
|   |   |   |   |   |   |   mass > 28.2
|   |   |   |   |   |   |   |   plas <= 133
|   |   |   |   |   |   |   |   |   pedi <= 0.261
|   |   |   |   |   |   |   |   |   |   insu <= 88: tested_positive (17.0)
|   |   |   |   |   |   |   |   |   |   insu > 88: tested_negative (7.0)
|   |   |   |   |   |   |   |   |   pedi > 0.261
|   |   |   |   |   |   |   |   |   |   insu <= 99
|   |   |   |   |   |   |   |   |   |   |   preg <= 1
|   |   |   |   |   |   |   |   |   |   |   |   pedi <= 0.269: tested_negative (3.0)
|   |   |   |   |   |   |   |   |   |   |   |   pedi > 0.269: tested_positive (12.0/1.0)
|   |   |   |   |   |   |   |   |   |   |   preg > 1: tested_negative (33.0/1.0)
|   |   |   |   |   |   |   |   |   |   insu > 99
|   |   |   |   |   |   |   |   |   |   |   preg <= 2: tested_negative (24.0)
|   |   |   |   |   |   |   |   |   |   |   preg > 2: tested_positive (3.0/1.0)
|   |   |   |   |   |   |   |   plas > 133
|   |   |   |   |   |   |   |   |   mass <= 31.2
|   |   |   |   |   |   |   |   |   |   pedi <= 0.305: tested_negative (22.0/1.0)
|   |   |   |   |   |   |   |   |   |   pedi > 0.305: tested_positive (5.0)
|   |   |   |   |   |   |   |   |   mass > 31.2
|   |   |   |   |   |   |   |   |   |   pres <= 66: tested_negative (4.0/1.0)
|   |   |   |   |   |   |   |   |   |   pres > 66
|   |   |   |   |   |   |   |   |   |   |   plas <= 150
|   |   |   |   |   |   |   |   |   |   |   |   plas <= 139: tested_positive (16.0)
|   |   |   |   |   |   |   |   |   |   |   |   plas > 139
|   |   |   |   |   |   |   |   |   |   |   |   |   pres <= 70: tested_positive (3.0)
|   |   |   |   |   |   |   |   |   |   |   |   |   pres > 70
|   |   |   |   |   |   |   |   |   |   |   |   |   |   age <= 33: tested_negative (5.0)
|   |   |   |   |   |   |   |   |   |   |   |   |   |   age > 33: tested_positive (3.0/1.0)
|   |   |   |   |   |   |   |   |   |   |   plas > 150: tested_positive (21.0)
|   |   |   |   |   |   preg > 8
|   |   |   |   |   |   |   age <= 33: tested_positive (2.0)
|   |   |   |   |   |   |   age > 33
|   |   |   |   |   |   |   |   plas <= 105
|   |   |   |   |   |   |   |   |   preg <= 12: tested_negative (3.0)
|   |   |   |   |   |   |   |   |   preg > 12: tested_positive (3.0)
|   |   |   |   |   |   |   |   plas > 105: tested_negative (25.0)
|   |   |   |   |   age > 42
|   |   |   |   |   |   pres <= 70: tested_negative (6.0)
|   |   |   |   |   |   pres > 70
|   |   |   |   |   |   |   mass <= 31.2
|   |   |   |   |   |   |   |   preg <= 5: tested_positive (8.0)
|   |   |   |   |   |   |   |   preg > 5
|   |   |   |   |   |   |   |   |   plas <= 146
|   |   |   |   |   |   |   |   |   |   plas <= 90: tested_positive (2.0)
|   |   |   |   |   |   |   |   |   |   plas > 90: tested_negative (13.0)
|   |   |   |   |   |   |   |   |   plas > 146: tested_positive (3.0)
|   |   |   |   |   |   |   mass > 31.2: tested_positive (38.0)
|   |   |   |   pedi > 1.174: tested_positive (22.0)
|   |   |   pedi > 1.292
|   |   |   |   pres <= 54: tested_positive (2.0)
|   |   |   |   pres > 54: tested_negative (17.0)
|   |   skin > 43
|   |   |   pres <= 68: tested_negative (3.0)
|   |   |   pres > 68: tested_positive (26.0)
age > 62
|   preg <= 3: tested_positive (2.0)
|   preg > 3: tested_negative (26.0)

Number of Leaves  : 	39

Size of the tree : 	77


Weight: 2.47

J48 pruned tree
------------------

mass <= 27.3
|   insu <= 135: tested_negative (42.0/3.0)
|   insu > 135: tested_positive (3.0/1.0)
mass > 27.3
|   plas <= 167
|   |   pedi <= 0.153
|   |   |   pedi <= 0.107: tested_negative (3.0)
|   |   |   pedi > 0.107: tested_positive (57.0/2.0)
|   |   pedi > 0.153
|   |   |   pres <= 82
|   |   |   |   plas <= 103
|   |   |   |   |   preg <= 10
|   |   |   |   |   |   pres <= 54
|   |   |   |   |   |   |   age <= 29: tested_positive (6.0)
|   |   |   |   |   |   |   age > 29: tested_negative (2.0)
|   |   |   |   |   |   pres > 54
|   |   |   |   |   |   |   pres <= 80: tested_negative (41.0)
|   |   |   |   |   |   |   pres > 80: tested_positive (3.0/1.0)
|   |   |   |   |   preg > 10: tested_positive (12.0/1.0)
|   |   |   |   plas > 103
|   |   |   |   |   pres <= 61
|   |   |   |   |   |   insu <= 0: tested_positive (14.0)
|   |   |   |   |   |   insu > 0: tested_negative (18.0/1.0)
|   |   |   |   |   pres > 61
|   |   |   |   |   |   pedi <= 0.302
|   |   |   |   |   |   |   skin <= 38
|   |   |   |   |   |   |   |   pres <= 74
|   |   |   |   |   |   |   |   |   pedi <= 0.205: tested_positive (4.0)
|   |   |   |   |   |   |   |   |   pedi > 0.205
|   |   |   |   |   |   |   |   |   |   insu <= 0
|   |   |   |   |   |   |   |   |   |   |   skin <= 7: tested_negative (7.0/1.0)
|   |   |   |   |   |   |   |   |   |   |   skin > 7: tested_positive (2.0)
|   |   |   |   |   |   |   |   |   |   insu > 0: tested_negative (13.0)
|   |   |   |   |   |   |   |   pres > 74: tested_positive (12.0)
|   |   |   |   |   |   |   skin > 38: tested_negative (8.0)
|   |   |   |   |   |   pedi > 0.302
|   |   |   |   |   |   |   preg <= 1
|   |   |   |   |   |   |   |   pres <= 68: tested_positive (15.0)
|   |   |   |   |   |   |   |   pres > 68
|   |   |   |   |   |   |   |   |   mass <= 46.7: tested_negative (13.0)
|   |   |   |   |   |   |   |   |   mass > 46.7: tested_positive (4.0)
|   |   |   |   |   |   |   preg > 1
|   |   |   |   |   |   |   |   skin <= 29
|   |   |   |   |   |   |   |   |   plas <= 141: tested_positive (57.0)
|   |   |   |   |   |   |   |   |   plas > 141
|   |   |   |   |   |   |   |   |   |   preg <= 6: tested_negative (4.0)
|   |   |   |   |   |   |   |   |   |   preg > 6: tested_positive (2.0)
|   |   |   |   |   |   |   |   skin > 29
|   |   |   |   |   |   |   |   |   pres <= 70: tested_negative (6.0)
|   |   |   |   |   |   |   |   |   pres > 70
|   |   |   |   |   |   |   |   |   |   skin <= 31: tested_negative (2.0)
