
Options: -R -N 5 -Q 1 -M 3 

J48 pruned tree
------------------

input14 <= 50
|   input16 <= 19
|   |   input11 <= 42
|   |   |   input15 <= 45
|   |   |   |   input16 <= 1: 1 (66.0/9.0)
|   |   |   |   input16 > 1: 6 (7.0)
|   |   |   input15 > 45
|   |   |   |   input4 <= 98
|   |   |   |   |   input13 <= 55
|   |   |   |   |   |   input8 <= 40: 2 (3.0/1.0)
|   |   |   |   |   |   input8 > 40
|   |   |   |   |   |   |   input7 <= 66: 1 (59.0/4.0)
|   |   |   |   |   |   |   input7 > 66: 2 (30.0/13.0)
|   |   |   |   |   input13 > 55: 2 (14.0/2.0)
|   |   |   |   input4 > 98
|   |   |   |   |   input9 <= 35
|   |   |   |   |   |   input5 <= 49
|   |   |   |   |   |   |   input13 <= 55
|   |   |   |   |   |   |   |   input6 <= 77
|   |   |   |   |   |   |   |   |   input9 <= 11: 2 (5.0/1.0)
|   |   |   |   |   |   |   |   |   input9 > 11: 1 (3.0)
|   |   |   |   |   |   |   |   input6 > 77: 1 (13.0)
|   |   |   |   |   |   |   input13 > 55: 2 (45.0/1.0)
|   |   |   |   |   |   input5 > 49: 2 (307.0/10.0)
|   |   |   |   |   input9 > 35
|   |   |   |   |   |   input7 <= 68
|   |   |   |   |   |   |   input10 <= 29: 1 (36.0/1.0)
|   |   |   |   |   |   |   input10 > 29: 2 (7.0/1.0)
|   |   |   |   |   |   input7 > 68: 2 (76.0/14.0)
|   |   input11 > 42
|   |   |   input6 <= 69
|   |   |   |   input10 <= 15
|   |   |   |   |   input15 <= 64: 6 (144.0)
|   |   |   |   |   input15 > 64: 4 (7.0)
|   |   |   |   input10 > 15
|   |   |   |   |   input8 <= 63
|   |   |   |   |   |   input16 <= 1: 4 (398.0/2.0)
|   |   |   |   |   |   input16 > 1
|   |   |   |   |   |   |   input2 <= 86: 9 (4.0)
|   |   |   |   |   |   |   input2 > 86: 3 (4.0)
|   |   |   |   |   input8 > 63
|   |   |   |   |   |   input2 <= 51: 1 (16.0)
|   |   |   |   |   |   input2 > 51
|   |   |   |   |   |   |   input11 <= 64: 4 (4.0)
|   |   |   |   |   |   |   input11 > 64: 9 (67.0/2.0)
|   |   |   input6 > 69
|   |   |   |   input4 <= 87
|   |   |   |   |   input1 <= 21
|   |   |   |   |   |   input7 <= 48
|   |   |   |   |   |   |   input2 <= 45: 8 (3.0)
|   |   |   |   |   |   |   input2 > 45: 9 (23.0)
|   |   |   |   |   |   input7 > 48
|   |   |   |   |   |   |   input9 <= 50: 9 (4.0/1.0)
|   |   |   |   |   |   |   input9 > 50
|   |   |   |   |   |   |   |   input5 <= 40: 7 (16.0/3.0)
|   |   |   |   |   |   |   |   input5 > 40: 1 (211.0)
|   |   |   |   |   input1 > 21
|   |   |   |   |   |   input13 <= 26: 1 (8.0/2.0)
|   |   |   |   |   |   input13 > 26: 9 (163.0/4.0)
|   |   |   |   input4 > 87
|   |   |   |   |   input5 <= 57
|   |   |   |   |   |   input1 <= 38
|   |   |   |   |   |   |   input7 <= 61
|   |   |   |   |   |   |   |   input6 <= 85
|   |   |   |   |   |   |   |   |   input7 <= 18: 4 (9.0)
|   |   |   |   |   |   |   |   |   input7 > 18: 3 (9.0/3.0)
|   |   |   |   |   |   |   |   input6 > 85: 5 (16.0/1.0)
|   |   |   |   |   |   |   input7 > 61: 7 (21.0/1.0)
|   |   |   |   |   |   input1 > 38
|   |   |   |   |   |   |   input10 <= 56
|   |   |   |   |   |   |   |   input10 <= 17: 6 (7.0)
|   |   |   |   |   |   |   |   input10 > 17
|   |   |   |   |   |   |   |   |   input14 <= 18
|   |   |   |   |   |   |   |   |   |   input8 <= 74: 5 (64.0/4.0)
|   |   |   |   |   |   |   |   |   |   input8 > 74: 9 (11.0)
|   |   |   |   |   |   |   |   |   input14 > 18: 4 (12.0)
|   |   |   |   |   |   |   input10 > 56
|   |   |   |   |   |   |   |   input9 <= 63: 5 (26.0/8.0)
|   |   |   |   |   |   |   |   input9 > 63
|   |   |   |   |   |   |   |   |   input2 <= 92: 9 (106.0/1.0)
|   |   |   |   |   |   |   |   |   input2 > 92
|   |   |   |   |   |   |   |   |   |   input8 <= 70: 5 (5.0/2.0)
|   |   |   |   |   |   |   |   |   |   input8 > 70: 9 (23.0/1.0)
|   |   |   |   |   input5 > 57
|   |   |   |   |   |   input14 <= 16
|   |   |   |   |   |   |   input3 <= 89
|   |   |   |   |   |   |   |   input15 <= 61
|   |   |   |   |   |   |   |   |   input1 <= 62
|   |   |   |   |   |   |   |   |   |   input12 <= 31
|   |   |   |   |   |   |   |   |   |   |   input4 <= 97
|   |   |   |   |   |   |   |   |   |   |   |   input15 <= 1: 3 (12.0/2.0)
|   |   |   |   |   |   |   |   |   |   |   |   input15 > 1: 1 (3.0/1.0)
|   |   |   |   |   |   |   |   |   |   |   input4 > 97: 3 (341.0/1.0)
|   |   |   |   |   |   |   |   |   |   input12 > 31
|   |   |   |   |   |   |   |   |   |   |   input3 <= 52: 3 (19.0)
|   |   |   |   |   |   |   |   |   |   |   input3 > 52: 5 (12.0/1.0)
|   |   |   |   |   |   |   |   |   input1 > 62: 9 (20.0/7.0)
|   |   |   |   |   |   |   |   input15 > 61
|   |   |   |   |   |   |   |   |   input3 <= 58: 2 (4.0/2.0)
|   |   |   |   |   |   |   |   |   input3 > 58: 1 (4.0)
|   |   |   |   |   |   |   input3 > 89
|   |   |   |   |   |   |   |   input7 <= 62: 5 (57.0)
|   |   |   |   |   |   |   |   input7 > 62
|   |   |   |   |   |   |   |   |   input6 <= 88: 3 (10.0/1.0)
|   |   |   |   |   |   |   |   |   input6 > 88: 9 (3.0/1.0)
|   |   |   |   |   |   input14 > 16: 7 (33.0/11.0)
|   input16 > 19
|   |   input7 <= 27
|   |   |   input15 <= 63
|   |   |   |   input10 <= 33: 6 (244.0)
|   |   |   |   input10 > 33: 8 (13.0/2.0)
|   |   |   input15 > 63
|   |   |   |   input13 <= 49: 8 (7.0/2.0)
|   |   |   |   input13 > 49: 0 (14.0)
|   |   input7 > 27
|   |   |   input1 <= 53
|   |   |   |   input14 <= 12
|   |   |   |   |   input15 <= 94
|   |   |   |   |   |   input4 <= 99: 8 (9.0/5.0)
|   |   |   |   |   |   input4 > 99: 3 (18.0/1.0)
|   |   |   |   |   input15 > 94: 2 (17.0)
|   |   |   |   input14 > 12
|   |   |   |   |   input16 <= 62
|   |   |   |   |   |   input2 <= 64: 8 (4.0/1.0)
|   |   |   |   |   |   input2 > 64
|   |   |   |   |   |   |   input9 <= 9: 2 (4.0/2.0)
|   |   |   |   |   |   |   input9 > 9: 7 (359.0/1.0)
|   |   |   |   |   input16 > 62: 8 (16.0/1.0)
|   |   |   input1 > 53
|   |   |   |   input11 <= 56: 8 (59.0)
|   |   |   |   input11 > 56
|   |   |   |   |   input14 <= 12: 9 (11.0/4.0)
|   |   |   |   |   input14 > 12: 6 (7.0/1.0)
input14 > 50
|   input15 <= 95
|   |   input9 <= 56
|   |   |   input13 <= 20: 5 (5.0/1.0)
|   |   |   input13 > 20
|   |   |   |   input16 <= 54: 6 (8.0/4.0)
|   |   |   |   input16 > 54
|   |   |   |   |   input5 <= 20: 0 (32.0/15.0)
|   |   |   |   |   input5 > 20: 8 (209.0)
|   |   input9 > 56
|   |   |   input6 <= 55
|   |   |   |   input2 <= 14: 9 (7.0)
|   |   |   |   input2 > 14
|   |   |   |   |   input3 <= 37
|   |   |   |   |   |   input14 <= 60
|   |   |   |   |   |   |   input8 <= 7: 6 (3.0/1.0)
|   |   |   |   |   |   |   input8 > 7: 0 (6.0/1.0)
|   |   |   |   |   |   input14 > 60: 0 (409.0/1.0)
|   |   |   |   |   input3 > 37: 0 (8.0/5.0)
|   |   |   input6 > 55
|   |   |   |   input7 <= 23: 0 (8.0/2.0)
|   |   |   |   input7 > 23: 8 (24.0/2.0)
|   input15 > 95
|   |   input14 <= 75
|   |   |   input1 <= 32: 7 (24.0/2.0)
|   |   |   input1 > 32: 8 (60.0)
|   |   input14 > 75: 5 (242.0/1.0)

Number of Leaves  : 	81

Size of the tree : 	161


Time taken to build model: 0.29 seconds
Time taken to test model on training data: 0.1 seconds

=== Error on training data ===

Correctly Classified Instances        5274               95.9607 %
Incorrectly Classified Instances       222                4.0393 %
Kappa statistic                          0.9551
Mean absolute error                      0.0128
Root mean squared error                  0.0813
Relative absolute error                  7.0993 %
Root relative squared error             27.1125 %
Total Number of Instances             5496     


=== Confusion Matrix ===

   a   b   c   d   e   f   g   h   i   j   <-- classified as
 564   1   0   0   0   0   4   0   0   0 |   a = 0
   0 510  40   7   0   2   0   5   0   5 |   b = 1
   2   8 577   0   0   1   0   1   1   0 |   c = 2
   0   2   1 507   1   2   0   3   0   9 |   d = 3
   3   2   0   0 533   3   0   0   0   4 |   e = 4
   0   4   0   4   0 507   0   4   2   6 |   f = 5
   5   0   0   0   1   1 519   2   0   0 |   g = 6
   0   5   7   0   0   1   0 543  11   3 |   h = 7
  22   0   2   0   0   0   3   1 488   2 |   i = 8
   0   3   1   2   1  12   1   4   5 526 |   j = 9


=== Error on test data ===

Correctly Classified Instances        3083               93.4809 %
Incorrectly Classified Instances       215                6.5191 %
Kappa statistic                          0.9275
Mean absolute error                      0.0169
Root mean squared error                  0.1043
Relative absolute error                  9.376  %
Root relative squared error             34.7761 %
Total Number of Instances             3298     


=== Confusion Matrix ===

   a   b   c   d   e   f   g   h   i   j   <-- classified as
 335   0   0   0   1   0   0   0   1   0 |   a = 0
   0 322  28   2   0   3   0   5   0   6 |   b = 1
   1  12 312   1   0   0   0   4   0   0 |   c = 2
   0   5   1 283   3  11   0   1   1   9 |   d = 3
   2   2   0   1 348   3   0   0   0   3 |   e = 4
   1   1   0   3   0 291   0   1   9   5 |   f = 5
   4   0   0   1   1   0 311   2   0   0 |   g = 6
   0   9   9   1   0   0   1 317   7   0 |   h = 7
  18   0   1   0   0   1   3   5 296   0 |   i = 8
   0   1   1   2   4   9   0   2   7 268 |   j = 9

