
Options: -Q -P 100 -S 1 -I 10 -W weka.classifiers.trees.J48 -- -C 0.25 -M 2 

AdaBoostM1: Base classifiers and their weights: 

J48 pruned tree
------------------

input14 <= 50
|   input16 <= 19
|   |   input11 <= 42
|   |   |   input15 <= 41
|   |   |   |   input16 <= 1
|   |   |   |   |   input13 <= 26
|   |   |   |   |   |   input3 <= 11: 7 (5.0)
|   |   |   |   |   |   input3 > 11
|   |   |   |   |   |   |   input14 <= 28: 1 (85.0)
|   |   |   |   |   |   |   input14 > 28: 0 (2.0)
|   |   |   |   |   input13 > 26
|   |   |   |   |   |   input5 <= 50: 9 (3.0)
|   |   |   |   |   |   input5 > 50: 5 (5.0)
|   |   |   |   input16 > 1: 6 (12.0)
|   |   |   input15 > 41
|   |   |   |   input4 <= 91
|   |   |   |   |   input14 <= 27
|   |   |   |   |   |   input12 <= 6
|   |   |   |   |   |   |   input1 <= 15: 1 (57.0)
|   |   |   |   |   |   |   input1 > 15
|   |   |   |   |   |   |   |   input8 <= 63
|   |   |   |   |   |   |   |   |   input3 <= 38: 2 (5.0)
|   |   |   |   |   |   |   |   |   input3 > 38: 1 (2.0)
|   |   |   |   |   |   |   |   input8 > 63: 1 (8.0)
|   |   |   |   |   |   input12 > 6
|   |   |   |   |   |   |   input4 <= 84: 1 (6.0)
|   |   |   |   |   |   |   input4 > 84: 2 (7.0/1.0)
|   |   |   |   |   input14 > 27: 9 (2.0)
|   |   |   |   input4 > 91
|   |   |   |   |   input16 <= 16
|   |   |   |   |   |   input12 <= 8
|   |   |   |   |   |   |   input9 <= 27
|   |   |   |   |   |   |   |   input5 <= 29: 1 (5.0)
|   |   |   |   |   |   |   |   input5 > 29
|   |   |   |   |   |   |   |   |   input2 <= 58: 1 (5.0/1.0)
|   |   |   |   |   |   |   |   |   input2 > 58
|   |   |   |   |   |   |   |   |   |   input2 <= 74
|   |   |   |   |   |   |   |   |   |   |   input5 <= 41: 1 (3.0)
|   |   |   |   |   |   |   |   |   |   |   input5 > 41
|   |   |   |   |   |   |   |   |   |   |   |   input3 <= 65: 2 (67.0/1.0)
|   |   |   |   |   |   |   |   |   |   |   |   input3 > 65: 1 (2.0)
|   |   |   |   |   |   |   |   |   |   input2 > 74: 2 (131.0)
|   |   |   |   |   |   |   input9 > 27
|   |   |   |   |   |   |   |   input3 <= 31
|   |   |   |   |   |   |   |   |   input5 <= 45: 1 (3.0)
|   |   |   |   |   |   |   |   |   input5 > 45: 2 (37.0)
|   |   |   |   |   |   |   |   input3 > 31
|   |   |   |   |   |   |   |   |   input5 <= 73
|   |   |   |   |   |   |   |   |   |   input2 <= 86: 1 (74.0)
|   |   |   |   |   |   |   |   |   |   input2 > 86: 2 (4.0)
|   |   |   |   |   |   |   |   |   input5 > 73
|   |   |   |   |   |   |   |   |   |   input3 <= 89
|   |   |   |   |   |   |   |   |   |   |   input11 <= 12
|   |   |   |   |   |   |   |   |   |   |   |   input10 <= 2: 1 (3.0)
|   |   |   |   |   |   |   |   |   |   |   |   input10 > 2: 2 (61.0/2.0)
|   |   |   |   |   |   |   |   |   |   |   input11 > 12: 1 (3.0)
|   |   |   |   |   |   |   |   |   |   input3 > 89: 1 (14.0/1.0)
|   |   |   |   |   |   input12 > 8
|   |   |   |   |   |   |   input15 <= 61: 1 (3.0/1.0)
|   |   |   |   |   |   |   input15 > 61: 2 (297.0/4.0)
|   |   |   |   |   input16 > 16
|   |   |   |   |   |   input14 <= 13: 2 (17.0)
|   |   |   |   |   |   input14 > 13: 7 (7.0)
|   |   input11 > 42
|   |   |   input6 <= 69
|   |   |   |   input10 <= 15
|   |   |   |   |   input15 <= 64: 6 (234.0)
|   |   |   |   |   input15 > 64: 4 (11.0)
|   |   |   |   input10 > 15
|   |   |   |   |   input8 <= 63
|   |   |   |   |   |   input16 <= 2: 4 (607.0)
|   |   |   |   |   |   input16 > 2
|   |   |   |   |   |   |   input8 <= 52: 3 (5.0)
|   |   |   |   |   |   |   input8 > 52: 9 (8.0)
|   |   |   |   |   input8 > 63
|   |   |   |   |   |   input2 <= 52: 1 (24.0)
|   |   |   |   |   |   input2 > 52
|   |   |   |   |   |   |   input11 <= 68: 4 (7.0)
|   |   |   |   |   |   |   input11 > 68
|   |   |   |   |   |   |   |   input15 <= 65: 9 (116.0)
|   |   |   |   |   |   |   |   input15 > 65: 4 (3.0)
|   |   |   input6 > 69
|   |   |   |   input4 <= 89
|   |   |   |   |   input1 <= 23
|   |   |   |   |   |   input9 <= 50
|   |   |   |   |   |   |   input16 <= 5: 9 (44.0)
|   |   |   |   |   |   |   input16 > 5: 8 (6.0)
|   |   |   |   |   |   input9 > 50
|   |   |   |   |   |   |   input7 <= 28
|   |   |   |   |   |   |   |   input16 <= 6: 9 (6.0)
|   |   |   |   |   |   |   |   input16 > 6: 8 (2.0)
|   |   |   |   |   |   |   input7 > 28
|   |   |   |   |   |   |   |   input2 <= 78
|   |   |   |   |   |   |   |   |   input3 <= 9
|   |   |   |   |   |   |   |   |   |   input2 <= 60: 1 (19.0)
|   |   |   |   |   |   |   |   |   |   input2 > 60: 7 (8.0)
|   |   |   |   |   |   |   |   |   input3 > 9: 1 (313.0)
|   |   |   |   |   |   |   |   input2 > 78
|   |   |   |   |   |   |   |   |   input11 <= 72: 1 (8.0)
|   |   |   |   |   |   |   |   |   input11 > 72: 7 (24.0/1.0)
|   |   |   |   |   input1 > 23
|   |   |   |   |   |   input13 <= 25: 1 (10.0)
|   |   |   |   |   |   input13 > 25
|   |   |   |   |   |   |   input8 <= 71
|   |   |   |   |   |   |   |   input15 <= 17
|   |   |   |   |   |   |   |   |   input2 <= 56: 3 (2.0)
|   |   |   |   |   |   |   |   |   input2 > 56: 9 (11.0)
|   |   |   |   |   |   |   |   input15 > 17: 4 (4.0)
|   |   |   |   |   |   |   input8 > 71: 9 (203.0/3.0)
|   |   |   |   input4 > 89
|   |   |   |   |   input5 <= 57
|   |   |   |   |   |   input1 <= 40
|   |   |   |   |   |   |   input10 <= 65
|   |   |   |   |   |   |   |   input15 <= 65
|   |   |   |   |   |   |   |   |   input10 <= 19: 1 (9.0)
|   |   |   |   |   |   |   |   |   input10 > 19
|   |   |   |   |   |   |   |   |   |   input6 <= 85: 3 (8.0)
|   |   |   |   |   |   |   |   |   |   input6 > 85: 5 (36.0/1.0)
|   |   |   |   |   |   |   |   input15 > 65
|   |   |   |   |   |   |   |   |   input7 <= 36: 4 (19.0)
|   |   |   |   |   |   |   |   |   input7 > 36: 2 (3.0)
|   |   |   |   |   |   |   input10 > 65: 7 (25.0)
|   |   |   |   |   |   input1 > 40
|   |   |   |   |   |   |   input2 <= 89
|   |   |   |   |   |   |   |   input10 <= 44
|   |   |   |   |   |   |   |   |   input6 <= 75: 6 (2.0)
|   |   |   |   |   |   |   |   |   input6 > 75: 5 (3.0/1.0)
|   |   |   |   |   |   |   |   input10 > 44
|   |   |   |   |   |   |   |   |   input9 <= 76
|   |   |   |   |   |   |   |   |   |   input2 <= 82: 9 (25.0)
|   |   |   |   |   |   |   |   |   |   input2 > 82
|   |   |   |   |   |   |   |   |   |   |   input1 <= 83: 9 (2.0)
|   |   |   |   |   |   |   |   |   |   |   input1 > 83: 5 (6.0)
|   |   |   |   |   |   |   |   |   input9 > 76: 9 (165.0)
|   |   |   |   |   |   |   input2 > 89
|   |   |   |   |   |   |   |   input8 <= 75
|   |   |   |   |   |   |   |   |   input8 <= 41: 6 (10.0)
|   |   |   |   |   |   |   |   |   input8 > 41
|   |   |   |   |   |   |   |   |   |   input14 <= 21
|   |   |   |   |   |   |   |   |   |   |   input15 <= 28: 5 (133.0/1.0)
|   |   |   |   |   |   |   |   |   |   |   input15 > 28: 9 (3.0)
|   |   |   |   |   |   |   |   |   |   input14 > 21
|   |   |   |   |   |   |   |   |   |   |   input2 <= 95: 9 (2.0)
|   |   |   |   |   |   |   |   |   |   |   input2 > 95: 4 (11.0)
|   |   |   |   |   |   |   |   input8 > 75: 9 (37.0)
|   |   |   |   |   input5 > 57
|   |   |   |   |   |   input1 <= 72
|   |   |   |   |   |   |   input3 <= 89
|   |   |   |   |   |   |   |   input8 <= 82
|   |   |   |   |   |   |   |   |   input15 <= 78
|   |   |   |   |   |   |   |   |   |   input10 <= 19
|   |   |   |   |   |   |   |   |   |   |   input8 <= 40: 7 (2.0)
|   |   |   |   |   |   |   |   |   |   |   input8 > 40: 1 (5.0)
|   |   |   |   |   |   |   |   |   |   input10 > 19
|   |   |   |   |   |   |   |   |   |   |   input12 <= 36
|   |   |   |   |   |   |   |   |   |   |   |   input4 <= 97
|   |   |   |   |   |   |   |   |   |   |   |   |   input3 <= 65: 3 (25.0)
|   |   |   |   |   |   |   |   |   |   |   |   |   input3 > 65: 1 (3.0)
|   |   |   |   |   |   |   |   |   |   |   |   input4 > 97: 3 (566.0/1.0)
|   |   |   |   |   |   |   |   |   |   |   input12 > 36
|   |   |   |   |   |   |   |   |   |   |   |   input3 <= 57: 1 (3.0/1.0)
|   |   |   |   |   |   |   |   |   |   |   |   input3 > 57
|   |   |   |   |   |   |   |   |   |   |   |   |   input3 <= 67: 3 (2.0)
|   |   |   |   |   |   |   |   |   |   |   |   |   input3 > 67: 5 (2.0)
|   |   |   |   |   |   |   |   |   input15 > 78
|   |   |   |   |   |   |   |   |   |   input3 <= 38: 2 (4.0)
|   |   |   |   |   |   |   |   |   |   input3 > 38: 1 (3.0/1.0)
|   |   |   |   |   |   |   |   input8 > 82
|   |   |   |   |   |   |   |   |   input7 <= 84
|   |   |   |   |   |   |   |   |   |   input5 <= 68: 9 (2.0)
|   |   |   |   |   |   |   |   |   |   input5 > 68: 5 (15.0)
|   |   |   |   |   |   |   |   |   input7 > 84
|   |   |   |   |   |   |   |   |   |   input12 <= 40
|   |   |   |   |   |   |   |   |   |   |   input2 <= 94: 3 (2.0)
|   |   |   |   |   |   |   |   |   |   |   input2 > 94: 7 (2.0)
|   |   |   |   |   |   |   |   |   |   input12 > 40: 7 (16.0)
|   |   |   |   |   |   |   input3 > 89
|   |   |   |   |   |   |   |   input6 <= 84: 3 (14.0)
|   |   |   |   |   |   |   |   input6 > 84
|   |   |   |   |   |   |   |   |   input15 <= 24: 5 (72.0/1.0)
|   |   |   |   |   |   |   |   |   input15 > 24: 1 (3.0)
|   |   |   |   |   |   input1 > 72
|   |   |   |   |   |   |   input10 <= 36
|   |   |   |   |   |   |   |   input1 <= 88: 3 (2.0)
|   |   |   |   |   |   |   |   input1 > 88: 6 (2.0)
|   |   |   |   |   |   |   input10 > 36
|   |   |   |   |   |   |   |   input11 <= 53: 1 (2.0)
|   |   |   |   |   |   |   |   input11 > 53: 9 (23.0)
|   input16 > 19
|   |   input7 <= 28
|   |   |   input15 <= 65
|   |   |   |   input10 <= 33: 6 (338.0)
|   |   |   |   input10 > 33
|   |   |   |   |   input10 <= 62: 8 (24.0)
|   |   |   |   |   input10 > 62: 9 (5.0/1.0)
|   |   |   input15 > 65
|   |   |   |   input13 <= 50
|   |   |   |   |   input12 <= 19: 8 (8.0)
|   |   |   |   |   input12 > 19: 7 (2.0)
|   |   |   |   input13 > 50
|   |   |   |   |   input15 <= 97: 0 (18.0)
|   |   |   |   |   input15 > 97: 2 (8.0)
|   |   input7 > 28
|   |   |   input14 <= 12
|   |   |   |   input15 <= 12
|   |   |   |   |   input10 <= 51
|   |   |   |   |   |   input16 <= 31: 3 (29.0)
|   |   |   |   |   |   input16 > 31: 5 (4.0/1.0)
|   |   |   |   |   input10 > 51
|   |   |   |   |   |   input2 <= 64: 8 (2.0)
|   |   |   |   |   |   input2 > 64
|   |   |   |   |   |   |   input1 <= 41
|   |   |   |   |   |   |   |   input1 <= 6: 9 (2.0)
|   |   |   |   |   |   |   |   input1 > 6: 5 (2.0)
|   |   |   |   |   |   |   input1 > 41: 9 (17.0)
|   |   |   |   input15 > 12
|   |   |   |   |   input4 <= 99
|   |   |   |   |   |   input8 <= 77: 7 (3.0)
|   |   |   |   |   |   input8 > 77: 8 (7.0)
|   |   |   |   |   input4 > 99: 2 (15.0)
|   |   |   input14 > 12
|   |   |   |   input16 <= 58
|   |   |   |   |   input1 <= 37
|   |   |   |   |   |   input9 <= 6
|   |   |   |   |   |   |   input15 <= 62: 8 (2.0)
|   |   |   |   |   |   |   input15 > 62: 2 (4.0/1.0)
|   |   |   |   |   |   input9 > 6: 7 (559.0/1.0)
|   |   |   |   |   input1 > 37
|   |   |   |   |   |   input16 <= 32: 6 (7.0/1.0)
|   |   |   |   |   |   input16 > 32
|   |   |   |   |   |   |   input6 <= 68: 7 (3.0)
|   |   |   |   |   |   |   input6 > 68: 8 (13.0)
|   |   |   |   input16 > 58
|   |   |   |   |   input12 <= 26: 8 (87.0)
|   |   |   |   |   input12 > 26: 7 (5.0/1.0)
input14 > 50
|   input15 <= 89
|   |   input9 <= 58
|   |   |   input13 <= 20
|   |   |   |   input16 <= 57: 6 (5.0)
|   |   |   |   input16 > 57: 5 (12.0)
|   |   |   input13 > 20
|   |   |   |   input5 <= 21
|   |   |   |   |   input16 <= 56: 6 (9.0)
|   |   |   |   |   input16 > 56
|   |   |   |   |   |   input7 <= 17
|   |   |   |   |   |   |   input10 <= 28: 0 (36.0/1.0)
|   |   |   |   |   |   |   input10 > 28: 8 (3.0)
|   |   |   |   |   |   input7 > 17: 8 (12.0)
|   |   |   |   input5 > 21
|   |   |   |   |   input16 <= 53
|   |   |   |   |   |   input2 <= 91: 8 (4.0)
|   |   |   |   |   |   input2 > 91: 6 (3.0/1.0)
|   |   |   |   |   input16 > 53: 8 (304.0/1.0)
|   |   input9 > 58
|   |   |   input12 <= 26
|   |   |   |   input11 <= 68: 8 (44.0)
|   |   |   |   input11 > 68
|   |   |   |   |   input2 <= 94: 7 (2.0)
|   |   |   |   |   input2 > 94: 0 (3.0)
|   |   |   input12 > 26
|   |   |   |   input2 <= 8: 9 (14.0)
|   |   |   |   input2 > 8
|   |   |   |   |   input6 <= 58
|   |   |   |   |   |   input5 <= 82: 0 (607.0/2.0)
|   |   |   |   |   |   input5 > 82
|   |   |   |   |   |   |   input14 <= 90: 0 (4.0)
|   |   |   |   |   |   |   input14 > 90: 8 (3.0)
|   |   |   |   |   input6 > 58
|   |   |   |   |   |   input8 <= 24: 0 (8.0)
|   |   |   |   |   |   input8 > 24: 8 (7.0)
|   input15 > 89
|   |   input4 <= 80: 5 (341.0/2.0)
|   |   input4 > 80
|   |   |   input1 <= 45
|   |   |   |   input14 <= 65: 7 (31.0)
|   |   |   |   input14 > 65: 5 (2.0)
|   |   |   input1 > 45: 8 (98.0/2.0)

Number of Leaves  : 	140

Size of the tree : 	279


Weight: 3.64

J48 pruned tree
------------------

input16 <= 16
|   input11 <= 40
|   |   input14 <= 30
|   |   |   input8 <= 91
|   |   |   |   input15 <= 45
|   |   |   |   |   input13 <= 35: 1 (41.0)
|   |   |   |   |   input13 > 35: 3 (20.0/1.0)
|   |   |   |   input15 > 45
|   |   |   |   |   input13 <= 55
|   |   |   |   |   |   input5 <= 60
|   |   |   |   |   |   |   input3 <= 26
|   |   |   |   |   |   |   |   input13 <= 46: 1 (10.0)
|   |   |   |   |   |   |   |   input13 > 46
|   |   |   |   |   |   |   |   |   input5 <= 31: 1 (2.0)
|   |   |   |   |   |   |   |   |   input5 > 31: 2 (41.0)
|   |   |   |   |   |   |   input3 > 26
|   |   |   |   |   |   |   |   input6 <= 80
|   |   |   |   |   |   |   |   |   input9 <= 18
|   |   |   |   |   |   |   |   |   |   input3 <= 31: 1 (3.0/1.0)
|   |   |   |   |   |   |   |   |   |   input3 > 31: 2 (20.0)
|   |   |   |   |   |   |   |   |   input9 > 18: 1 (42.0)
|   |   |   |   |   |   |   |   input6 > 80: 1 (250.0/1.0)
|   |   |   |   |   |   input5 > 60
|   |   |   |   |   |   |   input2 <= 75
|   |   |   |   |   |   |   |   input3 <= 57
|   |   |   |   |   |   |   |   |   input4 <= 71: 1 (3.0)
|   |   |   |   |   |   |   |   |   input4 > 71
|   |   |   |   |   |   |   |   |   |   input5 <= 64
|   |   |   |   |   |   |   |   |   |   |   input8 <= 55: 2 (7.0)
|   |   |   |   |   |   |   |   |   |   |   input8 > 55
|   |   |   |   |   |   |   |   |   |   |   |   input8 <= 71: 1 (7.0)
|   |   |   |   |   |   |   |   |   |   |   |   input8 > 71: 2 (2.0)
|   |   |   |   |   |   |   |   |   |   input5 > 64
|   |   |   |   |   |   |   |   |   |   |   input3 <= 31
|   |   |   |   |   |   |   |   |   |   |   |   input13 <= 36: 1 (2.0)
|   |   |   |   |   |   |   |   |   |   |   |   input13 > 36: 2 (10.0)
|   |   |   |   |   |   |   |   |   |   |   input3 > 31: 2 (155.0)
|   |   |   |   |   |   |   |   input3 > 57
|   |   |   |   |   |   |   |   |   input9 <= 36: 2 (51.0)
|   |   |   |   |   |   |   |   |   input9 > 36
|   |   |   |   |   |   |   |   |   |   input14 <= 9
|   |   |   |   |   |   |   |   |   |   |   input6 <= 87
|   |   |   |   |   |   |   |   |   |   |   |   input7 <= 68: 1 (7.0)
|   |   |   |   |   |   |   |   |   |   |   |   input7 > 68: 2 (5.0)
|   |   |   |   |   |   |   |   |   |   |   input6 > 87: 1 (146.0)
|   |   |   |   |   |   |   |   |   |   input14 > 9: 2 (4.0/1.0)
|   |   |   |   |   |   |   input2 > 75
|   |   |   |   |   |   |   |   input2 <= 89: 2 (275.0/3.0)
|   |   |   |   |   |   |   |   input2 > 89
|   |   |   |   |   |   |   |   |   input13 <= 41: 3 (15.0/1.0)
|   |   |   |   |   |   |   |   |   input13 > 41: 2 (19.0)
|   |   |   |   |   input13 > 55
|   |   |   |   |   |   input9 <= 50: 2 (294.0)
|   |   |   |   |   |   input9 > 50
|   |   |   |   |   |   |   input10 <= 16: 1 (2.0)
|   |   |   |   |   |   |   input10 > 16: 2 (5.0)
|   |   |   input8 > 91
|   |   |   |   input11 <= 34: 7 (27.0/1.0)
|   |   |   |   input11 > 34: 1 (34.0/1.0)
|   |   input14 > 30
|   |   |   input6 <= 34: 0 (36.0)
|   |   |   input6 > 34: 4 (18.0/1.0)
|   input11 > 40
|   |   input6 <= 71
|   |   |   input10 <= 19
|   |   |   |   input15 <= 52: 6 (126.0)
|   |   |   |   input15 > 52: 4 (18.0)
|   |   |   input10 > 19
|   |   |   |   input2 <= 94
|   |   |   |   |   input10 <= 51
|   |   |   |   |   |   input2 <= 93
|   |   |   |   |   |   |   input14 <= 14: 3 (10.0)
|   |   |   |   |   |   |   input14 > 14: 4 (3.0)
|   |   |   |   |   |   input2 > 93: 5 (17.0)
|   |   |   |   |   input10 > 51
|   |   |   |   |   |   input6 <= 28: 0 (13.0)
|   |   |   |   |   |   input6 > 28
|   |   |   |   |   |   |   input1 <= 32: 1 (14.0/1.0)
|   |   |   |   |   |   |   input1 > 32: 9 (117.0)
|   |   |   |   input2 > 94
|   |   |   |   |   input10 <= 87
|   |   |   |   |   |   input8 <= 78
|   |   |   |   |   |   |   input14 <= 16
|   |   |   |   |   |   |   |   input4 <= 87: 4 (2.0)
|   |   |   |   |   |   |   |   input4 > 87: 9 (4.0)
|   |   |   |   |   |   |   input14 > 16: 4 (514.0/2.0)
|   |   |   |   |   |   input8 > 78: 9 (18.0)
|   |   |   |   |   input10 > 87
|   |   |   |   |   |   input11 <= 82: 4 (7.0)
|   |   |   |   |   |   input11 > 82: 9 (54.0)
|   |   input6 > 71
|   |   |   input7 <= 55
|   |   |   |   input4 <= 87
|   |   |   |   |   input10 <= 48: 1 (22.0)
|   |   |   |   |   input10 > 48
|   |   |   |   |   |   input2 <= 31: 8 (18.0)
|   |   |   |   |   |   input2 > 31: 9 (159.0)
|   |   |   |   input4 > 87
|   |   |   |   |   input14 <= 20
|   |   |   |   |   |   input2 <= 72
|   |   |   |   |   |   |   input1 <= 29: 1 (4.0/1.0)
|   |   |   |   |   |   |   input1 > 29: 9 (36.0)
|   |   |   |   |   |   input2 > 72
|   |   |   |   |   |   |   input1 <= 15
|   |   |   |   |   |   |   |   input8 <= 67
|   |   |   |   |   |   |   |   |   input10 <= 20: 1 (5.0/1.0)
|   |   |   |   |   |   |   |   |   input10 > 20: 3 (48.0/1.0)
|   |   |   |   |   |   |   |   input8 > 67: 5 (5.0)
|   |   |   |   |   |   |   input1 > 15
|   |   |   |   |   |   |   |   input3 <= 30: 9 (23.0/1.0)
|   |   |   |   |   |   |   |   input3 > 30
|   |   |   |   |   |   |   |   |   input5 <= 7: 9 (8.0)
|   |   |   |   |   |   |   |   |   input5 > 7
|   |   |   |   |   |   |   |   |   |   input9 <= 79
|   |   |   |   |   |   |   |   |   |   |   input14 <= 15: 5 (376.0/2.0)
|   |   |   |   |   |   |   |   |   |   |   input14 > 15
|   |   |   |   |   |   |   |   |   |   |   |   input2 <= 81: 9 (2.0)
|   |   |   |   |   |   |   |   |   |   |   |   input2 > 81: 5 (4.0)
|   |   |   |   |   |   |   |   |   |   input9 > 79
|   |   |   |   |   |   |   |   |   |   |   input5 <= 57: 5 (24.0)
|   |   |   |   |   |   |   |   |   |   |   input5 > 57
|   |   |   |   |   |   |   |   |   |   |   |   input3 <= 92: 3 (20.0)
|   |   |   |   |   |   |   |   |   |   |   |   input3 > 92: 5 (5.0)
|   |   |   |   |   input14 > 20
|   |   |   |   |   |   input2 <= 80: 9 (21.0)
|   |   |   |   |   |   input2 > 80
|   |   |   |   |   |   |   input7 <= 8: 4 (70.0)
|   |   |   |   |   |   |   input7 > 8: 9 (3.0)
|   |   |   input7 > 55
|   |   |   |   input1 <= 55
|   |   |   |   |   input4 <= 85
|   |   |   |   |   |   input5 <= 35
|   |   |   |   |   |   |   input6 <= 92: 1 (2.0)
|   |   |   |   |   |   |   input6 > 92: 7 (33.0)
|   |   |   |   |   |   input5 > 35
|   |   |   |   |   |   |   input3 <= 72: 1 (302.0)
|   |   |   |   |   |   |   input3 > 72
|   |   |   |   |   |   |   |   input2 <= 69: 1 (2.0)
|   |   |   |   |   |   |   |   input2 > 69: 9 (2.0)
|   |   |   |   |   input4 > 85
|   |   |   |   |   |   input14 <= 17
|   |   |   |   |   |   |   input11 <= 58
|   |   |   |   |   |   |   |   input2 <= 89
|   |   |   |   |   |   |   |   |   input1 <= 11: 2 (3.0)
|   |   |   |   |   |   |   |   |   input1 > 11: 1 (2.0)
|   |   |   |   |   |   |   |   input2 > 89: 7 (20.0)
|   |   |   |   |   |   |   input11 > 58
|   |   |   |   |   |   |   |   input15 <= 86
|   |   |   |   |   |   |   |   |   input8 <= 46: 1 (19.0)
|   |   |   |   |   |   |   |   |   input8 > 46
|   |   |   |   |   |   |   |   |   |   input13 <= 15: 1 (16.0)
|   |   |   |   |   |   |   |   |   |   input13 > 15: 3 (374.0/5.0)
|   |   |   |   |   |   |   |   input15 > 86: 1 (27.0/1.0)
|   |   |   |   |   |   input14 > 17
|   |   |   |   |   |   |   input15 <= 63
|   |   |   |   |   |   |   |   input8 <= 80: 1 (3.0)
|   |   |   |   |   |   |   |   input8 > 80: 7 (137.0)
|   |   |   |   |   |   |   input15 > 63: 3 (25.0/1.0)
|   |   |   |   input1 > 55
|   |   |   |   |   input10 <= 56
|   |   |   |   |   |   input7 <= 60: 5 (18.0/1.0)
|   |   |   |   |   |   input7 > 60
|   |   |   |   |   |   |   input13 <= 29: 1 (5.0)
|   |   |   |   |   |   |   input13 > 29
|   |   |   |   |   |   |   |   input5 <= 79: 9 (8.0)
|   |   |   |   |   |   |   |   input5 > 79: 3 (14.0/1.0)
|   |   |   |   |   input10 > 56: 9 (113.0)
input16 > 16
|   input1 <= 14
|   |   input4 <= 82
|   |   |   input2 <= 12: 9 (27.0)
|   |   |   input2 > 12
|   |   |   |   input15 <= 92
|   |   |   |   |   input9 <= 65: 8 (30.0)
|   |   |   |   |   input9 > 65
|   |   |   |   |   |   input14 <= 47: 8 (2.0)
|   |   |   |   |   |   input14 > 47: 0 (62.0)
|   |   |   |   input15 > 92: 5 (35.0)
|   |   input4 > 82
|   |   |   input14 <= 2
|   |   |   |   input15 <= 50
|   |   |   |   |   input1 <= 8: 5 (2.0)
|   |   |   |   |   input1 > 8: 3 (2.0/1.0)
|   |   |   |   input15 > 50: 2 (12.0)
|   |   |   input14 > 2
|   |   |   |   input16 <= 63
|   |   |   |   |   input3 <= 24
|   |   |   |   |   |   input10 <= 26: 7 (11.0)
|   |   |   |   |   |   input10 > 26: 2 (2.0)
|   |   |   |   |   input3 > 24: 7 (358.0)
|   |   |   |   input16 > 63
|   |   |   |   |   input8 <= 36: 7 (3.0/1.0)
|   |   |   |   |   input8 > 36: 8 (5.0)
|   input1 > 14
|   |   input5 <= 49
|   |   |   input16 <= 55
|   |   |   |   input10 <= 26
|   |   |   |   |   input15 <= 72: 6 (336.0)
|   |   |   |   |   input15 > 72: 8 (7.0)
|   |   |   |   input10 > 26
|   |   |   |   |   input12 <= 39
|   |   |   |   |   |   input8 <= 60: 5 (46.0)
|   |   |   |   |   |   input8 > 60: 9 (7.0)
|   |   |   |   |   input12 > 39: 0 (54.0)
|   |   |   input16 > 55
|   |   |   |   input11 <= 33
|   |   |   |   |   input4 <= 87: 5 (56.0)
|   |   |   |   |   input4 > 87: 8 (117.0)
|   |   |   |   input11 > 33
|   |   |   |   |   input11 <= 73
|   |   |   |   |   |   input2 <= 77: 0 (40.0/1.0)
|   |   |   |   |   |   input2 > 77: 8 (28.0/1.0)
|   |   |   |   |   input11 > 73
|   |   |   |   |   |   input5 <= 41
|   |   |   |   |   |   |   input16 <= 59
|   |   |   |   |   |   |   |   input9 <= 67: 6 (3.0)
|   |   |   |   |   |   |   |   input9 > 67: 0 (4.0)
|   |   |   |   |   |   |   input16 > 59
|   |   |   |   |   |   |   |   input10 <= 58: 0 (270.0/1.0)
|   |   |   |   |   |   |   |   input10 > 58: 8 (3.0/1.0)
|   |   |   |   |   |   input5 > 41: 8 (28.0)
|   |   input5 > 49
|   |   |   input9 <= 85
|   |   |   |   input15 <= 99
|   |   |   |   |   input16 <= 26
|   |   |   |   |   |   input14 <= 1
|   |   |   |   |   |   |   input10 <= 50: 3 (6.0)
|   |   |   |   |   |   |   input10 > 50
|   |   |   |   |   |   |   |   input3 <= 85: 9 (3.0)
|   |   |   |   |   |   |   |   input3 > 85: 5 (4.0)
|   |   |   |   |   |   input14 > 1
|   |   |   |   |   |   |   input1 <= 76: 7 (2.0/1.0)
|   |   |   |   |   |   |   input1 > 76: 6 (9.0)
|   |   |   |   |   input16 > 26
|   |   |   |   |   |   input11 <= 9
|   |   |   |   |   |   |   input14 <= 76
|   |   |   |   |   |   |   |   input1 <= 37: 7 (5.0)
|   |   |   |   |   |   |   |   input1 > 37
|   |   |   |   |   |   |   |   |   input16 <= 41: 0 (2.0/1.0)
|   |   |   |   |   |   |   |   |   input16 > 41: 8 (20.0)
|   |   |   |   |   |   |   input14 > 76: 5 (3.0)
|   |   |   |   |   |   input11 > 9
|   |   |   |   |   |   |   input4 <= 94: 8 (263.0)
|   |   |   |   |   |   |   input4 > 94
|   |   |   |   |   |   |   |   input14 <= 36: 7 (3.0)
|   |   |   |   |   |   |   |   input14 > 36: 8 (10.0)
|   |   |   |   input15 > 99
|   |   |   |   |   input16 <= 79
|   |   |   |   |   |   input14 <= 31: 2 (36.0)
|   |   |   |   |   |   input14 > 31
|   |   |   |   |   |   |   input4 <= 90: 8 (2.0)
|   |   |   |   |   |   |   input4 > 90: 7 (10.0)
|   |   |   |   |   input16 > 79
|   |   |   |   |   |   input1 <= 16
|   |   |   |   |   |   |   input6 <= 54: 5 (8.0)
|   |   |   |   |   |   |   input6 > 54: 6 (21.0/1.0)
|   |   |   |   |   |   input1 > 16: 5 (118.0)
|   |   |   input9 > 85
|   |   |   |   input8 <= 66: 3 (32.0/1.0)
|   |   |   |   input8 > 66: 9 (40.0)

Number of Leaves  : 	131

Size of the tree : 	261


Weight: 3.7

J48 pruned tree
------------------

input16 <= 24
|   input15 <= 46
|   |   input10 <= 23
|   |   |   input7 <= 52: 6 (226.0/1.0)
|   |   |   input7 > 52: 1 (6.0)
|   |   input10 > 23
|   |   |   input14 <= 17
|   |   |   |   input4 <= 87
|   |   |   |   |   input15 <= 31
|   |   |   |   |   |   input9 <= 42
|   |   |   |   |   |   |   input4 <= 70: 8 (14.0)
|   |   |   |   |   |   |   input4 > 70: 1 (4.0)
|   |   |   |   |   |   input9 > 42
|   |   |   |   |   |   |   input7 <= 97
|   |   |   |   |   |   |   |   input11 <= 69: 1 (3.0)
|   |   |   |   |   |   |   |   input11 > 69
|   |   |   |   |   |   |   |   |   input2 <= 40: 8 (2.0)
|   |   |   |   |   |   |   |   |   input2 > 40: 9 (192.0)
|   |   |   |   |   |   |   input7 > 97
|   |   |   |   |   |   |   |   input7 <= 99: 3 (10.0)
|   |   |   |   |   |   |   |   input7 > 99: 9 (3.0/1.0)
|   |   |   |   |   input15 > 31: 6 (10.0)
|   |   |   |   input4 > 87
|   |   |   |   |   input5 <= 64
|   |   |   |   |   |   input7 <= 35
|   |   |   |   |   |   |   input2 <= 78: 9 (18.0)
|   |   |   |   |   |   |   input2 > 78
|   |   |   |   |   |   |   |   input6 <= 70: 3 (9.0)
|   |   |   |   |   |   |   |   input6 > 70
|   |   |   |   |   |   |   |   |   input11 <= 34: 1 (3.0/1.0)
|   |   |   |   |   |   |   |   |   input11 > 34
|   |   |   |   |   |   |   |   |   |   input1 <= 5: 3 (4.0/1.0)
|   |   |   |   |   |   |   |   |   |   input1 > 5: 5 (248.0/1.0)
|   |   |   |   |   |   input7 > 35
|   |   |   |   |   |   |   input10 <= 57
|   |   |   |   |   |   |   |   input1 <= 84
|   |   |   |   |   |   |   |   |   input8 <= 63: 3 (9.0)
|   |   |   |   |   |   |   |   |   input8 > 63: 9 (32.0)
|   |   |   |   |   |   |   |   input1 > 84
|   |   |   |   |   |   |   |   |   input7 <= 70
|   |   |   |   |   |   |   |   |   |   input14 <= 13: 5 (48.0)
|   |   |   |   |   |   |   |   |   |   input14 > 13: 1 (2.0)
|   |   |   |   |   |   |   |   |   input7 > 70: 9 (4.0)
|   |   |   |   |   |   |   input10 > 57: 9 (178.0/1.0)
|   |   |   |   |   input5 > 64
|   |   |   |   |   |   input8 <= 75
|   |   |   |   |   |   |   input1 <= 75
|   |   |   |   |   |   |   |   input13 <= 21: 1 (14.0)
|   |   |   |   |   |   |   |   input13 > 21
|   |   |   |   |   |   |   |   |   input3 <= 93
|   |   |   |   |   |   |   |   |   |   input7 <= 88
|   |   |   |   |   |   |   |   |   |   |   input7 <= 45
|   |   |   |   |   |   |   |   |   |   |   |   input1 <= 34: 3 (99.0)
|   |   |   |   |   |   |   |   |   |   |   |   input1 > 34: 5 (18.0)
|   |   |   |   |   |   |   |   |   |   |   input7 > 45: 3 (398.0)
|   |   |   |   |   |   |   |   |   |   input7 > 88
|   |   |   |   |   |   |   |   |   |   |   input3 <= 72: 3 (21.0)
|   |   |   |   |   |   |   |   |   |   |   input3 > 72: 1 (20.0/1.0)
|   |   |   |   |   |   |   |   |   input3 > 93: 5 (24.0)
|   |   |   |   |   |   |   input1 > 75
|   |   |   |   |   |   |   |   input12 <= 24: 9 (18.0)
|   |   |   |   |   |   |   |   input12 > 24: 1 (5.0)
|   |   |   |   |   |   input8 > 75
|   |   |   |   |   |   |   input7 <= 75: 5 (142.0/1.0)
|   |   |   |   |   |   |   input7 > 75
|   |   |   |   |   |   |   |   input6 <= 94: 7 (2.0/1.0)
|   |   |   |   |   |   |   |   input6 > 94: 3 (29.0)
|   |   |   input14 > 17
|   |   |   |   input14 <= 44
|   |   |   |   |   input8 <= 78
|   |   |   |   |   |   input12 <= 42: 5 (23.0/1.0)
|   |   |   |   |   |   input12 > 42
|   |   |   |   |   |   |   input5 <= 80
|   |   |   |   |   |   |   |   input13 <= 64
|   |   |   |   |   |   |   |   |   input2 <= 76: 9 (5.0)
|   |   |   |   |   |   |   |   |   input2 > 76: 4 (163.0)
|   |   |   |   |   |   |   |   input13 > 64: 9 (28.0/1.0)
|   |   |   |   |   |   |   input5 > 80: 3 (9.0)
|   |   |   |   |   input8 > 78
|   |   |   |   |   |   input4 <= 84
|   |   |   |   |   |   |   input7 <= 76: 9 (53.0/1.0)
|   |   |   |   |   |   |   input7 > 76
|   |   |   |   |   |   |   |   input6 <= 69: 0 (8.0/1.0)
|   |   |   |   |   |   |   |   input6 > 69: 1 (85.0/1.0)
|   |   |   |   |   |   input4 > 84
|   |   |   |   |   |   |   input1 <= 14: 7 (100.0)
|   |   |   |   |   |   |   input1 > 14
|   |   |   |   |   |   |   |   input5 <= 80: 9 (5.0)
|   |   |   |   |   |   |   |   input5 > 80: 1 (4.0/1.0)
|   |   |   |   input14 > 44: 0 (73.0/1.0)
|   input15 > 46
|   |   input11 <= 42
|   |   |   input13 <= 54
|   |   |   |   input12 <= 9
|   |   |   |   |   input5 <= 49: 1 (139.0/1.0)
|   |   |   |   |   input5 > 49
|   |   |   |   |   |   input3 <= 41
|   |   |   |   |   |   |   input4 <= 84: 1 (2.0)
|   |   |   |   |   |   |   input4 > 84: 2 (196.0/3.0)
|   |   |   |   |   |   input3 > 41
|   |   |   |   |   |   |   input5 <= 90
|   |   |   |   |   |   |   |   input9 <= 13: 2 (17.0)
|   |   |   |   |   |   |   |   input9 > 13
|   |   |   |   |   |   |   |   |   input14 <= 12
|   |   |   |   |   |   |   |   |   |   input6 <= 77
|   |   |   |   |   |   |   |   |   |   |   input10 <= 3: 1 (41.0)
|   |   |   |   |   |   |   |   |   |   |   input10 > 3: 2 (14.0)
|   |   |   |   |   |   |   |   |   |   input6 > 77: 1 (345.0/2.0)
|   |   |   |   |   |   |   |   |   input14 > 12: 2 (11.0)
|   |   |   |   |   |   |   input5 > 90
|   |   |   |   |   |   |   |   input11 <= 9: 2 (96.0)
|   |   |   |   |   |   |   |   input11 > 9: 1 (44.0/1.0)
|   |   |   |   input12 > 9
|   |   |   |   |   input12 <= 10
|   |   |   |   |   |   input11 <= 1
|   |   |   |   |   |   |   input16 <= 0: 3 (13.0)
|   |   |   |   |   |   |   input16 > 0: 2 (11.0)
|   |   |   |   |   |   input11 > 1: 1 (14.0)
|   |   |   |   |   input12 > 10
|   |   |   |   |   |   input12 <= 36
|   |   |   |   |   |   |   input16 <= 20
|   |   |   |   |   |   |   |   input11 <= 26: 2 (226.0)
|   |   |   |   |   |   |   |   input11 > 26
|   |   |   |   |   |   |   |   |   input15 <= 76: 2 (24.0)
|   |   |   |   |   |   |   |   |   input15 > 76: 1 (23.0/1.0)
|   |   |   |   |   |   |   input16 > 20: 7 (6.0/1.0)
|   |   |   |   |   |   input12 > 36: 1 (16.0)
|   |   |   input13 > 54
|   |   |   |   input15 <= 84: 9 (11.0)
|   |   |   |   input15 > 84
|   |   |   |   |   input11 <= 0
|   |   |   |   |   |   input2 <= 73: 1 (11.0)
|   |   |   |   |   |   input2 > 73: 2 (4.0)
|   |   |   |   |   input11 > 0: 2 (270.0)
|   |   input11 > 42
|   |   |   input8 <= 67
|   |   |   |   input16 <= 9
|   |   |   |   |   input5 <= 53
|   |   |   |   |   |   input13 <= 99
|   |   |   |   |   |   |   input2 <= 89: 9 (4.0/1.0)
|   |   |   |   |   |   |   input2 > 89: 4 (234.0)
|   |   |   |   |   |   input13 > 99
|   |   |   |   |   |   |   input7 <= 25: 4 (10.0)
|   |   |   |   |   |   |   input7 > 25: 1 (12.0)
|   |   |   |   |   input5 > 53: 1 (27.0)
|   |   |   |   input16 > 9: 7 (38.0)
|   |   |   input8 > 67
|   |   |   |   input14 <= 27
|   |   |   |   |   input4 <= 89
|   |   |   |   |   |   input1 <= 64
|   |   |   |   |   |   |   input2 <= 85
|   |   |   |   |   |   |   |   input5 <= 33: 7 (2.0)
|   |   |   |   |   |   |   |   input5 > 33: 1 (118.0)
|   |   |   |   |   |   |   input2 > 85: 7 (8.0/1.0)
|   |   |   |   |   |   input1 > 64: 9 (4.0)
|   |   |   |   |   input4 > 89
|   |   |   |   |   |   input15 <= 86
|   |   |   |   |   |   |   input11 <= 50: 3 (16.0)
|   |   |   |   |   |   |   input11 > 50
|   |   |   |   |   |   |   |   input11 <= 95: 7 (56.0)
|   |   |   |   |   |   |   |   input11 > 95: 3 (10.0)
|   |   |   |   |   |   input15 > 86: 2 (14.0)
|   |   |   |   input14 > 27
|   |   |   |   |   input2 <= 41: 1 (9.0)
|   |   |   |   |   input2 > 41
|   |   |   |   |   |   input10 <= 99
|   |   |   |   |   |   |   input7 <= 81: 9 (107.0)
|   |   |   |   |   |   |   input7 > 81
|   |   |   |   |   |   |   |   input14 <= 45: 1 (3.0/1.0)
|   |   |   |   |   |   |   |   input14 > 45: 9 (11.0)
|   |   |   |   |   |   input10 > 99: 7 (11.0)
input16 > 24
|   input14 <= 62
|   |   input1 <= 49
|   |   |   input4 <= 80
|   |   |   |   input6 <= 66: 6 (2.0)
|   |   |   |   input6 > 66: 8 (108.0)
|   |   |   input4 > 80
|   |   |   |   input14 <= 9
|   |   |   |   |   input9 <= 50: 2 (18.0)
|   |   |   |   |   input9 > 50: 3 (11.0)
|   |   |   |   input14 > 9
|   |   |   |   |   input15 <= 24
|   |   |   |   |   |   input2 <= 83: 8 (54.0)
|   |   |   |   |   |   input2 > 83
|   |   |   |   |   |   |   input15 <= 18: 7 (34.0)
|   |   |   |   |   |   |   input15 > 18: 6 (9.0)
|   |   |   |   |   input15 > 24: 7 (307.0/3.0)
|   |   input1 > 49
|   |   |   input15 <= 34
|   |   |   |   input9 <= 81
|   |   |   |   |   input5 <= 76: 6 (206.0/1.0)
|   |   |   |   |   input5 > 76: 8 (58.0)
|   |   |   |   input9 > 81
|   |   |   |   |   input1 <= 80: 9 (14.0)
|   |   |   |   |   input1 > 80: 5 (10.0)
|   |   |   input15 > 34
|   |   |   |   input2 <= 49: 0 (19.0)
|   |   |   |   input2 > 49
|   |   |   |   |   input11 <= 59: 8 (235.0/3.0)
|   |   |   |   |   input11 > 59
|   |   |   |   |   |   input14 <= 31: 6 (3.0)
|   |   |   |   |   |   input14 > 31: 0 (9.0)
|   input14 > 62
|   |   input9 <= 59
|   |   |   input15 <= 70
|   |   |   |   input3 <= 79
|   |   |   |   |   input15 <= 66: 8 (179.0)
|   |   |   |   |   input15 > 66: 0 (3.0/1.0)
|   |   |   |   input3 > 79: 0 (9.0/1.0)
|   |   |   input15 > 70
|   |   |   |   input14 <= 71
|   |   |   |   |   input11 <= 51: 8 (18.0)
|   |   |   |   |   input11 > 51: 0 (12.0)
|   |   |   |   input14 > 71
|   |   |   |   |   input1 <= 66
|   |   |   |   |   |   input12 <= 76: 5 (201.0/1.0)
|   |   |   |   |   |   input12 > 76
|   |   |   |   |   |   |   input6 <= 50: 5 (20.0)
|   |   |   |   |   |   |   input6 > 50: 6 (9.0)
|   |   |   |   |   input1 > 66: 8 (13.0)
|   |   input9 > 59
|   |   |   input2 <= 20: 9 (11.0)
|   |   |   input2 > 20
|   |   |   |   input3 <= 49: 0 (416.0/1.0)
|   |   |   |   input3 > 49: 8 (8.0)

Number of Leaves  : 	114

Size of the tree : 	227


Weight: 4.24

J48 pruned tree
------------------

input16 <= 20
|   input11 <= 42
|   |   input1 <= 90
|   |   |   input12 <= 34
|   |   |   |   input14 <= 15
|   |   |   |   |   input12 <= 3
|   |   |   |   |   |   input9 <= 29
|   |   |   |   |   |   |   input2 <= 67
|   |   |   |   |   |   |   |   input13 <= 55
|   |   |   |   |   |   |   |   |   input6 <= 72: 2 (12.0)
|   |   |   |   |   |   |   |   |   input6 > 72
|   |   |   |   |   |   |   |   |   |   input10 <= 11: 1 (51.0)
|   |   |   |   |   |   |   |   |   |   input10 > 11
|   |   |   |   |   |   |   |   |   |   |   input1 <= 12: 1 (7.0)
|   |   |   |   |   |   |   |   |   |   |   input1 > 12: 2 (10.0)
|   |   |   |   |   |   |   |   input13 > 55: 2 (32.0)
|   |   |   |   |   |   |   input2 > 67
|   |   |   |   |   |   |   |   input10 <= 7
|   |   |   |   |   |   |   |   |   input1 <= 12: 2 (23.0)
|   |   |   |   |   |   |   |   |   input1 > 12: 1 (4.0)
|   |   |   |   |   |   |   |   input10 > 7: 2 (125.0)
|   |   |   |   |   |   input9 > 29
|   |   |   |   |   |   |   input14 <= 8
|   |   |   |   |   |   |   |   input6 <= 82
|   |   |   |   |   |   |   |   |   input10 <= 8: 1 (15.0/1.0)
|   |   |   |   |   |   |   |   |   input10 > 8: 2 (19.0)
|   |   |   |   |   |   |   |   input6 > 82
|   |   |   |   |   |   |   |   |   input1 <= 40
|   |   |   |   |   |   |   |   |   |   input13 <= 56
|   |   |   |   |   |   |   |   |   |   |   input7 <= 79: 1 (243.0)
|   |   |   |   |   |   |   |   |   |   |   input7 > 79
|   |   |   |   |   |   |   |   |   |   |   |   input5 <= 92: 2 (3.0)
|   |   |   |   |   |   |   |   |   |   |   |   input5 > 92: 1 (18.0)
|   |   |   |   |   |   |   |   |   |   input13 > 56
|   |   |   |   |   |   |   |   |   |   |   input3 <= 33: 2 (6.0)
|   |   |   |   |   |   |   |   |   |   |   input3 > 33: 1 (16.0)
|   |   |   |   |   |   |   |   |   input1 > 40
|   |   |   |   |   |   |   |   |   |   input12 <= 0: 1 (21.0)
|   |   |   |   |   |   |   |   |   |   input12 > 0: 2 (14.0)
|   |   |   |   |   |   |   input14 > 8
|   |   |   |   |   |   |   |   input11 <= 14: 2 (35.0)
|   |   |   |   |   |   |   |   input11 > 14: 1 (2.0)
|   |   |   |   |   input12 > 3
|   |   |   |   |   |   input3 <= 67
|   |   |   |   |   |   |   input4 <= 83
|   |   |   |   |   |   |   |   input12 <= 16: 1 (22.0)
|   |   |   |   |   |   |   |   input12 > 16
|   |   |   |   |   |   |   |   |   input1 <= 3: 1 (2.0)
|   |   |   |   |   |   |   |   |   input1 > 3: 2 (18.0)
|   |   |   |   |   |   |   input4 > 83
|   |   |   |   |   |   |   |   input10 <= 7
|   |   |   |   |   |   |   |   |   input6 <= 77: 2 (67.0)
|   |   |   |   |   |   |   |   |   input6 > 77
|   |   |   |   |   |   |   |   |   |   input1 <= 42: 1 (30.0)
|   |   |   |   |   |   |   |   |   |   input1 > 42: 2 (8.0)
|   |   |   |   |   |   |   |   input10 > 7
|   |   |   |   |   |   |   |   |   input2 <= 89
|   |   |   |   |   |   |   |   |   |   input6 <= 97: 2 (343.0)
|   |   |   |   |   |   |   |   |   |   input6 > 97
|   |   |   |   |   |   |   |   |   |   |   input8 <= 60: 1 (3.0)
|   |   |   |   |   |   |   |   |   |   |   input8 > 60: 2 (102.0)
|   |   |   |   |   |   |   |   |   input2 > 89
|   |   |   |   |   |   |   |   |   |   input13 <= 40
|   |   |   |   |   |   |   |   |   |   |   input5 <= 96: 3 (4.0)
|   |   |   |   |   |   |   |   |   |   |   input5 > 96: 2 (10.0/1.0)
|   |   |   |   |   |   |   |   |   |   input13 > 40: 2 (44.0)
|   |   |   |   |   |   input3 > 67
|   |   |   |   |   |   |   input5 <= 85: 1 (32.0/1.0)
|   |   |   |   |   |   |   input5 > 85
|   |   |   |   |   |   |   |   input4 <= 96: 1 (3.0)
|   |   |   |   |   |   |   |   input4 > 96: 2 (31.0)
|   |   |   |   input14 > 15
|   |   |   |   |   input16 <= 13: 2 (31.0)
|   |   |   |   |   input16 > 13: 7 (47.0)
|   |   |   input12 > 34
|   |   |   |   input6 <= 79
|   |   |   |   |   input1 <= 42: 4 (11.0)
|   |   |   |   |   input1 > 42: 0 (22.0)
|   |   |   |   input6 > 79
|   |   |   |   |   input13 <= 34
|   |   |   |   |   |   input2 <= 88: 1 (99.0)
|   |   |   |   |   |   input2 > 88
|   |   |   |   |   |   |   input7 <= 83: 5 (7.0)
|   |   |   |   |   |   |   input7 > 83: 7 (22.0)
|   |   |   |   |   input13 > 34
|   |   |   |   |   |   input6 <= 97: 3 (9.0)
|   |   |   |   |   |   input6 > 97
|   |   |   |   |   |   |   input5 <= 97: 9 (6.0)
|   |   |   |   |   |   |   input5 > 97: 5 (20.0)
|   |   input1 > 90
|   |   |   input16 <= 1
|   |   |   |   input2 <= 78: 9 (5.0)
|   |   |   |   input2 > 78: 1 (24.0)
|   |   |   input16 > 1: 6 (56.0)
|   input11 > 42
|   |   input8 <= 73
|   |   |   input10 <= 21
|   |   |   |   input14 <= 10: 1 (67.0)
|   |   |   |   input14 > 10
|   |   |   |   |   input7 <= 59
|   |   |   |   |   |   input15 <= 60: 6 (89.0)
|   |   |   |   |   |   input15 > 60: 4 (4.0)
|   |   |   |   |   input7 > 59: 7 (32.0)
|   |   |   input10 > 21
|   |   |   |   input14 <= 18
|   |   |   |   |   input5 <= 50
|   |   |   |   |   |   input15 <= 44
|   |   |   |   |   |   |   input2 <= 85
|   |   |   |   |   |   |   |   input1 <= 23: 3 (3.0)
|   |   |   |   |   |   |   |   input1 > 23
|   |   |   |   |   |   |   |   |   input8 <= 59
|   |   |   |   |   |   |   |   |   |   input10 <= 62: 5 (4.0)
|   |   |   |   |   |   |   |   |   |   input10 > 62: 9 (8.0)
|   |   |   |   |   |   |   |   |   input8 > 59: 9 (34.0)
|   |   |   |   |   |   |   input2 > 85
|   |   |   |   |   |   |   |   input6 <= 70: 9 (14.0)
|   |   |   |   |   |   |   |   input6 > 70
|   |   |   |   |   |   |   |   |   input10 <= 73: 5 (189.0)
|   |   |   |   |   |   |   |   |   input10 > 73: 9 (2.0)
|   |   |   |   |   |   input15 > 44
|   |   |   |   |   |   |   input2 <= 94: 3 (7.0)
|   |   |   |   |   |   |   input2 > 94
|   |   |   |   |   |   |   |   input15 <= 83: 1 (4.0)
|   |   |   |   |   |   |   |   input15 > 83: 4 (18.0)
|   |   |   |   |   input5 > 50
|   |   |   |   |   |   input1 <= 80
|   |   |   |   |   |   |   input7 <= 20: 5 (22.0)
|   |   |   |   |   |   |   input7 > 20
|   |   |   |   |   |   |   |   input13 <= 25: 1 (17.0)
|   |   |   |   |   |   |   |   input13 > 25
|   |   |   |   |   |   |   |   |   input4 <= 84: 1 (10.0/1.0)
|   |   |   |   |   |   |   |   |   input4 > 84
|   |   |   |   |   |   |   |   |   |   input14 <= 13
|   |   |   |   |   |   |   |   |   |   |   input6 <= 84: 3 (337.0)
|   |   |   |   |   |   |   |   |   |   |   input6 > 84
|   |   |   |   |   |   |   |   |   |   |   |   input3 <= 76: 3 (149.0)
|   |   |   |   |   |   |   |   |   |   |   |   input3 > 76: 5 (15.0)
|   |   |   |   |   |   |   |   |   |   input14 > 13
|   |   |   |   |   |   |   |   |   |   |   input2 <= 92: 3 (8.0)
|   |   |   |   |   |   |   |   |   |   |   input2 > 92: 1 (7.0)
|   |   |   |   |   |   input1 > 80
|   |   |   |   |   |   |   input12 <= 8: 5 (8.0)
|   |   |   |   |   |   |   input12 > 8: 9 (35.0)
|   |   |   |   input14 > 18
|   |   |   |   |   input6 <= 76
|   |   |   |   |   |   input16 <= 3
|   |   |   |   |   |   |   input6 <= 14: 0 (8.0)
|   |   |   |   |   |   |   input6 > 14
|   |   |   |   |   |   |   |   input10 <= 85: 4 (317.0)
|   |   |   |   |   |   |   |   input10 > 85
|   |   |   |   |   |   |   |   |   input5 <= 13: 9 (23.0)
|   |   |   |   |   |   |   |   |   input5 > 13: 4 (18.0)
|   |   |   |   |   |   input16 > 3: 0 (11.0)
|   |   |   |   |   input6 > 76
|   |   |   |   |   |   input5 <= 29
|   |   |   |   |   |   |   input2 <= 92: 9 (25.0)
|   |   |   |   |   |   |   input2 > 92: 4 (3.0)
|   |   |   |   |   |   input5 > 29: 5 (16.0)
|   |   input8 > 73
|   |   |   input1 <= 27
|   |   |   |   input7 <= 59
|   |   |   |   |   input11 <= 56: 1 (21.0)
|   |   |   |   |   input11 > 56
|   |   |   |   |   |   input4 <= 96: 9 (51.0)
|   |   |   |   |   |   input4 > 96: 5 (15.0)
|   |   |   |   input7 > 59
|   |   |   |   |   input11 <= 84
|   |   |   |   |   |   input3 <= 45
|   |   |   |   |   |   |   input6 <= 92
|   |   |   |   |   |   |   |   input2 <= 88: 1 (75.0)
|   |   |   |   |   |   |   |   input2 > 88
|   |   |   |   |   |   |   |   |   input1 <= 6: 7 (2.0)
|   |   |   |   |   |   |   |   |   input1 > 6: 4 (8.0)
|   |   |   |   |   |   |   input6 > 92
|   |   |   |   |   |   |   |   input15 <= 74
|   |   |   |   |   |   |   |   |   input3 <= 32
|   |   |   |   |   |   |   |   |   |   input11 <= 45: 3 (3.0/1.0)
|   |   |   |   |   |   |   |   |   |   input11 > 45: 7 (226.0/1.0)
|   |   |   |   |   |   |   |   |   input3 > 32
|   |   |   |   |   |   |   |   |   |   input2 <= 76: 1 (5.0)
|   |   |   |   |   |   |   |   |   |   input2 > 76
|   |   |   |   |   |   |   |   |   |   |   input15 <= 23: 3 (12.0)
|   |   |   |   |   |   |   |   |   |   |   input15 > 23: 7 (20.0)
|   |   |   |   |   |   |   |   input15 > 74
|   |   |   |   |   |   |   |   |   input4 <= 89: 1 (7.0)
|   |   |   |   |   |   |   |   |   input4 > 89: 2 (9.0)
|   |   |   |   |   |   input3 > 45
|   |   |   |   |   |   |   input9 <= 45: 9 (7.0)
|   |   |   |   |   |   |   input9 > 45: 1 (119.0)
|   |   |   |   |   input11 > 84
|   |   |   |   |   |   input10 <= 64: 3 (62.0)
|   |   |   |   |   |   input10 > 64
|   |   |   |   |   |   |   input1 <= 5: 1 (30.0)
|   |   |   |   |   |   |   input1 > 5: 7 (5.0)
|   |   |   input1 > 27
|   |   |   |   input5 <= 97
|   |   |   |   |   input15 <= 72
|   |   |   |   |   |   input1 <= 40
|   |   |   |   |   |   |   input3 <= 84
|   |   |   |   |   |   |   |   input11 <= 82: 7 (6.0)
|   |   |   |   |   |   |   |   input11 > 82: 9 (22.0)
|   |   |   |   |   |   |   input3 > 84: 5 (21.0)
|   |   |   |   |   |   input1 > 40
|   |   |   |   |   |   |   input7 <= 26
|   |   |   |   |   |   |   |   input11 <= 83: 5 (17.0)
|   |   |   |   |   |   |   |   input11 > 83: 9 (33.0)
|   |   |   |   |   |   |   input7 > 26
|   |   |   |   |   |   |   |   input8 <= 75
|   |   |   |   |   |   |   |   |   input11 <= 74: 5 (3.0)
|   |   |   |   |   |   |   |   |   input11 > 74: 9 (9.0)
|   |   |   |   |   |   |   |   input8 > 75: 9 (469.0/1.0)
|   |   |   |   |   input15 > 72
|   |   |   |   |   |   input14 <= 26: 1 (25.0)
|   |   |   |   |   |   input14 > 26: 9 (22.0)
|   |   |   |   input5 > 97
|   |   |   |   |   input4 <= 96
|   |   |   |   |   |   input11 <= 81
|   |   |   |   |   |   |   input1 <= 37: 8 (9.0)
|   |   |   |   |   |   |   input1 > 37: 1 (5.0)
|   |   |   |   |   |   input11 > 81: 9 (23.0)
|   |   |   |   |   input4 > 96: 5 (59.0/1.0)
input16 > 20
|   input16 <= 64
|   |   input6 <= 30: 0 (98.0)
|   |   input6 > 30
|   |   |   input10 <= 37
|   |   |   |   input7 <= 24
|   |   |   |   |   input6 <= 93
|   |   |   |   |   |   input15 <= 79: 6 (267.0)
|   |   |   |   |   |   input15 > 79: 2 (5.0/1.0)
|   |   |   |   |   input6 > 93
|   |   |   |   |   |   input9 <= 1: 0 (33.0/1.0)
|   |   |   |   |   |   input9 > 1: 8 (41.0)
|   |   |   |   input7 > 24
|   |   |   |   |   input9 <= 1
|   |   |   |   |   |   input15 <= 65: 6 (4.0)
|   |   |   |   |   |   input15 > 65: 2 (32.0)
|   |   |   |   |   input9 > 1
|   |   |   |   |   |   input1 <= 53
|   |   |   |   |   |   |   input2 <= 73
|   |   |   |   |   |   |   |   input16 <= 43
|   |   |   |   |   |   |   |   |   input3 <= 59: 7 (14.0)
|   |   |   |   |   |   |   |   |   input3 > 59: 8 (2.0)
|   |   |   |   |   |   |   |   input16 > 43: 8 (44.0/1.0)
|   |   |   |   |   |   |   input2 > 73
|   |   |   |   |   |   |   |   input14 <= 2: 3 (4.0)
|   |   |   |   |   |   |   |   input14 > 2: 7 (290.0)
|   |   |   |   |   |   input1 > 53
|   |   |   |   |   |   |   input2 <= 95
|   |   |   |   |   |   |   |   input2 <= 85: 8 (16.0)
|   |   |   |   |   |   |   |   input2 > 85: 3 (9.0)
|   |   |   |   |   |   |   input2 > 95
|   |   |   |   |   |   |   |   input15 <= 1: 6 (23.0)
|   |   |   |   |   |   |   |   input15 > 1: 5 (4.0)
|   |   |   input10 > 37
|   |   |   |   input12 <= 4: 8 (63.0/1.0)
|   |   |   |   input12 > 4
|   |   |   |   |   input8 <= 69
|   |   |   |   |   |   input10 <= 59: 3 (6.0)
|   |   |   |   |   |   input10 > 59: 5 (9.0/1.0)
|   |   |   |   |   input8 > 69: 9 (41.0)
|   input16 > 64
|   |   input11 <= 56
|   |   |   input14 <= 81
|   |   |   |   input12 <= 51
|   |   |   |   |   input13 <= 11: 5 (9.0)
|   |   |   |   |   input13 > 11
|   |   |   |   |   |   input3 <= 1
|   |   |   |   |   |   |   input6 <= 39: 5 (3.0)
|   |   |   |   |   |   |   input6 > 39: 8 (39.0)
|   |   |   |   |   |   input3 > 1: 8 (266.0)
|   |   |   |   input12 > 51: 5 (16.0)
|   |   |   input14 > 81
|   |   |   |   input15 <= 64: 8 (24.0)
|   |   |   |   input15 > 64
|   |   |   |   |   input12 <= 75: 5 (97.0)
|   |   |   |   |   input12 > 75
|   |   |   |   |   |   input3 <= 1: 6 (4.0)
|   |   |   |   |   |   input3 > 1: 5 (19.0)
|   |   input11 > 56
|   |   |   input5 <= 52
|   |   |   |   input10 <= 24
|   |   |   |   |   input3 <= 70: 0 (192.0)
|   |   |   |   |   input3 > 70
|   |   |   |   |   |   input2 <= 87: 0 (4.0)
|   |   |   |   |   |   input2 > 87: 6 (4.0)
|   |   |   |   input10 > 24
|   |   |   |   |   input9 <= 80: 8 (42.0)
|   |   |   |   |   input9 > 80: 0 (67.0)
|   |   |   input5 > 52: 8 (166.0)

Number of Leaves  : 	146

Size of the tree : 	291


Weight: 4.94

J48 pruned tree
------------------

input16 <= 19
|   input11 <= 42
|   |   input15 <= 40
|   |   |   input16 <= 1
|   |   |   |   input13 <= 29
|   |   |   |   |   input15 <= 10
|   |   |   |   |   |   input14 <= 27: 1 (142.0)
|   |   |   |   |   |   input14 > 27: 4 (4.0/1.0)
|   |   |   |   |   input15 > 10
|   |   |   |   |   |   input7 <= 75: 1 (7.0)
|   |   |   |   |   |   input7 > 75: 7 (15.0)
|   |   |   |   input13 > 29
|   |   |   |   |   input5 <= 55
|   |   |   |   |   |   input1 <= 68: 4 (3.0)
|   |   |   |   |   |   input1 > 68: 9 (2.0)
|   |   |   |   |   input5 > 55
|   |   |   |   |   |   input6 <= 97: 3 (3.0)
|   |   |   |   |   |   input6 > 97: 5 (11.0/1.0)
|   |   |   input16 > 1
|   |   |   |   input7 <= 42: 6 (24.0)
|   |   |   |   input7 > 42: 0 (33.0)
|   |   input15 > 40
|   |   |   input4 <= 99
|   |   |   |   input1 <= 54
|   |   |   |   |   input16 <= 16
|   |   |   |   |   |   input7 <= 97
|   |   |   |   |   |   |   input13 <= 44
|   |   |   |   |   |   |   |   input16 <= 10: 1 (129.0)
|   |   |   |   |   |   |   |   input16 > 10
|   |   |   |   |   |   |   |   |   input2 <= 78: 2 (2.0)
|   |   |   |   |   |   |   |   |   input2 > 78: 1 (12.0)
|   |   |   |   |   |   |   input13 > 44
|   |   |   |   |   |   |   |   input3 <= 20: 2 (30.0/1.0)
|   |   |   |   |   |   |   |   input3 > 20
|   |   |   |   |   |   |   |   |   input5 <= 68
|   |   |   |   |   |   |   |   |   |   input6 <= 60: 2 (3.0)
|   |   |   |   |   |   |   |   |   |   input6 > 60: 1 (77.0)
|   |   |   |   |   |   |   |   |   input5 > 68: 2 (19.0/1.0)
|   |   |   |   |   |   input7 > 97: 2 (25.0)
|   |   |   |   |   input16 > 16: 7 (5.0/1.0)
|   |   |   |   input1 > 54
|   |   |   |   |   input4 <= 77: 9 (5.0)
|   |   |   |   |   input4 > 77: 2 (8.0)
|   |   |   input4 > 99
|   |   |   |   input13 <= 39
|   |   |   |   |   input16 <= 12
|   |   |   |   |   |   input12 <= 8
|   |   |   |   |   |   |   input6 <= 84: 2 (2.0)
|   |   |   |   |   |   |   input6 > 84: 1 (71.0)
|   |   |   |   |   |   input12 > 8
|   |   |   |   |   |   |   input5 <= 34: 1 (5.0)
|   |   |   |   |   |   |   input5 > 34: 2 (50.0)
|   |   |   |   |   input16 > 12: 7 (11.0)
|   |   |   |   input13 > 39
|   |   |   |   |   input5 <= 74
|   |   |   |   |   |   input9 <= 34
|   |   |   |   |   |   |   input5 <= 46
|   |   |   |   |   |   |   |   input13 <= 55
|   |   |   |   |   |   |   |   |   input6 <= 73: 2 (9.0)
|   |   |   |   |   |   |   |   |   input6 > 73
|   |   |   |   |   |   |   |   |   |   input2 <= 77: 1 (44.0)
|   |   |   |   |   |   |   |   |   |   input2 > 77: 2 (4.0)
|   |   |   |   |   |   |   |   input13 > 55: 2 (53.0)
|   |   |   |   |   |   |   input5 > 46
|   |   |   |   |   |   |   |   input9 <= 14: 2 (325.0/2.0)
|   |   |   |   |   |   |   |   input9 > 14
|   |   |   |   |   |   |   |   |   input5 <= 50: 1 (11.0)
|   |   |   |   |   |   |   |   |   input5 > 50
|   |   |   |   |   |   |   |   |   |   input3 <= 53: 2 (111.0)
|   |   |   |   |   |   |   |   |   |   input3 > 53
|   |   |   |   |   |   |   |   |   |   |   input5 <= 71: 1 (21.0)
|   |   |   |   |   |   |   |   |   |   |   input5 > 71: 2 (10.0)
|   |   |   |   |   |   input9 > 34
|   |   |   |   |   |   |   input10 <= 19: 1 (43.0)
|   |   |   |   |   |   |   input10 > 19: 2 (15.0)
|   |   |   |   |   input5 > 74
|   |   |   |   |   |   input3 <= 88
|   |   |   |   |   |   |   input2 <= 89: 2 (650.0)
|   |   |   |   |   |   |   input2 > 89
|   |   |   |   |   |   |   |   input5 <= 91: 2 (15.0)
|   |   |   |   |   |   |   |   input5 > 91: 3 (2.0)
|   |   |   |   |   |   input3 > 88
|   |   |   |   |   |   |   input1 <= 72: 2 (5.0)
|   |   |   |   |   |   |   input1 > 72: 1 (2.0)
|   input11 > 42
|   |   input6 <= 73
|   |   |   input14 <= 12
|   |   |   |   input8 <= 58
|   |   |   |   |   input9 <= 77
|   |   |   |   |   |   input1 <= 43: 1 (5.0)
|   |   |   |   |   |   input1 > 43: 5 (3.0)
|   |   |   |   |   input9 > 77: 3 (44.0)
|   |   |   |   input8 > 58
|   |   |   |   |   input5 <= 19: 5 (4.0/1.0)
|   |   |   |   |   input5 > 19: 9 (81.0/1.0)
|   |   |   input14 > 12
|   |   |   |   input10 <= 15
|   |   |   |   |   input7 <= 51: 6 (41.0)
|   |   |   |   |   input7 > 51: 7 (3.0)
|   |   |   |   input10 > 15
|   |   |   |   |   input2 <= 52
|   |   |   |   |   |   input14 <= 42: 1 (31.0)
|   |   |   |   |   |   input14 > 42: 0 (7.0)
|   |   |   |   |   input2 > 52
|   |   |   |   |   |   input8 <= 79
|   |   |   |   |   |   |   input6 <= 14: 0 (5.0)
|   |   |   |   |   |   |   input6 > 14
|   |   |   |   |   |   |   |   input10 <= 88: 4 (274.0/5.0)
|   |   |   |   |   |   |   |   input10 > 88
|   |   |   |   |   |   |   |   |   input1 <= 61: 4 (16.0)
|   |   |   |   |   |   |   |   |   input1 > 61: 9 (12.0)
|   |   |   |   |   |   input8 > 79: 9 (50.0/1.0)
|   |   input6 > 73
|   |   |   input1 <= 33
|   |   |   |   input4 <= 87
|   |   |   |   |   input2 <= 21: 8 (53.0)
|   |   |   |   |   input2 > 21
|   |   |   |   |   |   input7 <= 46: 9 (40.0)
|   |   |   |   |   |   input7 > 46
|   |   |   |   |   |   |   input3 <= 8
|   |   |   |   |   |   |   |   input6 <= 89
|   |   |   |   |   |   |   |   |   input8 <= 93: 9 (3.0)
|   |   |   |   |   |   |   |   |   input8 > 93: 1 (14.0)
|   |   |   |   |   |   |   |   input6 > 89: 7 (59.0)
|   |   |   |   |   |   |   input3 > 8
|   |   |   |   |   |   |   |   input4 <= 49: 9 (4.0/1.0)
|   |   |   |   |   |   |   |   input4 > 49
|   |   |   |   |   |   |   |   |   input16 <= 3: 1 (293.0/1.0)
|   |   |   |   |   |   |   |   |   input16 > 3
|   |   |   |   |   |   |   |   |   |   input1 <= 1: 1 (10.0)
|   |   |   |   |   |   |   |   |   |   input1 > 1: 3 (3.0)
|   |   |   |   input4 > 87
|   |   |   |   |   input10 <= 66
|   |   |   |   |   |   input15 <= 76
|   |   |   |   |   |   |   input10 <= 24: 1 (23.0)
|   |   |   |   |   |   |   input10 > 24
|   |   |   |   |   |   |   |   input14 <= 19
|   |   |   |   |   |   |   |   |   input9 <= 55
|   |   |   |   |   |   |   |   |   |   input3 <= 51: 3 (36.0)
|   |   |   |   |   |   |   |   |   |   input3 > 51
|   |   |   |   |   |   |   |   |   |   |   input6 <= 92: 3 (7.0)
|   |   |   |   |   |   |   |   |   |   |   input6 > 92: 5 (69.0)
|   |   |   |   |   |   |   |   |   input9 > 55
|   |   |   |   |   |   |   |   |   |   input5 <= 40: 5 (5.0)
|   |   |   |   |   |   |   |   |   |   input5 > 40
|   |   |   |   |   |   |   |   |   |   |   input13 <= 33
|   |   |   |   |   |   |   |   |   |   |   |   input1 <= 4: 7 (3.0)
|   |   |   |   |   |   |   |   |   |   |   |   input1 > 4: 1 (5.0)
|   |   |   |   |   |   |   |   |   |   |   input13 > 33
|   |   |   |   |   |   |   |   |   |   |   |   input12 <= 38
|   |   |   |   |   |   |   |   |   |   |   |   |   input14 <= 14: 3 (207.0)
|   |   |   |   |   |   |   |   |   |   |   |   |   input14 > 14
|   |   |   |   |   |   |   |   |   |   |   |   |   |   input1 <= 7: 1 (3.0)
|   |   |   |   |   |   |   |   |   |   |   |   |   |   input1 > 7: 3 (12.0)
|   |   |   |   |   |   |   |   |   |   |   |   input12 > 38
|   |   |   |   |   |   |   |   |   |   |   |   |   input2 <= 94: 3 (4.0)
|   |   |   |   |   |   |   |   |   |   |   |   |   input2 > 94: 7 (2.0)
|   |   |   |   |   |   |   |   input14 > 19
|   |   |   |   |   |   |   |   |   input4 <= 98
|   |   |   |   |   |   |   |   |   |   input3 <= 29: 3 (6.0)
|   |   |   |   |   |   |   |   |   |   input3 > 29: 1 (14.0)
|   |   |   |   |   |   |   |   |   input4 > 98: 7 (18.0)
|   |   |   |   |   |   input15 > 76
|   |   |   |   |   |   |   input16 <= 9
|   |   |   |   |   |   |   |   input3 <= 42: 2 (19.0)
|   |   |   |   |   |   |   |   input3 > 42: 1 (17.0)
|   |   |   |   |   |   |   input16 > 9: 7 (5.0)
|   |   |   |   |   input10 > 66
|   |   |   |   |   |   input16 <= 8: 7 (84.0)
|   |   |   |   |   |   input16 > 8: 5 (4.0)
|   |   |   input1 > 33
|   |   |   |   input7 <= 62
|   |   |   |   |   input12 <= 48
|   |   |   |   |   |   input4 <= 87: 9 (60.0)
|   |   |   |   |   |   input4 > 87
|   |   |   |   |   |   |   input2 <= 75: 9 (30.0)
|   |   |   |   |   |   |   input2 > 75
|   |   |   |   |   |   |   |   input3 <= 52
|   |   |   |   |   |   |   |   |   input9 <= 74: 5 (8.0)
|   |   |   |   |   |   |   |   |   input9 > 74: 9 (18.0)
|   |   |   |   |   |   |   |   input3 > 52
|   |   |   |   |   |   |   |   |   input10 <= 34
|   |   |   |   |   |   |   |   |   |   input1 <= 75: 4 (2.0)
|   |   |   |   |   |   |   |   |   |   input1 > 75: 6 (3.0)
|   |   |   |   |   |   |   |   |   input10 > 34
|   |   |   |   |   |   |   |   |   |   input9 <= 93: 5 (325.0/1.0)
|   |   |   |   |   |   |   |   |   |   input9 > 93
|   |   |   |   |   |   |   |   |   |   |   input8 <= 64: 3 (9.0/1.0)
|   |   |   |   |   |   |   |   |   |   |   input8 > 64: 5 (10.0)
|   |   |   |   |   input12 > 48
|   |   |   |   |   |   input3 <= 17
|   |   |   |   |   |   |   input1 <= 44: 9 (2.0)
|   |   |   |   |   |   |   input1 > 44: 4 (4.0)
|   |   |   |   |   |   input3 > 17
|   |   |   |   |   |   |   input12 <= 75: 9 (253.0/2.0)
|   |   |   |   |   |   |   input12 > 75
|   |   |   |   |   |   |   |   input1 <= 42: 4 (2.0)
|   |   |   |   |   |   |   |   input1 > 42: 9 (5.0)
|   |   |   |   input7 > 62
|   |   |   |   |   input13 <= 26: 1 (27.0)
|   |   |   |   |   input13 > 26
|   |   |   |   |   |   input1 <= 70
|   |   |   |   |   |   |   input5 <= 61
|   |   |   |   |   |   |   |   input15 <= 27: 9 (28.0)
|   |   |   |   |   |   |   |   input15 > 27: 7 (3.0)
|   |   |   |   |   |   |   input5 > 61
|   |   |   |   |   |   |   |   input10 <= 61
|   |   |   |   |   |   |   |   |   input10 <= 13: 1 (3.0)
|   |   |   |   |   |   |   |   |   input10 > 13
|   |   |   |   |   |   |   |   |   |   input4 <= 96
|   |   |   |   |   |   |   |   |   |   |   input8 <= 73: 3 (11.0)
|   |   |   |   |   |   |   |   |   |   |   input8 > 73: 9 (7.0/2.0)
|   |   |   |   |   |   |   |   |   |   input4 > 96: 3 (139.0)
|   |   |   |   |   |   |   |   input10 > 61
|   |   |   |   |   |   |   |   |   input1 <= 57: 5 (3.0)
|   |   |   |   |   |   |   |   |   input1 > 57: 9 (3.0)
|   |   |   |   |   |   input1 > 70
|   |   |   |   |   |   |   input12 <= 8
|   |   |   |   |   |   |   |   input1 <= 85: 9 (5.0)
|   |   |   |   |   |   |   |   input1 > 85: 5 (6.0)
|   |   |   |   |   |   |   input12 > 8
|   |   |   |   |   |   |   |   input10 <= 35: 3 (2.0)
|   |   |   |   |   |   |   |   input10 > 35: 9 (123.0)
input16 > 19
|   input2 <= 12: 9 (131.0)
|   input2 > 12
|   |   input14 <= 58
|   |   |   input7 <= 18
|   |   |   |   input15 <= 68
|   |   |   |   |   input4 <= 72
|   |   |   |   |   |   input12 <= 29: 8 (76.0)
|   |   |   |   |   |   input12 > 29: 6 (2.0/1.0)
|   |   |   |   |   input4 > 72: 6 (161.0/1.0)
|   |   |   |   input15 > 68
|   |   |   |   |   input1 <= 63
|   |   |   |   |   |   input1 <= 33: 2 (4.0)
|   |   |   |   |   |   input1 > 33: 8 (3.0)
|   |   |   |   |   input1 > 63: 0 (45.0)
|   |   |   input7 > 18
|   |   |   |   input15 <= 12
|   |   |   |   |   input9 <= 66
|   |   |   |   |   |   input12 <= 37
|   |   |   |   |   |   |   input5 <= 64: 6 (5.0)
|   |   |   |   |   |   |   input5 > 64: 8 (61.0)
|   |   |   |   |   |   input12 > 37: 5 (10.0/1.0)
|   |   |   |   |   input9 > 66
|   |   |   |   |   |   input14 <= 20
|   |   |   |   |   |   |   input8 <= 65
|   |   |   |   |   |   |   |   input5 <= 61: 5 (30.0)
|   |   |   |   |   |   |   |   input5 > 61: 3 (28.0)
|   |   |   |   |   |   |   input8 > 65: 9 (31.0)
|   |   |   |   |   |   input14 > 20
|   |   |   |   |   |   |   input2 <= 94: 7 (3.0)
|   |   |   |   |   |   |   input2 > 94: 6 (14.0)
|   |   |   |   input15 > 12
|   |   |   |   |   input1 <= 40
|   |   |   |   |   |   input4 <= 80: 8 (19.0)
|   |   |   |   |   |   input4 > 80
|   |   |   |   |   |   |   input7 <= 48
|   |   |   |   |   |   |   |   input14 <= 29: 2 (41.0)
|   |   |   |   |   |   |   |   input14 > 29: 7 (45.0)
|   |   |   |   |   |   |   input7 > 48
|   |   |   |   |   |   |   |   input16 <= 78: 7 (200.0)
|   |   |   |   |   |   |   |   input16 > 78: 8 (7.0)
|   |   |   |   |   input1 > 40
|   |   |   |   |   |   input2 <= 37: 0 (9.0)
|   |   |   |   |   |   input2 > 37
|   |   |   |   |   |   |   input16 <= 30: 6 (4.0/1.0)
|   |   |   |   |   |   |   input16 > 30
|   |   |   |   |   |   |   |   input1 <= 53
|   |   |   |   |   |   |   |   |   input12 <= 12: 8 (27.0)
|   |   |   |   |   |   |   |   |   input12 > 12: 7 (6.0)
|   |   |   |   |   |   |   |   input1 > 53: 8 (205.0)
|   |   input14 > 58
|   |   |   input15 <= 96
|   |   |   |   input9 <= 45
|   |   |   |   |   input13 <= 22: 5 (29.0)
|   |   |   |   |   input13 > 22
|   |   |   |   |   |   input12 <= 23: 0 (4.0)
|   |   |   |   |   |   input12 > 23: 8 (212.0)
|   |   |   |   input9 > 45
|   |   |   |   |   input11 <= 41: 8 (36.0/1.0)
|   |   |   |   |   input11 > 41
|   |   |   |   |   |   input3 <= 55
|   |   |   |   |   |   |   input8 <= 24: 0 (213.0)
|   |   |   |   |   |   |   input8 > 24
|   |   |   |   |   |   |   |   input12 <= 89: 8 (6.0)
|   |   |   |   |   |   |   |   input12 > 89: 0 (19.0)
|   |   |   |   |   |   input3 > 55
|   |   |   |   |   |   |   input6 <= 57: 8 (26.0)
|   |   |   |   |   |   |   input6 > 57: 6 (4.0/1.0)
|   |   |   input15 > 96
|   |   |   |   input4 <= 93: 5 (158.0/1.0)
|   |   |   |   input4 > 93: 8 (14.0)

Number of Leaves  : 	148

Size of the tree : 	295


Weight: 4.23

J48 pruned tree
------------------

input14 <= 26
|   input15 <= 58
|   |   input10 <= 27
|   |   |   input1 <= 48
|   |   |   |   input14 <= 12
|   |   |   |   |   input14 <= 0: 3 (4.0)
|   |   |   |   |   input14 > 0: 1 (21.0)
|   |   |   |   input14 > 12: 7 (5.0)
|   |   |   input1 > 48
|   |   |   |   input14 <= 1: 3 (7.0)
|   |   |   |   input14 > 1: 6 (256.0)
|   |   input10 > 27
|   |   |   input11 <= 76
|   |   |   |   input11 <= 4
|   |   |   |   |   input8 <= 71: 1 (3.0)
|   |   |   |   |   input8 > 71: 8 (134.0)
|   |   |   |   input11 > 4
|   |   |   |   |   input7 <= 59
|   |   |   |   |   |   input13 <= 22
|   |   |   |   |   |   |   input16 <= 14: 1 (31.0)
|   |   |   |   |   |   |   input16 > 14: 8 (2.0)
|   |   |   |   |   |   input13 > 22
|   |   |   |   |   |   |   input6 <= 71: 4 (6.0)
|   |   |   |   |   |   |   input6 > 71
|   |   |   |   |   |   |   |   input4 <= 85: 9 (13.0)
|   |   |   |   |   |   |   |   input4 > 85
|   |   |   |   |   |   |   |   |   input5 <= 28
|   |   |   |   |   |   |   |   |   |   input12 <= 44: 5 (6.0)
|   |   |   |   |   |   |   |   |   |   input12 > 44: 9 (5.0)
|   |   |   |   |   |   |   |   |   input5 > 28: 5 (222.0/1.0)
|   |   |   |   |   input7 > 59
|   |   |   |   |   |   input4 <= 95
|   |   |   |   |   |   |   input6 <= 76
|   |   |   |   |   |   |   |   input7 <= 81: 3 (3.0/1.0)
|   |   |   |   |   |   |   |   input7 > 81: 4 (12.0)
|   |   |   |   |   |   |   input6 > 76
|   |   |   |   |   |   |   |   input1 <= 55
|   |   |   |   |   |   |   |   |   input5 <= 56
|   |   |   |   |   |   |   |   |   |   input6 <= 90: 1 (2.0)
|   |   |   |   |   |   |   |   |   |   input6 > 90: 7 (16.0)
|   |   |   |   |   |   |   |   |   input5 > 56
|   |   |   |   |   |   |   |   |   |   input2 <= 91
|   |   |   |   |   |   |   |   |   |   |   input3 <= 57
|   |   |   |   |   |   |   |   |   |   |   |   input1 <= 31: 1 (76.0)
|   |   |   |   |   |   |   |   |   |   |   |   input1 > 31: 3 (4.0)
|   |   |   |   |   |   |   |   |   |   |   input3 > 57: 1 (203.0)
|   |   |   |   |   |   |   |   |   |   input2 > 91: 7 (3.0)
|   |   |   |   |   |   |   |   input1 > 55: 9 (12.0/1.0)
|   |   |   |   |   |   input4 > 95
|   |   |   |   |   |   |   input3 <= 45
|   |   |   |   |   |   |   |   input1 <= 32
|   |   |   |   |   |   |   |   |   input6 <= 96: 3 (3.0)
|   |   |   |   |   |   |   |   |   input6 > 96: 7 (36.0/1.0)
|   |   |   |   |   |   |   |   input1 > 32: 3 (5.0)
|   |   |   |   |   |   |   input3 > 45
|   |   |   |   |   |   |   |   input13 <= 26
|   |   |   |   |   |   |   |   |   input15 <= 31: 1 (23.0)
|   |   |   |   |   |   |   |   |   input15 > 31: 2 (2.0)
|   |   |   |   |   |   |   |   input13 > 26
|   |   |   |   |   |   |   |   |   input15 <= 26
|   |   |   |   |   |   |   |   |   |   input8 <= 80: 3 (63.0)
|   |   |   |   |   |   |   |   |   |   input8 > 80: 5 (5.0/1.0)
|   |   |   |   |   |   |   |   |   input15 > 26: 1 (3.0)
|   |   |   input11 > 76
|   |   |   |   input2 <= 44: 8 (53.0)
|   |   |   |   input2 > 44
|   |   |   |   |   input10 <= 54
|   |   |   |   |   |   input5 <= 53
|   |   |   |   |   |   |   input14 <= 19
|   |   |   |   |   |   |   |   input1 <= 1: 3 (9.0)
|   |   |   |   |   |   |   |   input1 > 1
|   |   |   |   |   |   |   |   |   input8 <= 75
|   |   |   |   |   |   |   |   |   |   input7 <= 66: 5 (57.0/1.0)
|   |   |   |   |   |   |   |   |   |   input7 > 66: 9 (4.0)
|   |   |   |   |   |   |   |   |   input8 > 75: 9 (19.0)
|   |   |   |   |   |   |   input14 > 19: 4 (13.0)
|   |   |   |   |   |   input5 > 53
|   |   |   |   |   |   |   input1 <= 68
|   |   |   |   |   |   |   |   input8 <= 77
|   |   |   |   |   |   |   |   |   input3 <= 98
|   |   |   |   |   |   |   |   |   |   input2 <= 76
|   |   |   |   |   |   |   |   |   |   |   input3 <= 71: 3 (29.0)
|   |   |   |   |   |   |   |   |   |   |   input3 > 71: 5 (4.0)
|   |   |   |   |   |   |   |   |   |   input2 > 76: 3 (413.0)
|   |   |   |   |   |   |   |   |   input3 > 98
|   |   |   |   |   |   |   |   |   |   input2 <= 91: 5 (4.0)
|   |   |   |   |   |   |   |   |   |   input2 > 91: 3 (4.0)
|   |   |   |   |   |   |   |   input8 > 77
|   |   |   |   |   |   |   |   |   input5 <= 83
|   |   |   |   |   |   |   |   |   |   input2 <= 79: 3 (5.0)
|   |   |   |   |   |   |   |   |   |   input2 > 79: 9 (3.0)
|   |   |   |   |   |   |   |   |   input5 > 83: 5 (15.0)
|   |   |   |   |   |   |   input1 > 68
|   |   |   |   |   |   |   |   input8 <= 65: 3 (5.0)
|   |   |   |   |   |   |   |   input8 > 65: 9 (35.0)
|   |   |   |   |   input10 > 54
|   |   |   |   |   |   input15 <= 18
|   |   |   |   |   |   |   input6 <= 91
|   |   |   |   |   |   |   |   input3 <= 83: 9 (419.0/4.0)
|   |   |   |   |   |   |   |   input3 > 83
|   |   |   |   |   |   |   |   |   input1 <= 65: 5 (3.0)
|   |   |   |   |   |   |   |   |   input1 > 65: 9 (11.0)
|   |   |   |   |   |   |   input6 > 91
|   |   |   |   |   |   |   |   input9 <= 72
|   |   |   |   |   |   |   |   |   input4 <= 80: 9 (9.0)
|   |   |   |   |   |   |   |   |   input4 > 80
|   |   |   |   |   |   |   |   |   |   input3 <= 37: 3 (7.0)
|   |   |   |   |   |   |   |   |   |   input3 > 37: 5 (82.0)
|   |   |   |   |   |   |   |   input9 > 72
|   |   |   |   |   |   |   |   |   input6 <= 95
|   |   |   |   |   |   |   |   |   |   input1 <= 57: 5 (3.0)
|   |   |   |   |   |   |   |   |   |   input1 > 57: 9 (3.0)
|   |   |   |   |   |   |   |   |   input6 > 95: 9 (87.0/1.0)
|   |   |   |   |   |   input15 > 18
|   |   |   |   |   |   |   input5 <= 52
|   |   |   |   |   |   |   |   input8 <= 64
|   |   |   |   |   |   |   |   |   input1 <= 80: 4 (11.0)
|   |   |   |   |   |   |   |   |   input1 > 80: 9 (2.0)
|   |   |   |   |   |   |   |   input8 > 64: 9 (27.0)
|   |   |   |   |   |   |   input5 > 52
|   |   |   |   |   |   |   |   input14 <= 14: 3 (15.0)
|   |   |   |   |   |   |   |   input14 > 14: 1 (3.0/1.0)
|   input15 > 58
|   |   input16 <= 12
|   |   |   input6 <= 69
|   |   |   |   input13 <= 70
|   |   |   |   |   input4 <= 80: 1 (3.0)
|   |   |   |   |   input4 > 80
|   |   |   |   |   |   input8 <= 21
|   |   |   |   |   |   |   input3 <= 72: 1 (3.0)
|   |   |   |   |   |   |   input3 > 72: 2 (4.0)
|   |   |   |   |   |   input8 > 21: 2 (131.0)
|   |   |   |   input13 > 70: 4 (19.0)
|   |   |   input6 > 69
|   |   |   |   input11 <= 49
|   |   |   |   |   input13 <= 55
|   |   |   |   |   |   input12 <= 9
|   |   |   |   |   |   |   input7 <= 65
|   |   |   |   |   |   |   |   input9 <= 32
|   |   |   |   |   |   |   |   |   input5 <= 48
|   |   |   |   |   |   |   |   |   |   input16 <= 0
|   |   |   |   |   |   |   |   |   |   |   input1 <= 5: 2 (7.0)
|   |   |   |   |   |   |   |   |   |   |   input1 > 5: 1 (5.0)
|   |   |   |   |   |   |   |   |   |   input16 > 0: 1 (142.0)
|   |   |   |   |   |   |   |   |   input5 > 48
|   |   |   |   |   |   |   |   |   |   input4 <= 99
|   |   |   |   |   |   |   |   |   |   |   input3 <= 30: 2 (6.0)
|   |   |   |   |   |   |   |   |   |   |   input3 > 30: 1 (7.0)
|   |   |   |   |   |   |   |   |   |   input4 > 99
|   |   |   |   |   |   |   |   |   |   |   input12 <= 8
|   |   |   |   |   |   |   |   |   |   |   |   input8 <= 30: 1 (2.0)
|   |   |   |   |   |   |   |   |   |   |   |   input8 > 30
|   |   |   |   |   |   |   |   |   |   |   |   |   input5 <= 51
|   |   |   |   |   |   |   |   |   |   |   |   |   |   input7 <= 34: 2 (3.0)
|   |   |   |   |   |   |   |   |   |   |   |   |   |   input7 > 34: 1 (3.0)
|   |   |   |   |   |   |   |   |   |   |   |   |   input5 > 51: 2 (100.0/1.0)
|   |   |   |   |   |   |   |   |   |   |   input12 > 8: 1 (4.0/1.0)
|   |   |   |   |   |   |   |   input9 > 32
|   |   |   |   |   |   |   |   |   input3 <= 13
|   |   |   |   |   |   |   |   |   |   input1 <= 3: 2 (2.0)
|   |   |   |   |   |   |   |   |   |   input1 > 3: 1 (3.0)
|   |   |   |   |   |   |   |   |   input3 > 13: 1 (457.0)
|   |   |   |   |   |   |   input7 > 65
|   |   |   |   |   |   |   |   input13 <= 23
|   |   |   |   |   |   |   |   |   input14 <= 12: 1 (34.0)
|   |   |   |   |   |   |   |   |   input14 > 12: 2 (3.0)
|   |   |   |   |   |   |   |   input13 > 23
|   |   |   |   |   |   |   |   |   input4 <= 86: 1 (6.0)
|   |   |   |   |   |   |   |   |   input4 > 86
|   |   |   |   |   |   |   |   |   |   input10 <= 11
|   |   |   |   |   |   |   |   |   |   |   input5 <= 89: 1 (10.0)
|   |   |   |   |   |   |   |   |   |   |   input5 > 89: 2 (11.0)
|   |   |   |   |   |   |   |   |   |   input10 > 11: 2 (99.0)
|   |   |   |   |   |   input12 > 9
|   |   |   |   |   |   |   input12 <= 33: 2 (112.0/4.0)
|   |   |   |   |   |   |   input12 > 33
|   |   |   |   |   |   |   |   input3 <= 14: 3 (2.0)
|   |   |   |   |   |   |   |   input3 > 14: 1 (13.0)
|   |   |   |   |   input13 > 55
|   |   |   |   |   |   input11 <= 5: 1 (2.0)
|   |   |   |   |   |   input11 > 5: 2 (80.0/1.0)
|   |   |   |   input11 > 49
|   |   |   |   |   input5 <= 14
|   |   |   |   |   |   input2 <= 87: 9 (9.0)
|   |   |   |   |   |   input2 > 87: 4 (11.0)
|   |   |   |   |   input5 > 14
|   |   |   |   |   |   input4 <= 87
|   |   |   |   |   |   |   input10 <= 81: 1 (264.0)
|   |   |   |   |   |   |   input10 > 81: 7 (5.0/1.0)
|   |   |   |   |   |   input4 > 87
|   |   |   |   |   |   |   input12 <= 38: 1 (5.0/1.0)
|   |   |   |   |   |   |   input12 > 38: 7 (8.0)
|   |   input16 > 12
|   |   |   input15 <= 99
|   |   |   |   input1 <= 20: 7 (18.0)
|   |   |   |   input1 > 20
|   |   |   |   |   input9 <= 42: 0 (11.0/1.0)
|   |   |   |   |   input9 > 42: 8 (3.0)
|   |   |   input15 > 99
|   |   |   |   input13 <= 49
|   |   |   |   |   input1 <= 8: 7 (24.0)
|   |   |   |   |   input1 > 8: 2 (7.0)
|   |   |   |   input13 > 49: 2 (250.0/2.0)
input14 > 26
|   input16 <= 1
|   |   input13 <= 17: 0 (108.0)
|   |   input13 > 17
|   |   |   input8 <= 88
|   |   |   |   input4 <= 83
|   |   |   |   |   input9 <= 19: 9 (7.0)
|   |   |   |   |   input9 > 19
|   |   |   |   |   |   input6 <= 14: 0 (6.0)
|   |   |   |   |   |   input6 > 14: 4 (273.0)
|   |   |   |   input4 > 83
|   |   |   |   |   input8 <= 65
|   |   |   |   |   |   input5 <= 69
|   |   |   |   |   |   |   input1 <= 78: 4 (40.0)
|   |   |   |   |   |   |   input1 > 78: 9 (3.0)
|   |   |   |   |   |   input5 > 69: 2 (3.0)
|   |   |   |   |   input8 > 65: 9 (135.0)
|   |   |   input8 > 88
|   |   |   |   input9 <= 96
|   |   |   |   |   input4 <= 89: 9 (256.0)
|   |   |   |   |   input4 > 89: 7 (11.0)
|   |   |   |   input9 > 96
|   |   |   |   |   input6 <= 86: 1 (23.0)
|   |   |   |   |   input6 > 86: 7 (23.0)
|   input16 > 1
|   |   input5 <= 55
|   |   |   input15 <= 97
|   |   |   |   input11 <= 12
|   |   |   |   |   input10 <= 61: 8 (58.0)
|   |   |   |   |   input10 > 61: 0 (3.0)
|   |   |   |   input11 > 12
|   |   |   |   |   input14 <= 50
|   |   |   |   |   |   input7 <= 44
|   |   |   |   |   |   |   input15 <= 67
|   |   |   |   |   |   |   |   input10 <= 65: 6 (52.0)
|   |   |   |   |   |   |   |   input10 > 65: 0 (2.0)
|   |   |   |   |   |   |   input15 > 67: 0 (11.0)
|   |   |   |   |   |   input7 > 44
|   |   |   |   |   |   |   input1 <= 30: 1 (3.0)
|   |   |   |   |   |   |   input1 > 30: 8 (3.0)
|   |   |   |   |   input14 > 50
|   |   |   |   |   |   input9 <= 48
|   |   |   |   |   |   |   input14 <= 70: 0 (14.0/1.0)
|   |   |   |   |   |   |   input14 > 70: 8 (39.0)
|   |   |   |   |   |   input9 > 48
|   |   |   |   |   |   |   input1 <= 96
|   |   |   |   |   |   |   |   input15 <= 69
|   |   |   |   |   |   |   |   |   input14 <= 99
|   |   |   |   |   |   |   |   |   |   input15 <= 6
|   |   |   |   |   |   |   |   |   |   |   input14 <= 58: 6 (3.0)
|   |   |   |   |   |   |   |   |   |   |   input14 > 58: 0 (24.0)
|   |   |   |   |   |   |   |   |   |   input15 > 6: 0 (330.0)
|   |   |   |   |   |   |   |   |   input14 > 99
|   |   |   |   |   |   |   |   |   |   input8 <= 23: 0 (30.0/1.0)
|   |   |   |   |   |   |   |   |   |   input8 > 23: 8 (3.0)
|   |   |   |   |   |   |   |   input15 > 69
|   |   |   |   |   |   |   |   |   input4 <= 87: 0 (2.0)
|   |   |   |   |   |   |   |   |   input4 > 87: 8 (5.0)
|   |   |   |   |   |   |   input1 > 96
|   |   |   |   |   |   |   |   input2 <= 93: 8 (4.0)
|   |   |   |   |   |   |   |   input2 > 93: 6 (6.0)
|   |   |   input15 > 97
|   |   |   |   input14 <= 67
|   |   |   |   |   input1 <= 42: 7 (30.0/1.0)
|   |   |   |   |   input1 > 42: 8 (59.0)
|   |   |   |   input14 > 67
|   |   |   |   |   input5 <= 54: 5 (50.0/1.0)
|   |   |   |   |   input5 > 54
|   |   |   |   |   |   input1 <= 25: 6 (82.0)
|   |   |   |   |   |   input1 > 25: 5 (3.0)
|   |   input5 > 55
|   |   |   input10 <= 62
|   |   |   |   input4 <= 88
|   |   |   |   |   input13 <= 52
|   |   |   |   |   |   input14 <= 73: 8 (12.0)
|   |   |   |   |   |   input14 > 73: 5 (51.0)
|   |   |   |   |   input13 > 52: 8 (104.0)
|   |   |   |   input4 > 88
|   |   |   |   |   input5 <= 57: 2 (5.0)
|   |   |   |   |   input5 > 57
|   |   |   |   |   |   input16 <= 69
|   |   |   |   |   |   |   input3 <= 24
|   |   |   |   |   |   |   |   input3 <= 22: 7 (3.0)
|   |   |   |   |   |   |   |   input3 > 22: 8 (4.0)
|   |   |   |   |   |   |   input3 > 24
|   |   |   |   |   |   |   |   input7 <= 77: 7 (186.0)
|   |   |   |   |   |   |   |   input7 > 77
|   |   |   |   |   |   |   |   |   input2 <= 80: 8 (3.0)
|   |   |   |   |   |   |   |   |   input2 > 80: 7 (8.0)
|   |   |   |   |   |   input16 > 69: 8 (20.0)
|   |   |   input10 > 62
|   |   |   |   input1 <= 0: 9 (52.0)
|   |   |   |   input1 > 0: 0 (15.0)

Number of Leaves  : 	149

Size of the tree : 	297


Weight: 4.14

J48 pruned tree
------------------

input16 <= 19
|   input14 <= 24
|   |   input15 <= 57
|   |   |   input10 <= 32
|   |   |   |   input2 <= 87: 1 (15.0)
|   |   |   |   input2 > 87
|   |   |   |   |   input9 <= 66
|   |   |   |   |   |   input12 <= 39: 6 (144.0)
|   |   |   |   |   |   input12 > 39: 4 (2.0)
|   |   |   |   |   input9 > 66: 3 (10.0)
|   |   |   input10 > 32
|   |   |   |   input2 <= 73
|   |   |   |   |   input5 <= 74
|   |   |   |   |   |   input15 <= 34: 9 (111.0/1.0)
|   |   |   |   |   |   input15 > 34
|   |   |   |   |   |   |   input3 <= 14: 7 (3.0)
|   |   |   |   |   |   |   input3 > 14: 3 (2.0)
|   |   |   |   |   input5 > 74
|   |   |   |   |   |   input4 <= 64
|   |   |   |   |   |   |   input14 <= 2: 8 (9.0)
|   |   |   |   |   |   |   input14 > 2: 9 (3.0)
|   |   |   |   |   |   input4 > 64
|   |   |   |   |   |   |   input16 <= 7
|   |   |   |   |   |   |   |   input10 <= 56
|   |   |   |   |   |   |   |   |   input12 <= 27: 1 (44.0)
|   |   |   |   |   |   |   |   |   input12 > 27: 3 (5.0/1.0)
|   |   |   |   |   |   |   |   input10 > 56: 1 (205.0)
|   |   |   |   |   |   |   input16 > 7: 3 (3.0)
|   |   |   |   input2 > 73
|   |   |   |   |   input15 <= 17
|   |   |   |   |   |   input1 <= 64
|   |   |   |   |   |   |   input7 <= 66
|   |   |   |   |   |   |   |   input6 <= 90
|   |   |   |   |   |   |   |   |   input3 <= 95
|   |   |   |   |   |   |   |   |   |   input8 <= 67
|   |   |   |   |   |   |   |   |   |   |   input10 <= 63: 3 (153.0)
|   |   |   |   |   |   |   |   |   |   |   input10 > 63: 9 (2.0)
|   |   |   |   |   |   |   |   |   |   input8 > 67: 9 (15.0)
|   |   |   |   |   |   |   |   |   input3 > 95
|   |   |   |   |   |   |   |   |   |   input14 <= 15: 5 (5.0)
|   |   |   |   |   |   |   |   |   |   input14 > 15: 1 (9.0)
|   |   |   |   |   |   |   |   input6 > 90
|   |   |   |   |   |   |   |   |   input4 <= 80: 9 (19.0)
|   |   |   |   |   |   |   |   |   input4 > 80
|   |   |   |   |   |   |   |   |   |   input2 <= 77
|   |   |   |   |   |   |   |   |   |   |   input11 <= 96: 5 (3.0)
|   |   |   |   |   |   |   |   |   |   |   input11 > 96: 3 (6.0)
|   |   |   |   |   |   |   |   |   |   input2 > 77: 5 (343.0)
|   |   |   |   |   |   |   input7 > 66
|   |   |   |   |   |   |   |   input4 <= 90
|   |   |   |   |   |   |   |   |   input2 <= 86: 1 (4.0)
|   |   |   |   |   |   |   |   |   input2 > 86
|   |   |   |   |   |   |   |   |   |   input11 <= 77: 4 (3.0)
|   |   |   |   |   |   |   |   |   |   input11 > 77: 9 (4.0)
|   |   |   |   |   |   |   |   input4 > 90
|   |   |   |   |   |   |   |   |   input13 <= 28
|   |   |   |   |   |   |   |   |   |   input13 <= 21: 1 (3.0)
|   |   |   |   |   |   |   |   |   |   input13 > 21
|   |   |   |   |   |   |   |   |   |   |   input1 <= 28: 7 (2.0)
|   |   |   |   |   |   |   |   |   |   |   input1 > 28: 3 (2.0)
|   |   |   |   |   |   |   |   |   input13 > 28: 3 (206.0/1.0)
|   |   |   |   |   |   input1 > 64
|   |   |   |   |   |   |   input7 <= 44
|   |   |   |   |   |   |   |   input2 <= 88: 9 (7.0)
|   |   |   |   |   |   |   |   input2 > 88
|   |   |   |   |   |   |   |   |   input5 <= 48: 5 (157.0/1.0)
|   |   |   |   |   |   |   |   |   input5 > 48: 1 (5.0/1.0)
|   |   |   |   |   |   |   input7 > 44
|   |   |   |   |   |   |   |   input11 <= 49: 1 (15.0)
|   |   |   |   |   |   |   |   input11 > 49
|   |   |   |   |   |   |   |   |   input12 <= 10
|   |   |   |   |   |   |   |   |   |   input12 <= 6: 9 (3.0)
|   |   |   |   |   |   |   |   |   |   input12 > 6
|   |   |   |   |   |   |   |   |   |   |   input1 <= 87: 3 (2.0)
|   |   |   |   |   |   |   |   |   |   |   input1 > 87: 5 (40.0)
|   |   |   |   |   |   |   |   |   input12 > 10
|   |   |   |   |   |   |   |   |   |   input5 <= 89
|   |   |   |   |   |   |   |   |   |   |   input7 <= 56
|   |   |   |   |   |   |   |   |   |   |   |   input11 <= 90: 5 (2.0)
|   |   |   |   |   |   |   |   |   |   |   |   input11 > 90: 9 (11.0)
|   |   |   |   |   |   |   |   |   |   |   input7 > 56: 9 (316.0)
|   |   |   |   |   |   |   |   |   |   input5 > 89
|   |   |   |   |   |   |   |   |   |   |   input4 <= 93: 9 (5.0)
|   |   |   |   |   |   |   |   |   |   |   input4 > 93
|   |   |   |   |   |   |   |   |   |   |   |   input5 <= 91: 5 (2.0)
|   |   |   |   |   |   |   |   |   |   |   |   input5 > 91: 3 (5.0)
|   |   |   |   |   input15 > 17
|   |   |   |   |   |   input13 <= 64
|   |   |   |   |   |   |   input5 <= 76
|   |   |   |   |   |   |   |   input16 <= 0: 7 (49.0)
|   |   |   |   |   |   |   |   input16 > 0: 3 (3.0/1.0)
|   |   |   |   |   |   |   input5 > 76
|   |   |   |   |   |   |   |   input15 <= 32: 1 (57.0)
|   |   |   |   |   |   |   |   input15 > 32: 7 (3.0/1.0)
|   |   |   |   |   |   input13 > 64
|   |   |   |   |   |   |   input10 <= 64
|   |   |   |   |   |   |   |   input1 <= 17: 3 (13.0)
|   |   |   |   |   |   |   |   input1 > 17
|   |   |   |   |   |   |   |   |   input3 <= 71: 4 (2.0/1.0)
|   |   |   |   |   |   |   |   |   input3 > 71: 5 (4.0)
|   |   |   |   |   |   |   input10 > 64: 9 (60.0)
|   |   input15 > 57
|   |   |   input11 <= 96
|   |   |   |   input16 <= 14
|   |   |   |   |   input5 <= 92
|   |   |   |   |   |   input12 <= 8
|   |   |   |   |   |   |   input9 <= 3
|   |   |   |   |   |   |   |   input5 <= 43
|   |   |   |   |   |   |   |   |   input6 <= 70: 2 (6.0)
|   |   |   |   |   |   |   |   |   input6 > 70: 1 (4.0)
|   |   |   |   |   |   |   |   input5 > 43: 2 (38.0)
|   |   |   |   |   |   |   input9 > 3
|   |   |   |   |   |   |   |   input7 <= 63
|   |   |   |   |   |   |   |   |   input13 <= 60
|   |   |   |   |   |   |   |   |   |   input9 <= 33
|   |   |   |   |   |   |   |   |   |   |   input5 <= 69
|   |   |   |   |   |   |   |   |   |   |   |   input7 <= 57
|   |   |   |   |   |   |   |   |   |   |   |   |   input11 <= 6
|   |   |   |   |   |   |   |   |   |   |   |   |   |   input16 <= 0
|   |   |   |   |   |   |   |   |   |   |   |   |   |   |   input8 <= 40: 2 (7.0)
|   |   |   |   |   |   |   |   |   |   |   |   |   |   |   input8 > 40: 1 (7.0)
|   |   |   |   |   |   |   |   |   |   |   |   |   |   input16 > 0
|   |   |   |   |   |   |   |   |   |   |   |   |   |   |   input1 <= 17
|   |   |   |   |   |   |   |   |   |   |   |   |   |   |   |   input9 <= 10: 2 (6.0)
|   |   |   |   |   |   |   |   |   |   |   |   |   |   |   |   input9 > 10: 1 (20.0)
|   |   |   |   |   |   |   |   |   |   |   |   |   |   |   input1 > 17: 1 (236.0)
|   |   |   |   |   |   |   |   |   |   |   |   |   input11 > 6
|   |   |   |   |   |   |   |   |   |   |   |   |   |   input7 <= 37: 1 (2.0)
|   |   |   |   |   |   |   |   |   |   |   |   |   |   input7 > 37: 2 (6.0)
|   |   |   |   |   |   |   |   |   |   |   |   input7 > 57: 2 (6.0)
|   |   |   |   |   |   |   |   |   |   |   input5 > 69: 2 (30.0)
|   |   |   |   |   |   |   |   |   |   input9 > 33: 1 (362.0)
|   |   |   |   |   |   |   |   |   input13 > 60
|   |   |   |   |   |   |   |   |   |   input1 <= 7: 2 (11.0)
|   |   |   |   |   |   |   |   |   |   input1 > 7: 1 (2.0)
|   |   |   |   |   |   |   |   input7 > 63
|   |   |   |   |   |   |   |   |   input3 <= 54
|   |   |   |   |   |   |   |   |   |   input13 <= 24: 1 (3.0)
|   |   |   |   |   |   |   |   |   |   input13 > 24: 2 (42.0/1.0)
|   |   |   |   |   |   |   |   |   input3 > 54
|   |   |   |   |   |   |   |   |   |   input12 <= 5: 1 (53.0)
|   |   |   |   |   |   |   |   |   |   input12 > 5: 2 (2.0)
|   |   |   |   |   |   input12 > 8
|   |   |   |   |   |   |   input4 <= 86
|   |   |   |   |   |   |   |   input10 <= 77
|   |   |   |   |   |   |   |   |   input6 <= 67: 4 (2.0)
|   |   |   |   |   |   |   |   |   input6 > 67
|   |   |   |   |   |   |   |   |   |   input11 <= 34
|   |   |   |   |   |   |   |   |   |   |   input1 <= 5: 1 (3.0)
|   |   |   |   |   |   |   |   |   |   |   input1 > 5: 2 (3.0)
|   |   |   |   |   |   |   |   |   |   input11 > 34: 1 (121.0)
|   |   |   |   |   |   |   |   input10 > 77: 7 (5.0)
|   |   |   |   |   |   |   input4 > 86
|   |   |   |   |   |   |   |   input11 <= 71
|   |   |   |   |   |   |   |   |   input2 <= 67
|   |   |   |   |   |   |   |   |   |   input12 <= 11
|   |   |   |   |   |   |   |   |   |   |   input11 <= 5: 1 (31.0)
|   |   |   |   |   |   |   |   |   |   |   input11 > 5: 2 (5.0)
|   |   |   |   |   |   |   |   |   |   input12 > 11: 2 (14.0)
|   |   |   |   |   |   |   |   |   input2 > 67: 2 (324.0/2.0)
|   |   |   |   |   |   |   |   input11 > 71: 1 (5.0/1.0)
|   |   |   |   |   input5 > 92
|   |   |   |   |   |   input5 <= 93: 3 (48.0)
|   |   |   |   |   |   input5 > 93
|   |   |   |   |   |   |   input11 <= 25
|   |   |   |   |   |   |   |   input9 <= 63: 2 (84.0)
|   |   |   |   |   |   |   |   input9 > 63: 1 (2.0)
|   |   |   |   |   |   |   input11 > 25
|   |   |   |   |   |   |   |   input4 <= 94: 1 (58.0)
|   |   |   |   |   |   |   |   input4 > 94: 7 (3.0)
|   |   |   |   input16 > 14
|   |   |   |   |   input13 <= 47: 7 (5.0)
|   |   |   |   |   input13 > 47: 2 (133.0)
|   |   |   input11 > 96
|   |   |   |   input2 <= 93: 3 (43.0)
|   |   |   |   input2 > 93: 4 (7.0)
|   input14 > 24
|   |   input2 <= 74
|   |   |   input7 <= 75
|   |   |   |   input16 <= 3
|   |   |   |   |   input6 <= 67: 1 (2.0/1.0)
|   |   |   |   |   input6 > 67: 9 (118.0)
|   |   |   |   input16 > 3: 0 (2.0)
|   |   |   input7 > 75
|   |   |   |   input16 <= 10
|   |   |   |   |   input4 <= 82: 1 (127.0)
|   |   |   |   |   input4 > 82: 7 (6.0)
|   |   |   |   input16 > 10: 0 (3.0)
|   |   input2 > 74
|   |   |   input15 <= 21
|   |   |   |   input7 <= 12: 6 (23.0)
|   |   |   |   input7 > 12
|   |   |   |   |   input6 <= 73
|   |   |   |   |   |   input9 <= 89: 0 (96.0/1.0)
|   |   |   |   |   |   input9 > 89
|   |   |   |   |   |   |   input8 <= 41: 0 (4.0)
|   |   |   |   |   |   |   input8 > 41: 4 (12.0)
|   |   |   |   |   input6 > 73: 9 (11.0)
|   |   |   input15 > 21
|   |   |   |   input6 <= 77
|   |   |   |   |   input5 <= 4
|   |   |   |   |   |   input10 <= 82
|   |   |   |   |   |   |   input10 <= 9: 6 (2.0)
|   |   |   |   |   |   |   input10 > 9: 4 (32.0)
|   |   |   |   |   |   input10 > 82: 9 (74.0)
|   |   |   |   |   input5 > 4
|   |   |   |   |   |   input11 <= 33: 2 (6.0)
|   |   |   |   |   |   input11 > 33
|   |   |   |   |   |   |   input4 <= 68: 9 (5.0/1.0)
|   |   |   |   |   |   |   input4 > 68: 4 (438.0/1.0)
|   |   |   |   input6 > 77
|   |   |   |   |   input3 <= 10: 7 (17.0)
|   |   |   |   |   input3 > 10: 9 (71.0/1.0)
input16 > 19
|   input10 <= 54
|   |   input1 <= 95
|   |   |   input4 <= 85
|   |   |   |   input16 <= 99
|   |   |   |   |   input8 <= 3
|   |   |   |   |   |   input15 <= 95
|   |   |   |   |   |   |   input5 <= 23: 0 (26.0/1.0)
|   |   |   |   |   |   |   input5 > 23: 8 (32.0/1.0)
|   |   |   |   |   |   input15 > 95: 5 (9.0/1.0)
|   |   |   |   |   input8 > 3
|   |   |   |   |   |   input10 <= 8
|   |   |   |   |   |   |   input7 <= 34: 6 (9.0/1.0)
|   |   |   |   |   |   |   input7 > 34
|   |   |   |   |   |   |   |   input4 <= 76: 5 (3.0)
|   |   |   |   |   |   |   |   input4 > 76: 8 (11.0)
|   |   |   |   |   |   input10 > 8: 8 (312.0/2.0)
|   |   |   |   input16 > 99
|   |   |   |   |   input2 <= 98
|   |   |   |   |   |   input15 <= 83
|   |   |   |   |   |   |   input11 <= 73: 8 (6.0)
|   |   |   |   |   |   |   input11 > 73: 0 (2.0)
|   |   |   |   |   |   input15 > 83: 5 (32.0)
|   |   |   |   |   input2 > 98: 6 (53.0/1.0)
|   |   |   input4 > 85
|   |   |   |   input7 <= 18
|   |   |   |   |   input16 <= 56
|   |   |   |   |   |   input13 <= 87: 2 (2.0/1.0)
|   |   |   |   |   |   input13 > 87: 6 (7.0)
|   |   |   |   |   input16 > 56
|   |   |   |   |   |   input15 <= 11: 6 (2.0)
|   |   |   |   |   |   input15 > 11: 0 (103.0)
|   |   |   |   input7 > 18
|   |   |   |   |   input16 <= 69
|   |   |   |   |   |   input14 <= 4
|   |   |   |   |   |   |   input15 <= 18: 3 (27.0)
|   |   |   |   |   |   |   input15 > 18
|   |   |   |   |   |   |   |   input4 <= 99: 7 (2.0)
|   |   |   |   |   |   |   |   input4 > 99: 2 (7.0)
|   |   |   |   |   |   input14 > 4
|   |   |   |   |   |   |   input1 <= 49
|   |   |   |   |   |   |   |   input16 <= 26
|   |   |   |   |   |   |   |   |   input5 <= 64: 2 (6.0)
|   |   |   |   |   |   |   |   |   input5 > 64: 7 (14.0)
|   |   |   |   |   |   |   |   input16 > 26
|   |   |   |   |   |   |   |   |   input3 <= 24
|   |   |   |   |   |   |   |   |   |   input1 <= 0: 7 (13.0)
|   |   |   |   |   |   |   |   |   |   input1 > 0: 8 (5.0)
|   |   |   |   |   |   |   |   |   input3 > 24
|   |   |   |   |   |   |   |   |   |   input2 <= 71
|   |   |   |   |   |   |   |   |   |   |   input12 <= 22: 8 (9.0)
|   |   |   |   |   |   |   |   |   |   |   input12 > 22: 7 (10.0)
|   |   |   |   |   |   |   |   |   |   input2 > 71: 7 (176.0)
|   |   |   |   |   |   |   input1 > 49
|   |   |   |   |   |   |   |   input16 <= 33: 6 (2.0)
|   |   |   |   |   |   |   |   input16 > 33: 8 (8.0)
|   |   |   |   |   input16 > 69
|   |   |   |   |   |   input7 <= 24: 0 (2.0)
|   |   |   |   |   |   input7 > 24: 8 (119.0/1.0)
|   |   input1 > 95
|   |   |   input7 <= 29
|   |   |   |   input16 <= 54: 6 (276.0)
|   |   |   |   input16 > 54: 0 (8.0)
|   |   |   input7 > 29
|   |   |   |   input11 <= 52: 8 (35.0)
|   |   |   |   input11 > 52: 5 (49.0)
|   input10 > 54
|   |   input6 <= 15
|   |   |   input7 <= 47: 8 (4.0)
|   |   |   input7 > 47: 0 (114.0)
|   |   input6 > 15
|   |   |   input9 <= 53
|   |   |   |   input12 <= 41: 8 (49.0)
|   |   |   |   input12 > 41: 5 (7.0)
|   |   |   input9 > 53
|   |   |   |   input6 <= 85: 9 (146.0)
|   |   |   |   input6 > 85
|   |   |   |   |   input6 <= 95: 5 (2.0)
|   |   |   |   |   input6 > 95
|   |   |   |   |   |   input2 <= 55: 8 (3.0)
|   |   |   |   |   |   input2 > 55: 9 (9.0)

Number of Leaves  : 	148

Size of the tree : 	295


Weight: 3.78

J48 pruned tree
------------------

input16 <= 9
|   input14 <= 18
|   |   input15 <= 42
|   |   |   input4 <= 87
|   |   |   |   input7 <= 84
|   |   |   |   |   input11 <= 63: 1 (4.0/1.0)
|   |   |   |   |   input11 > 63: 9 (113.0/1.0)
|   |   |   |   input7 > 84
|   |   |   |   |   input6 <= 95: 9 (2.0)
|   |   |   |   |   input6 > 95: 1 (89.0)
|   |   |   input4 > 87
|   |   |   |   input3 <= 45
|   |   |   |   |   input1 <= 60
|   |   |   |   |   |   input11 <= 51: 7 (3.0)
|   |   |   |   |   |   input11 > 51
|   |   |   |   |   |   |   input8 <= 53: 1 (3.0)
|   |   |   |   |   |   |   input8 > 53
|   |   |   |   |   |   |   |   input2 <= 96: 3 (201.0)
|   |   |   |   |   |   |   |   input2 > 96: 9 (3.0/1.0)
|   |   |   |   |   input1 > 60
|   |   |   |   |   |   input8 <= 59: 1 (2.0/1.0)
|   |   |   |   |   |   input8 > 59: 9 (15.0)
|   |   |   |   input3 > 45
|   |   |   |   |   input7 <= 50
|   |   |   |   |   |   input13 <= 79
|   |   |   |   |   |   |   input2 <= 72
|   |   |   |   |   |   |   |   input1 <= 51: 1 (2.0)
|   |   |   |   |   |   |   |   input1 > 51: 9 (5.0)
|   |   |   |   |   |   |   input2 > 72
|   |   |   |   |   |   |   |   input11 <= 54
|   |   |   |   |   |   |   |   |   input1 <= 54: 5 (2.0)
|   |   |   |   |   |   |   |   |   input1 > 54: 1 (4.0)
|   |   |   |   |   |   |   |   input11 > 54
|   |   |   |   |   |   |   |   |   input8 <= 62
|   |   |   |   |   |   |   |   |   |   input9 <= 49: 1 (3.0/1.0)
|   |   |   |   |   |   |   |   |   |   input9 > 49
|   |   |   |   |   |   |   |   |   |   |   input5 <= 58: 5 (15.0)
|   |   |   |   |   |   |   |   |   |   |   input5 > 58: 3 (7.0/1.0)
|   |   |   |   |   |   |   |   |   input8 > 62
|   |   |   |   |   |   |   |   |   |   input7 <= 48: 5 (380.0/1.0)
|   |   |   |   |   |   |   |   |   |   input7 > 48
|   |   |   |   |   |   |   |   |   |   |   input1 <= 47: 3 (3.0)
|   |   |   |   |   |   |   |   |   |   |   input1 > 47: 5 (31.0)
|   |   |   |   |   |   input13 > 79: 9 (38.0)
|   |   |   |   |   input7 > 50
|   |   |   |   |   |   input1 <= 60
|   |   |   |   |   |   |   input8 <= 86
|   |   |   |   |   |   |   |   input12 <= 23
|   |   |   |   |   |   |   |   |   input15 <= 4: 3 (121.0)
|   |   |   |   |   |   |   |   |   input15 > 4: 1 (3.0)
|   |   |   |   |   |   |   |   input12 > 23
|   |   |   |   |   |   |   |   |   input3 <= 72: 3 (13.0)
|   |   |   |   |   |   |   |   |   input3 > 72
|   |   |   |   |   |   |   |   |   |   input10 <= 47: 3 (5.0/1.0)
|   |   |   |   |   |   |   |   |   |   input10 > 47: 1 (74.0)
|   |   |   |   |   |   |   input8 > 86: 5 (43.0)
|   |   |   |   |   |   input1 > 60
|   |   |   |   |   |   |   input13 <= 25: 1 (10.0)
|   |   |   |   |   |   |   input13 > 25
|   |   |   |   |   |   |   |   input7 <= 59
|   |   |   |   |   |   |   |   |   input2 <= 79: 9 (3.0)
|   |   |   |   |   |   |   |   |   input2 > 79: 5 (31.0)
|   |   |   |   |   |   |   |   input7 > 59
|   |   |   |   |   |   |   |   |   input10 <= 48: 3 (7.0)
|   |   |   |   |   |   |   |   |   input10 > 48: 9 (117.0)
|   |   input15 > 42
|   |   |   input11 <= 65
|   |   |   |   input13 <= 78
|   |   |   |   |   input5 <= 36
|   |   |   |   |   |   input13 <= 60: 1 (128.0)
|   |   |   |   |   |   input13 > 60: 2 (2.0)
|   |   |   |   |   input5 > 36
|   |   |   |   |   |   input3 <= 42
|   |   |   |   |   |   |   input10 <= 5
|   |   |   |   |   |   |   |   input8 <= 37: 2 (11.0)
|   |   |   |   |   |   |   |   input8 > 37: 1 (33.0)
|   |   |   |   |   |   |   input10 > 5
|   |   |   |   |   |   |   |   input4 <= 90
|   |   |   |   |   |   |   |   |   input7 <= 53: 1 (12.0)
|   |   |   |   |   |   |   |   |   input7 > 53: 2 (32.0)
|   |   |   |   |   |   |   |   input4 > 90
|   |   |   |   |   |   |   |   |   input5 <= 46
|   |   |   |   |   |   |   |   |   |   input13 <= 50: 1 (7.0)
|   |   |   |   |   |   |   |   |   |   input13 > 50: 2 (57.0)
|   |   |   |   |   |   |   |   |   input5 > 46: 2 (330.0/2.0)
|   |   |   |   |   |   input3 > 42
|   |   |   |   |   |   |   input2 <= 75
|   |   |   |   |   |   |   |   input14 <= 9
|   |   |   |   |   |   |   |   |   input1 <= 82
|   |   |   |   |   |   |   |   |   |   input3 <= 71
|   |   |   |   |   |   |   |   |   |   |   input1 <= 22: 1 (102.0/1.0)
|   |   |   |   |   |   |   |   |   |   |   input1 > 22
|   |   |   |   |   |   |   |   |   |   |   |   input6 <= 87: 2 (10.0)
|   |   |   |   |   |   |   |   |   |   |   |   input6 > 87
|   |   |   |   |   |   |   |   |   |   |   |   |   input1 <= 24: 2 (3.0)
|   |   |   |   |   |   |   |   |   |   |   |   |   input1 > 24: 1 (35.0/1.0)
|   |   |   |   |   |   |   |   |   |   input3 > 71: 1 (144.0)
|   |   |   |   |   |   |   |   |   input1 > 82: 2 (3.0)
|   |   |   |   |   |   |   |   input14 > 9: 2 (9.0)
|   |   |   |   |   |   |   input2 > 75
|   |   |   |   |   |   |   |   input11 <= 35
|   |   |   |   |   |   |   |   |   input10 <= 0
|   |   |   |   |   |   |   |   |   |   input11 <= 1: 1 (41.0)
|   |   |   |   |   |   |   |   |   |   input11 > 1: 2 (3.0)
|   |   |   |   |   |   |   |   |   input10 > 0
|   |   |   |   |   |   |   |   |   |   input3 <= 55
|   |   |   |   |   |   |   |   |   |   |   input3 <= 53: 2 (22.0)
|   |   |   |   |   |   |   |   |   |   |   input3 > 53: 3 (19.0)
|   |   |   |   |   |   |   |   |   |   input3 > 55: 2 (173.0/1.0)
|   |   |   |   |   |   |   |   input11 > 35: 1 (46.0/1.0)
|   |   |   |   input13 > 78
|   |   |   |   |   input1 <= 26: 2 (2.0)
|   |   |   |   |   input1 > 26: 4 (20.0)
|   |   |   input11 > 65
|   |   |   |   input4 <= 98
|   |   |   |   |   input1 <= 3: 1 (25.0)
|   |   |   |   |   input1 > 3: 4 (16.0)
|   |   |   |   input4 > 98: 3 (35.0)
|   input14 > 18
|   |   input6 <= 86
|   |   |   input2 <= 58: 1 (108.0/1.0)
|   |   |   input2 > 58
|   |   |   |   input10 <= 25
|   |   |   |   |   input15 <= 42: 6 (82.0)
|   |   |   |   |   input15 > 42
|   |   |   |   |   |   input2 <= 95: 2 (5.0)
|   |   |   |   |   |   input2 > 95: 4 (6.0)
|   |   |   |   input10 > 25
|   |   |   |   |   input8 <= 90
|   |   |   |   |   |   input16 <= 3
|   |   |   |   |   |   |   input9 <= 99
|   |   |   |   |   |   |   |   input6 <= 54
|   |   |   |   |   |   |   |   |   input2 <= 90: 9 (2.0)
|   |   |   |   |   |   |   |   |   input2 > 90: 4 (5.0/1.0)
|   |   |   |   |   |   |   |   input6 > 54: 4 (619.0/4.0)
|   |   |   |   |   |   |   input9 > 99
|   |   |   |   |   |   |   |   input8 <= 57: 4 (41.0)
|   |   |   |   |   |   |   |   input8 > 57
|   |   |   |   |   |   |   |   |   input5 <= 13: 9 (61.0)
|   |   |   |   |   |   |   |   |   input5 > 13: 4 (2.0)
|   |   |   |   |   |   input16 > 3: 0 (29.0)
|   |   |   |   |   input8 > 90
|   |   |   |   |   |   input11 <= 40: 0 (16.0)
|   |   |   |   |   |   input11 > 40: 9 (108.0/1.0)
|   |   input6 > 86
|   |   |   input1 <= 27
|   |   |   |   input8 <= 78: 3 (27.0)
|   |   |   |   input8 > 78
|   |   |   |   |   input4 <= 87
|   |   |   |   |   |   input12 <= 55: 1 (82.0)
|   |   |   |   |   |   input12 > 55: 7 (6.0/1.0)
|   |   |   |   |   input4 > 87
|   |   |   |   |   |   input8 <= 80: 1 (24.0)
|   |   |   |   |   |   input8 > 80
|   |   |   |   |   |   |   input2 <= 67
|   |   |   |   |   |   |   |   input15 <= 56: 7 (5.0)
|   |   |   |   |   |   |   |   input15 > 56: 3 (18.0)
|   |   |   |   |   |   |   input2 > 67: 7 (201.0)
|   |   |   input1 > 27
|   |   |   |   input13 <= 25: 1 (6.0)
|   |   |   |   input13 > 25: 9 (34.0)
input16 > 9
|   input10 <= 33
|   |   input16 <= 49
|   |   |   input15 <= 61
|   |   |   |   input5 <= 64
|   |   |   |   |   input7 <= 46: 6 (467.0)
|   |   |   |   |   input7 > 46: 5 (22.0)
|   |   |   |   input5 > 64
|   |   |   |   |   input2 <= 87: 3 (4.0)
|   |   |   |   |   input2 > 87: 7 (67.0)
|   |   |   input15 > 61
|   |   |   |   input9 <= 14: 2 (179.0/1.0)
|   |   |   |   input9 > 14
|   |   |   |   |   input14 <= 17
|   |   |   |   |   |   input14 <= 6: 2 (7.0)
|   |   |   |   |   |   input14 > 6: 1 (33.0/1.0)
|   |   |   |   |   input14 > 17: 7 (153.0)
|   |   input16 > 49
|   |   |   input11 <= 34
|   |   |   |   input14 <= 75
|   |   |   |   |   input1 <= 17
|   |   |   |   |   |   input1 <= 8: 7 (10.0)
|   |   |   |   |   |   input1 > 8: 5 (12.0)
|   |   |   |   |   input1 > 17: 8 (261.0)
|   |   |   |   input14 > 75
|   |   |   |   |   input10 <= 10
|   |   |   |   |   |   input15 <= 70: 8 (4.0)
|   |   |   |   |   |   input15 > 70: 5 (97.0)
|   |   |   |   |   input10 > 10
|   |   |   |   |   |   input9 <= 6: 5 (4.0)
|   |   |   |   |   |   input9 > 6: 6 (32.0)
|   |   |   input11 > 34
|   |   |   |   input7 <= 27
|   |   |   |   |   input15 <= 21
|   |   |   |   |   |   input10 <= 6: 6 (37.0)
|   |   |   |   |   |   input10 > 6: 0 (4.0)
|   |   |   |   |   input15 > 21
|   |   |   |   |   |   input16 <= 56: 6 (2.0)
|   |   |   |   |   |   input16 > 56: 0 (126.0/1.0)
|   |   |   |   input7 > 27
|   |   |   |   |   input6 <= 28: 0 (14.0/1.0)
|   |   |   |   |   input6 > 28
|   |   |   |   |   |   input1 <= 0
|   |   |   |   |   |   |   input10 <= 9: 7 (2.0)
|   |   |   |   |   |   |   input10 > 9: 8 (2.0)
|   |   |   |   |   |   input1 > 0
|   |   |   |   |   |   |   input14 <= 96: 8 (62.0)
|   |   |   |   |   |   |   input14 > 96
|   |   |   |   |   |   |   |   input5 <= 7: 0 (2.0)
|   |   |   |   |   |   |   |   input5 > 7: 8 (3.0)
|   input10 > 33
|   |   input4 <= 74
|   |   |   input1 <= 0
|   |   |   |   input6 <= 16: 0 (4.0)
|   |   |   |   input6 > 16
|   |   |   |   |   input7 <= 31: 8 (2.0)
|   |   |   |   |   input7 > 31: 9 (51.0)
|   |   |   input1 > 0
|   |   |   |   input15 <= 91
|   |   |   |   |   input7 <= 63
|   |   |   |   |   |   input15 <= 68
|   |   |   |   |   |   |   input9 <= 83: 8 (228.0/2.0)
|   |   |   |   |   |   |   input9 > 83
|   |   |   |   |   |   |   |   input2 <= 85: 0 (3.0)
|   |   |   |   |   |   |   |   input2 > 85: 9 (4.0)
|   |   |   |   |   |   input15 > 68: 0 (48.0)
|   |   |   |   |   input7 > 63: 0 (140.0)
|   |   |   |   input15 > 91
|   |   |   |   |   input8 <= 53: 5 (8.0)
|   |   |   |   |   input8 > 53: 1 (19.0)
|   |   input4 > 74
|   |   |   input5 <= 41
|   |   |   |   input10 <= 57: 5 (80.0)
|   |   |   |   input10 > 57: 9 (27.0)
|   |   |   input5 > 41
|   |   |   |   input15 <= 22
|   |   |   |   |   input8 <= 70
|   |   |   |   |   |   input4 <= 96: 9 (2.0)
|   |   |   |   |   |   input4 > 96
|   |   |   |   |   |   |   input3 <= 86: 3 (42.0)
|   |   |   |   |   |   |   input3 > 86: 5 (5.0/1.0)
|   |   |   |   |   input8 > 70
|   |   |   |   |   |   input2 <= 65: 3 (15.0)
|   |   |   |   |   |   input2 > 65
|   |   |   |   |   |   |   input9 <= 70: 5 (7.0)
|   |   |   |   |   |   |   input9 > 70: 9 (131.0)
|   |   |   |   input15 > 22
|   |   |   |   |   input4 <= 85: 8 (4.0)
|   |   |   |   |   input4 > 85: 7 (10.0)

Number of Leaves  : 	126

Size of the tree : 	251


Weight: 4.05

J48 pruned tree
------------------

input16 <= 24
|   input11 <= 40
|   |   input10 <= 70
|   |   |   input1 <= 65
|   |   |   |   input16 <= 15
|   |   |   |   |   input1 <= 39
|   |   |   |   |   |   input12 <= 3
|   |   |   |   |   |   |   input9 <= 27
|   |   |   |   |   |   |   |   input10 <= 11
|   |   |   |   |   |   |   |   |   input13 <= 55
|   |   |   |   |   |   |   |   |   |   input5 <= 59: 1 (52.0/1.0)
|   |   |   |   |   |   |   |   |   |   input5 > 59: 2 (5.0)
|   |   |   |   |   |   |   |   |   input13 > 55: 2 (17.0)
|   |   |   |   |   |   |   |   input10 > 11
|   |   |   |   |   |   |   |   |   input13 <= 48: 1 (3.0)
|   |   |   |   |   |   |   |   |   input13 > 48: 2 (80.0)
|   |   |   |   |   |   |   input9 > 27
|   |   |   |   |   |   |   |   input14 <= 9
|   |   |   |   |   |   |   |   |   input7 <= 59: 1 (269.0)
|   |   |   |   |   |   |   |   |   input7 > 59
