
Options: -Q -P 100 -S 1 -I 10 -W weka.classifiers.trees.J48 -- -C 0.25 -M 2 

AdaBoostM1: Base classifiers and their weights: 

J48 pruned tree
------------------

input14 <= 50
|   input16 <= 19
|   |   input11 <= 42
|   |   |   input15 <= 46
|   |   |   |   input16 <= 3
|   |   |   |   |   input13 <= 29
|   |   |   |   |   |   input6 <= 69: 0 (4.0/1.0)
|   |   |   |   |   |   input6 > 69
|   |   |   |   |   |   |   input12 <= 47: 1 (100.0)
|   |   |   |   |   |   |   input12 > 47
|   |   |   |   |   |   |   |   input15 <= 7: 1 (6.0)
|   |   |   |   |   |   |   |   input15 > 7: 7 (10.0)
|   |   |   |   |   input13 > 29
|   |   |   |   |   |   input6 <= 97: 3 (4.0/1.0)
|   |   |   |   |   |   input6 > 97
|   |   |   |   |   |   |   input4 <= 86: 1 (2.0)
|   |   |   |   |   |   |   input4 > 86: 5 (4.0)
|   |   |   |   input16 > 3: 6 (13.0)
|   |   |   input15 > 46
|   |   |   |   input4 <= 91
|   |   |   |   |   input13 <= 54
|   |   |   |   |   |   input7 <= 85
|   |   |   |   |   |   |   input8 <= 88: 1 (63.0/1.0)
|   |   |   |   |   |   |   input8 > 88: 2 (2.0)
|   |   |   |   |   |   input7 > 85
|   |   |   |   |   |   |   input3 <= 50: 2 (10.0)
|   |   |   |   |   |   |   input3 > 50: 1 (2.0)
|   |   |   |   |   input13 > 54: 2 (7.0)
|   |   |   |   input4 > 91
|   |   |   |   |   input9 <= 36
|   |   |   |   |   |   input4 <= 95
|   |   |   |   |   |   |   input14 <= 14
|   |   |   |   |   |   |   |   input5 <= 50: 1 (2.0)
|   |   |   |   |   |   |   |   input5 > 50: 2 (8.0)
|   |   |   |   |   |   |   input14 > 14: 7 (3.0)
|   |   |   |   |   |   input4 > 95
|   |   |   |   |   |   |   input2 <= 67
|   |   |   |   |   |   |   |   input13 <= 55
|   |   |   |   |   |   |   |   |   input5 <= 49: 1 (13.0/1.0)
|   |   |   |   |   |   |   |   |   input5 > 49
|   |   |   |   |   |   |   |   |   |   input9 <= 29
|   |   |   |   |   |   |   |   |   |   |   input6 <= 87: 2 (37.0)
|   |   |   |   |   |   |   |   |   |   |   input6 > 87
|   |   |   |   |   |   |   |   |   |   |   |   input10 <= 12: 1 (3.0)
|   |   |   |   |   |   |   |   |   |   |   |   input10 > 12: 2 (8.0)
|   |   |   |   |   |   |   |   |   |   input9 > 29: 1 (3.0)
|   |   |   |   |   |   |   |   input13 > 55: 2 (32.0)
|   |   |   |   |   |   |   input2 > 67: 2 (495.0/5.0)
|   |   |   |   |   input9 > 36
|   |   |   |   |   |   input7 <= 64
|   |   |   |   |   |   |   input10 <= 30
|   |   |   |   |   |   |   |   input13 <= 65: 1 (67.0)
|   |   |   |   |   |   |   |   input13 > 65: 2 (2.0)
|   |   |   |   |   |   |   input10 > 30: 2 (5.0)
|   |   |   |   |   |   input7 > 64
|   |   |   |   |   |   |   input9 <= 52: 2 (136.0/1.0)
|   |   |   |   |   |   |   input9 > 52
|   |   |   |   |   |   |   |   input3 <= 46: 2 (26.0)
|   |   |   |   |   |   |   |   input3 > 46
|   |   |   |   |   |   |   |   |   input14 <= 14: 1 (27.0/1.0)
|   |   |   |   |   |   |   |   |   input14 > 14: 7 (2.0)
|   |   input11 > 42
|   |   |   input6 <= 69
|   |   |   |   input10 <= 19
|   |   |   |   |   input15 <= 61: 6 (272.0)
|   |   |   |   |   input15 > 61: 4 (22.0)
|   |   |   |   input10 > 19
|   |   |   |   |   input14 <= 13
|   |   |   |   |   |   input12 <= 11: 3 (5.0)
|   |   |   |   |   |   input12 > 11: 9 (101.0/1.0)
|   |   |   |   |   input14 > 13
|   |   |   |   |   |   input4 <= 53
|   |   |   |   |   |   |   input1 <= 20: 1 (18.0)
|   |   |   |   |   |   |   input1 > 20: 9 (7.0/1.0)
|   |   |   |   |   |   input4 > 53
|   |   |   |   |   |   |   input8 <= 78
|   |   |   |   |   |   |   |   input10 <= 88: 4 (692.0)
|   |   |   |   |   |   |   |   input10 > 88
|   |   |   |   |   |   |   |   |   input7 <= 72: 9 (2.0)
|   |   |   |   |   |   |   |   |   input7 > 72: 4 (14.0)
|   |   |   |   |   |   |   input8 > 78
|   |   |   |   |   |   |   |   input1 <= 38: 4 (2.0)
|   |   |   |   |   |   |   |   input1 > 38: 9 (22.0)
|   |   |   input6 > 69
|   |   |   |   input4 <= 87
|   |   |   |   |   input1 <= 23
|   |   |   |   |   |   input7 <= 59
|   |   |   |   |   |   |   input16 <= 3
|   |   |   |   |   |   |   |   input12 <= 34
|   |   |   |   |   |   |   |   |   input2 <= 74: 1 (2.0)
|   |   |   |   |   |   |   |   |   input2 > 74: 9 (3.0)
|   |   |   |   |   |   |   |   input12 > 34: 9 (54.0)
|   |   |   |   |   |   |   input16 > 3
|   |   |   |   |   |   |   |   input11 <= 76: 1 (3.0)
|   |   |   |   |   |   |   |   input11 > 76: 8 (8.0)
|   |   |   |   |   |   input7 > 59
|   |   |   |   |   |   |   input5 <= 44
|   |   |   |   |   |   |   |   input6 <= 92: 1 (9.0)
|   |   |   |   |   |   |   |   input6 > 92: 7 (25.0)
|   |   |   |   |   |   |   input5 > 44
|   |   |   |   |   |   |   |   input12 <= 67: 1 (410.0/1.0)
|   |   |   |   |   |   |   |   input12 > 67
|   |   |   |   |   |   |   |   |   input2 <= 55: 1 (3.0)
|   |   |   |   |   |   |   |   |   input2 > 55: 9 (2.0)
|   |   |   |   |   input1 > 23
|   |   |   |   |   |   input13 <= 25: 1 (13.0/1.0)
|   |   |   |   |   |   input13 > 25
|   |   |   |   |   |   |   input8 <= 61: 4 (3.0)
|   |   |   |   |   |   |   input8 > 61: 9 (244.0/1.0)
|   |   |   |   input4 > 87
|   |   |   |   |   input14 <= 14
|   |   |   |   |   |   input5 <= 61
|   |   |   |   |   |   |   input1 <= 21
|   |   |   |   |   |   |   |   input10 <= 20: 1 (11.0/1.0)
|   |   |   |   |   |   |   |   input10 > 20
|   |   |   |   |   |   |   |   |   input6 <= 87: 3 (14.0)
|   |   |   |   |   |   |   |   |   input6 > 87
|   |   |   |   |   |   |   |   |   |   input2 <= 88: 2 (2.0/1.0)
|   |   |   |   |   |   |   |   |   |   input2 > 88: 5 (24.0)
|   |   |   |   |   |   |   input1 > 21
|   |   |   |   |   |   |   |   input7 <= 55
|   |   |   |   |   |   |   |   |   input2 <= 78: 9 (38.0)
|   |   |   |   |   |   |   |   |   input2 > 78
|   |   |   |   |   |   |   |   |   |   input10 <= 21: 6 (3.0)
|   |   |   |   |   |   |   |   |   |   input10 > 21
|   |   |   |   |   |   |   |   |   |   |   input3 <= 30
|   |   |   |   |   |   |   |   |   |   |   |   input7 <= 33: 5 (2.0)
|   |   |   |   |   |   |   |   |   |   |   |   input7 > 33: 9 (9.0)
|   |   |   |   |   |   |   |   |   |   |   input3 > 30: 5 (136.0/1.0)
|   |   |   |   |   |   |   |   input7 > 55
|   |   |   |   |   |   |   |   |   input10 <= 48
|   |   |   |   |   |   |   |   |   |   input2 <= 93: 9 (2.0)
|   |   |   |   |   |   |   |   |   |   input2 > 93: 5 (3.0)
|   |   |   |   |   |   |   |   |   input10 > 48: 9 (129.0)
|   |   |   |   |   |   input5 > 61
|   |   |   |   |   |   |   input3 <= 89
|   |   |   |   |   |   |   |   input15 <= 61
|   |   |   |   |   |   |   |   |   input8 <= 80
|   |   |   |   |   |   |   |   |   |   input1 <= 70
|   |   |   |   |   |   |   |   |   |   |   input10 <= 27
|   |   |   |   |   |   |   |   |   |   |   |   input1 <= 21: 1 (3.0)
|   |   |   |   |   |   |   |   |   |   |   |   input1 > 21: 3 (4.0)
|   |   |   |   |   |   |   |   |   |   |   input10 > 27
|   |   |   |   |   |   |   |   |   |   |   |   input3 <= 78: 3 (594.0)
|   |   |   |   |   |   |   |   |   |   |   |   input3 > 78
|   |   |   |   |   |   |   |   |   |   |   |   |   input6 <= 85: 3 (58.0)
|   |   |   |   |   |   |   |   |   |   |   |   |   input6 > 85: 5 (6.0/1.0)
|   |   |   |   |   |   |   |   |   |   input1 > 70
|   |   |   |   |   |   |   |   |   |   |   input2 <= 96: 3 (4.0)
|   |   |   |   |   |   |   |   |   |   |   input2 > 96: 9 (4.0)
|   |   |   |   |   |   |   |   |   input8 > 80
|   |   |   |   |   |   |   |   |   |   input5 <= 89
|   |   |   |   |   |   |   |   |   |   |   input2 <= 83: 3 (6.0)
|   |   |   |   |   |   |   |   |   |   |   input2 > 83: 9 (19.0/1.0)
|   |   |   |   |   |   |   |   |   |   input5 > 89: 5 (23.0)
|   |   |   |   |   |   |   |   input15 > 61
|   |   |   |   |   |   |   |   |   input16 <= 10
|   |   |   |   |   |   |   |   |   |   input3 <= 41: 2 (6.0)
|   |   |   |   |   |   |   |   |   |   input3 > 41: 1 (9.0)
|   |   |   |   |   |   |   |   |   input16 > 10: 7 (4.0)
|   |   |   |   |   |   |   input3 > 89
|   |   |   |   |   |   |   |   input6 <= 83
|   |   |   |   |   |   |   |   |   input14 <= 10: 3 (11.0)
|   |   |   |   |   |   |   |   |   input14 > 10: 1 (3.0)
|   |   |   |   |   |   |   |   input6 > 83
|   |   |   |   |   |   |   |   |   input4 <= 94: 9 (2.0)
|   |   |   |   |   |   |   |   |   input4 > 94: 5 (105.0/1.0)
|   |   |   |   |   input14 > 14
|   |   |   |   |   |   input1 <= 26
|   |   |   |   |   |   |   input5 <= 27: 4 (11.0)
|   |   |   |   |   |   |   input5 > 27
|   |   |   |   |   |   |   |   input3 <= 54
|   |   |   |   |   |   |   |   |   input9 <= 57: 3 (5.0)
|   |   |   |   |   |   |   |   |   input9 > 57: 7 (79.0/1.0)
|   |   |   |   |   |   |   |   input3 > 54: 1 (4.0/1.0)
|   |   |   |   |   |   input1 > 26
|   |   |   |   |   |   |   input10 <= 58
|   |   |   |   |   |   |   |   input6 <= 83
|   |   |   |   |   |   |   |   |   input10 <= 21: 6 (17.0)
|   |   |   |   |   |   |   |   |   input10 > 21: 4 (34.0)
|   |   |   |   |   |   |   |   input6 > 83: 5 (9.0)
|   |   |   |   |   |   |   input10 > 58
|   |   |   |   |   |   |   |   input1 <= 49
|   |   |   |   |   |   |   |   |   input2 <= 91: 5 (2.0)
|   |   |   |   |   |   |   |   |   input2 > 91: 4 (3.0/1.0)
|   |   |   |   |   |   |   |   input1 > 49
|   |   |   |   |   |   |   |   |   input11 <= 62
|   |   |   |   |   |   |   |   |   |   input2 <= 91: 9 (4.0)
|   |   |   |   |   |   |   |   |   |   input2 > 91: 5 (7.0)
|   |   |   |   |   |   |   |   |   input11 > 62
|   |   |   |   |   |   |   |   |   |   input2 <= 96: 9 (72.0)
|   |   |   |   |   |   |   |   |   |   input2 > 96
|   |   |   |   |   |   |   |   |   |   |   input2 <= 99: 4 (2.0)
|   |   |   |   |   |   |   |   |   |   |   input2 > 99: 9 (8.0)
|   input16 > 19
|   |   input1 <= 34
|   |   |   input9 <= 1
|   |   |   |   input15 <= 62: 8 (6.0)
|   |   |   |   input15 > 62: 2 (26.0)
|   |   |   input9 > 1
|   |   |   |   input14 <= 7
|   |   |   |   |   input8 <= 70
|   |   |   |   |   |   input4 <= 99: 7 (2.0)
|   |   |   |   |   |   input4 > 99
|   |   |   |   |   |   |   input15 <= 50: 3 (23.0/1.0)
|   |   |   |   |   |   |   input15 > 50: 2 (2.0)
|   |   |   |   |   input8 > 70
|   |   |   |   |   |   input12 <= 30: 8 (16.0)
|   |   |   |   |   |   input12 > 30: 9 (5.0)
|   |   |   |   input14 > 7
|   |   |   |   |   input16 <= 62
|   |   |   |   |   |   input4 <= 78: 8 (7.0/1.0)
|   |   |   |   |   |   input4 > 78: 7 (673.0/2.0)
|   |   |   |   |   input16 > 62
|   |   |   |   |   |   input5 <= 76: 7 (3.0)
|   |   |   |   |   |   input5 > 76: 8 (19.0)
|   |   input1 > 34
|   |   |   input15 <= 57
|   |   |   |   input10 <= 25
|   |   |   |   |   input7 <= 42: 6 (410.0/1.0)
|   |   |   |   |   input7 > 42: 8 (6.0)
|   |   |   |   input10 > 25
|   |   |   |   |   input11 <= 62
|   |   |   |   |   |   input4 <= 94: 8 (36.0)
|   |   |   |   |   |   input4 > 94: 6 (5.0)
|   |   |   |   |   input11 > 62
|   |   |   |   |   |   input8 <= 64
|   |   |   |   |   |   |   input16 <= 26: 3 (14.0)
|   |   |   |   |   |   |   input16 > 26: 5 (7.0)
|   |   |   |   |   |   input8 > 64
|   |   |   |   |   |   |   input11 <= 81: 5 (2.0)
|   |   |   |   |   |   |   input11 > 81: 9 (13.0)
|   |   |   input15 > 57
|   |   |   |   input13 <= 63
|   |   |   |   |   input5 <= 65: 8 (106.0/1.0)
|   |   |   |   |   input5 > 65: 7 (6.0/1.0)
|   |   |   |   input13 > 63
|   |   |   |   |   input15 <= 97: 0 (9.0)
|   |   |   |   |   input15 > 97: 2 (4.0)
input14 > 50
|   input15 <= 95
|   |   input9 <= 52
|   |   |   input13 <= 21: 5 (11.0)
|   |   |   input13 > 21
|   |   |   |   input5 <= 21
|   |   |   |   |   input11 <= 67: 8 (23.0)
|   |   |   |   |   input11 > 67
|   |   |   |   |   |   input13 <= 75: 6 (2.0)
|   |   |   |   |   |   input13 > 75: 0 (20.0)
|   |   |   |   input5 > 21: 8 (358.0/3.0)
|   |   input9 > 52
|   |   |   input11 <= 38
|   |   |   |   input10 <= 37: 8 (49.0)
|   |   |   |   input10 > 37
|   |   |   |   |   input6 <= 18: 0 (9.0)
|   |   |   |   |   input6 > 18: 9 (6.0)
|   |   |   input11 > 38
|   |   |   |   input14 <= 58
|   |   |   |   |   input10 <= 17
|   |   |   |   |   |   input2 <= 86: 8 (2.0)
|   |   |   |   |   |   input2 > 86: 6 (15.0/1.0)
|   |   |   |   |   input10 > 17
|   |   |   |   |   |   input1 <= 58: 4 (6.0)
|   |   |   |   |   |   input1 > 58: 0 (4.0)
|   |   |   |   input14 > 58
|   |   |   |   |   input2 <= 26: 9 (8.0/1.0)
|   |   |   |   |   input2 > 26
|   |   |   |   |   |   input3 <= 50
|   |   |   |   |   |   |   input5 <= 55: 0 (720.0/2.0)
|   |   |   |   |   |   |   input5 > 55
|   |   |   |   |   |   |   |   input12 <= 83: 8 (4.0)
|   |   |   |   |   |   |   |   input12 > 83: 0 (19.0)
|   |   |   |   |   |   input3 > 50
|   |   |   |   |   |   |   input14 <= 91: 0 (2.0/1.0)
|   |   |   |   |   |   |   input14 > 91: 8 (11.0)
|   input15 > 95
|   |   input4 <= 81: 5 (381.0/1.0)
|   |   input4 > 81
|   |   |   input1 <= 18: 7 (26.0)
|   |   |   input1 > 18
|   |   |   |   input14 <= 71: 8 (88.0)
|   |   |   |   input14 > 71
|   |   |   |   |   input3 <= 23: 5 (4.0)
|   |   |   |   |   input3 > 23: 8 (3.0)

Number of Leaves  : 	143

Size of the tree : 	285


Weight: 3.71

J48 pruned tree
------------------

input16 <= 24
|   input11 <= 39
|   |   input14 <= 20
|   |   |   input15 <= 46
|   |   |   |   input16 <= 1
|   |   |   |   |   input13 <= 27: 1 (35.0)
|   |   |   |   |   input13 > 27: 5 (3.0/1.0)
|   |   |   |   input16 > 1: 6 (37.0/1.0)
|   |   |   input15 > 46
|   |   |   |   input5 <= 39
|   |   |   |   |   input13 <= 57: 1 (213.0/1.0)
|   |   |   |   |   input13 > 57: 2 (7.0)
|   |   |   |   input5 > 39
|   |   |   |   |   input12 <= 9
|   |   |   |   |   |   input3 <= 28: 2 (196.0/1.0)
|   |   |   |   |   |   input3 > 28
|   |   |   |   |   |   |   input10 <= 6
|   |   |   |   |   |   |   |   input9 <= 8: 2 (17.0)
|   |   |   |   |   |   |   |   input9 > 8
|   |   |   |   |   |   |   |   |   input5 <= 84: 1 (257.0/2.0)
|   |   |   |   |   |   |   |   |   input5 > 84: 2 (6.0)
|   |   |   |   |   |   |   input10 > 6
|   |   |   |   |   |   |   |   input6 <= 85
|   |   |   |   |   |   |   |   |   input9 <= 42: 2 (155.0)
|   |   |   |   |   |   |   |   |   input9 > 42
|   |   |   |   |   |   |   |   |   |   input1 <= 21: 2 (2.0)
|   |   |   |   |   |   |   |   |   |   input1 > 21: 1 (3.0)
|   |   |   |   |   |   |   |   input6 > 85
|   |   |   |   |   |   |   |   |   input2 <= 74
|   |   |   |   |   |   |   |   |   |   input14 <= 7
|   |   |   |   |   |   |   |   |   |   |   input16 <= 10
|   |   |   |   |   |   |   |   |   |   |   |   input3 <= 30
|   |   |   |   |   |   |   |   |   |   |   |   |   input6 <= 95: 2 (2.0)
|   |   |   |   |   |   |   |   |   |   |   |   |   input6 > 95: 1 (3.0)
|   |   |   |   |   |   |   |   |   |   |   |   input3 > 30
|   |   |   |   |   |   |   |   |   |   |   |   |   input5 <= 78: 1 (133.0)
|   |   |   |   |   |   |   |   |   |   |   |   |   input5 > 78
|   |   |   |   |   |   |   |   |   |   |   |   |   |   input3 <= 52: 2 (3.0)
|   |   |   |   |   |   |   |   |   |   |   |   |   |   input3 > 52: 1 (27.0)
|   |   |   |   |   |   |   |   |   |   |   input16 > 10: 2 (4.0)
|   |   |   |   |   |   |   |   |   |   input14 > 7: 2 (7.0)
|   |   |   |   |   |   |   |   |   input2 > 74
|   |   |   |   |   |   |   |   |   |   input9 <= 60: 2 (66.0/1.0)
|   |   |   |   |   |   |   |   |   |   input9 > 60: 1 (4.0)
|   |   |   |   |   input12 > 9
|   |   |   |   |   |   input12 <= 10
|   |   |   |   |   |   |   input2 <= 88: 2 (15.0)
|   |   |   |   |   |   |   input2 > 88: 3 (26.0)
|   |   |   |   |   |   input12 > 10
|   |   |   |   |   |   |   input4 <= 86: 1 (3.0/1.0)
|   |   |   |   |   |   |   input4 > 86: 2 (271.0/2.0)
|   |   input14 > 20
|   |   |   input14 <= 30
|   |   |   |   input4 <= 89
|   |   |   |   |   input16 <= 9: 1 (43.0)
|   |   |   |   |   input16 > 9: 6 (5.0)
|   |   |   |   input4 > 89
|   |   |   |   |   input13 <= 41: 7 (99.0/1.0)
|   |   |   |   |   input13 > 41: 2 (17.0/1.0)
|   |   |   input14 > 30
|   |   |   |   input7 <= 69: 9 (29.0)
|   |   |   |   input7 > 69
|   |   |   |   |   input5 <= 18: 4 (23.0)
|   |   |   |   |   input5 > 18: 0 (48.0)
|   input11 > 39
|   |   input8 <= 50
|   |   |   input14 <= 11
|   |   |   |   input15 <= 53
|   |   |   |   |   input14 <= 3
|   |   |   |   |   |   input1 <= 77: 3 (49.0)
|   |   |   |   |   |   input1 > 77: 5 (12.0/1.0)
|   |   |   |   |   input14 > 3: 1 (42.0)
|   |   |   |   input15 > 53: 2 (21.0)
|   |   |   input14 > 11
|   |   |   |   input10 <= 15
|   |   |   |   |   input15 <= 64
|   |   |   |   |   |   input7 <= 46: 6 (203.0)
|   |   |   |   |   |   input7 > 46: 7 (3.0/1.0)
|   |   |   |   |   input15 > 64: 4 (4.0)
|   |   |   |   input10 > 15
|   |   |   |   |   input16 <= 2
|   |   |   |   |   |   input6 <= 72
|   |   |   |   |   |   |   input6 <= 21
|   |   |   |   |   |   |   |   input1 <= 82: 4 (2.0)
|   |   |   |   |   |   |   |   input1 > 82: 0 (2.0)
|   |   |   |   |   |   |   input6 > 21: 4 (385.0/1.0)
|   |   |   |   |   |   input6 > 72
|   |   |   |   |   |   |   input1 <= 88: 4 (2.0/1.0)
|   |   |   |   |   |   |   input1 > 88: 6 (3.0)
|   |   |   |   |   input16 > 2
|   |   |   |   |   |   input6 <= 53: 0 (33.0)
|   |   |   |   |   |   input6 > 53: 6 (2.0/1.0)
|   |   input8 > 50
|   |   |   input1 <= 64
|   |   |   |   input4 <= 95
|   |   |   |   |   input9 <= 41
|   |   |   |   |   |   input14 <= 18
|   |   |   |   |   |   |   input8 <= 93
|   |   |   |   |   |   |   |   input3 <= 40: 4 (4.0/1.0)
|   |   |   |   |   |   |   |   input3 > 40: 5 (3.0)
|   |   |   |   |   |   |   input8 > 93: 8 (20.0)
|   |   |   |   |   |   input14 > 18: 9 (80.0)
|   |   |   |   |   input9 > 41
|   |   |   |   |   |   input6 <= 72
|   |   |   |   |   |   |   input14 <= 3
|   |   |   |   |   |   |   |   input11 <= 93: 3 (54.0)
|   |   |   |   |   |   |   |   input11 > 93: 9 (5.0)
|   |   |   |   |   |   |   input14 > 3
|   |   |   |   |   |   |   |   input16 <= 10
|   |   |   |   |   |   |   |   |   input1 <= 5: 1 (35.0)
|   |   |   |   |   |   |   |   |   input1 > 5: 4 (97.0/1.0)
|   |   |   |   |   |   |   |   input16 > 10: 0 (16.0)
|   |   |   |   |   |   input6 > 72
|   |   |   |   |   |   |   input7 <= 55
|   |   |   |   |   |   |   |   input11 <= 65: 1 (4.0)
|   |   |   |   |   |   |   |   input11 > 65
|   |   |   |   |   |   |   |   |   input16 <= 15: 9 (68.0/1.0)
|   |   |   |   |   |   |   |   |   input16 > 15
|   |   |   |   |   |   |   |   |   |   input3 <= 56: 8 (2.0/1.0)
|   |   |   |   |   |   |   |   |   |   input3 > 56: 5 (3.0)
|   |   |   |   |   |   |   input7 > 55
|   |   |   |   |   |   |   |   input11 <= 91
|   |   |   |   |   |   |   |   |   input5 <= 56
|   |   |   |   |   |   |   |   |   |   input4 <= 71
|   |   |   |   |   |   |   |   |   |   |   input6 <= 95: 1 (52.0)
|   |   |   |   |   |   |   |   |   |   |   input6 > 95: 7 (31.0)
|   |   |   |   |   |   |   |   |   |   input4 > 71
|   |   |   |   |   |   |   |   |   |   |   input15 <= 63: 7 (31.0)
|   |   |   |   |   |   |   |   |   |   |   input15 > 63: 3 (37.0)
|   |   |   |   |   |   |   |   |   input5 > 56
|   |   |   |   |   |   |   |   |   |   input2 <= 76: 1 (317.0/4.0)
|   |   |   |   |   |   |   |   |   |   input2 > 76
|   |   |   |   |   |   |   |   |   |   |   input1 <= 4
|   |   |   |   |   |   |   |   |   |   |   |   input15 <= 76: 7 (4.0)
|   |   |   |   |   |   |   |   |   |   |   |   input15 > 76: 1 (26.0/1.0)
|   |   |   |   |   |   |   |   |   |   |   input1 > 4: 3 (22.0/1.0)
|   |   |   |   |   |   |   |   input11 > 91
|   |   |   |   |   |   |   |   |   input10 <= 62
|   |   |   |   |   |   |   |   |   |   input7 <= 70: 1 (2.0/1.0)
|   |   |   |   |   |   |   |   |   |   input7 > 70: 3 (40.0)
|   |   |   |   |   |   |   |   |   input10 > 62
|   |   |   |   |   |   |   |   |   |   input7 <= 92: 9 (26.0)
|   |   |   |   |   |   |   |   |   |   input7 > 92: 1 (9.0)
|   |   |   |   input4 > 95
|   |   |   |   |   input13 <= 9: 1 (66.0)
|   |   |   |   |   input13 > 9
|   |   |   |   |   |   input15 <= 30
|   |   |   |   |   |   |   input7 <= 30
|   |   |   |   |   |   |   |   input2 <= 80: 9 (4.0)
|   |   |   |   |   |   |   |   input2 > 80
|   |   |   |   |   |   |   |   |   input6 <= 82: 3 (3.0)
|   |   |   |   |   |   |   |   |   input6 > 82: 5 (180.0)
|   |   |   |   |   |   |   input7 > 30
|   |   |   |   |   |   |   |   input5 <= 47: 9 (30.0)
|   |   |   |   |   |   |   |   input5 > 47
|   |   |   |   |   |   |   |   |   input8 <= 83
|   |   |   |   |   |   |   |   |   |   input3 <= 81: 3 (609.0/4.0)
|   |   |   |   |   |   |   |   |   |   input3 > 81
|   |   |   |   |   |   |   |   |   |   |   input6 <= 83: 3 (39.0)
|   |   |   |   |   |   |   |   |   |   |   input6 > 83: 5 (45.0)
|   |   |   |   |   |   |   |   |   input8 > 83
|   |   |   |   |   |   |   |   |   |   input15 <= 3
|   |   |   |   |   |   |   |   |   |   |   input5 <= 76: 9 (2.0)
|   |   |   |   |   |   |   |   |   |   |   input5 > 76: 5 (36.0)
|   |   |   |   |   |   |   |   |   |   input15 > 3: 7 (5.0)
|   |   |   |   |   |   input15 > 30
|   |   |   |   |   |   |   input11 <= 92
|   |   |   |   |   |   |   |   input7 <= 68: 2 (4.0)
|   |   |   |   |   |   |   |   input7 > 68: 7 (68.0)
|   |   |   |   |   |   |   input11 > 92
|   |   |   |   |   |   |   |   input1 <= 9: 3 (13.0)
|   |   |   |   |   |   |   |   input1 > 9
|   |   |   |   |   |   |   |   |   input2 <= 86: 9 (18.0)
|   |   |   |   |   |   |   |   |   input2 > 86: 4 (4.0)
|   |   |   input1 > 64
|   |   |   |   input2 <= 44: 0 (39.0)
|   |   |   |   input2 > 44
|   |   |   |   |   input10 <= 35: 3 (25.0)
|   |   |   |   |   input10 > 35
|   |   |   |   |   |   input7 <= 59
|   |   |   |   |   |   |   input10 <= 63
|   |   |   |   |   |   |   |   input2 <= 78: 9 (9.0)
|   |   |   |   |   |   |   |   input2 > 78
|   |   |   |   |   |   |   |   |   input15 <= 20
|   |   |   |   |   |   |   |   |   |   input4 <= 84: 9 (2.0)
|   |   |   |   |   |   |   |   |   |   input4 > 84: 5 (84.0)
|   |   |   |   |   |   |   |   |   input15 > 20: 4 (11.0/1.0)
|   |   |   |   |   |   |   input10 > 63
|   |   |   |   |   |   |   |   input9 <= 51
|   |   |   |   |   |   |   |   |   input4 <= 96: 9 (2.0)
|   |   |   |   |   |   |   |   |   input4 > 96: 5 (4.0)
|   |   |   |   |   |   |   |   input9 > 51: 9 (148.0/1.0)
|   |   |   |   |   |   input7 > 59
|   |   |   |   |   |   |   input14 <= 34
|   |   |   |   |   |   |   |   input3 <= 99: 9 (314.0/1.0)
|   |   |   |   |   |   |   |   input3 > 99: 1 (4.0/1.0)
|   |   |   |   |   |   |   input14 > 34: 4 (8.0)
input16 > 24
|   input16 <= 63
|   |   input7 <= 23
|   |   |   input6 <= 85: 6 (369.0)
|   |   |   input6 > 85
|   |   |   |   input9 <= 1: 0 (42.0/1.0)
|   |   |   |   input9 > 1: 8 (18.0)
|   |   input7 > 23
|   |   |   input10 <= 36
|   |   |   |   input2 <= 68
|   |   |   |   |   input16 <= 30: 2 (3.0)
|   |   |   |   |   input16 > 30: 8 (78.0)
|   |   |   |   input2 > 68
|   |   |   |   |   input1 <= 52
|   |   |   |   |   |   input4 <= 81
|   |   |   |   |   |   |   input8 <= 40: 0 (4.0)
|   |   |   |   |   |   |   input8 > 40: 8 (13.0)
|   |   |   |   |   |   input4 > 81
|   |   |   |   |   |   |   input9 <= 1: 2 (7.0)
|   |   |   |   |   |   |   input9 > 1
|   |   |   |   |   |   |   |   input2 <= 74
|   |   |   |   |   |   |   |   |   input1 <= 29: 7 (7.0)
|   |   |   |   |   |   |   |   |   input1 > 29: 8 (3.0)
|   |   |   |   |   |   |   |   input2 > 74: 7 (462.0/1.0)
|   |   |   |   |   input1 > 52
|   |   |   |   |   |   input11 <= 17: 8 (7.0)
|   |   |   |   |   |   input11 > 17
|   |   |   |   |   |   |   input1 <= 79: 0 (2.0)
|   |   |   |   |   |   |   input1 > 79: 6 (28.0)
|   |   |   input10 > 36
|   |   |   |   input4 <= 87
|   |   |   |   |   input2 <= 6: 9 (33.0)
|   |   |   |   |   input2 > 6
|   |   |   |   |   |   input5 <= 93
|   |   |   |   |   |   |   input4 <= 76: 0 (112.0)
|   |   |   |   |   |   |   input4 > 76: 9 (3.0)
|   |   |   |   |   |   input5 > 93: 8 (5.0)
|   |   |   |   input4 > 87
|   |   |   |   |   input4 <= 98
|   |   |   |   |   |   input6 <= 76: 9 (3.0/1.0)
|   |   |   |   |   |   input6 > 76: 7 (5.0)
|   |   |   |   |   input4 > 98: 3 (23.0)
|   input16 > 63
|   |   input11 <= 31
|   |   |   input14 <= 71
|   |   |   |   input1 <= 13: 7 (4.0)
|   |   |   |   input1 > 13: 8 (153.0)
|   |   |   input14 > 71
|   |   |   |   input13 <= 60
|   |   |   |   |   input12 <= 76: 5 (258.0)
|   |   |   |   |   input12 > 76
|   |   |   |   |   |   input10 <= 20: 6 (19.0)
|   |   |   |   |   |   input10 > 20: 5 (41.0)
|   |   |   |   input13 > 60: 8 (16.0/1.0)
|   |   input11 > 31
|   |   |   input5 <= 40
|   |   |   |   input11 <= 53: 8 (52.0)
|   |   |   |   input11 > 53
|   |   |   |   |   input10 <= 48
|   |   |   |   |   |   input9 <= 56
|   |   |   |   |   |   |   input10 <= 14: 0 (48.0/1.0)
|   |   |   |   |   |   |   input10 > 14: 8 (11.0)
|   |   |   |   |   |   input9 > 56: 0 (304.0)
|   |   |   |   |   input10 > 48
|   |   |   |   |   |   input9 <= 79: 8 (63.0)
|   |   |   |   |   |   input9 > 79: 0 (18.0)
|   |   |   input5 > 40
|   |   |   |   input9 <= 89: 8 (186.0)
|   |   |   |   input9 > 89: 0 (8.0/1.0)

Number of Leaves  : 	134

Size of the tree : 	267


Weight: 3.95

J48 pruned tree
------------------

input16 <= 18
|   input15 <= 87
|   |   input6 <= 76
|   |   |   input6 <= 27
|   |   |   |   input10 <= 61: 4 (14.0)
|   |   |   |   input10 > 61: 0 (93.0)
|   |   |   input6 > 27
|   |   |   |   input10 <= 25
|   |   |   |   |   input2 <= 92: 2 (14.0/1.0)
|   |   |   |   |   input2 > 92
|   |   |   |   |   |   input15 <= 44: 6 (112.0)
|   |   |   |   |   |   input15 > 44: 4 (20.0)
|   |   |   |   input10 > 25
|   |   |   |   |   input14 <= 13
|   |   |   |   |   |   input10 <= 46
|   |   |   |   |   |   |   input5 <= 49
|   |   |   |   |   |   |   |   input9 <= 71: 9 (3.0/1.0)
|   |   |   |   |   |   |   |   input9 > 71: 5 (11.0)
|   |   |   |   |   |   |   input5 > 49: 3 (78.0)
|   |   |   |   |   |   input10 > 46
|   |   |   |   |   |   |   input7 <= 18: 5 (13.0)
|   |   |   |   |   |   |   input7 > 18
|   |   |   |   |   |   |   |   input6 <= 45: 3 (15.0)
|   |   |   |   |   |   |   |   input6 > 45
|   |   |   |   |   |   |   |   |   input8 <= 60
|   |   |   |   |   |   |   |   |   |   input10 <= 54
|   |   |   |   |   |   |   |   |   |   |   input2 <= 87: 3 (6.0)
|   |   |   |   |   |   |   |   |   |   |   input2 > 87: 5 (3.0)
|   |   |   |   |   |   |   |   |   |   input10 > 54: 9 (16.0)
|   |   |   |   |   |   |   |   |   input8 > 60: 9 (155.0)
|   |   |   |   |   input14 > 13
|   |   |   |   |   |   input2 <= 49: 1 (45.0)
|   |   |   |   |   |   input2 > 49
|   |   |   |   |   |   |   input12 <= 33: 1 (16.0)
|   |   |   |   |   |   |   input12 > 33
|   |   |   |   |   |   |   |   input8 <= 68
|   |   |   |   |   |   |   |   |   input8 <= 21: 0 (3.0/1.0)
|   |   |   |   |   |   |   |   |   input8 > 21: 4 (281.0/3.0)
|   |   |   |   |   |   |   |   input8 > 68
|   |   |   |   |   |   |   |   |   input11 <= 68: 4 (18.0)
|   |   |   |   |   |   |   |   |   input11 > 68: 9 (82.0)
|   |   input6 > 76
|   |   |   input1 <= 40
|   |   |   |   input7 <= 43
|   |   |   |   |   input4 <= 89
|   |   |   |   |   |   input2 <= 36: 8 (27.0)
|   |   |   |   |   |   input2 > 36: 9 (56.0)
|   |   |   |   |   input4 > 89
|   |   |   |   |   |   input12 <= 10: 1 (26.0)
|   |   |   |   |   |   input12 > 10
|   |   |   |   |   |   |   input3 <= 58: 3 (39.0)
|   |   |   |   |   |   |   input3 > 58: 5 (130.0/1.0)
|   |   |   |   input7 > 43
|   |   |   |   |   input11 <= 84
|   |   |   |   |   |   input3 <= 33
|   |   |   |   |   |   |   input10 <= 57: 2 (29.0)
|   |   |   |   |   |   |   input10 > 57
|   |   |   |   |   |   |   |   input6 <= 92: 1 (65.0)
|   |   |   |   |   |   |   |   input6 > 92
|   |   |   |   |   |   |   |   |   input15 <= 79
|   |   |   |   |   |   |   |   |   |   input12 <= 37: 3 (15.0)
|   |   |   |   |   |   |   |   |   |   input12 > 37
|   |   |   |   |   |   |   |   |   |   |   input11 <= 45
|   |   |   |   |   |   |   |   |   |   |   |   input6 <= 98: 1 (10.0)
|   |   |   |   |   |   |   |   |   |   |   |   input6 > 98
|   |   |   |   |   |   |   |   |   |   |   |   |   input4 <= 94: 3 (11.0)
|   |   |   |   |   |   |   |   |   |   |   |   |   input4 > 94: 7 (21.0)
|   |   |   |   |   |   |   |   |   |   |   input11 > 45
|   |   |   |   |   |   |   |   |   |   |   |   input3 <= 13: 7 (123.0)
|   |   |   |   |   |   |   |   |   |   |   |   input3 > 13
|   |   |   |   |   |   |   |   |   |   |   |   |   input4 <= 90: 1 (5.0)
|   |   |   |   |   |   |   |   |   |   |   |   |   input4 > 90: 7 (43.0)
|   |   |   |   |   |   |   |   |   input15 > 79: 3 (20.0/1.0)
|   |   |   |   |   |   input3 > 33
|   |   |   |   |   |   |   input11 <= 31
|   |   |   |   |   |   |   |   input16 <= 13
|   |   |   |   |   |   |   |   |   input8 <= 68: 2 (19.0)
|   |   |   |   |   |   |   |   |   input8 > 68: 1 (20.0)
|   |   |   |   |   |   |   |   input16 > 13: 7 (16.0)
|   |   |   |   |   |   |   input11 > 31
|   |   |   |   |   |   |   |   input7 <= 58: 8 (14.0/1.0)
|   |   |   |   |   |   |   |   input7 > 58
|   |   |   |   |   |   |   |   |   input4 <= 90: 1 (152.0/1.0)
|   |   |   |   |   |   |   |   |   input4 > 90
|   |   |   |   |   |   |   |   |   |   input3 <= 70
|   |   |   |   |   |   |   |   |   |   |   input15 <= 29: 3 (123.0)
|   |   |   |   |   |   |   |   |   |   |   input15 > 29: 1 (9.0/1.0)
|   |   |   |   |   |   |   |   |   |   input3 > 70: 1 (56.0)
|   |   |   |   |   input11 > 84
|   |   |   |   |   |   input8 <= 84
|   |   |   |   |   |   |   input10 <= 29: 1 (62.0)
|   |   |   |   |   |   |   input10 > 29
|   |   |   |   |   |   |   |   input4 <= 83: 1 (16.0)
|   |   |   |   |   |   |   |   input4 > 83: 3 (225.0)
|   |   |   |   |   |   input8 > 84
|   |   |   |   |   |   |   input7 <= 92: 9 (42.0)
|   |   |   |   |   |   |   input7 > 92: 1 (10.0/1.0)
|   |   |   input1 > 40
|   |   |   |   input13 <= 27
|   |   |   |   |   input12 <= 49
|   |   |   |   |   |   input11 <= 8: 2 (4.0/1.0)
|   |   |   |   |   |   input11 > 8: 1 (48.0/1.0)
|   |   |   |   |   input12 > 49: 9 (14.0)
|   |   |   |   input13 > 27
|   |   |   |   |   input10 <= 49
|   |   |   |   |   |   input7 <= 82
|   |   |   |   |   |   |   input5 <= 87: 5 (94.0/2.0)
|   |   |   |   |   |   |   input5 > 87
|   |   |   |   |   |   |   |   input8 <= 70: 3 (84.0)
|   |   |   |   |   |   |   |   input8 > 70: 5 (16.0)
|   |   |   |   |   |   input7 > 82
|   |   |   |   |   |   |   input2 <= 85: 1 (10.0)
|   |   |   |   |   |   |   input2 > 85: 9 (11.0)
|   |   |   |   |   input10 > 49
|   |   |   |   |   |   input9 <= 70
|   |   |   |   |   |   |   input12 <= 47: 5 (99.0/1.0)
|   |   |   |   |   |   |   input12 > 47
|   |   |   |   |   |   |   |   input14 <= 21
|   |   |   |   |   |   |   |   |   input11 <= 66: 5 (2.0)
|   |   |   |   |   |   |   |   |   input11 > 66: 9 (4.0)
|   |   |   |   |   |   |   |   input14 > 21: 9 (51.0)
|   |   |   |   |   |   input9 > 70
|   |   |   |   |   |   |   input13 <= 31: 5 (12.0)
|   |   |   |   |   |   |   input13 > 31
|   |   |   |   |   |   |   |   input6 <= 77
|   |   |   |   |   |   |   |   |   input7 <= 52: 5 (17.0)
|   |   |   |   |   |   |   |   |   input7 > 52: 9 (2.0)
|   |   |   |   |   |   |   |   input6 > 77
|   |   |   |   |   |   |   |   |   input5 <= 83: 9 (383.0/2.0)
|   |   |   |   |   |   |   |   |   input5 > 83
|   |   |   |   |   |   |   |   |   |   input4 <= 91: 9 (26.0)
|   |   |   |   |   |   |   |   |   |   input4 > 91: 3 (3.0)
|   input15 > 87
|   |   input5 <= 16: 4 (76.0/2.0)
|   |   input5 > 16
|   |   |   input12 <= 32
|   |   |   |   input16 <= 13
|   |   |   |   |   input13 <= 27
|   |   |   |   |   |   input12 <= 17: 1 (161.0)
|   |   |   |   |   |   input12 > 17: 2 (15.0)
|   |   |   |   |   input13 > 27
|   |   |   |   |   |   input7 <= 74
|   |   |   |   |   |   |   input9 <= 27
|   |   |   |   |   |   |   |   input2 <= 76
|   |   |   |   |   |   |   |   |   input5 <= 62
|   |   |   |   |   |   |   |   |   |   input3 <= 24: 2 (62.0/1.0)
|   |   |   |   |   |   |   |   |   |   input3 > 24
|   |   |   |   |   |   |   |   |   |   |   input13 <= 55
|   |   |   |   |   |   |   |   |   |   |   |   input10 <= 7
|   |   |   |   |   |   |   |   |   |   |   |   |   input1 <= 17
|   |   |   |   |   |   |   |   |   |   |   |   |   |   input6 <= 79: 2 (3.0)
|   |   |   |   |   |   |   |   |   |   |   |   |   |   input6 > 79: 1 (10.0)
|   |   |   |   |   |   |   |   |   |   |   |   |   input1 > 17: 1 (78.0)
|   |   |   |   |   |   |   |   |   |   |   |   input10 > 7
|   |   |   |   |   |   |   |   |   |   |   |   |   input6 <= 86: 2 (8.0/1.0)
|   |   |   |   |   |   |   |   |   |   |   |   |   input6 > 86: 1 (13.0)
|   |   |   |   |   |   |   |   |   |   |   input13 > 55: 2 (11.0)
|   |   |   |   |   |   |   |   |   input5 > 62
|   |   |   |   |   |   |   |   |   |   input3 <= 79: 2 (116.0)
|   |   |   |   |   |   |   |   |   |   input3 > 79: 1 (5.0)
|   |   |   |   |   |   |   |   input2 > 76: 2 (208.0)
|   |   |   |   |   |   |   input9 > 27
|   |   |   |   |   |   |   |   input7 <= 59: 1 (276.0/2.0)
|   |   |   |   |   |   |   |   input7 > 59
|   |   |   |   |   |   |   |   |   input2 <= 65
|   |   |   |   |   |   |   |   |   |   input3 <= 34: 2 (4.0)
|   |   |   |   |   |   |   |   |   |   input3 > 34: 1 (46.0)
|   |   |   |   |   |   |   |   |   input2 > 65
|   |   |   |   |   |   |   |   |   |   input9 <= 41: 2 (116.0/1.0)
|   |   |   |   |   |   |   |   |   |   input9 > 41
|   |   |   |   |   |   |   |   |   |   |   input10 <= 23: 1 (17.0)
|   |   |   |   |   |   |   |   |   |   |   input10 > 23: 2 (35.0)
|   |   |   |   |   |   input7 > 74
|   |   |   |   |   |   |   input9 <= 41
|   |   |   |   |   |   |   |   input5 <= 93: 3 (12.0)
|   |   |   |   |   |   |   |   input5 > 93: 2 (6.0)
|   |   |   |   |   |   |   input9 > 41
|   |   |   |   |   |   |   |   input9 <= 54: 2 (216.0)
|   |   |   |   |   |   |   |   input9 > 54
|   |   |   |   |   |   |   |   |   input3 <= 58: 2 (70.0/1.0)
|   |   |   |   |   |   |   |   |   input3 > 58: 1 (8.0)
|   |   |   |   input16 > 13
|   |   |   |   |   input2 <= 90
|   |   |   |   |   |   input3 <= 73: 2 (34.0/1.0)
|   |   |   |   |   |   input3 > 73: 1 (16.0)
|   |   |   |   |   input2 > 90
|   |   |   |   |   |   input1 <= 29: 7 (36.0)
|   |   |   |   |   |   input1 > 29: 1 (10.0)
|   |   |   input12 > 32
|   |   |   |   input8 <= 61: 4 (13.0/1.0)
|   |   |   |   input8 > 61
|   |   |   |   |   input7 <= 30: 9 (5.0)
|   |   |   |   |   input7 > 30: 1 (86.0/1.0)
input16 > 18
|   input1 <= 3
|   |   input12 <= 43
|   |   |   input15 <= 2
|   |   |   |   input1 <= 1: 5 (2.0)
|   |   |   |   input1 > 1: 3 (14.0)
|   |   |   input15 > 2
|   |   |   |   input3 <= 22
|   |   |   |   |   input2 <= 81: 2 (14.0)
|   |   |   |   |   input2 > 81: 7 (5.0)
|   |   |   |   input3 > 22
|   |   |   |   |   input16 <= 65: 7 (426.0)
|   |   |   |   |   input16 > 65
|   |   |   |   |   |   input2 <= 69: 8 (2.0)
|   |   |   |   |   |   input2 > 69: 7 (15.0)
|   |   input12 > 43
|   |   |   input8 <= 40
|   |   |   |   input15 <= 75
|   |   |   |   |   input9 <= 64: 8 (10.0)
|   |   |   |   |   input9 > 64: 0 (10.0)
|   |   |   |   input15 > 75: 5 (12.0)
|   |   |   input8 > 40: 9 (57.0)
|   input1 > 3
|   |   input9 <= 65
|   |   |   input15 <= 67
|   |   |   |   input5 <= 65
|   |   |   |   |   input14 <= 62
|   |   |   |   |   |   input11 <= 14: 8 (32.0/1.0)
|   |   |   |   |   |   input11 > 14
|   |   |   |   |   |   |   input6 <= 99: 6 (393.0)
|   |   |   |   |   |   |   input6 > 99: 8 (5.0)
|   |   |   |   |   input14 > 62
|   |   |   |   |   |   input8 <= 47
|   |   |   |   |   |   |   input14 <= 72
|   |   |   |   |   |   |   |   input3 <= 24: 8 (3.0)
|   |   |   |   |   |   |   |   input3 > 24: 0 (4.0)
|   |   |   |   |   |   |   input14 > 72: 8 (135.0/1.0)
|   |   |   |   |   |   input8 > 47: 0 (13.0)
|   |   |   |   input5 > 65
|   |   |   |   |   input4 <= 94: 8 (192.0)
|   |   |   |   |   input4 > 94
|   |   |   |   |   |   input16 <= 55: 7 (39.0)
|   |   |   |   |   |   input16 > 55: 8 (25.0)
|   |   |   input15 > 67
|   |   |   |   input12 <= 41
|   |   |   |   |   input1 <= 55
|   |   |   |   |   |   input14 <= 17: 2 (43.0)
|   |   |   |   |   |   input14 > 17
|   |   |   |   |   |   |   input11 <= 30
|   |   |   |   |   |   |   |   input2 <= 63: 8 (2.0)
|   |   |   |   |   |   |   |   input2 > 63
|   |   |   |   |   |   |   |   |   input4 <= 79: 5 (2.0)
|   |   |   |   |   |   |   |   |   input4 > 79: 7 (108.0)
|   |   |   |   |   |   |   input11 > 30: 8 (9.0)
|   |   |   |   |   input1 > 55
|   |   |   |   |   |   input11 <= 7: 8 (40.0)
|   |   |   |   |   |   input11 > 7
|   |   |   |   |   |   |   input7 <= 41: 0 (71.0)
|   |   |   |   |   |   |   input7 > 41: 8 (6.0)
|   |   |   |   input12 > 41
|   |   |   |   |   input6 <= 54: 5 (354.0)
|   |   |   |   |   input6 > 54
|   |   |   |   |   |   input10 <= 9: 5 (21.0)
|   |   |   |   |   |   input10 > 9: 6 (16.0)
|   |   input9 > 65
|   |   |   input14 <= 9
|   |   |   |   input8 <= 67
|   |   |   |   |   input5 <= 52: 5 (65.0)
|   |   |   |   |   input5 > 52: 3 (123.0)
|   |   |   |   input8 > 67
|   |   |   |   |   input2 <= 81: 3 (10.0)
|   |   |   |   |   input2 > 81: 9 (94.0)
|   |   |   input14 > 9
|   |   |   |   input14 <= 66
|   |   |   |   |   input11 <= 92
|   |   |   |   |   |   input16 <= 41: 0 (2.0/1.0)
|   |   |   |   |   |   input16 > 41: 8 (75.0)
|   |   |   |   |   input11 > 92
|   |   |   |   |   |   input1 <= 49: 7 (3.0/1.0)
|   |   |   |   |   |   input1 > 49: 6 (16.0)
|   |   |   |   input14 > 66: 0 (192.0/1.0)

Number of Leaves  : 	138

Size of the tree : 	275


Weight: 4.22

J48 pruned tree
------------------

input16 <= 27
|   input11 <= 45
|   |   input1 <= 65
|   |   |   input10 <= 61
|   |   |   |   input14 <= 19
|   |   |   |   |   input15 <= 59
|   |   |   |   |   |   input16 <= 12
|   |   |   |   |   |   |   input15 <= 4: 1 (19.0)
|   |   |   |   |   |   |   input15 > 4
|   |   |   |   |   |   |   |   input6 <= 93: 2 (5.0)
|   |   |   |   |   |   |   |   input6 > 93: 3 (9.0)
|   |   |   |   |   |   input16 > 12: 7 (18.0)
|   |   |   |   |   input15 > 59
|   |   |   |   |   |   input4 <= 75
|   |   |   |   |   |   |   input12 <= 13: 1 (85.0)
|   |   |   |   |   |   |   input12 > 13: 2 (6.0)
|   |   |   |   |   |   input4 > 75
|   |   |   |   |   |   |   input7 <= 30
|   |   |   |   |   |   |   |   input11 <= 12
|   |   |   |   |   |   |   |   |   input5 <= 43: 1 (83.0)
|   |   |   |   |   |   |   |   |   input5 > 43: 2 (3.0)
|   |   |   |   |   |   |   |   input11 > 12: 2 (15.0)
|   |   |   |   |   |   |   input7 > 30
|   |   |   |   |   |   |   |   input3 <= 30
|   |   |   |   |   |   |   |   |   input16 <= 19
|   |   |   |   |   |   |   |   |   |   input4 <= 84
|   |   |   |   |   |   |   |   |   |   |   input3 <= 20: 2 (25.0)
|   |   |   |   |   |   |   |   |   |   |   input3 > 20: 1 (9.0)
|   |   |   |   |   |   |   |   |   |   input4 > 84: 2 (322.0/2.0)
|   |   |   |   |   |   |   |   |   input16 > 19
|   |   |   |   |   |   |   |   |   |   input3 <= 26: 2 (4.0)
|   |   |   |   |   |   |   |   |   |   input3 > 26: 7 (3.0)
|   |   |   |   |   |   |   |   input3 > 30
|   |   |   |   |   |   |   |   |   input5 <= 50: 1 (83.0/1.0)
|   |   |   |   |   |   |   |   |   input5 > 50
|   |   |   |   |   |   |   |   |   |   input4 <= 93
|   |   |   |   |   |   |   |   |   |   |   input3 <= 34
|   |   |   |   |   |   |   |   |   |   |   |   input5 <= 67: 1 (7.0)
|   |   |   |   |   |   |   |   |   |   |   |   input5 > 67: 2 (20.0)
|   |   |   |   |   |   |   |   |   |   |   input3 > 34: 1 (41.0)
|   |   |   |   |   |   |   |   |   |   input4 > 93
|   |   |   |   |   |   |   |   |   |   |   input16 <= 6
|   |   |   |   |   |   |   |   |   |   |   |   input3 <= 87
|   |   |   |   |   |   |   |   |   |   |   |   |   input9 <= 51
|   |   |   |   |   |   |   |   |   |   |   |   |   |   input2 <= 89
|   |   |   |   |   |   |   |   |   |   |   |   |   |   |   input3 <= 51: 2 (219.0)
|   |   |   |   |   |   |   |   |   |   |   |   |   |   |   input3 > 51
|   |   |   |   |   |   |   |   |   |   |   |   |   |   |   |   input5 <= 73
|   |   |   |   |   |   |   |   |   |   |   |   |   |   |   |   |   input11 <= 3: 1 (10.0)
|   |   |   |   |   |   |   |   |   |   |   |   |   |   |   |   |   input11 > 3: 2 (3.0)
|   |   |   |   |   |   |   |   |   |   |   |   |   |   |   |   input5 > 73: 2 (119.0)
|   |   |   |   |   |   |   |   |   |   |   |   |   |   input2 > 89
|   |   |   |   |   |   |   |   |   |   |   |   |   |   |   input8 <= 53: 2 (52.0)
|   |   |   |   |   |   |   |   |   |   |   |   |   |   |   input8 > 53: 3 (6.0)
|   |   |   |   |   |   |   |   |   |   |   |   |   input9 > 51
|   |   |   |   |   |   |   |   |   |   |   |   |   |   input5 <= 83: 1 (16.0)
|   |   |   |   |   |   |   |   |   |   |   |   |   |   input5 > 83: 2 (40.0)
|   |   |   |   |   |   |   |   |   |   |   |   input3 > 87: 1 (13.0/1.0)
|   |   |   |   |   |   |   |   |   |   |   input16 > 6
|   |   |   |   |   |   |   |   |   |   |   |   input7 <= 51
|   |   |   |   |   |   |   |   |   |   |   |   |   input3 <= 70: 2 (69.0)
|   |   |   |   |   |   |   |   |   |   |   |   |   input3 > 70: 1 (3.0/1.0)
|   |   |   |   |   |   |   |   |   |   |   |   input7 > 51
|   |   |   |   |   |   |   |   |   |   |   |   |   input5 <= 91
|   |   |   |   |   |   |   |   |   |   |   |   |   |   input11 <= 9: 1 (90.0/1.0)
|   |   |   |   |   |   |   |   |   |   |   |   |   |   input11 > 9: 2 (9.0)
|   |   |   |   |   |   |   |   |   |   |   |   |   input5 > 91: 2 (39.0/1.0)
|   |   |   |   input14 > 19
|   |   |   |   |   input1 <= 25
|   |   |   |   |   |   input2 <= 77: 2 (2.0)
|   |   |   |   |   |   input2 > 77: 7 (58.0)
|   |   |   |   |   input1 > 25: 2 (57.0)
|   |   |   input10 > 61
|   |   |   |   input4 <= 86
|   |   |   |   |   input14 <= 27: 1 (69.0)
|   |   |   |   |   input14 > 27
|   |   |   |   |   |   input6 <= 36: 0 (41.0)
|   |   |   |   |   |   input6 > 36
|   |   |   |   |   |   |   input2 <= 73: 9 (4.0)
|   |   |   |   |   |   |   input2 > 73: 4 (10.0)
|   |   |   |   input4 > 86
|   |   |   |   |   input7 <= 72: 5 (37.0)
|   |   |   |   |   input7 > 72
|   |   |   |   |   |   input9 <= 78: 7 (70.0)
|   |   |   |   |   |   input9 > 78: 3 (2.0)
|   |   input1 > 65
|   |   |   input10 <= 37
|   |   |   |   input1 <= 83: 1 (7.0)
|   |   |   |   input1 > 83: 6 (123.0)
|   |   |   input10 > 37
|   |   |   |   input14 <= 23
|   |   |   |   |   input16 <= 11: 1 (36.0)
|   |   |   |   |   input16 > 11: 8 (6.0)
|   |   |   |   input14 > 23
|   |   |   |   |   input2 <= 85: 9 (4.0)
|   |   |   |   |   input2 > 85: 0 (25.0)
|   input11 > 45
|   |   input10 <= 22
|   |   |   input14 <= 10: 1 (60.0)
|   |   |   input14 > 10
|   |   |   |   input7 <= 59
|   |   |   |   |   input15 <= 55: 6 (207.0)
|   |   |   |   |   input15 > 55
|   |   |   |   |   |   input2 <= 95: 6 (13.0)
|   |   |   |   |   |   input2 > 95: 4 (26.0)
|   |   |   |   input7 > 59: 7 (50.0)
|   |   input10 > 22
|   |   |   input4 <= 88
|   |   |   |   input8 <= 70
|   |   |   |   |   input14 <= 16
|   |   |   |   |   |   input15 <= 36
|   |   |   |   |   |   |   input6 <= 71: 3 (2.0)
|   |   |   |   |   |   |   input6 > 71: 9 (17.0)
|   |   |   |   |   |   input15 > 36: 1 (10.0)
|   |   |   |   |   input14 > 16
|   |   |   |   |   |   input2 <= 94
|   |   |   |   |   |   |   input6 <= 35: 0 (49.0)
|   |   |   |   |   |   |   input6 > 35: 4 (2.0/1.0)
|   |   |   |   |   |   input2 > 94
|   |   |   |   |   |   |   input8 <= 68: 4 (208.0)
|   |   |   |   |   |   |   input8 > 68
|   |   |   |   |   |   |   |   input1 <= 45: 4 (5.0)
|   |   |   |   |   |   |   |   input1 > 45: 9 (3.0)
|   |   |   |   input8 > 70
|   |   |   |   |   input2 <= 66
|   |   |   |   |   |   input7 <= 54
|   |   |   |   |   |   |   input16 <= 1: 9 (52.0)
|   |   |   |   |   |   |   input16 > 1: 8 (51.0)
|   |   |   |   |   |   input7 > 54
|   |   |   |   |   |   |   input16 <= 7: 1 (229.0/4.0)
|   |   |   |   |   |   |   input16 > 7: 3 (8.0)
|   |   |   |   |   input2 > 66
|   |   |   |   |   |   input7 <= 96
|   |   |   |   |   |   |   input3 <= 4
|   |   |   |   |   |   |   |   input11 <= 93: 7 (36.0)
|   |   |   |   |   |   |   |   input11 > 93: 9 (41.0)
|   |   |   |   |   |   |   input3 > 4
|   |   |   |   |   |   |   |   input13 <= 10: 1 (8.0)
|   |   |   |   |   |   |   |   input13 > 10
|   |   |   |   |   |   |   |   |   input4 <= 85
|   |   |   |   |   |   |   |   |   |   input4 <= 41
|   |   |   |   |   |   |   |   |   |   |   input1 <= 50: 9 (8.0)
|   |   |   |   |   |   |   |   |   |   |   input1 > 50: 3 (3.0)
|   |   |   |   |   |   |   |   |   |   input4 > 41: 9 (444.0)
|   |   |   |   |   |   |   |   |   input4 > 85
|   |   |   |   |   |   |   |   |   |   input2 <= 82: 1 (8.0)
|   |   |   |   |   |   |   |   |   |   input2 > 82: 9 (7.0)
|   |   |   |   |   |   input7 > 96
|   |   |   |   |   |   |   input2 <= 90
|   |   |   |   |   |   |   |   input5 <= 52: 7 (3.0)
|   |   |   |   |   |   |   |   input5 > 52: 1 (36.0)
|   |   |   |   |   |   |   input2 > 90
|   |   |   |   |   |   |   |   input1 <= 25: 4 (16.0)
|   |   |   |   |   |   |   |   input1 > 25: 9 (14.0)
|   |   |   input4 > 88
|   |   |   |   input14 <= 21
|   |   |   |   |   input11 <= 66
|   |   |   |   |   |   input7 <= 56
|   |   |   |   |   |   |   input15 <= 52: 5 (83.0)
|   |   |   |   |   |   |   input15 > 52: 4 (3.0)
|   |   |   |   |   |   input7 > 56
|   |   |   |   |   |   |   input3 <= 40
|   |   |   |   |   |   |   |   input15 <= 74: 7 (52.0)
|   |   |   |   |   |   |   |   input15 > 74: 2 (21.0)
|   |   |   |   |   |   |   input3 > 40
|   |   |   |   |   |   |   |   input4 <= 99
|   |   |   |   |   |   |   |   |   input2 <= 73: 3 (7.0)
|   |   |   |   |   |   |   |   |   input2 > 73
|   |   |   |   |   |   |   |   |   |   input10 <= 61: 1 (31.0)
|   |   |   |   |   |   |   |   |   |   input10 > 61: 7 (5.0)
|   |   |   |   |   |   |   |   input4 > 99: 3 (20.0)
|   |   |   |   |   input11 > 66
|   |   |   |   |   |   input1 <= 71
|   |   |   |   |   |   |   input9 <= 52
|   |   |   |   |   |   |   |   input7 <= 65
|   |   |   |   |   |   |   |   |   input3 <= 21: 3 (6.0)
|   |   |   |   |   |   |   |   |   input3 > 21: 5 (160.0)
|   |   |   |   |   |   |   |   input7 > 65: 3 (9.0)
|   |   |   |   |   |   |   input9 > 52
|   |   |   |   |   |   |   |   input3 <= 94
|   |   |   |   |   |   |   |   |   input10 <= 62
|   |   |   |   |   |   |   |   |   |   input5 <= 50
|   |   |   |   |   |   |   |   |   |   |   input14 <= 5
|   |   |   |   |   |   |   |   |   |   |   |   input12 <= 18: 9 (16.0)
|   |   |   |   |   |   |   |   |   |   |   |   input12 > 18: 5 (33.0)
|   |   |   |   |   |   |   |   |   |   |   input14 > 5
|   |   |   |   |   |   |   |   |   |   |   |   input1 <= 33: 3 (35.0)
|   |   |   |   |   |   |   |   |   |   |   |   input1 > 33: 9 (8.0)
|   |   |   |   |   |   |   |   |   |   input5 > 50
|   |   |   |   |   |   |   |   |   |   |   input13 <= 7: 1 (14.0)
|   |   |   |   |   |   |   |   |   |   |   input13 > 7
|   |   |   |   |   |   |   |   |   |   |   |   input15 <= 86
|   |   |   |   |   |   |   |   |   |   |   |   |   input2 <= 99
|   |   |   |   |   |   |   |   |   |   |   |   |   |   input3 <= 78: 3 (664.0)
|   |   |   |   |   |   |   |   |   |   |   |   |   |   input3 > 78
|   |   |   |   |   |   |   |   |   |   |   |   |   |   |   input6 <= 88: 3 (70.0)
|   |   |   |   |   |   |   |   |   |   |   |   |   |   |   input6 > 88
|   |   |   |   |   |   |   |   |   |   |   |   |   |   |   |   input1 <= 44: 5 (6.0)
|   |   |   |   |   |   |   |   |   |   |   |   |   |   |   |   input1 > 44: 1 (2.0)
|   |   |   |   |   |   |   |   |   |   |   |   |   input2 > 99
|   |   |   |   |   |   |   |   |   |   |   |   |   |   input10 <= 46: 3 (27.0)
|   |   |   |   |   |   |   |   |   |   |   |   |   |   input10 > 46
|   |   |   |   |   |   |   |   |   |   |   |   |   |   |   input1 <= 10: 1 (4.0)
|   |   |   |   |   |   |   |   |   |   |   |   |   |   |   input1 > 10: 5 (5.0)
|   |   |   |   |   |   |   |   |   |   |   |   input15 > 86: 1 (14.0)
|   |   |   |   |   |   |   |   |   input10 > 62
|   |   |   |   |   |   |   |   |   |   input5 <= 73
|   |   |   |   |   |   |   |   |   |   |   input8 <= 64: 5 (7.0)
|   |   |   |   |   |   |   |   |   |   |   input8 > 64: 9 (61.0)
|   |   |   |   |   |   |   |   |   |   input5 > 73
|   |   |   |   |   |   |   |   |   |   |   input4 <= 98: 3 (3.0)
|   |   |   |   |   |   |   |   |   |   |   input4 > 98: 5 (17.0)
|   |   |   |   |   |   |   |   input3 > 94
|   |   |   |   |   |   |   |   |   input2 <= 81: 9 (22.0)
|   |   |   |   |   |   |   |   |   input2 > 81
|   |   |   |   |   |   |   |   |   |   input15 <= 36
|   |   |   |   |   |   |   |   |   |   |   input11 <= 69: 3 (7.0)
|   |   |   |   |   |   |   |   |   |   |   input11 > 69: 5 (102.0)
|   |   |   |   |   |   |   |   |   |   input15 > 36: 1 (4.0)
|   |   |   |   |   |   input1 > 71
|   |   |   |   |   |   |   input7 <= 59
|   |   |   |   |   |   |   |   input2 <= 82
|   |   |   |   |   |   |   |   |   input4 <= 98: 5 (5.0)
|   |   |   |   |   |   |   |   |   input4 > 98: 9 (55.0)
|   |   |   |   |   |   |   |   input2 > 82
|   |   |   |   |   |   |   |   |   input16 <= 20: 5 (159.0/1.0)
|   |   |   |   |   |   |   |   |   input16 > 20: 9 (5.0)
|   |   |   |   |   |   |   input7 > 59
|   |   |   |   |   |   |   |   input13 <= 37: 5 (9.0)
|   |   |   |   |   |   |   |   input13 > 37
|   |   |   |   |   |   |   |   |   input5 <= 29
|   |   |   |   |   |   |   |   |   |   input1 <= 98: 5 (5.0)
|   |   |   |   |   |   |   |   |   |   input1 > 98: 9 (4.0)
|   |   |   |   |   |   |   |   |   input5 > 29: 9 (123.0)
|   |   |   |   input14 > 21
|   |   |   |   |   input6 <= 89
|   |   |   |   |   |   input9 <= 74: 4 (54.0)
|   |   |   |   |   |   input9 > 74
|   |   |   |   |   |   |   input1 <= 80
|   |   |   |   |   |   |   |   input2 <= 90: 9 (13.0)
|   |   |   |   |   |   |   |   input2 > 90: 4 (37.0)
|   |   |   |   |   |   |   input1 > 80: 9 (127.0)
|   |   |   |   |   input6 > 89
|   |   |   |   |   |   input3 <= 51: 7 (79.0)
|   |   |   |   |   |   input3 > 51
|   |   |   |   |   |   |   input1 <= 20: 3 (7.0)
|   |   |   |   |   |   |   input1 > 20: 9 (3.0)
input16 > 27
|   input16 <= 69
|   |   input1 <= 78
|   |   |   input14 <= 59
|   |   |   |   input4 <= 80
|   |   |   |   |   input9 <= 85
|   |   |   |   |   |   input6 <= 44: 6 (4.0)
|   |   |   |   |   |   input6 > 44: 8 (76.0)
|   |   |   |   |   input9 > 85: 9 (13.0)
|   |   |   |   input4 > 80
|   |   |   |   |   input9 <= 1
|   |   |   |   |   |   input15 <= 74: 6 (4.0)
|   |   |   |   |   |   input15 > 74: 2 (14.0/1.0)
|   |   |   |   |   input9 > 1
|   |   |   |   |   |   input1 <= 43
|   |   |   |   |   |   |   input14 <= 11: 3 (7.0)
|   |   |   |   |   |   |   input14 > 11
|   |   |   |   |   |   |   |   input7 <= 18: 6 (7.0)
|   |   |   |   |   |   |   |   input7 > 18
|   |   |   |   |   |   |   |   |   input2 <= 63: 8 (13.0)
|   |   |   |   |   |   |   |   |   input2 > 63
|   |   |   |   |   |   |   |   |   |   input16 <= 63: 7 (354.0)
|   |   |   |   |   |   |   |   |   |   input16 > 63
|   |   |   |   |   |   |   |   |   |   |   input1 <= 0: 7 (28.0)
|   |   |   |   |   |   |   |   |   |   |   input1 > 0: 8 (7.0)
|   |   |   |   |   |   input1 > 43
|   |   |   |   |   |   |   input6 <= 66: 7 (17.0/1.0)
|   |   |   |   |   |   |   input6 > 66: 8 (51.0)
|   |   |   input14 > 59
|   |   |   |   input9 <= 53: 8 (28.0)
|   |   |   |   input9 > 53
|   |   |   |   |   input15 <= 64: 0 (59.0)
|   |   |   |   |   input15 > 64: 9 (13.0)
|   |   input1 > 78
|   |   |   input2 <= 60: 0 (22.0)
|   |   |   input2 > 60
|   |   |   |   input14 <= 8
|   |   |   |   |   input12 <= 4: 5 (16.0)
|   |   |   |   |   input12 > 4: 8 (12.0)
|   |   |   |   input14 > 8
|   |   |   |   |   input13 <= 36: 8 (5.0)
|   |   |   |   |   input13 > 36
|   |   |   |   |   |   input1 <= 82: 0 (4.0)
|   |   |   |   |   |   input1 > 82: 6 (121.0/1.0)
|   input16 > 69
|   |   input15 <= 91
|   |   |   input5 <= 28
|   |   |   |   input8 <= 24
|   |   |   |   |   input11 <= 64: 8 (5.0)
|   |   |   |   |   input11 > 64: 0 (316.0)
|   |   |   |   input8 > 24: 8 (55.0)
|   |   |   input5 > 28
|   |   |   |   input9 <= 93: 8 (302.0)
|   |   |   |   input9 > 93
|   |   |   |   |   input1 <= 1: 9 (14.0)
|   |   |   |   |   input1 > 1: 0 (4.0)
|   |   input15 > 91
|   |   |   input14 <= 68
|   |   |   |   input14 <= 36: 0 (5.0)
|   |   |   |   input14 > 36: 8 (80.0)
|   |   |   input14 > 68
|   |   |   |   input13 <= 82
|   |   |   |   |   input9 <= 11: 5 (175.0)
|   |   |   |   |   input9 > 11
|   |   |   |   |   |   input2 <= 96: 5 (33.0)
|   |   |   |   |   |   input2 > 96: 6 (6.0/1.0)
|   |   |   |   input13 > 82: 8 (9.0)

Number of Leaves  : 	158

Size of the tree : 	315


Weight: 4.77

J48 pruned tree
------------------

input16 <= 20
|   input11 <= 46
|   |   input10 <= 61
|   |   |   input15 <= 52
|   |   |   |   input16 <= 1: 1 (152.0/1.0)
|   |   |   |   input16 > 1
|   |   |   |   |   input12 <= 17: 6 (22.0)
|   |   |   |   |   input12 > 17: 2 (4.0)
|   |   |   input15 > 52
|   |   |   |   input5 <= 59
|   |   |   |   |   input13 <= 55
|   |   |   |   |   |   input12 <= 5
|   |   |   |   |   |   |   input2 <= 44: 2 (3.0)
|   |   |   |   |   |   |   input2 > 44
|   |   |   |   |   |   |   |   input9 <= 3
|   |   |   |   |   |   |   |   |   input11 <= 3: 2 (3.0)
|   |   |   |   |   |   |   |   |   input11 > 3: 1 (15.0)
|   |   |   |   |   |   |   |   input9 > 3: 1 (209.0)
|   |   |   |   |   |   input12 > 5
|   |   |   |   |   |   |   input9 <= 29
|   |   |   |   |   |   |   |   input15 <= 80: 1 (4.0)
|   |   |   |   |   |   |   |   input15 > 80
|   |   |   |   |   |   |   |   |   input3 <= 52: 2 (68.0)
|   |   |   |   |   |   |   |   |   input3 > 52: 1 (2.0)
|   |   |   |   |   |   |   input9 > 29
|   |   |   |   |   |   |   |   input12 <= 20: 1 (33.0)
|   |   |   |   |   |   |   |   input12 > 20: 2 (5.0)
|   |   |   |   |   input13 > 55
|   |   |   |   |   |   input13 <= 72: 2 (110.0)
|   |   |   |   |   |   input13 > 72: 1 (3.0)
|   |   |   |   input5 > 59
|   |   |   |   |   input4 <= 83
|   |   |   |   |   |   input1 <= 60
|   |   |   |   |   |   |   input7 <= 95: 1 (30.0)
|   |   |   |   |   |   |   input7 > 95: 2 (5.0)
|   |   |   |   |   |   input1 > 60: 9 (5.0)
|   |   |   |   |   input4 > 83
|   |   |   |   |   |   input13 <= 10
|   |   |   |   |   |   |   input14 <= 13
|   |   |   |   |   |   |   |   input12 <= 9: 1 (26.0)
|   |   |   |   |   |   |   |   input12 > 9: 2 (12.0/1.0)
|   |   |   |   |   |   |   input14 > 13: 7 (5.0)
|   |   |   |   |   |   input13 > 10
|   |   |   |   |   |   |   input10 <= 27
|   |   |   |   |   |   |   |   input9 <= 45
|   |   |   |   |   |   |   |   |   input5 <= 78
|   |   |   |   |   |   |   |   |   |   input9 <= 34
|   |   |   |   |   |   |   |   |   |   |   input4 <= 96: 7 (3.0/1.0)
|   |   |   |   |   |   |   |   |   |   |   input4 > 96
|   |   |   |   |   |   |   |   |   |   |   |   input8 <= 28
|   |   |   |   |   |   |   |   |   |   |   |   |   input9 <= 12: 2 (21.0)
|   |   |   |   |   |   |   |   |   |   |   |   |   input9 > 12: 1 (7.0)
|   |   |   |   |   |   |   |   |   |   |   |   input8 > 28: 2 (215.0)
|   |   |   |   |   |   |   |   |   |   input9 > 34
|   |   |   |   |   |   |   |   |   |   |   input3 <= 43: 2 (21.0)
|   |   |   |   |   |   |   |   |   |   |   input3 > 43: 1 (39.0)
|   |   |   |   |   |   |   |   |   input5 > 78: 2 (216.0)
|   |   |   |   |   |   |   |   input9 > 45
|   |   |   |   |   |   |   |   |   input5 <= 94
|   |   |   |   |   |   |   |   |   |   input14 <= 12: 1 (58.0/1.0)
|   |   |   |   |   |   |   |   |   |   input14 > 12: 7 (4.0)
|   |   |   |   |   |   |   |   |   input5 > 94: 2 (32.0/1.0)
|   |   |   |   |   |   |   input10 > 27
|   |   |   |   |   |   |   |   input8 <= 54
|   |   |   |   |   |   |   |   |   input6 <= 81: 2 (29.0)
|   |   |   |   |   |   |   |   |   input6 > 81: 3 (5.0)
|   |   |   |   |   |   |   |   input8 > 54: 2 (272.0)
|   |   input10 > 61
|   |   |   input6 <= 70
|   |   |   |   input4 <= 72: 0 (34.0)
|   |   |   |   input4 > 72
|   |   |   |   |   input7 <= 76: 0 (3.0)
|   |   |   |   |   input7 > 76: 4 (11.0)
|   |   |   input6 > 70
|   |   |   |   input4 <= 85
|   |   |   |   |   input1 <= 47: 1 (52.0)
|   |   |   |   |   input1 > 47: 9 (5.0)
|   |   |   |   input4 > 85
|   |   |   |   |   input7 <= 72: 5 (16.0)
|   |   |   |   |   input7 > 72: 7 (341.0/1.0)
|   input11 > 46
|   |   input8 <= 47
|   |   |   input14 <= 10
|   |   |   |   input14 <= 0
|   |   |   |   |   input5 <= 45
|   |   |   |   |   |   input15 <= 3: 5 (13.0)
|   |   |   |   |   |   input15 > 3: 9 (5.0)
|   |   |   |   |   input5 > 45: 3 (41.0)
|   |   |   |   input14 > 0: 1 (23.0)
|   |   |   input14 > 10
|   |   |   |   input6 <= 16: 0 (31.0)
|   |   |   |   input6 > 16
|   |   |   |   |   input12 <= 20
|   |   |   |   |   |   input7 <= 59: 6 (88.0)
|   |   |   |   |   |   input7 > 59: 7 (7.0)
|   |   |   |   |   input12 > 20
|   |   |   |   |   |   input6 <= 76
|   |   |   |   |   |   |   input16 <= 0
|   |   |   |   |   |   |   |   input10 <= 20
|   |   |   |   |   |   |   |   |   input13 <= 61: 6 (11.0)
|   |   |   |   |   |   |   |   |   input13 > 61: 4 (15.0)
|   |   |   |   |   |   |   |   input10 > 20: 4 (158.0)
|   |   |   |   |   |   |   input16 > 0
|   |   |   |   |   |   |   |   input10 <= 17: 6 (3.0)
|   |   |   |   |   |   |   |   input10 > 17: 0 (6.0)
|   |   |   |   |   |   input6 > 76: 9 (7.0)
|   |   input8 > 47
|   |   |   input1 <= 27
|   |   |   |   input15 <= 83
|   |   |   |   |   input4 <= 71
|   |   |   |   |   |   input9 <= 55
|   |   |   |   |   |   |   input16 <= 6: 9 (36.0)
|   |   |   |   |   |   |   input16 > 6: 8 (17.0)
|   |   |   |   |   |   input9 > 55
|   |   |   |   |   |   |   input5 <= 44
|   |   |   |   |   |   |   |   input9 <= 99: 4 (3.0)
|   |   |   |   |   |   |   |   input9 > 99: 7 (12.0)
|   |   |   |   |   |   |   input5 > 44
|   |   |   |   |   |   |   |   input7 <= 51: 9 (7.0)
|   |   |   |   |   |   |   |   input7 > 51
|   |   |   |   |   |   |   |   |   input16 <= 10: 1 (62.0/1.0)
|   |   |   |   |   |   |   |   |   input16 > 10: 0 (2.0)
|   |   |   |   |   input4 > 71
|   |   |   |   |   |   input11 <= 69
|   |   |   |   |   |   |   input4 <= 87
|   |   |   |   |   |   |   |   input10 <= 75: 1 (82.0)
|   |   |   |   |   |   |   |   input10 > 75: 7 (3.0/1.0)
|   |   |   |   |   |   |   input4 > 87
|   |   |   |   |   |   |   |   input3 <= 50
|   |   |   |   |   |   |   |   |   input7 <= 79: 4 (4.0)
|   |   |   |   |   |   |   |   |   input7 > 79
|   |   |   |   |   |   |   |   |   |   input15 <= 74
|   |   |   |   |   |   |   |   |   |   |   input9 <= 72: 3 (5.0/1.0)
|   |   |   |   |   |   |   |   |   |   |   input9 > 72: 7 (60.0)
|   |   |   |   |   |   |   |   |   |   input15 > 74: 2 (2.0)
|   |   |   |   |   |   |   |   input3 > 50
|   |   |   |   |   |   |   |   |   input12 <= 45: 1 (5.0)
|   |   |   |   |   |   |   |   |   input12 > 45: 5 (8.0)
|   |   |   |   |   |   input11 > 69
|   |   |   |   |   |   |   input3 <= 9
|   |   |   |   |   |   |   |   input11 <= 95
|   |   |   |   |   |   |   |   |   input6 <= 81
|   |   |   |   |   |   |   |   |   |   input1 <= 4: 1 (2.0)
|   |   |   |   |   |   |   |   |   |   input1 > 4: 4 (5.0)
|   |   |   |   |   |   |   |   |   input6 > 81
|   |   |   |   |   |   |   |   |   |   input2 <= 55: 1 (2.0)
|   |   |   |   |   |   |   |   |   |   input2 > 55: 7 (33.0)
|   |   |   |   |   |   |   |   input11 > 95: 9 (7.0)
|   |   |   |   |   |   |   input3 > 9
|   |   |   |   |   |   |   |   input7 <= 99
|   |   |   |   |   |   |   |   |   input7 <= 21
|   |   |   |   |   |   |   |   |   |   input6 <= 77: 9 (5.0)
|   |   |   |   |   |   |   |   |   |   input6 > 77: 5 (31.0/1.0)
|   |   |   |   |   |   |   |   |   input7 > 21
|   |   |   |   |   |   |   |   |   |   input10 <= 22: 1 (13.0)
|   |   |   |   |   |   |   |   |   |   input10 > 22
|   |   |   |   |   |   |   |   |   |   |   input6 <= 99
|   |   |   |   |   |   |   |   |   |   |   |   input5 <= 36
|   |   |   |   |   |   |   |   |   |   |   |   |   input1 <= 12: 3 (3.0)
|   |   |   |   |   |   |   |   |   |   |   |   |   input1 > 12: 5 (4.0)
|   |   |   |   |   |   |   |   |   |   |   |   input5 > 36: 3 (574.0/1.0)
|   |   |   |   |   |   |   |   |   |   |   input6 > 99
|   |   |   |   |   |   |   |   |   |   |   |   input9 <= 47: 5 (12.0)
|   |   |   |   |   |   |   |   |   |   |   |   input9 > 47
|   |   |   |   |   |   |   |   |   |   |   |   |   input5 <= 61: 9 (7.0)
|   |   |   |   |   |   |   |   |   |   |   |   |   input5 > 61
|   |   |   |   |   |   |   |   |   |   |   |   |   |   input14 <= 18
|   |   |   |   |   |   |   |   |   |   |   |   |   |   |   input4 <= 98: 3 (40.0)
|   |   |   |   |   |   |   |   |   |   |   |   |   |   |   input4 > 98: 1 (2.0)
|   |   |   |   |   |   |   |   |   |   |   |   |   |   input14 > 18: 1 (13.0)
|   |   |   |   |   |   |   |   input7 > 99
|   |   |   |   |   |   |   |   |   input15 <= 16: 3 (8.0)
|   |   |   |   |   |   |   |   |   input15 > 16
|   |   |   |   |   |   |   |   |   |   input4 <= 98: 1 (22.0)
|   |   |   |   |   |   |   |   |   |   input4 > 98: 7 (21.0)
|   |   |   |   input15 > 83
|   |   |   |   |   input6 <= 73: 4 (10.0)
|   |   |   |   |   input6 > 73
|   |   |   |   |   |   input14 <= 30
|   |   |   |   |   |   |   input16 <= 11
|   |   |   |   |   |   |   |   input4 <= 91: 1 (131.0)
|   |   |   |   |   |   |   |   input4 > 91
|   |   |   |   |   |   |   |   |   input11 <= 71: 2 (13.0)
|   |   |   |   |   |   |   |   |   input11 > 71: 1 (8.0)
|   |   |   |   |   |   |   input16 > 11: 7 (4.0)
|   |   |   |   |   |   input14 > 30: 9 (10.0)
|   |   |   input1 > 27
|   |   |   |   input5 <= 71
|   |   |   |   |   input2 <= 93
|   |   |   |   |   |   input6 <= 50
|   |   |   |   |   |   |   input10 <= 91: 3 (5.0)
|   |   |   |   |   |   |   input10 > 91: 0 (7.0)
|   |   |   |   |   |   input6 > 50
|   |   |   |   |   |   |   input13 <= 25
|   |   |   |   |   |   |   |   input15 <= 50: 9 (4.0)
|   |   |   |   |   |   |   |   input15 > 50: 1 (12.0)
|   |   |   |   |   |   |   input13 > 25
|   |   |   |   |   |   |   |   input1 <= 45
|   |   |   |   |   |   |   |   |   input4 <= 97
|   |   |   |   |   |   |   |   |   |   input6 <= 84: 1 (5.0)
|   |   |   |   |   |   |   |   |   |   input6 > 84: 9 (38.0)
|   |   |   |   |   |   |   |   |   input4 > 97
|   |   |   |   |   |   |   |   |   |   input2 <= 89: 3 (10.0)
|   |   |   |   |   |   |   |   |   |   input2 > 89: 5 (2.0/1.0)
|   |   |   |   |   |   |   |   input1 > 45
|   |   |   |   |   |   |   |   |   input7 <= 33
|   |   |   |   |   |   |   |   |   |   input14 <= 10: 5 (32.0/1.0)
|   |   |   |   |   |   |   |   |   |   input14 > 10
|   |   |   |   |   |   |   |   |   |   |   input2 <= 81: 9 (69.0)
|   |   |   |   |   |   |   |   |   |   |   input2 > 81: 4 (3.0)
|   |   |   |   |   |   |   |   |   input7 > 33
|   |   |   |   |   |   |   |   |   |   input13 <= 31
|   |   |   |   |   |   |   |   |   |   |   input2 <= 92: 9 (9.0)
|   |   |   |   |   |   |   |   |   |   |   input2 > 92: 5 (3.0)
|   |   |   |   |   |   |   |   |   |   input13 > 31: 9 (538.0/1.0)
|   |   |   |   |   input2 > 93
|   |   |   |   |   |   input8 <= 77
|   |   |   |   |   |   |   input14 <= 14
|   |   |   |   |   |   |   |   input3 <= 44: 9 (28.0)
|   |   |   |   |   |   |   |   input3 > 44
|   |   |   |   |   |   |   |   |   input6 <= 73
|   |   |   |   |   |   |   |   |   |   input1 <= 70: 3 (8.0)
|   |   |   |   |   |   |   |   |   |   input1 > 70: 5 (4.0/1.0)
|   |   |   |   |   |   |   |   |   input6 > 73: 5 (97.0)
|   |   |   |   |   |   |   input14 > 14
|   |   |   |   |   |   |   |   input6 <= 86
|   |   |   |   |   |   |   |   |   input10 <= 85: 4 (101.0)
|   |   |   |   |   |   |   |   |   input10 > 85
|   |   |   |   |   |   |   |   |   |   input2 <= 97: 4 (6.0)
|   |   |   |   |   |   |   |   |   |   input2 > 97: 9 (15.0)
|   |   |   |   |   |   |   |   input6 > 86: 5 (12.0)
|   |   |   |   |   |   input8 > 77: 9 (122.0)
|   |   |   |   input5 > 71
|   |   |   |   |   input4 <= 91
|   |   |   |   |   |   input1 <= 30: 8 (2.0)
|   |   |   |   |   |   input1 > 30
|   |   |   |   |   |   |   input11 <= 60: 1 (2.0)
|   |   |   |   |   |   |   input11 > 60: 9 (102.0/2.0)
|   |   |   |   |   input4 > 91
|   |   |   |   |   |   input8 <= 74
|   |   |   |   |   |   |   input13 <= 21: 1 (14.0)
|   |   |   |   |   |   |   input13 > 21
|   |   |   |   |   |   |   |   input7 <= 49: 5 (23.0/1.0)
|   |   |   |   |   |   |   |   input7 > 49
|   |   |   |   |   |   |   |   |   input6 <= 96: 3 (275.0/1.0)
|   |   |   |   |   |   |   |   |   input6 > 96
|   |   |   |   |   |   |   |   |   |   input10 <= 45: 5 (6.0)
|   |   |   |   |   |   |   |   |   |   input10 > 45: 3 (12.0)
|   |   |   |   |   |   input8 > 74
|   |   |   |   |   |   |   input4 <= 97
|   |   |   |   |   |   |   |   input16 <= 1: 3 (7.0)
|   |   |   |   |   |   |   |   input16 > 1: 1 (5.0)
|   |   |   |   |   |   |   input4 > 97: 5 (88.0)
input16 > 20
|   input16 <= 65
|   |   input7 <= 18
|   |   |   input10 <= 33
|   |   |   |   input2 <= 63: 0 (11.0)
|   |   |   |   input2 > 63
|   |   |   |   |   input4 <= 71
|   |   |   |   |   |   input1 <= 31: 6 (2.0)
|   |   |   |   |   |   input1 > 31: 8 (3.0)
|   |   |   |   |   input4 > 71
|   |   |   |   |   |   input1 <= 32
|   |   |   |   |   |   |   input1 <= 22: 2 (2.0)
|   |   |   |   |   |   |   input1 > 22: 6 (2.0)
|   |   |   |   |   |   input1 > 32: 6 (393.0)
|   |   |   input10 > 33
|   |   |   |   input15 <= 2: 9 (5.0)
|   |   |   |   input15 > 2: 8 (23.0)
|   |   input7 > 18
|   |   |   input6 <= 39
|   |   |   |   input2 <= 23: 9 (16.0)
|   |   |   |   input2 > 23: 0 (48.0)
|   |   |   input6 > 39
|   |   |   |   input14 <= 4
|   |   |   |   |   input4 <= 98
|   |   |   |   |   |   input15 <= 1: 9 (59.0/1.0)
|   |   |   |   |   |   input15 > 1
|   |   |   |   |   |   |   input7 <= 43: 9 (5.0/1.0)
|   |   |   |   |   |   |   input7 > 43
|   |   |   |   |   |   |   |   input8 <= 66: 5 (3.0)
|   |   |   |   |   |   |   |   input8 > 66: 8 (25.0)
|   |   |   |   |   input4 > 98
|   |   |   |   |   |   input10 <= 46
|   |   |   |   |   |   |   input15 <= 50: 3 (32.0)
|   |   |   |   |   |   |   input15 > 50: 2 (2.0)
|   |   |   |   |   |   input10 > 46: 5 (18.0/1.0)
|   |   |   |   input14 > 4
|   |   |   |   |   input1 <= 54
|   |   |   |   |   |   input4 <= 80: 8 (13.0)
|   |   |   |   |   |   input4 > 80
|   |   |   |   |   |   |   input2 <= 74
|   |   |   |   |   |   |   |   input7 <= 41: 2 (7.0)
|   |   |   |   |   |   |   |   input7 > 41
|   |   |   |   |   |   |   |   |   input16 <= 45: 7 (10.0)
|   |   |   |   |   |   |   |   |   input16 > 45
|   |   |   |   |   |   |   |   |   |   input12 <= 22: 8 (27.0)
|   |   |   |   |   |   |   |   |   |   input12 > 22: 7 (7.0/1.0)
|   |   |   |   |   |   |   input2 > 74
|   |   |   |   |   |   |   |   input16 <= 21: 2 (9.0)
|   |   |   |   |   |   |   |   input16 > 21
|   |   |   |   |   |   |   |   |   input9 <= 13
|   |   |   |   |   |   |   |   |   |   input2 <= 88: 2 (7.0)
|   |   |   |   |   |   |   |   |   |   input2 > 88: 7 (26.0)
|   |   |   |   |   |   |   |   |   input9 > 13: 7 (213.0)
|   |   |   |   |   input1 > 54
|   |   |   |   |   |   input9 <= 7: 6 (9.0)
|   |   |   |   |   |   input9 > 7
|   |   |   |   |   |   |   input11 <= 38: 8 (98.0)
|   |   |   |   |   |   |   input11 > 38
|   |   |   |   |   |   |   |   input1 <= 63: 8 (9.0)
|   |   |   |   |   |   |   |   input1 > 63
|   |   |   |   |   |   |   |   |   input2 <= 95: 5 (2.0)
|   |   |   |   |   |   |   |   |   input2 > 95: 6 (8.0)
|   input16 > 65
|   |   input11 <= 53
|   |   |   input14 <= 78
|   |   |   |   input1 <= 38
|   |   |   |   |   input2 <= 83
|   |   |   |   |   |   input4 <= 94: 8 (11.0)
|   |   |   |   |   |   input4 > 94: 7 (8.0)
|   |   |   |   |   input2 > 83: 5 (12.0)
|   |   |   |   input1 > 38
|   |   |   |   |   input6 <= 38
|   |   |   |   |   |   input1 <= 69: 5 (4.0)
|   |   |   |   |   |   input1 > 69: 8 (8.0)
|   |   |   |   |   input6 > 38: 8 (157.0)
|   |   |   input14 > 78
|   |   |   |   input13 <= 75
|   |   |   |   |   input4 <= 89: 5 (351.0)
|   |   |   |   |   input4 > 89
|   |   |   |   |   |   input1 <= 42: 5 (4.0)
|   |   |   |   |   |   input1 > 42: 8 (3.0)
|   |   |   |   input13 > 75: 8 (16.0)
|   |   input11 > 53
|   |   |   input5 <= 50
|   |   |   |   input10 <= 29
|   |   |   |   |   input5 <= 41
|   |   |   |   |   |   input15 <= 8
|   |   |   |   |   |   |   input8 <= 16: 0 (4.0)
|   |   |   |   |   |   |   input8 > 16: 6 (2.0)
|   |   |   |   |   |   input15 > 8: 0 (358.0)
|   |   |   |   |   input5 > 41: 8 (4.0)
|   |   |   |   input10 > 29
|   |   |   |   |   input9 <= 80: 8 (36.0)
|   |   |   |   |   input9 > 80: 0 (97.0)
|   |   |   input5 > 50
|   |   |   |   input10 <= 55: 8 (58.0)
|   |   |   |   input10 > 55: 9 (5.0)

Number of Leaves  : 	176

Size of the tree : 	351


Weight: 4.41

J48 pruned tree
------------------

input16 <= 24
|   input15 <= 18
|   |   input4 <= 83
|   |   |   input2 <= 59
|   |   |   |   input7 <= 64: 8 (19.0)
|   |   |   |   input7 > 64
|   |   |   |   |   input6 <= 48: 0 (4.0)
|   |   |   |   |   input6 > 48: 1 (141.0)
|   |   |   input2 > 59
|   |   |   |   input6 <= 68
|   |   |   |   |   input11 <= 86
|   |   |   |   |   |   input6 <= 46
|   |   |   |   |   |   |   input6 <= 27: 0 (16.0)
|   |   |   |   |   |   |   input6 > 27: 3 (3.0)
|   |   |   |   |   |   input6 > 46
|   |   |   |   |   |   |   input2 <= 99: 0 (2.0)
|   |   |   |   |   |   |   input2 > 99: 4 (25.0)
|   |   |   |   |   input11 > 86
|   |   |   |   |   |   input10 <= 40: 6 (6.0)
|   |   |   |   |   |   input10 > 40: 9 (10.0)
|   |   |   |   input6 > 68
|   |   |   |   |   input11 <= 49
|   |   |   |   |   |   input16 <= 11: 1 (26.0)
|   |   |   |   |   |   input16 > 11: 8 (3.0)
|   |   |   |   |   input11 > 49
|   |   |   |   |   |   input8 <= 69
|   |   |   |   |   |   |   input1 <= 42: 1 (2.0)
|   |   |   |   |   |   |   input1 > 42: 9 (3.0)
|   |   |   |   |   |   input8 > 69: 9 (262.0)
|   |   input4 > 83
|   |   |   input10 <= 65
|   |   |   |   input14 <= 17
|   |   |   |   |   input6 <= 61: 9 (114.0)
|   |   |   |   |   input6 > 61
|   |   |   |   |   |   input8 <= 80
|   |   |   |   |   |   |   input5 <= 57
|   |   |   |   |   |   |   |   input10 <= 30
|   |   |   |   |   |   |   |   |   input12 <= 2: 6 (4.0)
|   |   |   |   |   |   |   |   |   input12 > 2: 1 (4.0)
|   |   |   |   |   |   |   |   input10 > 30
|   |   |   |   |   |   |   |   |   input7 <= 54
|   |   |   |   |   |   |   |   |   |   input6 <= 70: 3 (3.0/1.0)
|   |   |   |   |   |   |   |   |   |   input6 > 70: 5 (131.0/2.0)
|   |   |   |   |   |   |   |   |   input7 > 54
|   |   |   |   |   |   |   |   |   |   input10 <= 49
|   |   |   |   |   |   |   |   |   |   |   input1 <= 63: 3 (3.0)
|   |   |   |   |   |   |   |   |   |   |   input1 > 63: 5 (5.0)
|   |   |   |   |   |   |   |   |   |   input10 > 49: 9 (23.0)
|   |   |   |   |   |   |   input5 > 57
|   |   |   |   |   |   |   |   input1 <= 79
|   |   |   |   |   |   |   |   |   input10 <= 17: 1 (11.0)
|   |   |   |   |   |   |   |   |   input10 > 17
|   |   |   |   |   |   |   |   |   |   input3 <= 78
|   |   |   |   |   |   |   |   |   |   |   input8 <= 74: 3 (593.0)
|   |   |   |   |   |   |   |   |   |   |   input8 > 74
|   |   |   |   |   |   |   |   |   |   |   |   input4 <= 88: 1 (3.0)
|   |   |   |   |   |   |   |   |   |   |   |   input4 > 88: 3 (30.0)
|   |   |   |   |   |   |   |   |   |   input3 > 78
|   |   |   |   |   |   |   |   |   |   |   input6 <= 83: 3 (232.0)
|   |   |   |   |   |   |   |   |   |   |   input6 > 83
|   |   |   |   |   |   |   |   |   |   |   |   input6 <= 98: 5 (83.0/1.0)
|   |   |   |   |   |   |   |   |   |   |   |   input6 > 98: 1 (7.0/1.0)
|   |   |   |   |   |   |   |   input1 > 79
|   |   |   |   |   |   |   |   |   input14 <= 7
|   |   |   |   |   |   |   |   |   |   input13 <= 39: 5 (3.0)
|   |   |   |   |   |   |   |   |   |   input13 > 39: 9 (14.0)
|   |   |   |   |   |   |   |   |   input14 > 7: 1 (5.0)
|   |   |   |   |   |   input8 > 80
|   |   |   |   |   |   |   input12 <= 26
|   |   |   |   |   |   |   |   input9 <= 61: 5 (2.0)
|   |   |   |   |   |   |   |   input9 > 61: 9 (63.0)
|   |   |   |   |   |   |   input12 > 26
|   |   |   |   |   |   |   |   input7 <= 81: 5 (177.0)
|   |   |   |   |   |   |   |   input7 > 81
|   |   |   |   |   |   |   |   |   input6 <= 94: 9 (2.0)
|   |   |   |   |   |   |   |   |   input6 > 94: 3 (8.0)
|   |   |   |   input14 > 17
|   |   |   |   |   input10 <= 54
|   |   |   |   |   |   input10 <= 27: 6 (32.0)
|   |   |   |   |   |   input10 > 27
|   |   |   |   |   |   |   input1 <= 88: 0 (6.0)
|   |   |   |   |   |   |   input1 > 88: 4 (10.0)
|   |   |   |   |   input10 > 54
|   |   |   |   |   |   input4 <= 95: 1 (39.0)
|   |   |   |   |   |   input4 > 95
|   |   |   |   |   |   |   input1 <= 84: 7 (3.0/1.0)
|   |   |   |   |   |   |   input1 > 84: 5 (11.0)
|   |   |   input10 > 65
|   |   |   |   input11 <= 55
|   |   |   |   |   input7 <= 71: 5 (10.0)
|   |   |   |   |   input7 > 71
|   |   |   |   |   |   input7 <= 88: 9 (3.0)
|   |   |   |   |   |   input7 > 88: 7 (9.0)
|   |   |   |   input11 > 55
|   |   |   |   |   input9 <= 67
|   |   |   |   |   |   input4 <= 92: 9 (4.0)
|   |   |   |   |   |   input4 > 92: 5 (18.0)
|   |   |   |   |   input9 > 67
|   |   |   |   |   |   input1 <= 26
|   |   |   |   |   |   |   input3 <= 76: 9 (7.0)
|   |   |   |   |   |   |   input3 > 76: 5 (6.0)
|   |   |   |   |   |   input1 > 26
|   |   |   |   |   |   |   input14 <= 32: 9 (489.0)
|   |   |   |   |   |   |   input14 > 32
|   |   |   |   |   |   |   |   input1 <= 49: 9 (3.0)
|   |   |   |   |   |   |   |   input1 > 49: 4 (2.0)
|   input15 > 18
|   |   input11 <= 23
|   |   |   input15 <= 45
|   |   |   |   input16 <= 5: 1 (11.0)
|   |   |   |   input16 > 5
|   |   |   |   |   input1 <= 74: 0 (3.0)
|   |   |   |   |   input1 > 74: 6 (6.0)
|   |   |   input15 > 45
|   |   |   |   input5 <= 40
|   |   |   |   |   input12 <= 14: 1 (63.0/1.0)
|   |   |   |   |   input12 > 14: 2 (4.0)
|   |   |   |   input5 > 40
|   |   |   |   |   input6 <= 88
|   |   |   |   |   |   input10 <= 6
|   |   |   |   |   |   |   input9 <= 18
|   |   |   |   |   |   |   |   input7 <= 30: 1 (2.0)
|   |   |   |   |   |   |   |   input7 > 30: 2 (93.0)
|   |   |   |   |   |   |   input9 > 18
|   |   |   |   |   |   |   |   input3 <= 49: 2 (21.0/1.0)
|   |   |   |   |   |   |   |   input3 > 49
|   |   |   |   |   |   |   |   |   input14 <= 19
|   |   |   |   |   |   |   |   |   |   input1 <= 82: 1 (29.0/1.0)
|   |   |   |   |   |   |   |   |   |   input1 > 82: 2 (5.0)
|   |   |   |   |   |   |   |   |   input14 > 19: 7 (2.0)
|   |   |   |   |   |   input10 > 6
|   |   |   |   |   |   |   input5 <= 48
|   |   |   |   |   |   |   |   input1 <= 9: 2 (4.0)
|   |   |   |   |   |   |   |   input1 > 9: 1 (2.0)
|   |   |   |   |   |   |   input5 > 48
|   |   |   |   |   |   |   |   input2 <= 64
|   |   |   |   |   |   |   |   |   input2 <= 63: 2 (11.0)
|   |   |   |   |   |   |   |   |   input2 > 63: 1 (2.0)
|   |   |   |   |   |   |   |   input2 > 64: 2 (294.0/1.0)
|   |   |   |   |   input6 > 88
|   |   |   |   |   |   input12 <= 8
|   |   |   |   |   |   |   input15 <= 92
|   |   |   |   |   |   |   |   input2 <= 79: 2 (7.0)
|   |   |   |   |   |   |   |   input2 > 79: 7 (3.0)
|   |   |   |   |   |   |   input15 > 92
|   |   |   |   |   |   |   |   input16 <= 15
|   |   |   |   |   |   |   |   |   input14 <= 7
|   |   |   |   |   |   |   |   |   |   input9 <= 27
|   |   |   |   |   |   |   |   |   |   |   input13 <= 49: 1 (2.0)
|   |   |   |   |   |   |   |   |   |   |   input13 > 49: 2 (11.0)
|   |   |   |   |   |   |   |   |   |   input9 > 27
|   |   |   |   |   |   |   |   |   |   |   input7 <= 63: 1 (92.0/1.0)
|   |   |   |   |   |   |   |   |   |   |   input7 > 63
|   |   |   |   |   |   |   |   |   |   |   |   input5 <= 84: 2 (18.0)
|   |   |   |   |   |   |   |   |   |   |   |   input5 > 84: 1 (15.0)
|   |   |   |   |   |   |   |   |   input14 > 7
|   |   |   |   |   |   |   |   |   |   input12 <= 7: 2 (12.0)
|   |   |   |   |   |   |   |   |   |   input12 > 7: 1 (2.0)
|   |   |   |   |   |   |   |   input16 > 15: 2 (9.0)
|   |   |   |   |   |   input12 > 8
|   |   |   |   |   |   |   input10 <= 15: 1 (5.0/1.0)
|   |   |   |   |   |   |   input10 > 15: 2 (63.0)
|   |   input11 > 23
|   |   |   input6 <= 76
|   |   |   |   input12 <= 20
|   |   |   |   |   input7 <= 18: 6 (34.0)
|   |   |   |   |   input7 > 18
|   |   |   |   |   |   input4 <= 77: 1 (7.0)
|   |   |   |   |   |   input4 > 77
|   |   |   |   |   |   |   input1 <= 7: 7 (13.0)
|   |   |   |   |   |   |   input1 > 7: 2 (2.0)
|   |   |   |   input12 > 20
|   |   |   |   |   input2 <= 94
|   |   |   |   |   |   input8 <= 55
|   |   |   |   |   |   |   input4 <= 77: 0 (5.0)
|   |   |   |   |   |   |   input4 > 77: 4 (24.0)
|   |   |   |   |   |   input8 > 55
|   |   |   |   |   |   |   input1 <= 24: 1 (15.0)
|   |   |   |   |   |   |   input1 > 24: 9 (69.0/1.0)
|   |   |   |   |   input2 > 94
|   |   |   |   |   |   input14 <= 10: 3 (5.0)
|   |   |   |   |   |   input14 > 10
|   |   |   |   |   |   |   input1 <= 81: 4 (280.0/1.0)
|   |   |   |   |   |   |   input1 > 81
|   |   |   |   |   |   |   |   input8 <= 56: 4 (10.0/1.0)
|   |   |   |   |   |   |   |   input8 > 56: 9 (4.0)
|   |   |   input6 > 76
|   |   |   |   input3 <= 46
|   |   |   |   |   input4 <= 85
|   |   |   |   |   |   input2 <= 44
|   |   |   |   |   |   |   input6 <= 86: 1 (13.0)
|   |   |   |   |   |   |   input6 > 86: 3 (166.0)
|   |   |   |   |   |   input2 > 44
|   |   |   |   |   |   |   input11 <= 92
|   |   |   |   |   |   |   |   input1 <= 32
|   |   |   |   |   |   |   |   |   input13 <= 3: 2 (3.0)
|   |   |   |   |   |   |   |   |   input13 > 3
|   |   |   |   |   |   |   |   |   |   input5 <= 40
|   |   |   |   |   |   |   |   |   |   |   input6 <= 94: 1 (4.0)
|   |   |   |   |   |   |   |   |   |   |   input6 > 94: 7 (15.0/1.0)
|   |   |   |   |   |   |   |   |   |   input5 > 40: 1 (67.0)
|   |   |   |   |   |   |   |   input1 > 32: 9 (11.0)
|   |   |   |   |   |   |   input11 > 92: 9 (19.0)
|   |   |   |   |   input4 > 85
|   |   |   |   |   |   input15 <= 93
|   |   |   |   |   |   |   input9 <= 83
|   |   |   |   |   |   |   |   input11 <= 88: 7 (762.0/2.0)
|   |   |   |   |   |   |   |   input11 > 88
|   |   |   |   |   |   |   |   |   input1 <= 20
|   |   |   |   |   |   |   |   |   |   input10 <= 19: 1 (2.0)
|   |   |   |   |   |   |   |   |   |   input10 > 19: 3 (26.0)
|   |   |   |   |   |   |   |   |   input1 > 20: 4 (6.0)
|   |   |   |   |   |   |   input9 > 83
|   |   |   |   |   |   |   |   input9 <= 84: 3 (103.0)
|   |   |   |   |   |   |   |   input9 > 84
|   |   |   |   |   |   |   |   |   input11 <= 95
|   |   |   |   |   |   |   |   |   |   input11 <= 61: 2 (3.0)
|   |   |   |   |   |   |   |   |   |   input11 > 61
|   |   |   |   |   |   |   |   |   |   |   input4 <= 87
|   |   |   |   |   |   |   |   |   |   |   |   input2 <= 64: 7 (5.0)
|   |   |   |   |   |   |   |   |   |   |   |   input2 > 64: 1 (2.0)
|   |   |   |   |   |   |   |   |   |   |   input4 > 87: 7 (39.0)
|   |   |   |   |   |   |   |   |   input11 > 95
|   |   |   |   |   |   |   |   |   |   input1 <= 36: 3 (6.0)
|   |   |   |   |   |   |   |   |   |   input1 > 36: 9 (4.0)
|   |   |   |   |   |   input15 > 93
|   |   |   |   |   |   |   input14 <= 12: 2 (57.0)
|   |   |   |   |   |   |   input14 > 12: 7 (6.0)
|   |   |   |   input3 > 46
|   |   |   |   |   input7 <= 55
|   |   |   |   |   |   input11 <= 29: 2 (5.0)
|   |   |   |   |   |   input11 > 29
|   |   |   |   |   |   |   input2 <= 92: 9 (85.0/1.0)
|   |   |   |   |   |   |   input2 > 92
|   |   |   |   |   |   |   |   input1 <= 69: 4 (2.0)
|   |   |   |   |   |   |   |   input1 > 69: 5 (2.0)
|   |   |   |   |   input7 > 55
|   |   |   |   |   |   input16 <= 13
|   |   |   |   |   |   |   input4 <= 94: 1 (374.0/1.0)
|   |   |   |   |   |   |   input4 > 94
|   |   |   |   |   |   |   |   input11 <= 32: 2 (3.0)
|   |   |   |   |   |   |   |   input11 > 32
|   |   |   |   |   |   |   |   |   input3 <= 49: 3 (4.0)
|   |   |   |   |   |   |   |   |   input3 > 49: 1 (18.0/1.0)
|   |   |   |   |   |   input16 > 13: 7 (8.0)
input16 > 24
|   input5 <= 88
|   |   input15 <= 95
|   |   |   input2 <= 93
|   |   |   |   input2 <= 6: 9 (21.0)
|   |   |   |   input2 > 6
|   |   |   |   |   input16 <= 35
|   |   |   |   |   |   input7 <= 61
|   |   |   |   |   |   |   input6 <= 95
|   |   |   |   |   |   |   |   input9 <= 78: 6 (5.0)
|   |   |   |   |   |   |   |   input9 > 78: 3 (9.0)
|   |   |   |   |   |   |   input6 > 95: 8 (13.0)
|   |   |   |   |   |   input7 > 61
|   |   |   |   |   |   |   input14 <= 12: 9 (17.0)
|   |   |   |   |   |   |   input14 > 12
|   |   |   |   |   |   |   |   input12 <= 50: 7 (4.0)
|   |   |   |   |   |   |   |   input12 > 50: 0 (3.0)
|   |   |   |   |   input16 > 35
|   |   |   |   |   |   input11 <= 5
|   |   |   |   |   |   |   input4 <= 74: 5 (3.0)
|   |   |   |   |   |   |   input4 > 74: 8 (20.0)
|   |   |   |   |   |   input11 > 5
|   |   |   |   |   |   |   input15 <= 0
|   |   |   |   |   |   |   |   input14 <= 32: 7 (5.0)
|   |   |   |   |   |   |   |   input14 > 32
|   |   |   |   |   |   |   |   |   input9 <= 88: 8 (14.0)
|   |   |   |   |   |   |   |   |   input9 > 88: 0 (11.0)
|   |   |   |   |   |   |   input15 > 0
|   |   |   |   |   |   |   |   input2 <= 53: 0 (250.0)
|   |   |   |   |   |   |   |   input2 > 53
|   |   |   |   |   |   |   |   |   input5 <= 49
|   |   |   |   |   |   |   |   |   |   input11 <= 55
|   |   |   |   |   |   |   |   |   |   |   input3 <= 71: 8 (13.0)
|   |   |   |   |   |   |   |   |   |   |   input3 > 71: 0 (4.0/1.0)
|   |   |   |   |   |   |   |   |   |   input11 > 55
|   |   |   |   |   |   |   |   |   |   |   input7 <= 92
|   |   |   |   |   |   |   |   |   |   |   |   input10 <= 58: 0 (162.0/2.0)
|   |   |   |   |   |   |   |   |   |   |   |   input10 > 58: 8 (2.0)
|   |   |   |   |   |   |   |   |   |   |   input7 > 92: 8 (2.0)
|   |   |   |   |   |   |   |   |   input5 > 49: 8 (18.0/1.0)
|   |   |   input2 > 93
|   |   |   |   input16 <= 65
|   |   |   |   |   input14 <= 5
|   |   |   |   |   |   input15 <= 1: 9 (16.0)
|   |   |   |   |   |   input15 > 1
|   |   |   |   |   |   |   input3 <= 25: 8 (4.0)
|   |   |   |   |   |   |   input3 > 25: 5 (4.0)
|   |   |   |   |   input14 > 5
|   |   |   |   |   |   input7 <= 48: 6 (190.0)
|   |   |   |   |   |   input7 > 48
|   |   |   |   |   |   |   input9 <= 83
|   |   |   |   |   |   |   |   input1 <= 24: 7 (4.0)
|   |   |   |   |   |   |   |   input1 > 24: 8 (2.0)
|   |   |   |   |   |   |   input9 > 83: 0 (10.0)
|   |   |   |   input16 > 65
|   |   |   |   |   input11 <= 72
|   |   |   |   |   |   input13 <= 6: 5 (2.0)
|   |   |   |   |   |   input13 > 6: 8 (52.0)
|   |   |   |   |   input11 > 72: 0 (71.0/1.0)
|   |   input15 > 95
|   |   |   input14 <= 73
|   |   |   |   input1 <= 29
|   |   |   |   |   input4 <= 80: 5 (4.0/1.0)
|   |   |   |   |   input4 > 80
|   |   |   |   |   |   input14 <= 27: 2 (10.0/1.0)
|   |   |   |   |   |   input14 > 27: 7 (42.0)
|   |   |   |   input1 > 29
|   |   |   |   |   input11 <= 33
|   |   |   |   |   |   input12 <= 38: 8 (97.0)
|   |   |   |   |   |   input12 > 38
|   |   |   |   |   |   |   input1 <= 54: 7 (2.0)
|   |   |   |   |   |   |   input1 > 54: 8 (3.0)
|   |   |   |   |   input11 > 33: 0 (9.0)
|   |   |   input14 > 73
|   |   |   |   input12 <= 76: 5 (108.0)
|   |   |   |   input12 > 76
|   |   |   |   |   input6 <= 54: 5 (20.0)
|   |   |   |   |   input6 > 54: 6 (101.0/1.0)
|   input5 > 88
|   |   input13 <= 31
|   |   |   input16 <= 92
|   |   |   |   input11 <= 50: 7 (36.0)
|   |   |   |   input11 > 50
|   |   |   |   |   input2 <= 77: 8 (9.0)
|   |   |   |   |   input2 > 77: 3 (2.0)
|   |   |   input16 > 92: 5 (52.0)
|   |   input13 > 31
|   |   |   input1 <= 6
|   |   |   |   input16 <= 55: 7 (14.0)
|   |   |   |   input16 > 55: 8 (14.0)
|   |   |   input1 > 6: 8 (467.0/1.0)

Number of Leaves  : 	169

Size of the tree : 	337


Weight: 3.98

J48 pruned tree
------------------

input16 <= 16
|   input11 <= 38
|   |   input12 <= 36
|   |   |   input13 <= 19
|   |   |   |   input7 <= 77: 1 (294.0/2.0)
|   |   |   |   input7 > 77
|   |   |   |   |   input12 <= 9: 1 (9.0)
|   |   |   |   |   input12 > 9: 2 (9.0)
|   |   |   input13 > 19
|   |   |   |   input5 <= 84
|   |   |   |   |   input13 <= 53
|   |   |   |   |   |   input4 <= 90
|   |   |   |   |   |   |   input12 <= 9: 1 (196.0/1.0)
|   |   |   |   |   |   |   input12 > 9: 2 (2.0)
|   |   |   |   |   |   input4 > 90
|   |   |   |   |   |   |   input3 <= 25
|   |   |   |   |   |   |   |   input7 <= 28: 1 (4.0)
|   |   |   |   |   |   |   |   input7 > 28: 2 (133.0)
|   |   |   |   |   |   |   input3 > 25
|   |   |   |   |   |   |   |   input6 <= 78
|   |   |   |   |   |   |   |   |   input4 <= 96: 7 (2.0)
|   |   |   |   |   |   |   |   |   input4 > 96
|   |   |   |   |   |   |   |   |   |   input8 <= 26: 1 (5.0/1.0)
|   |   |   |   |   |   |   |   |   |   input8 > 26
|   |   |   |   |   |   |   |   |   |   |   input9 <= 27: 2 (58.0)
|   |   |   |   |   |   |   |   |   |   |   input9 > 27
|   |   |   |   |   |   |   |   |   |   |   |   input1 <= 33: 2 (2.0)
|   |   |   |   |   |   |   |   |   |   |   |   input1 > 33: 1 (2.0)
|   |   |   |   |   |   |   |   input6 > 78
|   |   |   |   |   |   |   |   |   input5 <= 51: 1 (149.0)
|   |   |   |   |   |   |   |   |   input5 > 51
|   |   |   |   |   |   |   |   |   |   input3 <= 46
|   |   |   |   |   |   |   |   |   |   |   input13 <= 40: 1 (5.0)
|   |   |   |   |   |   |   |   |   |   |   input13 > 40
|   |   |   |   |   |   |   |   |   |   |   |   input4 <= 99: 1 (3.0/1.0)
|   |   |   |   |   |   |   |   |   |   |   |   input4 > 99: 2 (46.0)
|   |   |   |   |   |   |   |   |   |   input3 > 46
|   |   |   |   |   |   |   |   |   |   |   input10 <= 14: 1 (56.0)
|   |   |   |   |   |   |   |   |   |   |   input10 > 14
|   |   |   |   |   |   |   |   |   |   |   |   input5 <= 78: 1 (10.0)
|   |   |   |   |   |   |   |   |   |   |   |   input5 > 78: 2 (5.0)
|   |   |   |   |   input13 > 53
|   |   |   |   |   |   input4 <= 82: 1 (4.0/1.0)
|   |   |   |   |   |   input4 > 82
|   |   |   |   |   |   |   input11 <= 8
|   |   |   |   |   |   |   |   input2 <= 73: 1 (5.0)
|   |   |   |   |   |   |   |   input2 > 73: 2 (3.0)
|   |   |   |   |   |   |   input11 > 8
|   |   |   |   |   |   |   |   input5 <= 28
|   |   |   |   |   |   |   |   |   input11 <= 24: 1 (3.0)
|   |   |   |   |   |   |   |   |   input11 > 24: 2 (2.0)
|   |   |   |   |   |   |   |   input5 > 28: 2 (318.0)
|   |   |   |   input5 > 84
|   |   |   |   |   input2 <= 88
|   |   |   |   |   |   input4 <= 86
|   |   |   |   |   |   |   input3 <= 49: 2 (4.0)
|   |   |   |   |   |   |   input3 > 49: 1 (2.0)
|   |   |   |   |   |   input4 > 86: 2 (357.0/2.0)
|   |   |   |   |   input2 > 88
|   |   |   |   |   |   input3 <= 58
|   |   |   |   |   |   |   input1 <= 3: 2 (2.0)
|   |   |   |   |   |   |   input1 > 3: 3 (48.0)
|   |   |   |   |   |   input3 > 58: 2 (23.0)
|   |   input12 > 36
|   |   |   input14 <= 17: 3 (74.0/1.0)
|   |   |   input14 > 17
|   |   |   |   input6 <= 78: 0 (9.0)
|   |   |   |   input6 > 78: 1 (30.0/1.0)
|   input11 > 38
|   |   input1 <= 65
|   |   |   input3 <= 72
|   |   |   |   input6 <= 73
|   |   |   |   |   input14 <= 14
|   |   |   |   |   |   input10 <= 45
|   |   |   |   |   |   |   input15 <= 86: 1 (117.0)
|   |   |   |   |   |   |   input15 > 86: 2 (5.0/1.0)
|   |   |   |   |   |   input10 > 45
|   |   |   |   |   |   |   input6 <= 69: 9 (17.0/1.0)
|   |   |   |   |   |   |   input6 > 69: 3 (4.0)
|   |   |   |   |   input14 > 14
|   |   |   |   |   |   input6 <= 5: 0 (7.0)
|   |   |   |   |   |   input6 > 5
|   |   |   |   |   |   |   input4 <= 52
|   |   |   |   |   |   |   |   input1 <= 14: 1 (5.0)
|   |   |   |   |   |   |   |   input1 > 14: 9 (3.0)
|   |   |   |   |   |   |   input4 > 52
|   |   |   |   |   |   |   |   input10 <= 11: 6 (4.0)
|   |   |   |   |   |   |   |   input10 > 11: 4 (160.0/1.0)
|   |   |   |   input6 > 73
|   |   |   |   |   input10 <= 65
|   |   |   |   |   |   input4 <= 85
|   |   |   |   |   |   |   input4 <= 53: 8 (4.0)
|   |   |   |   |   |   |   input4 > 53
|   |   |   |   |   |   |   |   input14 <= 30
|   |   |   |   |   |   |   |   |   input2 <= 82: 1 (191.0)
|   |   |   |   |   |   |   |   |   input2 > 82
|   |   |   |   |   |   |   |   |   |   input4 <= 64: 1 (3.0)
|   |   |   |   |   |   |   |   |   |   input4 > 64: 9 (3.0)
|   |   |   |   |   |   |   |   input14 > 30: 9 (2.0)
|   |   |   |   |   |   input4 > 85
|   |   |   |   |   |   |   input15 <= 65
|   |   |   |   |   |   |   |   input7 <= 5
|   |   |   |   |   |   |   |   |   input14 <= 12: 5 (4.0)
|   |   |   |   |   |   |   |   |   input14 > 12: 4 (4.0)
|   |   |   |   |   |   |   |   input7 > 5
|   |   |   |   |   |   |   |   |   input5 <= 33: 9 (8.0)
|   |   |   |   |   |   |   |   |   input5 > 33
|   |   |   |   |   |   |   |   |   |   input12 <= 7
|   |   |   |   |   |   |   |   |   |   |   input11 <= 92: 3 (3.0)
|   |   |   |   |   |   |   |   |   |   |   input11 > 92: 1 (8.0)
|   |   |   |   |   |   |   |   |   |   input12 > 7
|   |   |   |   |   |   |   |   |   |   |   input2 <= 95
|   |   |   |   |   |   |   |   |   |   |   |   input3 <= 69
|   |   |   |   |   |   |   |   |   |   |   |   |   input9 <= 25
|   |   |   |   |   |   |   |   |   |   |   |   |   |   input1 <= 2: 3 (2.0)
|   |   |   |   |   |   |   |   |   |   |   |   |   |   input1 > 2: 5 (2.0)
|   |   |   |   |   |   |   |   |   |   |   |   |   input9 > 25
|   |   |   |   |   |   |   |   |   |   |   |   |   |   input15 <= 21: 3 (287.0)
|   |   |   |   |   |   |   |   |   |   |   |   |   |   input15 > 21
|   |   |   |   |   |   |   |   |   |   |   |   |   |   |   input5 <= 53: 3 (46.0)
|   |   |   |   |   |   |   |   |   |   |   |   |   |   |   input5 > 53
|   |   |   |   |   |   |   |   |   |   |   |   |   |   |   |   input2 <= 82: 1 (2.0/1.0)
|   |   |   |   |   |   |   |   |   |   |   |   |   |   |   |   input2 > 82: 7 (5.0)
|   |   |   |   |   |   |   |   |   |   |   |   input3 > 69
|   |   |   |   |   |   |   |   |   |   |   |   |   input1 <= 32: 5 (3.0)
|   |   |   |   |   |   |   |   |   |   |   |   |   input1 > 32: 3 (5.0/1.0)
|   |   |   |   |   |   |   |   |   |   |   input2 > 95
|   |   |   |   |   |   |   |   |   |   |   |   input14 <= 16
|   |   |   |   |   |   |   |   |   |   |   |   |   input1 <= 39: 3 (15.0)
|   |   |   |   |   |   |   |   |   |   |   |   |   input1 > 39: 9 (7.0)
|   |   |   |   |   |   |   |   |   |   |   |   input14 > 16: 7 (7.0)
|   |   |   |   |   |   |   input15 > 65
|   |   |   |   |   |   |   |   input14 <= 18
|   |   |   |   |   |   |   |   |   input3 <= 37: 2 (5.0)
|   |   |   |   |   |   |   |   |   input3 > 37: 1 (72.0)
|   |   |   |   |   |   |   |   input14 > 18: 4 (8.0)
|   |   |   |   |   input10 > 65
|   |   |   |   |   |   input2 <= 61
|   |   |   |   |   |   |   input15 <= 81
|   |   |   |   |   |   |   |   input4 <= 83
|   |   |   |   |   |   |   |   |   input7 <= 65: 9 (3.0)
|   |   |   |   |   |   |   |   |   input7 > 65: 1 (110.0)
|   |   |   |   |   |   |   |   input4 > 83: 7 (5.0)
|   |   |   |   |   |   |   input15 > 81
|   |   |   |   |   |   |   |   input14 <= 26: 1 (12.0)
|   |   |   |   |   |   |   |   input14 > 26: 3 (91.0)
|   |   |   |   |   |   input2 > 61
|   |   |   |   |   |   |   input9 <= 61: 9 (85.0)
|   |   |   |   |   |   |   input9 > 61
|   |   |   |   |   |   |   |   input11 <= 91
|   |   |   |   |   |   |   |   |   input13 <= 77
|   |   |   |   |   |   |   |   |   |   input15 <= 16
|   |   |   |   |   |   |   |   |   |   |   input5 <= 57: 7 (2.0/1.0)
|   |   |   |   |   |   |   |   |   |   |   input5 > 57: 1 (15.0)
|   |   |   |   |   |   |   |   |   |   input15 > 16
|   |   |   |   |   |   |   |   |   |   |   input6 <= 89: 1 (4.0)
|   |   |   |   |   |   |   |   |   |   |   input6 > 89
|   |   |   |   |   |   |   |   |   |   |   |   input15 <= 61: 7 (316.0/1.0)
|   |   |   |   |   |   |   |   |   |   |   |   input15 > 61
|   |   |   |   |   |   |   |   |   |   |   |   |   input3 <= 27: 7 (7.0)
|   |   |   |   |   |   |   |   |   |   |   |   |   input3 > 27: 1 (3.0)
|   |   |   |   |   |   |   |   |   input13 > 77: 1 (14.0)
|   |   |   |   |   |   |   |   input11 > 91: 9 (53.0)
|   |   |   input3 > 72
|   |   |   |   input2 <= 81
|   |   |   |   |   input10 <= 52: 1 (8.0/1.0)
|   |   |   |   |   input10 > 52: 9 (86.0)
|   |   |   |   input2 > 81
|   |   |   |   |   input10 <= 49
|   |   |   |   |   |   input6 <= 90
|   |   |   |   |   |   |   input12 <= 2
|   |   |   |   |   |   |   |   input1 <= 58: 1 (2.0/1.0)
|   |   |   |   |   |   |   |   input1 > 58: 5 (2.0)
|   |   |   |   |   |   |   input12 > 2: 3 (162.0/1.0)
|   |   |   |   |   |   input6 > 90: 5 (10.0)
|   |   |   |   |   input10 > 49
|   |   |   |   |   |   input4 <= 88: 9 (4.0)
|   |   |   |   |   |   input4 > 88
|   |   |   |   |   |   |   input6 <= 72: 9 (3.0)
|   |   |   |   |   |   |   input6 > 72: 5 (291.0)
|   |   input1 > 65
|   |   |   input12 <= 72
|   |   |   |   input8 <= 47
|   |   |   |   |   input14 <= 6: 5 (4.0)
|   |   |   |   |   input14 > 6
|   |   |   |   |   |   input12 <= 30: 6 (49.0)
|   |   |   |   |   |   input12 > 30: 4 (15.0/1.0)
|   |   |   |   input8 > 47
|   |   |   |   |   input7 <= 9
|   |   |   |   |   |   input14 <= 16: 5 (69.0)
|   |   |   |   |   |   input14 > 16: 9 (10.0/1.0)
|   |   |   |   |   input7 > 9
|   |   |   |   |   |   input10 <= 45
|   |   |   |   |   |   |   input1 <= 78: 3 (14.0)
|   |   |   |   |   |   |   input1 > 78
|   |   |   |   |   |   |   |   input4 <= 97: 9 (6.0)
|   |   |   |   |   |   |   |   input4 > 97: 5 (12.0)
|   |   |   |   |   |   input10 > 45
|   |   |   |   |   |   |   input13 <= 45
|   |   |   |   |   |   |   |   input7 <= 69
|   |   |   |   |   |   |   |   |   input10 <= 69
|   |   |   |   |   |   |   |   |   |   input15 <= 50: 5 (29.0)
|   |   |   |   |   |   |   |   |   |   input15 > 50: 1 (2.0)
|   |   |   |   |   |   |   |   |   input10 > 69: 9 (7.0)
|   |   |   |   |   |   |   |   input7 > 69
|   |   |   |   |   |   |   |   |   input15 <= 2: 9 (34.0)
|   |   |   |   |   |   |   |   |   input15 > 2: 4 (2.0)
|   |   |   |   |   |   |   input13 > 45
|   |   |   |   |   |   |   |   input7 <= 46
|   |   |   |   |   |   |   |   |   input2 <= 87: 9 (174.0)
|   |   |   |   |   |   |   |   |   input2 > 87: 5 (8.0/1.0)
|   |   |   |   |   |   |   |   input7 > 46: 9 (329.0)
|   |   |   input12 > 72
|   |   |   |   input15 <= 47: 0 (134.0/1.0)
|   |   |   |   input15 > 47: 4 (7.0)
input16 > 16
|   input14 <= 1
|   |   input15 <= 20
|   |   |   input8 <= 62
|   |   |   |   input5 <= 41: 5 (5.0)
|   |   |   |   input5 > 41: 3 (124.0)
|   |   |   input8 > 62
|   |   |   |   input2 <= 69: 8 (9.0/1.0)
|   |   |   |   input2 > 69
|   |   |   |   |   input10 <= 40: 3 (4.0)
|   |   |   |   |   input10 > 40
|   |   |   |   |   |   input9 <= 55: 5 (5.0)
|   |   |   |   |   |   input9 > 55: 9 (195.0/1.0)
|   |   input15 > 20
|   |   |   input2 <= 47: 0 (56.0)
|   |   |   input2 > 47
|   |   |   |   input4 <= 95: 8 (4.0/1.0)
|   |   |   |   input4 > 95: 2 (6.0)
|   input14 > 1
|   |   input16 <= 52
|   |   |   input12 <= 58
|   |   |   |   input1 <= 53
|   |   |   |   |   input7 <= 20
|   |   |   |   |   |   input10 <= 18: 6 (17.0)
|   |   |   |   |   |   input10 > 18: 8 (9.0)
|   |   |   |   |   input7 > 20
|   |   |   |   |   |   input9 <= 4: 2 (9.0)
|   |   |   |   |   |   input9 > 4
|   |   |   |   |   |   |   input2 <= 74
|   |   |   |   |   |   |   |   input3 <= 50
|   |   |   |   |   |   |   |   |   input1 <= 14: 7 (5.0)
|   |   |   |   |   |   |   |   |   input1 > 14: 2 (3.0)
|   |   |   |   |   |   |   |   input3 > 50: 8 (8.0)
|   |   |   |   |   |   |   input2 > 74: 7 (719.0/2.0)
|   |   |   |   input1 > 53
|   |   |   |   |   input9 <= 82
|   |   |   |   |   |   input4 <= 68: 8 (4.0)
|   |   |   |   |   |   input4 > 68: 6 (280.0)
|   |   |   |   |   input9 > 82: 5 (51.0)
|   |   |   input12 > 58
|   |   |   |   input8 <= 59: 0 (115.0)
|   |   |   |   input8 > 59: 9 (3.0)
|   |   input16 > 52
|   |   |   input10 <= 70
|   |   |   |   input2 <= 97
|   |   |   |   |   input9 <= 96
|   |   |   |   |   |   input13 <= 90
|   |   |   |   |   |   |   input1 <= 8
|   |   |   |   |   |   |   |   input16 <= 89
|   |   |   |   |   |   |   |   |   input15 <= 61: 8 (8.0)
|   |   |   |   |   |   |   |   |   input15 > 61: 7 (8.0)
|   |   |   |   |   |   |   |   input16 > 89: 5 (16.0/1.0)
|   |   |   |   |   |   |   input1 > 8
|   |   |   |   |   |   |   |   input16 <= 94
|   |   |   |   |   |   |   |   |   input14 <= 23: 0 (3.0)
|   |   |   |   |   |   |   |   |   input14 > 23: 8 (278.0/5.0)
|   |   |   |   |   |   |   |   input16 > 94
|   |   |   |   |   |   |   |   |   input14 <= 73: 8 (106.0)
|   |   |   |   |   |   |   |   |   input14 > 73
|   |   |   |   |   |   |   |   |   |   input15 <= 59
|   |   |   |   |   |   |   |   |   |   |   input5 <= 47: 0 (3.0)
|   |   |   |   |   |   |   |   |   |   |   input5 > 47: 8 (6.0)
|   |   |   |   |   |   |   |   |   |   input15 > 59: 5 (33.0)
|   |   |   |   |   |   input13 > 90
|   |   |   |   |   |   |   input12 <= 40: 0 (53.0)
|   |   |   |   |   |   |   input12 > 40
|   |   |   |   |   |   |   |   input9 <= 51: 8 (29.0)
|   |   |   |   |   |   |   |   input9 > 51: 0 (2.0)
|   |   |   |   |   input9 > 96: 0 (37.0)
|   |   |   |   input2 > 97
|   |   |   |   |   input9 <= 4
|   |   |   |   |   |   input3 <= 33
|   |   |   |   |   |   |   input15 <= 62: 8 (4.0)
|   |   |   |   |   |   |   input15 > 62: 5 (113.0/1.0)
|   |   |   |   |   |   input3 > 33: 7 (3.0)
|   |   |   |   |   input9 > 4
|   |   |   |   |   |   input7 <= 44
|   |   |   |   |   |   |   input10 <= 25
|   |   |   |   |   |   |   |   input6 <= 54
|   |   |   |   |   |   |   |   |   input5 <= 19: 0 (17.0)
|   |   |   |   |   |   |   |   |   input5 > 19: 5 (2.0)
|   |   |   |   |   |   |   |   input6 > 54
|   |   |   |   |   |   |   |   |   input13 <= 89: 6 (117.0)
|   |   |   |   |   |   |   |   |   input13 > 89: 0 (3.0)
|   |   |   |   |   |   |   input10 > 25
|   |   |   |   |   |   |   |   input7 <= 39: 8 (10.0)
|   |   |   |   |   |   |   |   input7 > 39: 5 (4.0)
|   |   |   |   |   |   input7 > 44
|   |   |   |   |   |   |   input4 <= 73
|   |   |   |   |   |   |   |   input15 <= 35: 8 (3.0)
|   |   |   |   |   |   |   |   input15 > 35: 5 (36.0)
|   |   |   |   |   |   |   input4 > 73: 8 (28.0/1.0)
|   |   |   input10 > 70: 9 (56.0)

Number of Leaves  : 	155

Size of the tree : 	309


Weight: 4.0

J48 pruned tree
------------------

input16 <= 27
|   input11 <= 43
|   |   input10 <= 61
|   |   |   input1 <= 80
|   |   |   |   input16 <= 16
|   |   |   |   |   input12 <= 34
|   |   |   |   |   |   input7 <= 79
|   |   |   |   |   |   |   input9 <= 42
|   |   |   |   |   |   |   |   input7 <= 78
|   |   |   |   |   |   |   |   |   input2 <= 68
|   |   |   |   |   |   |   |   |   |   input6 <= 77: 2 (5.0)
|   |   |   |   |   |   |   |   |   |   input6 > 77
|   |   |   |   |   |   |   |   |   |   |   input5 <= 64
|   |   |   |   |   |   |   |   |   |   |   |   input3 <= 30
|   |   |   |   |   |   |   |   |   |   |   |   |   input5 <= 48: 1 (10.0)
|   |   |   |   |   |   |   |   |   |   |   |   |   input5 > 48: 2 (21.0)
|   |   |   |   |   |   |   |   |   |   |   |   input3 > 30: 1 (130.0)
|   |   |   |   |   |   |   |   |   |   |   input5 > 64: 2 (11.0/1.0)
|   |   |   |   |   |   |   |   |   input2 > 68
|   |   |   |   |   |   |   |   |   |   input2 <= 84
|   |   |   |   |   |   |   |   |   |   |   input16 <= 4: 2 (330.0)
