
Options: -Q -P 100 -S 1 -I 30 -W weka.classifiers.trees.J48 -- -C 0.25 -M 2 

AdaBoostM1: Base classifiers and their weights: 

J48 pruned tree
------------------

input14 <= 50
|   input16 <= 19
|   |   input11 <= 42
|   |   |   input15 <= 40
|   |   |   |   input16 <= 1
|   |   |   |   |   input10 <= 75: 1 (93.0/3.0)
|   |   |   |   |   input10 > 75
|   |   |   |   |   |   input2 <= 96: 5 (2.0)
|   |   |   |   |   |   input2 > 96: 4 (2.0/1.0)
|   |   |   |   input16 > 1: 6 (6.0)
|   |   |   input15 > 40
|   |   |   |   input6 <= 91
|   |   |   |   |   input4 <= 77: 1 (5.0)
|   |   |   |   |   input4 > 77
|   |   |   |   |   |   input2 <= 70
|   |   |   |   |   |   |   input9 <= 46
|   |   |   |   |   |   |   |   input5 <= 49
|   |   |   |   |   |   |   |   |   input11 <= 17: 1 (14.0)
|   |   |   |   |   |   |   |   |   input11 > 17: 2 (6.0)
|   |   |   |   |   |   |   |   input5 > 49
|   |   |   |   |   |   |   |   |   input3 <= 53: 2 (71.0)
|   |   |   |   |   |   |   |   |   input3 > 53
|   |   |   |   |   |   |   |   |   |   input5 <= 74
|   |   |   |   |   |   |   |   |   |   |   input11 <= 3: 1 (11.0)
|   |   |   |   |   |   |   |   |   |   |   input11 > 3: 2 (2.0)
|   |   |   |   |   |   |   |   |   |   input5 > 74: 2 (19.0)
|   |   |   |   |   |   |   input9 > 46: 1 (6.0)
|   |   |   |   |   |   input2 > 70
|   |   |   |   |   |   |   input10 <= 4
|   |   |   |   |   |   |   |   input6 <= 78
|   |   |   |   |   |   |   |   |   input9 <= 13: 2 (38.0)
|   |   |   |   |   |   |   |   |   input9 > 13
|   |   |   |   |   |   |   |   |   |   input5 <= 64: 1 (2.0)
|   |   |   |   |   |   |   |   |   |   input5 > 64: 2 (6.0)
|   |   |   |   |   |   |   |   input6 > 78: 1 (4.0)
|   |   |   |   |   |   |   input10 > 4: 2 (308.0/1.0)
|   |   |   |   input6 > 91
|   |   |   |   |   input12 <= 8
|   |   |   |   |   |   input3 <= 27
|   |   |   |   |   |   |   input4 <= 92
|   |   |   |   |   |   |   |   input7 <= 45: 1 (9.0)
|   |   |   |   |   |   |   |   input7 > 45: 2 (3.0)
|   |   |   |   |   |   |   input4 > 92: 2 (32.0)
|   |   |   |   |   |   input3 > 27
|   |   |   |   |   |   |   input14 <= 8
|   |   |   |   |   |   |   |   input7 <= 67
|   |   |   |   |   |   |   |   |   input2 <= 74: 1 (80.0)
|   |   |   |   |   |   |   |   |   input2 > 74
|   |   |   |   |   |   |   |   |   |   input9 <= 33: 2 (4.0)
|   |   |   |   |   |   |   |   |   |   input9 > 33: 1 (9.0)
|   |   |   |   |   |   |   |   input7 > 67
|   |   |   |   |   |   |   |   |   input3 <= 49: 2 (13.0/1.0)
|   |   |   |   |   |   |   |   |   input3 > 49: 1 (13.0)
|   |   |   |   |   |   |   input14 > 8
|   |   |   |   |   |   |   |   input11 <= 6: 2 (11.0)
|   |   |   |   |   |   |   |   input11 > 6: 1 (5.0/2.0)
|   |   |   |   |   input12 > 8
|   |   |   |   |   |   input3 <= 47: 2 (59.0)
|   |   |   |   |   |   input3 > 47
|   |   |   |   |   |   |   input11 <= 17: 2 (5.0/1.0)
|   |   |   |   |   |   |   input11 > 17: 1 (4.0/1.0)
|   |   input11 > 42
|   |   |   input2 <= 99
|   |   |   |   input4 <= 90
|   |   |   |   |   input1 <= 11
|   |   |   |   |   |   input7 <= 49: 9 (18.0/1.0)
|   |   |   |   |   |   input7 > 49
|   |   |   |   |   |   |   input2 <= 74
|   |   |   |   |   |   |   |   input4 <= 84: 1 (281.0/1.0)
|   |   |   |   |   |   |   |   input4 > 84
|   |   |   |   |   |   |   |   |   input15 <= 66: 7 (2.0)
|   |   |   |   |   |   |   |   |   input15 > 66: 1 (9.0)
|   |   |   |   |   |   |   input2 > 74
|   |   |   |   |   |   |   |   input10 <= 73
|   |   |   |   |   |   |   |   |   input9 <= 93: 1 (7.0)
|   |   |   |   |   |   |   |   |   input9 > 93: 3 (2.0)
|   |   |   |   |   |   |   |   input10 > 73: 7 (5.0)
|   |   |   |   |   input1 > 11
|   |   |   |   |   |   input11 <= 56
|   |   |   |   |   |   |   input6 <= 90: 4 (2.0/1.0)
|   |   |   |   |   |   |   input6 > 90: 1 (17.0/1.0)
|   |   |   |   |   |   input11 > 56
|   |   |   |   |   |   |   input1 <= 23
|   |   |   |   |   |   |   |   input11 <= 91
|   |   |   |   |   |   |   |   |   input9 <= 83: 1 (6.0)
|   |   |   |   |   |   |   |   |   input9 > 83: 7 (10.0/1.0)
|   |   |   |   |   |   |   |   input11 > 91: 9 (19.0)
|   |   |   |   |   |   |   input1 > 23: 9 (191.0/2.0)
|   |   |   |   input4 > 90
|   |   |   |   |   input1 <= 55
|   |   |   |   |   |   input14 <= 16
|   |   |   |   |   |   |   input3 <= 90
|   |   |   |   |   |   |   |   input15 <= 61
|   |   |   |   |   |   |   |   |   input8 <= 83
|   |   |   |   |   |   |   |   |   |   input10 <= 17: 1 (11.0)
|   |   |   |   |   |   |   |   |   |   input10 > 17
|   |   |   |   |   |   |   |   |   |   |   input10 <= 60
|   |   |   |   |   |   |   |   |   |   |   |   input7 <= 21: 5 (5.0)
|   |   |   |   |   |   |   |   |   |   |   |   input7 > 21
|   |   |   |   |   |   |   |   |   |   |   |   |   input3 <= 78: 3 (422.0)
|   |   |   |   |   |   |   |   |   |   |   |   |   input3 > 78
|   |   |   |   |   |   |   |   |   |   |   |   |   |   input6 <= 87: 3 (30.0)
|   |   |   |   |   |   |   |   |   |   |   |   |   |   input6 > 87: 5 (4.0/1.0)
|   |   |   |   |   |   |   |   |   |   |   input10 > 60
|   |   |   |   |   |   |   |   |   |   |   |   input8 <= 79: 9 (9.0)
|   |   |   |   |   |   |   |   |   |   |   |   input8 > 79: 3 (2.0)
|   |   |   |   |   |   |   |   |   input8 > 83
|   |   |   |   |   |   |   |   |   |   input15 <= 23
|   |   |   |   |   |   |   |   |   |   |   input5 <= 59: 9 (2.0)
|   |   |   |   |   |   |   |   |   |   |   input5 > 59: 5 (20.0)
|   |   |   |   |   |   |   |   |   |   input15 > 23: 3 (2.0)
|   |   |   |   |   |   |   |   input15 > 61
|   |   |   |   |   |   |   |   |   input16 <= 10
|   |   |   |   |   |   |   |   |   |   input3 <= 44: 2 (8.0)
|   |   |   |   |   |   |   |   |   |   input3 > 44: 1 (2.0)
|   |   |   |   |   |   |   |   |   input16 > 10: 7 (2.0)
|   |   |   |   |   |   |   input3 > 90
|   |   |   |   |   |   |   |   input6 <= 84: 3 (4.0)
|   |   |   |   |   |   |   |   input6 > 84: 5 (72.0/1.0)
|   |   |   |   |   |   input14 > 16
|   |   |   |   |   |   |   input7 <= 60
|   |   |   |   |   |   |   |   input5 <= 53: 4 (15.0)
|   |   |   |   |   |   |   |   input5 > 53: 5 (2.0)
|   |   |   |   |   |   |   input7 > 60
|   |   |   |   |   |   |   |   input3 <= 51: 7 (39.0)
|   |   |   |   |   |   |   |   input3 > 51: 3 (3.0/1.0)
|   |   |   |   |   input1 > 55
|   |   |   |   |   |   input8 <= 47
|   |   |   |   |   |   |   input10 <= 26: 6 (27.0)
|   |   |   |   |   |   |   input10 > 26
|   |   |   |   |   |   |   |   input15 <= 3: 5 (6.0)
|   |   |   |   |   |   |   |   input15 > 3: 4 (2.0/1.0)
|   |   |   |   |   |   input8 > 47
|   |   |   |   |   |   |   input5 <= 75
|   |   |   |   |   |   |   |   input10 <= 52
|   |   |   |   |   |   |   |   |   input8 <= 76: 5 (36.0)
|   |   |   |   |   |   |   |   |   input8 > 76: 9 (5.0)
|   |   |   |   |   |   |   |   input10 > 52
|   |   |   |   |   |   |   |   |   input9 <= 75
|   |   |   |   |   |   |   |   |   |   input13 <= 64
|   |   |   |   |   |   |   |   |   |   |   input2 <= 79: 9 (4.0)
|   |   |   |   |   |   |   |   |   |   |   input2 > 79: 5 (25.0)
|   |   |   |   |   |   |   |   |   |   input13 > 64: 9 (15.0)
|   |   |   |   |   |   |   |   |   input9 > 75
|   |   |   |   |   |   |   |   |   |   input10 <= 54
|   |   |   |   |   |   |   |   |   |   |   input13 <= 51: 9 (9.0)
|   |   |   |   |   |   |   |   |   |   |   input13 > 51: 5 (2.0)
|   |   |   |   |   |   |   |   |   |   input10 > 54: 9 (198.0)
|   |   |   |   |   |   |   input5 > 75
|   |   |   |   |   |   |   |   input8 <= 70: 3 (27.0)
|   |   |   |   |   |   |   |   input8 > 70: 5 (14.0)
|   |   |   input2 > 99
|   |   |   |   input8 <= 70
|   |   |   |   |   input10 <= 15
|   |   |   |   |   |   input15 <= 64: 6 (165.0)
|   |   |   |   |   |   input15 > 64: 4 (8.0)
|   |   |   |   |   input10 > 15
|   |   |   |   |   |   input6 <= 74
|   |   |   |   |   |   |   input14 <= 14
|   |   |   |   |   |   |   |   input15 <= 50: 3 (4.0/1.0)
|   |   |   |   |   |   |   |   input15 > 50: 4 (2.0)
|   |   |   |   |   |   |   input14 > 14
|   |   |   |   |   |   |   |   input8 <= 17
|   |   |   |   |   |   |   |   |   input9 <= 67: 6 (2.0)
|   |   |   |   |   |   |   |   |   input9 > 67: 4 (5.0)
|   |   |   |   |   |   |   |   input8 > 17: 4 (503.0)
|   |   |   |   |   |   input6 > 74
|   |   |   |   |   |   |   input7 <= 45: 5 (24.0/1.0)
|   |   |   |   |   |   |   input7 > 45
|   |   |   |   |   |   |   |   input14 <= 7: 3 (4.0)
|   |   |   |   |   |   |   |   input14 > 7: 1 (3.0)
|   |   |   |   input8 > 70
|   |   |   |   |   input11 <= 68
|   |   |   |   |   |   input1 <= 23: 7 (4.0)
|   |   |   |   |   |   input1 > 23: 4 (2.0)
|   |   |   |   |   input11 > 68
|   |   |   |   |   |   input9 <= 59
|   |   |   |   |   |   |   input14 <= 9: 5 (6.0)
|   |   |   |   |   |   |   input14 > 9: 9 (2.0)
|   |   |   |   |   |   input9 > 59
|   |   |   |   |   |   |   input8 <= 72
|   |   |   |   |   |   |   |   input1 <= 93: 9 (2.0)
|   |   |   |   |   |   |   |   input1 > 93: 5 (2.0)
|   |   |   |   |   |   |   input8 > 72: 9 (76.0/1.0)
|   input16 > 19
|   |   input7 <= 27
|   |   |   input15 <= 63
|   |   |   |   input10 <= 36: 6 (289.0)
|   |   |   |   input10 > 36
|   |   |   |   |   input12 <= 30: 8 (14.0)
|   |   |   |   |   input12 > 30: 9 (2.0)
|   |   |   input15 > 63
|   |   |   |   input13 <= 49
|   |   |   |   |   input12 <= 19: 8 (8.0)
|   |   |   |   |   input12 > 19: 7 (2.0)
|   |   |   |   input13 > 49: 0 (9.0)
|   |   input7 > 27
|   |   |   input14 <= 13
|   |   |   |   input8 <= 64
|   |   |   |   |   input15 <= 55
|   |   |   |   |   |   input2 <= 90: 3 (19.0)
|   |   |   |   |   |   input2 > 90: 5 (2.0)
|   |   |   |   |   input15 > 55: 2 (16.0)
|   |   |   |   input8 > 64
|   |   |   |   |   input11 <= 79
|   |   |   |   |   |   input8 <= 70: 7 (6.0)
|   |   |   |   |   |   input8 > 70: 8 (12.0)
|   |   |   |   |   input11 > 79: 9 (8.0)
|   |   |   input14 > 13
|   |   |   |   input1 <= 51
|   |   |   |   |   input16 <= 62
|   |   |   |   |   |   input4 <= 88
|   |   |   |   |   |   |   input1 <= 17: 7 (4.0)
|   |   |   |   |   |   |   input1 > 17: 8 (4.0)
|   |   |   |   |   |   input4 > 88: 7 (475.0/2.0)
|   |   |   |   |   input16 > 62
|   |   |   |   |   |   input12 <= 21: 8 (17.0)
|   |   |   |   |   |   input12 > 21: 7 (2.0)
|   |   |   |   input1 > 51
|   |   |   |   |   input11 <= 53: 8 (53.0)
|   |   |   |   |   input11 > 53: 6 (10.0)
input14 > 50
|   input15 <= 99
|   |   input9 <= 58
|   |   |   input13 <= 20
|   |   |   |   input16 <= 78: 7 (2.0)
|   |   |   |   input16 > 78: 5 (8.0)
|   |   |   input13 > 20
|   |   |   |   input16 <= 55
|   |   |   |   |   input10 <= 15: 6 (11.0)
|   |   |   |   |   input10 > 15
|   |   |   |   |   |   input5 <= 44: 0 (2.0)
|   |   |   |   |   |   input5 > 44: 8 (3.0)
|   |   |   |   input16 > 55
|   |   |   |   |   input5 <= 20
|   |   |   |   |   |   input7 <= 17
|   |   |   |   |   |   |   input10 <= 28: 0 (28.0)
|   |   |   |   |   |   |   input10 > 28: 8 (2.0)
|   |   |   |   |   |   input7 > 17: 8 (17.0)
|   |   |   |   |   input5 > 20: 8 (279.0)
|   |   input9 > 58
|   |   |   input14 <= 63
|   |   |   |   input4 <= 91
|   |   |   |   |   input10 <= 0: 6 (7.0/1.0)
|   |   |   |   |   input10 > 0: 0 (8.0)
|   |   |   |   input4 > 91
|   |   |   |   |   input11 <= 94: 8 (28.0)
|   |   |   |   |   input11 > 94
|   |   |   |   |   |   input1 <= 8: 7 (3.0)
|   |   |   |   |   |   input1 > 8: 4 (2.0/1.0)
|   |   |   input14 > 63
|   |   |   |   input2 <= 15: 9 (10.0)
|   |   |   |   input2 > 15
|   |   |   |   |   input3 <= 43: 0 (491.0)
|   |   |   |   |   input3 > 43
|   |   |   |   |   |   input2 <= 72: 8 (2.0)
|   |   |   |   |   |   input2 > 72: 0 (4.0)
|   input15 > 99
|   |   input14 <= 72
|   |   |   input1 <= 45: 7 (29.0)
|   |   |   input1 > 45: 8 (63.0)
|   |   input14 > 72: 5 (296.0/1.0)

Number of Leaves  : 	132

Size of the tree : 	263


Weight: 3.57

J48 pruned tree
------------------

input16 <= 10
|   input11 <= 31
|   |   input10 <= 61
|   |   |   input13 <= 47
|   |   |   |   input5 <= 89
|   |   |   |   |   input7 <= 90
|   |   |   |   |   |   input10 <= 25: 1 (207.0)
|   |   |   |   |   |   input10 > 25
|   |   |   |   |   |   |   input13 <= 36: 1 (72.0/1.0)
|   |   |   |   |   |   |   input13 > 36
|   |   |   |   |   |   |   |   input4 <= 95: 1 (2.0)
|   |   |   |   |   |   |   |   input4 > 95: 2 (11.0)
|   |   |   |   |   input7 > 90: 2 (3.0)
|   |   |   |   input5 > 89
|   |   |   |   |   input2 <= 89
|   |   |   |   |   |   input12 <= 32
|   |   |   |   |   |   |   input13 <= 10
|   |   |   |   |   |   |   |   input15 <= 82: 2 (6.0)
|   |   |   |   |   |   |   |   input15 > 82: 1 (3.0)
|   |   |   |   |   |   |   input13 > 10: 2 (18.0)
|   |   |   |   |   |   input12 > 32: 1 (20.0)
|   |   |   |   |   input2 > 89: 3 (18.0)
|   |   |   input13 > 47
|   |   |   |   input2 <= 62
|   |   |   |   |   input9 <= 16: 2 (6.0)
|   |   |   |   |   input9 > 16
|   |   |   |   |   |   input3 <= 20: 2 (4.0)
|   |   |   |   |   |   input3 > 20
|   |   |   |   |   |   |   input7 <= 72: 1 (59.0)
|   |   |   |   |   |   |   input7 > 72: 2 (2.0)
|   |   |   |   input2 > 62
|   |   |   |   |   input9 <= 18: 2 (194.0/1.0)
|   |   |   |   |   input9 > 18
|   |   |   |   |   |   input16 <= 2: 2 (82.0/1.0)
|   |   |   |   |   |   input16 > 2
|   |   |   |   |   |   |   input10 <= 12
|   |   |   |   |   |   |   |   input7 <= 68: 1 (46.0/1.0)
|   |   |   |   |   |   |   |   input7 > 68: 2 (2.0)
|   |   |   |   |   |   |   input10 > 12
|   |   |   |   |   |   |   |   input4 <= 99: 1 (2.0)
|   |   |   |   |   |   |   |   input4 > 99: 2 (22.0/1.0)
|   |   input10 > 61
|   |   |   input7 <= 73: 5 (15.0)
|   |   |   input7 > 73
|   |   |   |   input1 <= 15: 7 (19.0)
|   |   |   |   input1 > 15
|   |   |   |   |   input1 <= 44: 1 (2.0)
|   |   |   |   |   input1 > 44: 0 (2.0)
|   input11 > 31
|   |   input5 <= 19
|   |   |   input2 <= 89
|   |   |   |   input1 <= 36: 7 (16.0/1.0)
|   |   |   |   input1 > 36: 9 (158.0/1.0)
|   |   |   input2 > 89
|   |   |   |   input10 <= 11: 6 (30.0)
|   |   |   |   input10 > 11
|   |   |   |   |   input16 <= 1
|   |   |   |   |   |   input10 <= 88
|   |   |   |   |   |   |   input2 <= 94
|   |   |   |   |   |   |   |   input7 <= 56: 4 (3.0)
|   |   |   |   |   |   |   |   input7 > 56: 9 (2.0)
|   |   |   |   |   |   |   input2 > 94: 4 (406.0/1.0)
|   |   |   |   |   |   input10 > 88
|   |   |   |   |   |   |   input5 <= 3: 9 (22.0)
|   |   |   |   |   |   |   input5 > 3: 4 (3.0)
|   |   |   |   |   input16 > 1: 5 (7.0/1.0)
|   |   input5 > 19
|   |   |   input7 <= 57
|   |   |   |   input4 <= 93
|   |   |   |   |   input10 <= 54
|   |   |   |   |   |   input7 <= 40
|   |   |   |   |   |   |   input2 <= 76: 9 (3.0)
|   |   |   |   |   |   |   input2 > 76
|   |   |   |   |   |   |   |   input16 <= 1
|   |   |   |   |   |   |   |   |   input7 <= 11: 4 (12.0)
|   |   |   |   |   |   |   |   |   input7 > 11: 2 (2.0)
|   |   |   |   |   |   |   |   input16 > 1: 6 (17.0)
|   |   |   |   |   |   input7 > 40: 1 (37.0)
|   |   |   |   |   input10 > 54
|   |   |   |   |   |   input2 <= 25: 8 (12.0)
|   |   |   |   |   |   input2 > 25: 9 (222.0/1.0)
|   |   |   |   input4 > 93
|   |   |   |   |   input14 <= 22
|   |   |   |   |   |   input3 <= 54
|   |   |   |   |   |   |   input11 <= 78
|   |   |   |   |   |   |   |   input15 <= 57: 5 (3.0)
|   |   |   |   |   |   |   |   input15 > 57: 2 (7.0)
|   |   |   |   |   |   |   input11 > 78
|   |   |   |   |   |   |   |   input16 <= 9: 3 (61.0/1.0)
|   |   |   |   |   |   |   |   input16 > 9: 9 (2.0)
|   |   |   |   |   |   input3 > 54
|   |   |   |   |   |   |   input2 <= 73: 9 (5.0)
|   |   |   |   |   |   |   input2 > 73
|   |   |   |   |   |   |   |   input1 <= 6: 3 (3.0)
|   |   |   |   |   |   |   |   input1 > 6
|   |   |   |   |   |   |   |   |   input10 <= 44
|   |   |   |   |   |   |   |   |   |   input1 <= 36: 3 (4.0)
|   |   |   |   |   |   |   |   |   |   input1 > 36
|   |   |   |   |   |   |   |   |   |   |   input14 <= 10: 5 (15.0)
|   |   |   |   |   |   |   |   |   |   |   input14 > 10: 6 (2.0)
|   |   |   |   |   |   |   |   |   input10 > 44: 5 (273.0/1.0)
|   |   |   |   |   input14 > 22
|   |   |   |   |   |   input7 <= 6
|   |   |   |   |   |   |   input6 <= 83: 4 (36.0)
|   |   |   |   |   |   |   input6 > 83: 9 (4.0)
|   |   |   |   |   |   input7 > 6: 6 (2.0)
|   |   |   input7 > 57
|   |   |   |   input1 <= 60
|   |   |   |   |   input4 <= 85
|   |   |   |   |   |   input9 <= 53: 9 (58.0/1.0)
|   |   |   |   |   |   input9 > 53
|   |   |   |   |   |   |   input5 <= 36
|   |   |   |   |   |   |   |   input2 <= 91: 7 (24.0/1.0)
|   |   |   |   |   |   |   |   input2 > 91: 4 (8.0/1.0)
|   |   |   |   |   |   |   input5 > 36
|   |   |   |   |   |   |   |   input2 <= 91: 1 (283.0/3.0)
|   |   |   |   |   |   |   |   input2 > 91
|   |   |   |   |   |   |   |   |   input16 <= 1: 4 (5.0)
|   |   |   |   |   |   |   |   |   input16 > 1: 9 (2.0)
|   |   |   |   |   input4 > 85
|   |   |   |   |   |   input8 <= 87
|   |   |   |   |   |   |   input13 <= 25: 1 (53.0)
|   |   |   |   |   |   |   input13 > 25
|   |   |   |   |   |   |   |   input15 <= 70
|   |   |   |   |   |   |   |   |   input14 <= 18
|   |   |   |   |   |   |   |   |   |   input3 <= 80
|   |   |   |   |   |   |   |   |   |   |   input10 <= 30
|   |   |   |   |   |   |   |   |   |   |   |   input1 <= 27: 1 (2.0)
|   |   |   |   |   |   |   |   |   |   |   |   input1 > 27: 3 (2.0)
|   |   |   |   |   |   |   |   |   |   |   input10 > 30: 3 (206.0/1.0)
|   |   |   |   |   |   |   |   |   |   input3 > 80
|   |   |   |   |   |   |   |   |   |   |   input4 <= 96: 1 (23.0)
|   |   |   |   |   |   |   |   |   |   |   input4 > 96: 3 (9.0)
|   |   |   |   |   |   |   |   |   input14 > 18
|   |   |   |   |   |   |   |   |   |   input6 <= 99: 7 (3.0)
|   |   |   |   |   |   |   |   |   |   input6 > 99: 1 (20.0)
|   |   |   |   |   |   |   |   input15 > 70: 2 (8.0)
|   |   |   |   |   |   input8 > 87: 7 (89.0/2.0)
|   |   |   |   input1 > 60
|   |   |   |   |   input13 <= 25
|   |   |   |   |   |   input1 <= 66: 0 (19.0)
|   |   |   |   |   |   input1 > 66: 1 (30.0)
|   |   |   |   |   input13 > 25
|   |   |   |   |   |   input10 <= 35: 3 (7.0)
|   |   |   |   |   |   input10 > 35: 9 (164.0/1.0)
input16 > 10
|   input15 <= 88
|   |   input14 <= 55
|   |   |   input5 <= 50
|   |   |   |   input10 <= 41
|   |   |   |   |   input15 <= 62
|   |   |   |   |   |   input2 <= 79: 8 (3.0/1.0)
|   |   |   |   |   |   input2 > 79: 6 (244.0/1.0)
|   |   |   |   |   input15 > 62
|   |   |   |   |   |   input11 <= 41: 8 (7.0)
|   |   |   |   |   |   input11 > 41: 0 (3.0)
|   |   |   |   input10 > 41
|   |   |   |   |   input6 <= 71: 9 (9.0)
|   |   |   |   |   input6 > 71
|   |   |   |   |   |   input2 <= 83: 9 (3.0)
|   |   |   |   |   |   input2 > 83: 5 (80.0)
|   |   |   input5 > 50
|   |   |   |   input9 <= 76
|   |   |   |   |   input2 <= 75
|   |   |   |   |   |   input3 <= 40: 3 (6.0/1.0)
|   |   |   |   |   |   input3 > 40: 8 (220.0/1.0)
|   |   |   |   |   input2 > 75
|   |   |   |   |   |   input14 <= 1
|   |   |   |   |   |   |   input4 <= 87: 9 (3.0/1.0)
|   |   |   |   |   |   |   input4 > 87
|   |   |   |   |   |   |   |   input8 <= 76: 3 (9.0)
|   |   |   |   |   |   |   |   input8 > 76: 5 (5.0)
|   |   |   |   |   |   input14 > 1
|   |   |   |   |   |   |   input4 <= 85: 8 (32.0/1.0)
|   |   |   |   |   |   |   input4 > 85
|   |   |   |   |   |   |   |   input16 <= 65
|   |   |   |   |   |   |   |   |   input5 <= 64: 6 (2.0)
|   |   |   |   |   |   |   |   |   input5 > 64: 7 (81.0)
|   |   |   |   |   |   |   |   input16 > 65: 8 (5.0)
|   |   |   |   input9 > 76
|   |   |   |   |   input14 <= 9
|   |   |   |   |   |   input8 <= 75
|   |   |   |   |   |   |   input4 <= 84: 9 (2.0)
|   |   |   |   |   |   |   input4 > 84: 3 (97.0)
|   |   |   |   |   |   input8 > 75: 9 (57.0)
|   |   |   |   |   input14 > 9: 8 (27.0/1.0)
|   |   input14 > 55
|   |   |   input9 <= 54
|   |   |   |   input13 <= 10: 5 (4.0)
|   |   |   |   input13 > 10
|   |   |   |   |   input16 <= 53: 6 (3.0/1.0)
|   |   |   |   |   input16 > 53
|   |   |   |   |   |   input12 <= 28
|   |   |   |   |   |   |   input11 <= 41: 8 (24.0)
|   |   |   |   |   |   |   input11 > 41: 0 (5.0)
|   |   |   |   |   |   input12 > 28: 8 (151.0)
|   |   |   input9 > 54
|   |   |   |   input11 <= 41
|   |   |   |   |   input10 <= 42: 8 (78.0)
|   |   |   |   |   input10 > 42: 0 (14.0)
|   |   |   |   input11 > 41
|   |   |   |   |   input8 <= 48
|   |   |   |   |   |   input5 <= 64
|   |   |   |   |   |   |   input8 <= 26: 0 (363.0/1.0)
|   |   |   |   |   |   |   input8 > 26
|   |   |   |   |   |   |   |   input12 <= 94: 8 (2.0)
|   |   |   |   |   |   |   |   input12 > 94: 0 (6.0)
|   |   |   |   |   |   input5 > 64: 8 (16.0)
|   |   |   |   |   input8 > 48: 9 (7.0)
|   input15 > 88
|   |   input4 <= 79
|   |   |   input6 <= 54: 5 (159.0)
|   |   |   input6 > 54
|   |   |   |   input10 <= 8: 5 (37.0)
|   |   |   |   input10 > 8: 6 (16.0/1.0)
|   |   input4 > 79
|   |   |   input1 <= 54
|   |   |   |   input9 <= 1
|   |   |   |   |   input4 <= 95: 8 (2.0)
|   |   |   |   |   input4 > 95: 2 (133.0)
|   |   |   |   input9 > 1
|   |   |   |   |   input14 <= 15
|   |   |   |   |   |   input12 <= 7
|   |   |   |   |   |   |   input5 <= 47
|   |   |   |   |   |   |   |   input3 <= 25: 2 (3.0)
|   |   |   |   |   |   |   |   input3 > 25: 1 (2.0)
|   |   |   |   |   |   |   input5 > 47: 2 (15.0)
|   |   |   |   |   |   input12 > 7: 1 (16.0/1.0)
|   |   |   |   |   input14 > 15
|   |   |   |   |   |   input5 <= 28: 8 (5.0)
|   |   |   |   |   |   input5 > 28: 7 (266.0)
|   |   |   input1 > 54
|   |   |   |   input11 <= 42: 8 (68.0/1.0)
|   |   |   |   input11 > 42: 0 (5.0)

Number of Leaves  : 	118

Size of the tree : 	235


Weight: 3.59

J48 pruned tree
------------------

input15 <= 84
|   input10 <= 27
|   |   input16 <= 47
|   |   |   input14 <= 9
|   |   |   |   input1 <= 77
|   |   |   |   |   input10 <= 25: 1 (82.0)
|   |   |   |   |   input10 > 25: 3 (2.0)
|   |   |   |   input1 > 77: 6 (10.0)
|   |   |   input14 > 9
|   |   |   |   input5 <= 66
|   |   |   |   |   input15 <= 58: 6 (385.0/1.0)
|   |   |   |   |   input15 > 58: 4 (5.0)
|   |   |   |   input5 > 66: 7 (32.0)
|   |   input16 > 47
|   |   |   input7 <= 60
|   |   |   |   input11 <= 69: 8 (34.0)
|   |   |   |   input11 > 69
|   |   |   |   |   input16 <= 65: 6 (22.0)
|   |   |   |   |   input16 > 65: 0 (101.0)
|   |   |   input7 > 60
|   |   |   |   input13 <= 17: 5 (6.0/1.0)
|   |   |   |   input13 > 17
|   |   |   |   |   input9 <= 84: 8 (180.0/1.0)
|   |   |   |   |   input9 > 84
|   |   |   |   |   |   input1 <= 6: 7 (5.0)
|   |   |   |   |   |   input1 > 6: 0 (2.0/1.0)
|   input10 > 27
|   |   input14 <= 20
|   |   |   input13 <= 27
|   |   |   |   input16 <= 18
|   |   |   |   |   input7 <= 86: 1 (95.0/2.0)
|   |   |   |   |   input7 > 86
|   |   |   |   |   |   input12 <= 32: 2 (7.0)
|   |   |   |   |   |   input12 > 32: 1 (3.0/2.0)
|   |   |   |   input16 > 18
|   |   |   |   |   input1 <= 3: 7 (19.0)
|   |   |   |   |   input1 > 3
|   |   |   |   |   |   input6 <= 81: 5 (9.0)
|   |   |   |   |   |   input6 > 81: 8 (13.0)
|   |   |   input13 > 27
|   |   |   |   input4 <= 85
|   |   |   |   |   input2 <= 44
|   |   |   |   |   |   input8 <= 90: 0 (8.0)
|   |   |   |   |   |   input8 > 90: 8 (61.0)
|   |   |   |   |   input2 > 44
|   |   |   |   |   |   input16 <= 36
|   |   |   |   |   |   |   input15 <= 19: 9 (138.0/1.0)
|   |   |   |   |   |   |   input15 > 19
|   |   |   |   |   |   |   |   input6 <= 97
|   |   |   |   |   |   |   |   |   input1 <= 16: 7 (7.0)
|   |   |   |   |   |   |   |   |   input1 > 16: 6 (2.0/1.0)
|   |   |   |   |   |   |   |   input6 > 97: 1 (11.0)
|   |   |   |   |   |   input16 > 36: 8 (33.0)
|   |   |   |   input4 > 85
|   |   |   |   |   input5 <= 62
|   |   |   |   |   |   input7 <= 59
|   |   |   |   |   |   |   input8 <= 79
|   |   |   |   |   |   |   |   input10 <= 71
|   |   |   |   |   |   |   |   |   input2 <= 81: 9 (4.0/1.0)
|   |   |   |   |   |   |   |   |   input2 > 81
|   |   |   |   |   |   |   |   |   |   input15 <= 34
|   |   |   |   |   |   |   |   |   |   |   input2 <= 84
|   |   |   |   |   |   |   |   |   |   |   |   input1 <= 60: 3 (3.0)
|   |   |   |   |   |   |   |   |   |   |   |   input1 > 60: 5 (14.0)
|   |   |   |   |   |   |   |   |   |   |   input2 > 84: 5 (334.0)
|   |   |   |   |   |   |   |   |   |   input15 > 34: 3 (5.0)
|   |   |   |   |   |   |   |   input10 > 71: 9 (13.0)
|   |   |   |   |   |   |   input8 > 79: 9 (69.0)
|   |   |   |   |   |   input7 > 59: 9 (185.0)
|   |   |   |   |   input5 > 62
|   |   |   |   |   |   input9 <= 45
|   |   |   |   |   |   |   input3 <= 52
|   |   |   |   |   |   |   |   input4 <= 91: 8 (9.0)
|   |   |   |   |   |   |   |   input4 > 91: 3 (20.0)
|   |   |   |   |   |   |   input3 > 52: 5 (107.0)
|   |   |   |   |   |   input9 > 45
|   |   |   |   |   |   |   input3 <= 97
|   |   |   |   |   |   |   |   input7 <= 20
|   |   |   |   |   |   |   |   |   input1 <= 19: 5 (10.0)
|   |   |   |   |   |   |   |   |   input1 > 19: 9 (8.0)
|   |   |   |   |   |   |   |   input7 > 20
|   |   |   |   |   |   |   |   |   input14 <= 14
|   |   |   |   |   |   |   |   |   |   input8 <= 74: 3 (461.0/1.0)
|   |   |   |   |   |   |   |   |   |   input8 > 74
|   |   |   |   |   |   |   |   |   |   |   input1 <= 29: 3 (29.0/1.0)
|   |   |   |   |   |   |   |   |   |   |   input1 > 29
|   |   |   |   |   |   |   |   |   |   |   |   input2 <= 80: 1 (10.0)
|   |   |   |   |   |   |   |   |   |   |   |   input2 > 80
|   |   |   |   |   |   |   |   |   |   |   |   |   input3 <= 68: 9 (4.0)
|   |   |   |   |   |   |   |   |   |   |   |   |   input3 > 68: 5 (6.0)
|   |   |   |   |   |   |   |   |   input14 > 14
|   |   |   |   |   |   |   |   |   |   input8 <= 81: 1 (13.0)
|   |   |   |   |   |   |   |   |   |   input8 > 81
|   |   |   |   |   |   |   |   |   |   |   input1 <= 40
|   |   |   |   |   |   |   |   |   |   |   |   input2 <= 94: 3 (13.0)
|   |   |   |   |   |   |   |   |   |   |   |   input2 > 94: 7 (5.0)
|   |   |   |   |   |   |   |   |   |   |   input1 > 40: 9 (2.0)
|   |   |   |   |   |   |   input3 > 97
|   |   |   |   |   |   |   |   input4 <= 96: 9 (12.0)
|   |   |   |   |   |   |   |   input4 > 96
|   |   |   |   |   |   |   |   |   input6 <= 83: 3 (3.0)
|   |   |   |   |   |   |   |   |   input6 > 83: 5 (55.0)
|   |   input14 > 20
|   |   |   input6 <= 35
|   |   |   |   input7 <= 49
|   |   |   |   |   input9 <= 80: 8 (95.0/1.0)
|   |   |   |   |   input9 > 80: 0 (4.0/1.0)
|   |   |   |   input7 > 49
|   |   |   |   |   input15 <= 46: 0 (216.0)
|   |   |   |   |   input15 > 46: 4 (11.0/1.0)
|   |   |   input6 > 35
|   |   |   |   input8 <= 77
|   |   |   |   |   input12 <= 15
|   |   |   |   |   |   input1 <= 23: 7 (32.0)
|   |   |   |   |   |   input1 > 23
|   |   |   |   |   |   |   input6 <= 99: 6 (10.0)
|   |   |   |   |   |   |   input6 > 99
|   |   |   |   |   |   |   |   input1 <= 84: 8 (4.0)
|   |   |   |   |   |   |   |   input1 > 84: 0 (10.0)
|   |   |   |   |   input12 > 15
|   |   |   |   |   |   input2 <= 81
|   |   |   |   |   |   |   input10 <= 50: 4 (10.0)
|   |   |   |   |   |   |   input10 > 50: 9 (71.0)
|   |   |   |   |   |   input2 > 81
|   |   |   |   |   |   |   input16 <= 4
|   |   |   |   |   |   |   |   input5 <= 80
|   |   |   |   |   |   |   |   |   input1 <= 78: 4 (191.0)
|   |   |   |   |   |   |   |   |   input1 > 78
|   |   |   |   |   |   |   |   |   |   input8 <= 56: 4 (9.0)
|   |   |   |   |   |   |   |   |   |   input8 > 56: 9 (11.0)
|   |   |   |   |   |   |   |   input5 > 80: 3 (9.0)
|   |   |   |   |   |   |   input16 > 4: 0 (11.0/1.0)
|   |   |   |   input8 > 77
|   |   |   |   |   input7 <= 61
|   |   |   |   |   |   input11 <= 28: 1 (8.0/1.0)
|   |   |   |   |   |   input11 > 28: 9 (147.0)
|   |   |   |   |   input7 > 61
|   |   |   |   |   |   input9 <= 39: 9 (24.0)
|   |   |   |   |   |   input9 > 39
|   |   |   |   |   |   |   input2 <= 84
|   |   |   |   |   |   |   |   input4 <= 84: 1 (106.0/1.0)
|   |   |   |   |   |   |   |   input4 > 84: 7 (21.0)
|   |   |   |   |   |   |   input2 > 84
|   |   |   |   |   |   |   |   input6 <= 83
|   |   |   |   |   |   |   |   |   input1 <= 77: 0 (5.0)
|   |   |   |   |   |   |   |   |   input1 > 77: 9 (2.0)
|   |   |   |   |   |   |   |   input6 > 83: 7 (112.0)
input15 > 84
|   input14 <= 27
|   |   input16 <= 14
|   |   |   input11 <= 38
|   |   |   |   input13 <= 55
|   |   |   |   |   input12 <= 10
|   |   |   |   |   |   input14 <= 8
|   |   |   |   |   |   |   input5 <= 48: 1 (213.0/2.0)
|   |   |   |   |   |   |   input5 > 48
|   |   |   |   |   |   |   |   input3 <= 41
|   |   |   |   |   |   |   |   |   input11 <= 13
|   |   |   |   |   |   |   |   |   |   input4 <= 92: 1 (4.0/1.0)
|   |   |   |   |   |   |   |   |   |   input4 > 92: 2 (131.0/1.0)
|   |   |   |   |   |   |   |   |   input11 > 13: 1 (10.0)
|   |   |   |   |   |   |   |   input3 > 41
|   |   |   |   |   |   |   |   |   input10 <= 30
|   |   |   |   |   |   |   |   |   |   input9 <= 30
|   |   |   |   |   |   |   |   |   |   |   input5 <= 66
|   |   |   |   |   |   |   |   |   |   |   |   input9 <= 14: 2 (4.0)
|   |   |   |   |   |   |   |   |   |   |   |   input9 > 14: 1 (25.0)
|   |   |   |   |   |   |   |   |   |   |   input5 > 66: 2 (20.0)
|   |   |   |   |   |   |   |   |   |   input9 > 30
|   |   |   |   |   |   |   |   |   |   |   input5 <= 86: 1 (202.0)
|   |   |   |   |   |   |   |   |   |   |   input5 > 86
|   |   |   |   |   |   |   |   |   |   |   |   input12 <= 1: 1 (10.0/1.0)
|   |   |   |   |   |   |   |   |   |   |   |   input12 > 1: 2 (26.0)
|   |   |   |   |   |   |   |   |   input10 > 30: 3 (5.0)
|   |   |   |   |   |   input14 > 8
|   |   |   |   |   |   |   input16 <= 12: 2 (61.0)
|   |   |   |   |   |   |   input16 > 12: 1 (5.0/1.0)
|   |   |   |   |   input12 > 10
|   |   |   |   |   |   input2 <= 58: 1 (9.0)
|   |   |   |   |   |   input2 > 58: 2 (136.0)
|   |   |   |   input13 > 55
|   |   |   |   |   input9 <= 50: 2 (153.0)
|   |   |   |   |   input9 > 50
|   |   |   |   |   |   input1 <= 10: 2 (2.0)
|   |   |   |   |   |   input1 > 10: 1 (2.0)
|   |   |   input11 > 38
|   |   |   |   input8 <= 56: 4 (17.0/1.0)
|   |   |   |   input8 > 56
|   |   |   |   |   input4 <= 98
|   |   |   |   |   |   input14 <= 25: 1 (97.0)
|   |   |   |   |   |   input14 > 25: 9 (2.0)
|   |   |   |   |   input4 > 98: 2 (3.0)
|   |   input16 > 14
|   |   |   input13 <= 47: 7 (71.0)
|   |   |   input13 > 47
|   |   |   |   input1 <= 78
|   |   |   |   |   input9 <= 52: 2 (98.0)
|   |   |   |   |   input9 > 52: 7 (12.0)
|   |   |   |   input1 > 78: 0 (15.0)
|   input14 > 27
|   |   input14 <= 68
|   |   |   input11 <= 69
|   |   |   |   input1 <= 54
|   |   |   |   |   input4 <= 84: 9 (8.0/1.0)
|   |   |   |   |   input4 > 84: 7 (113.0)
|   |   |   |   input1 > 54: 8 (61.0)
|   |   |   input11 > 69
|   |   |   |   input9 <= 35: 0 (2.0/1.0)
|   |   |   |   input9 > 35: 4 (26.0)
|   |   input14 > 68
|   |   |   input12 <= 76: 5 (140.0/1.0)
|   |   |   input12 > 76
|   |   |   |   input10 <= 20: 6 (15.0)
|   |   |   |   input10 > 20: 5 (13.0)

Number of Leaves  : 	108

Size of the tree : 	215


Weight: 4.25

J48 pruned tree
------------------

input16 <= 19
|   input11 <= 43
|   |   input15 <= 44
|   |   |   input6 <= 70
|   |   |   |   input1 <= 85
|   |   |   |   |   input1 <= 51: 4 (8.0)
|   |   |   |   |   input1 > 51: 0 (12.0)
|   |   |   |   input1 > 85: 6 (17.0)
|   |   |   input6 > 70
|   |   |   |   input13 <= 29
|   |   |   |   |   input12 <= 47: 1 (60.0)
|   |   |   |   |   input12 > 47
|   |   |   |   |   |   input2 <= 75: 1 (2.0)
|   |   |   |   |   |   input2 > 75: 7 (20.0)
|   |   |   |   input13 > 29
|   |   |   |   |   input5 <= 72
|   |   |   |   |   |   input1 <= 98: 6 (2.0)
|   |   |   |   |   |   input1 > 98: 9 (4.0)
|   |   |   |   |   input5 > 72
|   |   |   |   |   |   input1 <= 14: 3 (4.0)
|   |   |   |   |   |   input1 > 14: 5 (7.0)
|   |   input15 > 44
|   |   |   input16 <= 16
|   |   |   |   input2 <= 75
|   |   |   |   |   input7 <= 67
|   |   |   |   |   |   input6 <= 77
|   |   |   |   |   |   |   input5 <= 41: 1 (11.0)
|   |   |   |   |   |   |   input5 > 41
|   |   |   |   |   |   |   |   input9 <= 27: 2 (69.0)
|   |   |   |   |   |   |   |   input9 > 27: 1 (4.0)
|   |   |   |   |   |   input6 > 77
|   |   |   |   |   |   |   input10 <= 31
|   |   |   |   |   |   |   |   input3 <= 25
|   |   |   |   |   |   |   |   |   input5 <= 47
|   |   |   |   |   |   |   |   |   |   input1 <= 12: 1 (21.0)
|   |   |   |   |   |   |   |   |   |   input1 > 12: 2 (5.0)
|   |   |   |   |   |   |   |   |   input5 > 47: 2 (27.0)
|   |   |   |   |   |   |   |   input3 > 25
|   |   |   |   |   |   |   |   |   input5 <= 67: 1 (214.0/1.0)
|   |   |   |   |   |   |   |   |   input5 > 67
|   |   |   |   |   |   |   |   |   |   input3 <= 58: 2 (20.0)
|   |   |   |   |   |   |   |   |   |   input3 > 58: 1 (65.0)
|   |   |   |   |   |   |   input10 > 31
|   |   |   |   |   |   |   |   input14 <= 0: 2 (42.0)
|   |   |   |   |   |   |   |   input14 > 0
|   |   |   |   |   |   |   |   |   input1 <= 30: 1 (15.0)
|   |   |   |   |   |   |   |   |   input1 > 30: 9 (3.0)
|   |   |   |   |   input7 > 67
|   |   |   |   |   |   input9 <= 52
|   |   |   |   |   |   |   input11 <= 26: 2 (202.0)
|   |   |   |   |   |   |   input11 > 26: 1 (4.0)
|   |   |   |   |   |   input9 > 52
|   |   |   |   |   |   |   input7 <= 88: 1 (49.0)
|   |   |   |   |   |   |   input7 > 88
|   |   |   |   |   |   |   |   input6 <= 97: 1 (9.0)
|   |   |   |   |   |   |   |   input6 > 97: 2 (21.0)
|   |   |   |   input2 > 75
|   |   |   |   |   input4 <= 79: 1 (12.0)
|   |   |   |   |   input4 > 79
|   |   |   |   |   |   input9 <= 51
|   |   |   |   |   |   |   input5 <= 26: 1 (4.0)
|   |   |   |   |   |   |   input5 > 26
|   |   |   |   |   |   |   |   input7 <= 78: 2 (277.0)
|   |   |   |   |   |   |   |   input7 > 78
|   |   |   |   |   |   |   |   |   input5 <= 96: 3 (6.0)
|   |   |   |   |   |   |   |   |   input5 > 96: 2 (48.0)
|   |   |   |   |   |   input9 > 51
|   |   |   |   |   |   |   input5 <= 75: 1 (11.0)
|   |   |   |   |   |   |   input5 > 75: 2 (20.0)
|   |   |   input16 > 16
|   |   |   |   input9 <= 16: 2 (14.0)
|   |   |   |   input9 > 16: 7 (16.0)
|   input11 > 43
|   |   input6 <= 67
|   |   |   input2 <= 45
|   |   |   |   input16 <= 10: 1 (37.0)
|   |   |   |   input16 > 10: 0 (10.0)
|   |   |   input2 > 45
|   |   |   |   input10 <= 19
|   |   |   |   |   input15 <= 43: 6 (82.0)
|   |   |   |   |   input15 > 43: 4 (5.0)
|   |   |   |   input10 > 19
|   |   |   |   |   input8 <= 57
|   |   |   |   |   |   input16 <= 2
|   |   |   |   |   |   |   input1 <= 95: 4 (276.0)
|   |   |   |   |   |   |   input1 > 95: 0 (3.0/1.0)
|   |   |   |   |   |   input16 > 2: 0 (13.0)
|   |   |   |   |   input8 > 57
|   |   |   |   |   |   input11 <= 67: 4 (6.0)
|   |   |   |   |   |   input11 > 67: 9 (59.0)
|   |   input6 > 67
|   |   |   input4 <= 88
|   |   |   |   input3 <= 4
|   |   |   |   |   input6 <= 92
|   |   |   |   |   |   input11 <= 92
|   |   |   |   |   |   |   input2 <= 67: 1 (7.0)
|   |   |   |   |   |   |   input2 > 67: 4 (5.0)
|   |   |   |   |   |   input11 > 92: 9 (16.0)
|   |   |   |   |   input6 > 92: 7 (107.0/1.0)
|   |   |   |   input3 > 4
|   |   |   |   |   input2 <= 21: 8 (33.0)
|   |   |   |   |   input2 > 21
|   |   |   |   |   |   input7 <= 75
|   |   |   |   |   |   |   input12 <= 14: 1 (12.0)
|   |   |   |   |   |   |   input12 > 14
|   |   |   |   |   |   |   |   input1 <= 0
|   |   |   |   |   |   |   |   |   input15 <= 91: 9 (23.0)
|   |   |   |   |   |   |   |   |   input15 > 91: 1 (11.0)
|   |   |   |   |   |   |   |   input1 > 0: 9 (221.0/1.0)
|   |   |   |   |   |   input7 > 75
|   |   |   |   |   |   |   input1 <= 63
|   |   |   |   |   |   |   |   input16 <= 7: 1 (199.0)
|   |   |   |   |   |   |   |   input16 > 7: 3 (4.0)
|   |   |   |   |   |   |   input1 > 63: 9 (23.0)
|   |   |   input4 > 88
|   |   |   |   input14 <= 15
|   |   |   |   |   input15 <= 61
|   |   |   |   |   |   input5 <= 50
|   |   |   |   |   |   |   input3 <= 44
|   |   |   |   |   |   |   |   input7 <= 39
|   |   |   |   |   |   |   |   |   input13 <= 53: 1 (9.0)
|   |   |   |   |   |   |   |   |   input13 > 53
|   |   |   |   |   |   |   |   |   |   input1 <= 39: 3 (11.0)
|   |   |   |   |   |   |   |   |   |   input1 > 39: 5 (6.0)
|   |   |   |   |   |   |   |   input7 > 39: 9 (60.0)
|   |   |   |   |   |   |   input3 > 44
|   |   |   |   |   |   |   |   input7 <= 69
|   |   |   |   |   |   |   |   |   input2 <= 78: 9 (9.0)
|   |   |   |   |   |   |   |   |   input2 > 78: 5 (148.0)
|   |   |   |   |   |   |   |   input7 > 69: 9 (22.0)
|   |   |   |   |   |   input5 > 50
|   |   |   |   |   |   |   input1 <= 72
|   |   |   |   |   |   |   |   input10 <= 18: 1 (16.0)
|   |   |   |   |   |   |   |   input10 > 18
|   |   |   |   |   |   |   |   |   input13 <= 13: 1 (8.0)
|   |   |   |   |   |   |   |   |   input13 > 13
|   |   |   |   |   |   |   |   |   |   input8 <= 86
|   |   |   |   |   |   |   |   |   |   |   input3 <= 70: 3 (395.0)
|   |   |   |   |   |   |   |   |   |   |   input3 > 70
|   |   |   |   |   |   |   |   |   |   |   |   input7 <= 87
|   |   |   |   |   |   |   |   |   |   |   |   |   input6 <= 83: 3 (94.0/3.0)
|   |   |   |   |   |   |   |   |   |   |   |   |   input6 > 83
|   |   |   |   |   |   |   |   |   |   |   |   |   |   input7 <= 63: 5 (136.0)
|   |   |   |   |   |   |   |   |   |   |   |   |   |   input7 > 63: 3 (10.0/1.0)
|   |   |   |   |   |   |   |   |   |   |   |   input7 > 87: 1 (11.0/1.0)
|   |   |   |   |   |   |   |   |   |   input8 > 86
|   |   |   |   |   |   |   |   |   |   |   input5 <= 82
|   |   |   |   |   |   |   |   |   |   |   |   input1 <= 22: 3 (3.0)
|   |   |   |   |   |   |   |   |   |   |   |   input1 > 22: 9 (3.0)
|   |   |   |   |   |   |   |   |   |   |   input5 > 82: 5 (34.0)
|   |   |   |   |   |   |   input1 > 72
|   |   |   |   |   |   |   |   input13 <= 42: 5 (3.0)
|   |   |   |   |   |   |   |   input13 > 42: 9 (14.0)
|   |   |   |   |   input15 > 61
|   |   |   |   |   |   input16 <= 8
|   |   |   |   |   |   |   input3 <= 45: 2 (24.0)
|   |   |   |   |   |   |   input3 > 45: 1 (4.0)
|   |   |   |   |   |   input16 > 8: 7 (9.0)
|   |   |   |   input14 > 15
|   |   |   |   |   input7 <= 93
|   |   |   |   |   |   input12 <= 42
|   |   |   |   |   |   |   input10 <= 37: 6 (28.0/1.0)
|   |   |   |   |   |   |   input10 > 37
|   |   |   |   |   |   |   |   input4 <= 99: 1 (4.0)
|   |   |   |   |   |   |   |   input4 > 99: 5 (27.0)
|   |   |   |   |   |   input12 > 42
|   |   |   |   |   |   |   input10 <= 57
|   |   |   |   |   |   |   |   input14 <= 20: 3 (3.0)
|   |   |   |   |   |   |   |   input14 > 20: 4 (26.0)
|   |   |   |   |   |   |   input10 > 57
|   |   |   |   |   |   |   |   input13 <= 36: 4 (5.0)
|   |   |   |   |   |   |   |   input13 > 36
|   |   |   |   |   |   |   |   |   input9 <= 48: 5 (4.0)
|   |   |   |   |   |   |   |   |   input9 > 48: 9 (54.0)
|   |   |   |   |   input7 > 93
|   |   |   |   |   |   input9 <= 71
|   |   |   |   |   |   |   input4 <= 96: 7 (2.0)
|   |   |   |   |   |   |   input4 > 96: 3 (9.0)
|   |   |   |   |   |   input9 > 71: 7 (76.0)
input16 > 19
|   input10 <= 66
|   |   input16 <= 57
|   |   |   input8 <= 79
|   |   |   |   input7 <= 43
|   |   |   |   |   input15 <= 73
|   |   |   |   |   |   input10 <= 33: 6 (130.0)
|   |   |   |   |   |   input10 > 33: 8 (10.0/1.0)
|   |   |   |   |   input15 > 73
|   |   |   |   |   |   input1 <= 36
|   |   |   |   |   |   |   input1 <= 11: 7 (8.0)
|   |   |   |   |   |   |   input1 > 11: 2 (36.0)
|   |   |   |   |   |   input1 > 36
|   |   |   |   |   |   |   input11 <= 17: 8 (12.0)
|   |   |   |   |   |   |   input11 > 17: 0 (7.0)
|   |   |   |   input7 > 43
|   |   |   |   |   input5 <= 45
|   |   |   |   |   |   input1 <= 87: 0 (19.0)
|   |   |   |   |   |   input1 > 87
|   |   |   |   |   |   |   input4 <= 93: 5 (2.0)
|   |   |   |   |   |   |   input4 > 93: 8 (11.0)
|   |   |   |   |   input5 > 45
|   |   |   |   |   |   input15 <= 4
|   |   |   |   |   |   |   input14 <= 14: 3 (64.0/1.0)
|   |   |   |   |   |   |   input14 > 14
|   |   |   |   |   |   |   |   input1 <= 37: 7 (10.0)
|   |   |   |   |   |   |   |   input1 > 37: 8 (10.0/1.0)
|   |   |   |   |   |   input15 > 4: 7 (277.0/3.0)
|   |   |   input8 > 79
|   |   |   |   input5 <= 68: 0 (5.0)
|   |   |   |   input5 > 68: 8 (152.0)
|   |   input16 > 57
|   |   |   input11 <= 30
|   |   |   |   input14 <= 77
|   |   |   |   |   input1 <= 17
|   |   |   |   |   |   input1 <= 11: 7 (5.0)
|   |   |   |   |   |   input1 > 11: 5 (5.0)
|   |   |   |   |   input1 > 17: 8 (249.0)
|   |   |   |   input14 > 77
|   |   |   |   |   input13 <= 44: 5 (105.0)
|   |   |   |   |   input13 > 44
|   |   |   |   |   |   input9 <= 10: 5 (9.0)
|   |   |   |   |   |   input9 > 10: 6 (9.0/1.0)
|   |   |   input11 > 30
|   |   |   |   input5 <= 31
|   |   |   |   |   input11 <= 55: 8 (19.0)
|   |   |   |   |   input11 > 55
|   |   |   |   |   |   input3 <= 70
|   |   |   |   |   |   |   input10 <= 51: 0 (163.0)
|   |   |   |   |   |   |   input10 > 51: 8 (4.0/1.0)
|   |   |   |   |   |   input3 > 70
|   |   |   |   |   |   |   input2 <= 87: 0 (14.0)
|   |   |   |   |   |   |   input2 > 87: 6 (10.0)
|   |   |   |   input5 > 31
|   |   |   |   |   input14 <= 31: 0 (18.0)
|   |   |   |   |   input14 > 31
|   |   |   |   |   |   input9 <= 92
|   |   |   |   |   |   |   input16 <= 59: 7 (3.0)
|   |   |   |   |   |   |   input16 > 59: 8 (218.0/1.0)
|   |   |   |   |   |   input9 > 92: 0 (5.0)
|   input10 > 66
|   |   input6 <= 21: 0 (37.0)
|   |   input6 > 21
|   |   |   input5 <= 54: 5 (5.0/1.0)
|   |   |   input5 > 54: 9 (121.0)

Number of Leaves  : 	123

Size of the tree : 	245


Weight: 4.83

J48 pruned tree
------------------

input16 <= 25
|   input11 <= 43
|   |   input15 <= 45
|   |   |   input4 <= 76
|   |   |   |   input7 <= 71: 8 (5.0)
|   |   |   |   input7 > 71
|   |   |   |   |   input4 <= 72: 0 (16.0)
|   |   |   |   |   input4 > 72: 4 (7.0)
|   |   |   input4 > 76
|   |   |   |   input13 <= 36
|   |   |   |   |   input12 <= 47
|   |   |   |   |   |   input16 <= 11: 1 (46.0)
|   |   |   |   |   |   input16 > 11: 7 (10.0)
|   |   |   |   |   input12 > 47
|   |   |   |   |   |   input7 <= 75: 9 (4.0)
|   |   |   |   |   |   input7 > 75: 7 (13.0)
|   |   |   |   input13 > 36
|   |   |   |   |   input12 <= 19: 6 (23.0)
|   |   |   |   |   input12 > 19: 5 (5.0)
|   |   input15 > 45
|   |   |   input14 <= 20
|   |   |   |   input13 <= 54
|   |   |   |   |   input13 <= 38
|   |   |   |   |   |   input15 <= 90
|   |   |   |   |   |   |   input7 <= 73: 1 (8.0)
|   |   |   |   |   |   |   input7 > 73
|   |   |   |   |   |   |   |   input4 <= 89
|   |   |   |   |   |   |   |   |   input3 <= 51: 2 (6.0)
|   |   |   |   |   |   |   |   |   input3 > 51: 1 (2.0)
|   |   |   |   |   |   |   |   input4 > 89: 2 (55.0)
|   |   |   |   |   |   input15 > 90
|   |   |   |   |   |   |   input16 <= 1
|   |   |   |   |   |   |   |   input11 <= 11: 2 (18.0/1.0)
|   |   |   |   |   |   |   |   input11 > 11: 1 (25.0)
|   |   |   |   |   |   |   input16 > 1: 1 (122.0)
|   |   |   |   |   input13 > 38
|   |   |   |   |   |   input8 <= 28: 1 (34.0/1.0)
|   |   |   |   |   |   input8 > 28
|   |   |   |   |   |   |   input5 <= 59
|   |   |   |   |   |   |   |   input3 <= 20: 2 (41.0)
|   |   |   |   |   |   |   |   input3 > 20
|   |   |   |   |   |   |   |   |   input9 <= 3
|   |   |   |   |   |   |   |   |   |   input5 <= 43: 1 (7.0)
|   |   |   |   |   |   |   |   |   |   input5 > 43: 2 (35.0)
|   |   |   |   |   |   |   |   |   input9 > 3
|   |   |   |   |   |   |   |   |   |   input10 <= 34
|   |   |   |   |   |   |   |   |   |   |   input13 <= 53: 1 (81.0)
|   |   |   |   |   |   |   |   |   |   |   input13 > 53
|   |   |   |   |   |   |   |   |   |   |   |   input1 <= 16: 2 (2.0)
|   |   |   |   |   |   |   |   |   |   |   |   input1 > 16: 1 (3.0)
|   |   |   |   |   |   |   |   |   |   input10 > 34: 2 (3.0)
|   |   |   |   |   |   |   input5 > 59
|   |   |   |   |   |   |   |   input10 <= 8
|   |   |   |   |   |   |   |   |   input9 <= 37
|   |   |   |   |   |   |   |   |   |   input13 <= 50: 2 (36.0)
|   |   |   |   |   |   |   |   |   |   input13 > 50: 1 (6.0/1.0)
|   |   |   |   |   |   |   |   |   input9 > 37: 1 (21.0)
|   |   |   |   |   |   |   |   input10 > 8
|   |   |   |   |   |   |   |   |   input9 <= 35: 2 (241.0/1.0)
|   |   |   |   |   |   |   |   |   input9 > 35
|   |   |   |   |   |   |   |   |   |   input7 <= 64: 1 (10.0)
|   |   |   |   |   |   |   |   |   |   input7 > 64: 2 (87.0/2.0)
|   |   |   |   input13 > 54
|   |   |   |   |   input4 <= 94
|   |   |   |   |   |   input2 <= 61: 1 (4.0)
|   |   |   |   |   |   input2 > 61: 2 (18.0)
|   |   |   |   |   input4 > 94: 2 (305.0/1.0)
|   |   |   input14 > 20
|   |   |   |   input1 <= 21
|   |   |   |   |   input4 <= 84: 1 (9.0)
|   |   |   |   |   input4 > 84: 7 (14.0)
|   |   |   |   input1 > 21
|   |   |   |   |   input4 <= 83: 9 (2.0)
|   |   |   |   |   input4 > 83: 2 (24.0)
|   input11 > 43
|   |   input15 <= 18
|   |   |   input7 <= 45
|   |   |   |   input10 <= 40
|   |   |   |   |   input10 <= 27
|   |   |   |   |   |   input2 <= 78: 1 (6.0)
|   |   |   |   |   |   input2 > 78: 6 (63.0)
|   |   |   |   |   input10 > 27
|   |   |   |   |   |   input9 <= 58: 4 (7.0)
|   |   |   |   |   |   input9 > 58: 3 (5.0/1.0)
|   |   |   |   input10 > 40
|   |   |   |   |   input4 <= 88
|   |   |   |   |   |   input2 <= 48: 8 (24.0)
|   |   |   |   |   |   input2 > 48: 9 (36.0)
|   |   |   |   |   input4 > 88
|   |   |   |   |   |   input10 <= 71
|   |   |   |   |   |   |   input3 <= 53
|   |   |   |   |   |   |   |   input1 <= 50: 3 (36.0)
|   |   |   |   |   |   |   |   input1 > 50: 5 (9.0)
|   |   |   |   |   |   |   input3 > 53
|   |   |   |   |   |   |   |   input6 <= 76
|   |   |   |   |   |   |   |   |   input14 <= 16
|   |   |   |   |   |   |   |   |   |   input1 <= 63: 3 (4.0)
|   |   |   |   |   |   |   |   |   |   input1 > 63: 5 (2.0)
|   |   |   |   |   |   |   |   |   input14 > 16: 4 (4.0)
|   |   |   |   |   |   |   |   input6 > 76: 5 (409.0)
|   |   |   |   |   |   input10 > 71
|   |   |   |   |   |   |   input9 <= 58: 5 (4.0)
|   |   |   |   |   |   |   input9 > 58: 9 (23.0)
|   |   |   input7 > 45
|   |   |   |   input2 <= 68
|   |   |   |   |   input9 <= 95
|   |   |   |   |   |   input2 <= 24: 8 (6.0)
|   |   |   |   |   |   input2 > 24
|   |   |   |   |   |   |   input9 <= 64: 3 (2.0/1.0)
|   |   |   |   |   |   |   input9 > 64: 1 (48.0/1.0)
|   |   |   |   |   input9 > 95
|   |   |   |   |   |   input1 <= 42: 0 (2.0)
|   |   |   |   |   |   input1 > 42: 9 (9.0)
|   |   |   |   input2 > 68
|   |   |   |   |   input10 <= 51
|   |   |   |   |   |   input10 <= 19
|   |   |   |   |   |   |   input1 <= 50: 1 (7.0)
|   |   |   |   |   |   |   input1 > 50: 6 (14.0)
|   |   |   |   |   |   input10 > 19
|   |   |   |   |   |   |   input1 <= 78
|   |   |   |   |   |   |   |   input8 <= 78
|   |   |   |   |   |   |   |   |   input3 <= 98
|   |   |   |   |   |   |   |   |   |   input13 <= 7: 1 (3.0)
|   |   |   |   |   |   |   |   |   |   input13 > 7
|   |   |   |   |   |   |   |   |   |   |   input4 <= 97
|   |   |   |   |   |   |   |   |   |   |   |   input2 <= 73: 1 (2.0)
|   |   |   |   |   |   |   |   |   |   |   |   input2 > 73: 3 (11.0)
|   |   |   |   |   |   |   |   |   |   |   input4 > 97: 3 (245.0)
|   |   |   |   |   |   |   |   |   input3 > 98
|   |   |   |   |   |   |   |   |   |   input14 <= 0: 5 (9.0)
|   |   |   |   |   |   |   |   |   |   input14 > 0: 3 (3.0)
|   |   |   |   |   |   |   |   input8 > 78
|   |   |   |   |   |   |   |   |   input9 <= 66: 3 (3.0/1.0)
|   |   |   |   |   |   |   |   |   input9 > 66: 9 (18.0)
|   |   |   |   |   |   |   input1 > 78
|   |   |   |   |   |   |   |   input10 <= 45
|   |   |   |   |   |   |   |   |   input7 <= 61: 5 (3.0)
|   |   |   |   |   |   |   |   |   input7 > 61: 9 (31.0)
|   |   |   |   |   |   |   |   input10 > 45
|   |   |   |   |   |   |   |   |   input9 <= 81: 1 (7.0)
|   |   |   |   |   |   |   |   |   input9 > 81: 5 (21.0)
|   |   |   |   |   input10 > 51
|   |   |   |   |   |   input14 <= 31
|   |   |   |   |   |   |   input1 <= 41
|   |   |   |   |   |   |   |   input8 <= 86
|   |   |   |   |   |   |   |   |   input13 <= 36: 7 (8.0)
|   |   |   |   |   |   |   |   |   input13 > 36: 3 (32.0)
|   |   |   |   |   |   |   |   input8 > 86
|   |   |   |   |   |   |   |   |   input5 <= 95: 9 (5.0/1.0)
|   |   |   |   |   |   |   |   |   input5 > 95: 5 (7.0)
|   |   |   |   |   |   |   input1 > 41
|   |   |   |   |   |   |   |   input5 <= 97
|   |   |   |   |   |   |   |   |   input11 <= 56
|   |   |   |   |   |   |   |   |   |   input1 <= 81: 4 (2.0)
|   |   |   |   |   |   |   |   |   |   input1 > 81: 9 (2.0)
|   |   |   |   |   |   |   |   |   input11 > 56
|   |   |   |   |   |   |   |   |   |   input13 <= 31
|   |   |   |   |   |   |   |   |   |   |   input3 <= 61: 9 (6.0)
|   |   |   |   |   |   |   |   |   |   |   input3 > 61: 5 (2.0)
|   |   |   |   |   |   |   |   |   |   input13 > 31: 9 (297.0/1.0)
|   |   |   |   |   |   |   |   input5 > 97: 5 (4.0)
|   |   |   |   |   |   input14 > 31
|   |   |   |   |   |   |   input6 <= 27: 0 (7.0)
|   |   |   |   |   |   |   input6 > 27: 4 (7.0)
|   |   input15 > 18
|   |   |   input2 <= 94
|   |   |   |   input7 <= 47
|   |   |   |   |   input13 <= 60
|   |   |   |   |   |   input16 <= 8: 4 (7.0)
|   |   |   |   |   |   input16 > 8: 6 (2.0)
|   |   |   |   |   input13 > 60
|   |   |   |   |   |   input1 <= 0
|   |   |   |   |   |   |   input7 <= 42
|   |   |   |   |   |   |   |   input3 <= 35: 3 (8.0)
|   |   |   |   |   |   |   |   input3 > 35: 4 (2.0)
|   |   |   |   |   |   |   input7 > 42
|   |   |   |   |   |   |   |   input2 <= 83: 1 (4.0)
|   |   |   |   |   |   |   |   input2 > 83: 9 (2.0)
|   |   |   |   |   |   input1 > 0: 9 (129.0/1.0)
|   |   |   |   input7 > 47
|   |   |   |   |   input11 <= 95
|   |   |   |   |   |   input2 <= 62: 1 (103.0/1.0)
|   |   |   |   |   |   input2 > 62
|   |   |   |   |   |   |   input14 <= 32
|   |   |   |   |   |   |   |   input10 <= 75
|   |   |   |   |   |   |   |   |   input15 <= 24: 7 (21.0)
|   |   |   |   |   |   |   |   |   input15 > 24
|   |   |   |   |   |   |   |   |   |   input16 <= 11
|   |   |   |   |   |   |   |   |   |   |   input4 <= 91: 1 (51.0)
|   |   |   |   |   |   |   |   |   |   |   input4 > 91
|   |   |   |   |   |   |   |   |   |   |   |   input3 <= 46
|   |   |   |   |   |   |   |   |   |   |   |   |   input8 <= 84: 2 (14.0)
|   |   |   |   |   |   |   |   |   |   |   |   |   input8 > 84: 7 (6.0)
|   |   |   |   |   |   |   |   |   |   |   |   input3 > 46: 1 (8.0)
|   |   |   |   |   |   |   |   |   |   input16 > 11: 7 (11.0)
|   |   |   |   |   |   |   |   input10 > 75: 7 (71.0/1.0)
|   |   |   |   |   |   |   input14 > 32
|   |   |   |   |   |   |   |   input16 <= 2: 9 (10.0)
|   |   |   |   |   |   |   |   input16 > 2: 0 (7.0)
|   |   |   |   |   input11 > 95
|   |   |   |   |   |   input4 <= 82: 1 (8.0/1.0)
|   |   |   |   |   |   input4 > 82: 3 (23.0)
|   |   |   input2 > 94
|   |   |   |   input9 <= 19: 6 (28.0)
|   |   |   |   input9 > 19
|   |   |   |   |   input5 <= 50
|   |   |   |   |   |   input16 <= 1
|   |   |   |   |   |   |   input10 <= 88: 4 (334.0)
|   |   |   |   |   |   |   input10 > 88
|   |   |   |   |   |   |   |   input7 <= 73
|   |   |   |   |   |   |   |   |   input1 <= 50: 7 (2.0)
|   |   |   |   |   |   |   |   |   input1 > 50: 9 (5.0)
|   |   |   |   |   |   |   |   input7 > 73: 4 (28.0)
|   |   |   |   |   |   input16 > 1: 9 (4.0)
|   |   |   |   |   input5 > 50
|   |   |   |   |   |   input3 <= 63
|   |   |   |   |   |   |   input14 <= 13: 3 (2.0)
|   |   |   |   |   |   |   input14 > 13: 7 (30.0)
|   |   |   |   |   |   input3 > 63: 1 (4.0)
input16 > 25
|   input12 <= 93
|   |   input14 <= 7
|   |   |   input5 <= 24: 5 (306.0)
|   |   |   input5 > 24
|   |   |   |   input9 <= 76
|   |   |   |   |   input9 <= 14
|   |   |   |   |   |   input4 <= 85: 0 (5.0)
|   |   |   |   |   |   input4 > 85: 2 (20.0)
|   |   |   |   |   input9 > 14: 8 (40.0)
|   |   |   |   input9 > 76
|   |   |   |   |   input4 <= 99: 9 (18.0)
|   |   |   |   |   input4 > 99: 3 (17.0)
|   |   input14 > 7
|   |   |   input16 <= 68
|   |   |   |   input5 <= 39
|   |   |   |   |   input11 <= 19: 8 (19.0)
|   |   |   |   |   input11 > 19
|   |   |   |   |   |   input7 <= 13
|   |   |   |   |   |   |   input15 <= 71: 6 (88.0)
|   |   |   |   |   |   |   input15 > 71: 0 (9.0)
|   |   |   |   |   |   input7 > 13: 0 (29.0/1.0)
|   |   |   |   input5 > 39
|   |   |   |   |   input4 <= 89
|   |   |   |   |   |   input5 <= 50: 7 (4.0)
|   |   |   |   |   |   input5 > 50: 8 (125.0/1.0)
|   |   |   |   |   input4 > 89
|   |   |   |   |   |   input9 <= 3
|   |   |   |   |   |   |   input12 <= 7
|   |   |   |   |   |   |   |   input6 <= 91: 6 (4.0)
|   |   |   |   |   |   |   |   input6 > 91: 0 (5.0)
|   |   |   |   |   |   |   input12 > 7: 2 (6.0)
|   |   |   |   |   |   input9 > 3
|   |   |   |   |   |   |   input1 <= 54
|   |   |   |   |   |   |   |   input2 <= 63: 8 (13.0)
|   |   |   |   |   |   |   |   input2 > 63
|   |   |   |   |   |   |   |   |   input1 <= 41: 7 (217.0)
|   |   |   |   |   |   |   |   |   input1 > 41
|   |   |   |   |   |   |   |   |   |   input6 <= 66: 7 (15.0)
|   |   |   |   |   |   |   |   |   |   input6 > 66: 8 (3.0)
|   |   |   |   |   |   |   input1 > 54
|   |   |   |   |   |   |   |   input2 <= 82: 8 (33.0)
|   |   |   |   |   |   |   |   input2 > 82: 6 (8.0)
|   |   |   input16 > 68
|   |   |   |   input15 <= 97
|   |   |   |   |   input11 <= 54
|   |   |   |   |   |   input4 <= 69
|   |   |   |   |   |   |   input8 <= 1: 8 (12.0)
|   |   |   |   |   |   |   input8 > 1: 5 (5.0)
|   |   |   |   |   |   input4 > 69: 8 (157.0)
|   |   |   |   |   input11 > 54
|   |   |   |   |   |   input15 <= 55
|   |   |   |   |   |   |   input9 <= 61: 8 (117.0/1.0)
|   |   |   |   |   |   |   input9 > 61
|   |   |   |   |   |   |   |   input8 <= 13: 0 (34.0)
|   |   |   |   |   |   |   |   input8 > 13: 8 (3.0)
|   |   |   |   |   |   input15 > 55: 0 (52.0)
|   |   |   |   input15 > 97
|   |   |   |   |   input12 <= 41: 8 (47.0)
|   |   |   |   |   input12 > 41: 5 (188.0/2.0)
|   input12 > 93
|   |   input6 <= 21
|   |   |   input9 <= 65: 8 (5.0)
|   |   |   input9 > 65: 0 (127.0)
|   |   input6 > 21: 9 (38.0)

Number of Leaves  : 	143

Size of the tree : 	285


Weight: 4.13

J48 pruned tree
------------------

input14 <= 16
|   input15 <= 60
|   |   input7 <= 50
|   |   |   input10 <= 34
|   |   |   |   input2 <= 86
|   |   |   |   |   input10 <= 22: 1 (4.0)
|   |   |   |   |   input10 > 22: 3 (4.0)
|   |   |   |   input2 > 86: 6 (26.0)
|   |   |   input10 > 34
|   |   |   |   input4 <= 88
|   |   |   |   |   input12 <= 36
|   |   |   |   |   |   input5 <= 62: 9 (9.0)
|   |   |   |   |   |   input5 > 62: 8 (34.0)
|   |   |   |   |   input12 > 36: 9 (22.0)
|   |   |   |   input4 > 88
|   |   |   |   |   input2 <= 72: 9 (20.0)
|   |   |   |   |   input2 > 72
|   |   |   |   |   |   input3 <= 35
|   |   |   |   |   |   |   input4 <= 99: 9 (2.0)
|   |   |   |   |   |   |   input4 > 99: 3 (12.0)
|   |   |   |   |   |   input3 > 35
|   |   |   |   |   |   |   input12 <= 46
|   |   |   |   |   |   |   |   input13 <= 70
|   |   |   |   |   |   |   |   |   input1 <= 33
|   |   |   |   |   |   |   |   |   |   input6 <= 91: 3 (23.0)
|   |   |   |   |   |   |   |   |   |   input6 > 91: 5 (92.0)
|   |   |   |   |   |   |   |   |   input1 > 33
|   |   |   |   |   |   |   |   |   |   input14 <= 11: 5 (530.0)
|   |   |   |   |   |   |   |   |   |   input14 > 11
|   |   |   |   |   |   |   |   |   |   |   input6 <= 84: 1 (3.0/1.0)
|   |   |   |   |   |   |   |   |   |   |   input6 > 84: 5 (6.0)
|   |   |   |   |   |   |   |   input13 > 70
|   |   |   |   |   |   |   |   |   input11 <= 99: 3 (4.0)
|   |   |   |   |   |   |   |   |   input11 > 99
|   |   |   |   |   |   |   |   |   |   input1 <= 55: 5 (3.0)
|   |   |   |   |   |   |   |   |   |   input1 > 55: 9 (4.0)
|   |   |   |   |   |   |   input12 > 46: 9 (8.0)
|   |   input7 > 50
|   |   |   input10 <= 60
|   |   |   |   input13 <= 18
|   |   |   |   |   input12 <= 6: 7 (8.0)
|   |   |   |   |   input12 > 6: 1 (11.0)
|   |   |   |   input13 > 18
|   |   |   |   |   input4 <= 85
|   |   |   |   |   |   input1 <= 25: 1 (9.0)
|   |   |   |   |   |   input1 > 25
|   |   |   |   |   |   |   input9 <= 64: 8 (3.0)
|   |   |   |   |   |   |   input9 > 64: 9 (36.0)
|   |   |   |   |   input4 > 85
|   |   |   |   |   |   input5 <= 64
|   |   |   |   |   |   |   input1 <= 40: 3 (19.0/1.0)
|   |   |   |   |   |   |   input1 > 40
|   |   |   |   |   |   |   |   input12 <= 3: 3 (2.0)
|   |   |   |   |   |   |   |   input12 > 3
|   |   |   |   |   |   |   |   |   input10 <= 49
|   |   |   |   |   |   |   |   |   |   input8 <= 75: 5 (10.0)
|   |   |   |   |   |   |   |   |   |   input8 > 75: 9 (7.0)
|   |   |   |   |   |   |   |   |   input10 > 49: 9 (36.0)
|   |   |   |   |   |   input5 > 64
|   |   |   |   |   |   |   input1 <= 79
|   |   |   |   |   |   |   |   input8 <= 81
|   |   |   |   |   |   |   |   |   input10 <= 17: 1 (6.0)
|   |   |   |   |   |   |   |   |   input10 > 17
|   |   |   |   |   |   |   |   |   |   input15 <= 17
|   |   |   |   |   |   |   |   |   |   |   input3 <= 81: 3 (268.0)
|   |   |   |   |   |   |   |   |   |   |   input3 > 81
|   |   |   |   |   |   |   |   |   |   |   |   input8 <= 66: 3 (26.0)
|   |   |   |   |   |   |   |   |   |   |   |   input8 > 66: 1 (5.0/1.0)
|   |   |   |   |   |   |   |   |   |   input15 > 17
|   |   |   |   |   |   |   |   |   |   |   input4 <= 98: 1 (3.0)
|   |   |   |   |   |   |   |   |   |   |   input4 > 98: 3 (10.0)
|   |   |   |   |   |   |   |   input8 > 81
|   |   |   |   |   |   |   |   |   input1 <= 53: 5 (4.0)
|   |   |   |   |   |   |   |   |   input1 > 53: 9 (3.0)
|   |   |   |   |   |   |   input1 > 79
|   |   |   |   |   |   |   |   input3 <= 83: 9 (10.0)
|   |   |   |   |   |   |   |   input3 > 83: 1 (4.0)
|   |   |   input10 > 60
|   |   |   |   input15 <= 38
|   |   |   |   |   input11 <= 56: 5 (12.0)
|   |   |   |   |   input11 > 56
|   |   |   |   |   |   input2 <= 64: 1 (4.0)
|   |   |   |   |   |   input2 > 64: 9 (179.0/1.0)
|   |   |   |   input15 > 38: 7 (9.0/1.0)
|   input15 > 60
|   |   input2 <= 88
|   |   |   input12 <= 7
|   |   |   |   input2 <= 73
|   |   |   |   |   input14 <= 8
|   |   |   |   |   |   input7 <= 35
|   |   |   |   |   |   |   input5 <= 36: 1 (12.0)
|   |   |   |   |   |   |   input5 > 36
|   |   |   |   |   |   |   |   input9 <= 18: 2 (31.0/2.0)
|   |   |   |   |   |   |   |   input9 > 18: 1 (2.0)
|   |   |   |   |   |   input7 > 35
|   |   |   |   |   |   |   input3 <= 40
|   |   |   |   |   |   |   |   input6 <= 92: 2 (44.0)
|   |   |   |   |   |   |   |   input6 > 92
|   |   |   |   |   |   |   |   |   input3 <= 25: 2 (12.0)
|   |   |   |   |   |   |   |   |   input3 > 25
|   |   |   |   |   |   |   |   |   |   input7 <= 68: 1 (117.0)
|   |   |   |   |   |   |   |   |   |   input7 > 68: 2 (10.0)
|   |   |   |   |   |   |   input3 > 40
|   |   |   |   |   |   |   |   input1 <= 27: 1 (374.0)
|   |   |   |   |   |   |   |   input1 > 27
|   |   |   |   |   |   |   |   |   input3 <= 67: 2 (16.0)
|   |   |   |   |   |   |   |   |   input3 > 67
|   |   |   |   |   |   |   |   |   |   input1 <= 61
|   |   |   |   |   |   |   |   |   |   |   input14 <= 6: 1 (116.0)
|   |   |   |   |   |   |   |   |   |   |   input14 > 6
|   |   |   |   |   |   |   |   |   |   |   |   input1 <= 51: 1 (13.0)
|   |   |   |   |   |   |   |   |   |   |   |   input1 > 51: 2 (2.0)
|   |   |   |   |   |   |   |   |   |   input1 > 61
|   |   |   |   |   |   |   |   |   |   |   input5 <= 91: 1 (2.0)
|   |   |   |   |   |   |   |   |   |   |   input5 > 91: 2 (3.0)
|   |   |   |   |   input14 > 8: 2 (23.0/1.0)
|   |   |   |   input2 > 73
|   |   |   |   |   input11 <= 56
|   |   |   |   |   |   input6 <= 94
|   |   |   |   |   |   |   input3 <= 67
|   |   |   |   |   |   |   |   input8 <= 60: 2 (93.0/1.0)
|   |   |   |   |   |   |   |   input8 > 60: 1 (2.0)
|   |   |   |   |   |   |   input3 > 67
|   |   |   |   |   |   |   |   input1 <= 44
|   |   |   |   |   |   |   |   |   input14 <= 0: 2 (2.0)
|   |   |   |   |   |   |   |   |   input14 > 0: 1 (15.0)
|   |   |   |   |   |   |   |   input1 > 44: 2 (5.0)
|   |   |   |   |   |   input6 > 94
|   |   |   |   |   |   |   input3 <= 28: 2 (3.0)
|   |   |   |   |   |   |   input3 > 28: 1 (17.0)
|   |   |   |   |   input11 > 56: 7 (3.0)
|   |   |   input12 > 7
|   |   |   |   input4 <= 87
|   |   |   |   |   input15 <= 68: 2 (2.0)
|   |   |   |   |   input15 > 68: 1 (17.0)
|   |   |   |   input4 > 87
|   |   |   |   |   input10 <= 4
|   |   |   |   |   |   input6 <= 76: 2 (19.0)
|   |   |   |   |   |   input6 > 76: 1 (10.0)
|   |   |   |   |   input10 > 4
|   |   |   |   |   |   input2 <= 63
|   |   |   |   |   |   |   input11 <= 3: 1 (4.0)
|   |   |   |   |   |   |   input11 > 3: 2 (7.0)
|   |   |   |   |   |   input2 > 63
|   |   |   |   |   |   |   input11 <= 47: 2 (291.0/1.0)
|   |   |   |   |   |   |   input11 > 47
|   |   |   |   |   |   |   |   input2 <= 77: 1 (2.0)
|   |   |   |   |   |   |   |   input2 > 77: 2 (2.0)
|   |   input2 > 88
|   |   |   input14 <= 0
|   |   |   |   input6 <= 80: 2 (6.0)
|   |   |   |   input6 > 80: 3 (80.0)
|   |   |   input14 > 0
|   |   |   |   input5 <= 6: 4 (6.0)
|   |   |   |   input5 > 6
|   |   |   |   |   input4 <= 79: 1 (14.0)
|   |   |   |   |   input4 > 79
|   |   |   |   |   |   input9 <= 60: 2 (35.0)
|   |   |   |   |   |   input9 > 60
|   |   |   |   |   |   |   input4 <= 94: 1 (3.0)
|   |   |   |   |   |   |   input4 > 94: 7 (4.0)
input14 > 16
|   input10 <= 58
|   |   input16 <= 8
|   |   |   input11 <= 37: 2 (36.0)
|   |   |   input11 > 37
|   |   |   |   input10 <= 19
|   |   |   |   |   input15 <= 50: 6 (130.0)
|   |   |   |   |   input15 > 50: 4 (3.0)
|   |   |   |   input10 > 19
|   |   |   |   |   input6 <= 80: 4 (229.0/2.0)
|   |   |   |   |   input6 > 80
|   |   |   |   |   |   input1 <= 22: 3 (4.0)
|   |   |   |   |   |   input1 > 22: 9 (6.0)
|   |   input16 > 8
|   |   |   input1 <= 14
|   |   |   |   input16 <= 70
|   |   |   |   |   input2 <= 60: 8 (4.0)
|   |   |   |   |   input2 > 60
|   |   |   |   |   |   input4 <= 83
|   |   |   |   |   |   |   input1 <= 2: 7 (2.0)
|   |   |   |   |   |   |   input1 > 2: 0 (2.0)
|   |   |   |   |   |   input4 > 83: 7 (216.0)
|   |   |   |   input16 > 70
|   |   |   |   |   input15 <= 71
|   |   |   |   |   |   input9 <= 65: 8 (26.0)
|   |   |   |   |   |   input9 > 65: 0 (15.0)
|   |   |   |   |   input15 > 71: 5 (23.0)
|   |   |   input1 > 14
|   |   |   |   input15 <= 97
|   |   |   |   |   input5 <= 43
|   |   |   |   |   |   input11 <= 19: 8 (41.0)
|   |   |   |   |   |   input11 > 19
|   |   |   |   |   |   |   input16 <= 60
|   |   |   |   |   |   |   |   input12 <= 52: 6 (183.0)
|   |   |   |   |   |   |   |   input12 > 52
|   |   |   |   |   |   |   |   |   input9 <= 52: 8 (3.0)
|   |   |   |   |   |   |   |   |   input9 > 52: 0 (115.0)
|   |   |   |   |   |   |   input16 > 60
|   |   |   |   |   |   |   |   input10 <= 32
|   |   |   |   |   |   |   |   |   input7 <= 47
|   |   |   |   |   |   |   |   |   |   input15 <= 10
|   |   |   |   |   |   |   |   |   |   |   input8 <= 16: 0 (8.0)
|   |   |   |   |   |   |   |   |   |   |   input8 > 16: 6 (2.0)
|   |   |   |   |   |   |   |   |   |   input15 > 10: 0 (233.0)
|   |   |   |   |   |   |   |   |   input7 > 47
|   |   |   |   |   |   |   |   |   |   input14 <= 98: 8 (5.0)
|   |   |   |   |   |   |   |   |   |   input14 > 98: 0 (3.0)
|   |   |   |   |   |   |   |   input10 > 32
|   |   |   |   |   |   |   |   |   input9 <= 70: 8 (17.0)
|   |   |   |   |   |   |   |   |   input9 > 70: 0 (30.0)
|   |   |   |   |   input5 > 43
|   |   |   |   |   |   input4 <= 95
|   |   |   |   |   |   |   input12 <= 85
|   |   |   |   |   |   |   |   input16 <= 23: 6 (2.0)
|   |   |   |   |   |   |   |   input16 > 23: 8 (116.0/2.0)
|   |   |   |   |   |   |   input12 > 85: 0 (6.0)
|   |   |   |   |   |   input4 > 95
|   |   |   |   |   |   |   input16 <= 51
|   |   |   |   |   |   |   |   input5 <= 70: 6 (5.0)
|   |   |   |   |   |   |   |   input5 > 70: 7 (26.0)
|   |   |   |   |   |   |   input16 > 51: 8 (16.0)
|   |   |   |   input15 > 97
|   |   |   |   |   input4 <= 86
|   |   |   |   |   |   input6 <= 52: 5 (63.0)
|   |   |   |   |   |   input6 > 52
|   |   |   |   |   |   |   input10 <= 9: 5 (7.0)
|   |   |   |   |   |   |   input10 > 9: 6 (76.0)
|   |   |   |   |   input4 > 86
|   |   |   |   |   |   input5 <= 45: 8 (38.0)
|   |   |   |   |   |   input5 > 45
|   |   |   |   |   |   |   input14 <= 33: 2 (7.0)
|   |   |   |   |   |   |   input14 > 33: 7 (12.0)
|   input10 > 58
|   |   input2 <= 94
|   |   |   input12 <= 52
|   |   |   |   input1 <= 30
|   |   |   |   |   input4 <= 84: 1 (69.0/1.0)
|   |   |   |   |   input4 > 84
|   |   |   |   |   |   input7 <= 97: 1 (7.0)
|   |   |   |   |   |   input7 > 97: 7 (113.0/2.0)
|   |   |   |   input1 > 30
|   |   |   |   |   input16 <= 19
|   |   |   |   |   |   input8 <= 90: 1 (2.0)
|   |   |   |   |   |   input8 > 90: 9 (25.0)
|   |   |   |   |   input16 > 19: 8 (4.0)
|   |   |   input12 > 52
|   |   |   |   input6 <= 26
|   |   |   |   |   input9 <= 59: 5 (4.0/1.0)
|   |   |   |   |   input9 > 59: 0 (37.0)
|   |   |   |   input6 > 26
|   |   |   |   |   input9 <= 99
|   |   |   |   |   |   input14 <= 19
|   |   |   |   |   |   |   input1 <= 56: 5 (3.0)
|   |   |   |   |   |   |   input1 > 56: 9 (3.0)
|   |   |   |   |   |   input14 > 19
|   |   |   |   |   |   |   input7 <= 90: 9 (299.0)
|   |   |   |   |   |   |   input7 > 90
|   |   |   |   |   |   |   |   input12 <= 66: 1 (10.0/1.0)
|   |   |   |   |   |   |   |   input12 > 66: 9 (81.0)
|   |   |   |   |   input9 > 99
|   |   |   |   |   |   input6 <= 91
|   |   |   |   |   |   |   input8 <= 87: 9 (32.0/1.0)
|   |   |   |   |   |   |   input8 > 87
|   |   |   |   |   |   |   |   input1 <= 60: 1 (10.0)
|   |   |   |   |   |   |   |   input1 > 60: 9 (2.0)
|   |   |   |   |   |   input6 > 91: 7 (29.0)
|   |   input2 > 94
|   |   |   input6 <= 87
|   |   |   |   input8 <= 79
|   |   |   |   |   input6 <= 18: 0 (2.0)
|   |   |   |   |   input6 > 18
|   |   |   |   |   |   input11 <= 99: 4 (78.0)
|   |   |   |   |   |   input11 > 99
|   |   |   |   |   |   |   input1 <= 60: 4 (4.0)
|   |   |   |   |   |   |   input1 > 60: 9 (5.0)
|   |   |   |   input8 > 79
|   |   |   |   |   input11 <= 52: 0 (2.0)
|   |   |   |   |   input11 > 52: 9 (27.0)
|   |   |   input6 > 87
|   |   |   |   input1 <= 63: 7 (20.0)
|   |   |   |   input1 > 63: 5 (9.0)

Number of Leaves  : 	142

Size of the tree : 	283


Weight: 3.93

J48 pruned tree
------------------

input16 <= 16
|   input15 <= 46
|   |   input8 <= 47
|   |   |   input10 <= 22
|   |   |   |   input2 <= 76: 1 (3.0)
|   |   |   |   input2 > 76: 6 (161.0)
|   |   |   input10 > 22
|   |   |   |   input14 <= 48
|   |   |   |   |   input16 <= 1: 4 (57.0)
|   |   |   |   |   input16 > 1
|   |   |   |   |   |   input8 <= 40: 5 (32.0)
|   |   |   |   |   |   input8 > 40: 3 (10.0/1.0)
|   |   |   |   input14 > 48: 0 (66.0)
|   |   input8 > 47
|   |   |   input10 <= 63
|   |   |   |   input7 <= 62
|   |   |   |   |   input4 <= 88
|   |   |   |   |   |   input10 <= 46
|   |   |   |   |   |   |   input6 <= 70
|   |   |   |   |   |   |   |   input6 <= 68: 4 (7.0)
|   |   |   |   |   |   |   |   input6 > 68: 6 (2.0)
|   |   |   |   |   |   |   input6 > 70: 1 (37.0)
|   |   |   |   |   |   input10 > 46
|   |   |   |   |   |   |   input2 <= 31: 8 (2.0)
|   |   |   |   |   |   |   input2 > 31: 9 (11.0)
|   |   |   |   |   input4 > 88
|   |   |   |   |   |   input13 <= 15: 1 (29.0)
|   |   |   |   |   |   input13 > 15
|   |   |   |   |   |   |   input11 <= 99
|   |   |   |   |   |   |   |   input11 <= 95
|   |   |   |   |   |   |   |   |   input3 <= 46
|   |   |   |   |   |   |   |   |   |   input1 <= 48: 3 (3.0)
|   |   |   |   |   |   |   |   |   |   input1 > 48: 5 (3.0)
|   |   |   |   |   |   |   |   |   input3 > 46
|   |   |   |   |   |   |   |   |   |   input16 <= 15: 5 (451.0)
|   |   |   |   |   |   |   |   |   |   input16 > 15
|   |   |   |   |   |   |   |   |   |   |   input1 <= 65: 3 (2.0)
|   |   |   |   |   |   |   |   |   |   |   input1 > 65: 5 (4.0)
|   |   |   |   |   |   |   |   input11 > 95
|   |   |   |   |   |   |   |   |   input6 <= 91: 3 (8.0/1.0)
|   |   |   |   |   |   |   |   |   input6 > 91: 5 (26.0)
|   |   |   |   |   |   |   input11 > 99
|   |   |   |   |   |   |   |   input3 <= 89
|   |   |   |   |   |   |   |   |   input9 <= 60: 5 (8.0/1.0)
|   |   |   |   |   |   |   |   |   input9 > 60
|   |   |   |   |   |   |   |   |   |   input5 <= 27: 5 (2.0/1.0)
|   |   |   |   |   |   |   |   |   |   input5 > 27: 3 (151.0)
|   |   |   |   |   |   |   |   input3 > 89: 5 (13.0/1.0)
|   |   |   |   input7 > 62
|   |   |   |   |   input14 <= 17
|   |   |   |   |   |   input1 <= 46
|   |   |   |   |   |   |   input13 <= 19: 1 (2.0)
|   |   |   |   |   |   |   input13 > 19: 3 (197.0/1.0)
|   |   |   |   |   |   input1 > 46
|   |   |   |   |   |   |   input5 <= 91
|   |   |   |   |   |   |   |   input9 <= 77: 1 (2.0/1.0)
|   |   |   |   |   |   |   |   input9 > 77: 9 (47.0/2.0)
|   |   |   |   |   |   |   input5 > 91
|   |   |   |   |   |   |   |   input4 <= 98: 1 (7.0)
|   |   |   |   |   |   |   |   input4 > 98: 3 (18.0)
|   |   |   |   |   input14 > 17
|   |   |   |   |   |   input2 <= 88: 1 (11.0)
|   |   |   |   |   |   input2 > 88: 7 (8.0/1.0)
|   |   |   input10 > 63
|   |   |   |   input3 <= 11
|   |   |   |   |   input6 <= 85
|   |   |   |   |   |   input11 <= 80: 4 (8.0)
|   |   |   |   |   |   input11 > 80: 9 (12.0)
|   |   |   |   |   input6 > 85: 7 (122.0)
|   |   |   |   input3 > 11
|   |   |   |   |   input11 <= 52
|   |   |   |   |   |   input10 <= 77: 1 (108.0)
|   |   |   |   |   |   input10 > 77
|   |   |   |   |   |   |   input7 <= 81: 5 (2.0)
|   |   |   |   |   |   |   input7 > 81
|   |   |   |   |   |   |   |   input1 <= 47: 4 (2.0)
|   |   |   |   |   |   |   |   input1 > 47: 0 (3.0)
|   |   |   |   |   input11 > 52
|   |   |   |   |   |   input2 <= 98
|   |   |   |   |   |   |   input2 <= 52
|   |   |   |   |   |   |   |   input7 <= 63: 8 (2.0)
|   |   |   |   |   |   |   |   input7 > 63: 1 (4.0)
|   |   |   |   |   |   |   input2 > 52
|   |   |   |   |   |   |   |   input6 <= 88: 9 (267.0)
|   |   |   |   |   |   |   |   input6 > 88
|   |   |   |   |   |   |   |   |   input1 <= 5: 1 (8.0/1.0)
|   |   |   |   |   |   |   |   |   input1 > 5
|   |   |   |   |   |   |   |   |   |   input14 <= 15
|   |   |   |   |   |   |   |   |   |   |   input9 <= 68: 5 (16.0)
|   |   |   |   |   |   |   |   |   |   |   input9 > 68: 9 (5.0)
|   |   |   |   |   |   |   |   |   |   input14 > 15: 9 (37.0/1.0)
|   |   |   |   |   |   input2 > 98
|   |   |   |   |   |   |   input6 <= 64: 4 (12.0)
|   |   |   |   |   |   |   input6 > 64: 9 (10.0/1.0)
|   input15 > 46
|   |   input2 <= 89
|   |   |   input8 <= 92
|   |   |   |   input12 <= 33
|   |   |   |   |   input10 <= 43
|   |   |   |   |   |   input13 <= 71
|   |   |   |   |   |   |   input9 <= 48
|   |   |   |   |   |   |   |   input10 <= 2
|   |   |   |   |   |   |   |   |   input1 <= 17: 2 (12.0)
|   |   |   |   |   |   |   |   |   input1 > 17
|   |   |   |   |   |   |   |   |   |   input5 <= 71: 1 (91.0)
|   |   |   |   |   |   |   |   |   |   input5 > 71
|   |   |   |   |   |   |   |   |   |   |   input6 <= 75: 2 (15.0)
|   |   |   |   |   |   |   |   |   |   |   input6 > 75: 1 (2.0)
|   |   |   |   |   |   |   |   input10 > 2
|   |   |   |   |   |   |   |   |   input9 <= 33
|   |   |   |   |   |   |   |   |   |   input4 <= 96
|   |   |   |   |   |   |   |   |   |   |   input14 <= 2: 1 (4.0)
|   |   |   |   |   |   |   |   |   |   |   input14 > 2: 2 (4.0)
|   |   |   |   |   |   |   |   |   |   input4 > 96
|   |   |   |   |   |   |   |   |   |   |   input5 <= 50
|   |   |   |   |   |   |   |   |   |   |   |   input13 <= 50: 1 (45.0)
|   |   |   |   |   |   |   |   |   |   |   |   input13 > 50: 2 (25.0/1.0)
|   |   |   |   |   |   |   |   |   |   |   input5 > 50: 2 (312.0)
|   |   |   |   |   |   |   |   |   input9 > 33
|   |   |   |   |   |   |   |   |   |   input7 <= 59: 1 (160.0)
|   |   |   |   |   |   |   |   |   |   input7 > 59
|   |   |   |   |   |   |   |   |   |   |   input7 <= 68
|   |   |   |   |   |   |   |   |   |   |   |   input11 <= 3: 1 (4.0)
|   |   |   |   |   |   |   |   |   |   |   |   input11 > 3: 2 (6.0)
|   |   |   |   |   |   |   |   |   |   |   input7 > 68: 2 (92.0)
|   |   |   |   |   |   |   input9 > 48
|   |   |   |   |   |   |   |   input3 <= 35: 2 (15.0/1.0)
|   |   |   |   |   |   |   |   input3 > 35: 1 (298.0/4.0)
|   |   |   |   |   |   input13 > 71: 1 (80.0)
|   |   |   |   |   input10 > 43
|   |   |   |   |   |   input2 <= 81: 2 (179.0)
|   |   |   |   |   |   input2 > 81
|   |   |   |   |   |   |   input3 <= 44: 2 (4.0)
|   |   |   |   |   |   |   input3 > 44: 1 (3.0)
|   |   |   |   input12 > 33
|   |   |   |   |   input3 <= 54
|   |   |   |   |   |   input2 <= 85: 1 (208.0/1.0)
|   |   |   |   |   |   input2 > 85: 9 (3.0/1.0)
|   |   |   |   |   input3 > 54: 9 (14.0)
|   |   |   input8 > 92
|   |   |   |   input7 <= 61: 9 (59.0)
|   |   |   |   input7 > 61
|   |   |   |   |   input3 <= 20: 7 (51.0/1.0)
|   |   |   |   |   input3 > 20: 1 (52.0/1.0)
|   |   input2 > 89
|   |   |   input14 <= 13
|   |   |   |   input4 <= 79: 1 (8.0)
|   |   |   |   input4 > 79
|   |   |   |   |   input9 <= 40: 2 (16.0)
|   |   |   |   |   input9 > 40
|   |   |   |   |   |   input7 <= 83: 3 (39.0)
|   |   |   |   |   |   input7 > 83: 2 (4.0)
|   |   |   input14 > 13
|   |   |   |   input8 <= 75
|   |   |   |   |   input5 <= 50: 4 (56.0)
|   |   |   |   |   input5 > 50
|   |   |   |   |   |   input1 <= 16: 1 (2.0/1.0)
|   |   |   |   |   |   input1 > 16: 2 (3.0)
|   |   |   |   input8 > 75
|   |   |   |   |   input6 <= 85: 9 (5.0)
|   |   |   |   |   input6 > 85: 7 (14.0)
input16 > 16
|   input2 <= 93
|   |   input10 <= 77
|   |   |   input16 <= 89
|   |   |   |   input1 <= 69
|   |   |   |   |   input8 <= 26
|   |   |   |   |   |   input9 <= 62
|   |   |   |   |   |   |   input15 <= 72: 8 (19.0)
|   |   |   |   |   |   |   input15 > 72
|   |   |   |   |   |   |   |   input9 <= 1: 2 (7.0)
|   |   |   |   |   |   |   |   input9 > 1: 7 (12.0/1.0)
|   |   |   |   |   |   input9 > 62: 0 (42.0)
|   |   |   |   |   input8 > 26
|   |   |   |   |   |   input9 <= 26
|   |   |   |   |   |   |   input14 <= 26: 2 (20.0)
|   |   |   |   |   |   |   input14 > 26
|   |   |   |   |   |   |   |   input15 <= 32: 8 (9.0)
|   |   |   |   |   |   |   |   input15 > 32
|   |   |   |   |   |   |   |   |   input5 <= 49: 6 (2.0/1.0)
|   |   |   |   |   |   |   |   |   input5 > 49: 7 (5.0)
|   |   |   |   |   |   input9 > 26
|   |   |   |   |   |   |   input2 <= 71
|   |   |   |   |   |   |   |   input3 <= 34
|   |   |   |   |   |   |   |   |   input12 <= 11: 7 (5.0)
|   |   |   |   |   |   |   |   |   input12 > 11: 0 (4.0/1.0)
|   |   |   |   |   |   |   |   input3 > 34: 8 (340.0)
|   |   |   |   |   |   |   input2 > 71
|   |   |   |   |   |   |   |   input14 <= 4
|   |   |   |   |   |   |   |   |   input4 <= 91: 9 (5.0)
|   |   |   |   |   |   |   |   |   input4 > 91: 3 (22.0)
|   |   |   |   |   |   |   |   input14 > 4
|   |   |   |   |   |   |   |   |   input16 <= 71
|   |   |   |   |   |   |   |   |   |   input4 <= 76: 8 (4.0)
|   |   |   |   |   |   |   |   |   |   input4 > 76: 7 (16.0)
|   |   |   |   |   |   |   |   |   input16 > 71: 8 (14.0)
|   |   |   |   input1 > 69
|   |   |   |   |   input7 <= 30
|   |   |   |   |   |   input15 <= 21: 6 (3.0)
|   |   |   |   |   |   input15 > 21: 0 (182.0)
|   |   |   |   |   input7 > 30
|   |   |   |   |   |   input10 <= 34: 8 (18.0)
|   |   |   |   |   |   input10 > 34
|   |   |   |   |   |   |   input14 <= 2: 9 (7.0)
|   |   |   |   |   |   |   input14 > 2: 5 (5.0)
|   |   |   input16 > 89
|   |   |   |   input13 <= 61
|   |   |   |   |   input14 <= 74: 8 (7.0)
|   |   |   |   |   input14 > 74: 5 (101.0)
|   |   |   |   input13 > 61
|   |   |   |   |   input11 <= 83: 8 (24.0)
|   |   |   |   |   input11 > 83: 0 (7.0)
|   |   input10 > 77
|   |   |   input6 <= 23: 0 (3.0)
|   |   |   input6 > 23: 9 (107.0)
|   input2 > 93
|   |   input1 <= 15
|   |   |   input4 <= 73
|   |   |   |   input8 <= 48
|   |   |   |   |   input13 <= 75: 0 (2.0/1.0)
|   |   |   |   |   input13 > 75: 8 (5.0)
|   |   |   |   input8 > 48: 9 (5.0)
|   |   |   input4 > 73
|   |   |   |   input14 <= 11: 2 (2.0)
|   |   |   |   input14 > 11: 7 (83.0)
|   |   input1 > 15
|   |   |   input9 <= 78
|   |   |   |   input7 <= 45
|   |   |   |   |   input10 <= 23
|   |   |   |   |   |   input5 <= 1
|   |   |   |   |   |   |   input16 <= 45: 6 (11.0)
|   |   |   |   |   |   |   input16 > 45: 0 (16.0)
|   |   |   |   |   |   input5 > 1
|   |   |   |   |   |   |   input11 <= 3: 7 (4.0/1.0)
|   |   |   |   |   |   |   input11 > 3: 6 (256.0/1.0)
|   |   |   |   |   input10 > 23
|   |   |   |   |   |   input13 <= 74
|   |   |   |   |   |   |   input15 <= 60
|   |   |   |   |   |   |   |   input1 <= 67: 9 (2.0)
|   |   |   |   |   |   |   |   input1 > 67: 6 (3.0)
|   |   |   |   |   |   |   input15 > 60: 5 (14.0)
|   |   |   |   |   |   input13 > 74: 8 (17.0)
|   |   |   |   input7 > 45
|   |   |   |   |   input3 <= 63
|   |   |   |   |   |   input1 <= 22: 5 (9.0)
|   |   |   |   |   |   input1 > 22: 8 (67.0/1.0)
|   |   |   |   |   input3 > 63: 7 (4.0)
|   |   |   input9 > 78
|   |   |   |   input8 <= 25: 0 (19.0)
|   |   |   |   input8 > 25
|   |   |   |   |   input15 <= 1: 9 (6.0)
|   |   |   |   |   input15 > 1: 5 (98.0)

Number of Leaves  : 	127

Size of the tree : 	253


Weight: 3.69

J48 pruned tree
------------------

input16 <= 25
|   input11 <= 39
|   |   input10 <= 69
|   |   |   input15 <= 45
|   |   |   |   input16 <= 1
|   |   |   |   |   input13 <= 34: 1 (63.0)
|   |   |   |   |   input13 > 34: 3 (16.0)
|   |   |   |   input16 > 1
|   |   |   |   |   input1 <= 76
|   |   |   |   |   |   input1 <= 38: 7 (21.0)
|   |   |   |   |   |   input1 > 38: 8 (2.0)
|   |   |   |   |   input1 > 76: 6 (28.0)
|   |   |   input15 > 45
|   |   |   |   input2 <= 85
|   |   |   |   |   input7 <= 82
|   |   |   |   |   |   input6 <= 77
|   |   |   |   |   |   |   input5 <= 41: 1 (12.0)
|   |   |   |   |   |   |   input5 > 41
|   |   |   |   |   |   |   |   input9 <= 18: 2 (122.0)
|   |   |   |   |   |   |   |   input9 > 18
|   |   |   |   |   |   |   |   |   input7 <= 53: 1 (4.0)
|   |   |   |   |   |   |   |   |   input7 > 53: 2 (27.0/1.0)
|   |   |   |   |   |   input6 > 77
|   |   |   |   |   |   |   input3 <= 16: 2 (52.0)
|   |   |   |   |   |   |   input3 > 16
|   |   |   |   |   |   |   |   input7 <= 66
|   |   |   |   |   |   |   |   |   input16 <= 10
|   |   |   |   |   |   |   |   |   |   input5 <= 50: 1 (230.0)
|   |   |   |   |   |   |   |   |   |   input5 > 50
|   |   |   |   |   |   |   |   |   |   |   input3 <= 31: 2 (22.0/1.0)
|   |   |   |   |   |   |   |   |   |   |   input3 > 31
|   |   |   |   |   |   |   |   |   |   |   |   input9 <= 13: 2 (6.0)
|   |   |   |   |   |   |   |   |   |   |   |   input9 > 13
|   |   |   |   |   |   |   |   |   |   |   |   |   input14 <= 8
|   |   |   |   |   |   |   |   |   |   |   |   |   |   input5 <= 73: 1 (129.0)
|   |   |   |   |   |   |   |   |   |   |   |   |   |   input5 > 73
|   |   |   |   |   |   |   |   |   |   |   |   |   |   |   input3 <= 63: 2 (3.0)
|   |   |   |   |   |   |   |   |   |   |   |   |   |   |   input3 > 63: 1 (4.0)
|   |   |   |   |   |   |   |   |   |   |   |   |   input14 > 8: 2 (2.0)
|   |   |   |   |   |   |   |   |   input16 > 10: 2 (7.0)
|   |   |   |   |   |   |   |   input7 > 66
|   |   |   |   |   |   |   |   |   input9 <= 49: 2 (88.0/1.0)
|   |   |   |   |   |   |   |   |   input9 > 49
|   |   |   |   |   |   |   |   |   |   input3 <= 37: 2 (3.0)
|   |   |   |   |   |   |   |   |   |   input3 > 37: 1 (72.0)
|   |   |   |   |   input7 > 82
|   |   |   |   |   |   input3 <= 73: 2 (206.0)
|   |   |   |   |   |   input3 > 73: 1 (4.0)
|   |   |   |   input2 > 85
|   |   |   |   |   input5 <= 93
|   |   |   |   |   |   input5 <= 91
|   |   |   |   |   |   |   input4 <= 73: 1 (2.0)
|   |   |   |   |   |   |   input4 > 73: 2 (18.0/1.0)
|   |   |   |   |   |   input5 > 91: 3 (25.0)
|   |   |   |   |   input5 > 93: 2 (77.0/1.0)
|   |   input10 > 69
|   |   |   input7 <= 83: 5 (15.0)
|   |   |   input7 > 83
|   |   |   |   input6 <= 78: 0 (13.0/1.0)
|   |   |   |   input6 > 78
|   |   |   |   |   input5 <= 79: 7 (22.0)
|   |   |   |   |   input5 > 79: 1 (4.0)
|   input11 > 39
|   |   input7 <= 68
|   |   |   input8 <= 47
|   |   |   |   input10 <= 22
|   |   |   |   |   input1 <= 21
|   |   |   |   |   |   input2 <= 93: 1 (2.0/1.0)
|   |   |   |   |   |   input2 > 93: 7 (4.0)
|   |   |   |   |   input1 > 21: 6 (142.0)
|   |   |   |   input10 > 22
|   |   |   |   |   input6 <= 70
|   |   |   |   |   |   input16 <= 2: 4 (92.0)
|   |   |   |   |   |   input16 > 2: 0 (26.0/1.0)
|   |   |   |   |   input6 > 70
|   |   |   |   |   |   input15 <= 3
|   |   |   |   |   |   |   input1 <= 58: 3 (5.0)
|   |   |   |   |   |   |   input1 > 58: 5 (68.0)
|   |   |   |   |   |   input15 > 3: 9 (12.0)
|   |   |   input8 > 47
|   |   |   |   input10 <= 54
|   |   |   |   |   input12 <= 7
|   |   |   |   |   |   input15 <= 4
|   |   |   |   |   |   |   input7 <= 56: 5 (13.0)
|   |   |   |   |   |   |   input7 > 56: 3 (3.0)
|   |   |   |   |   |   input15 > 4: 1 (64.0)
|   |   |   |   |   input12 > 7
|   |   |   |   |   |   input3 <= 2: 9 (57.0)
|   |   |   |   |   |   input3 > 2
|   |   |   |   |   |   |   input14 <= 18
|   |   |   |   |   |   |   |   input15 <= 76
|   |   |   |   |   |   |   |   |   input1 <= 55
|   |   |   |   |   |   |   |   |   |   input3 <= 92
|   |   |   |   |   |   |   |   |   |   |   input4 <= 92: 5 (15.0/1.0)
|   |   |   |   |   |   |   |   |   |   |   input4 > 92: 3 (331.0/4.0)
|   |   |   |   |   |   |   |   |   |   input3 > 92: 5 (40.0)
|   |   |   |   |   |   |   |   |   input1 > 55
|   |   |   |   |   |   |   |   |   |   input10 <= 36: 3 (2.0)
|   |   |   |   |   |   |   |   |   |   input10 > 36: 5 (78.0)
|   |   |   |   |   |   |   |   input15 > 76
|   |   |   |   |   |   |   |   |   input1 <= 16: 1 (13.0)
|   |   |   |   |   |   |   |   |   input1 > 16: 4 (3.0)
|   |   |   |   |   |   |   input14 > 18: 4 (30.0/1.0)
|   |   |   |   input10 > 54
|   |   |   |   |   input3 <= 63
|   |   |   |   |   |   input2 <= 41: 8 (14.0)
|   |   |   |   |   |   input2 > 41
|   |   |   |   |   |   |   input10 <= 58
|   |   |   |   |   |   |   |   input14 <= 1: 9 (39.0)
|   |   |   |   |   |   |   |   input14 > 1: 3 (25.0)
|   |   |   |   |   |   |   input10 > 58
|   |   |   |   |   |   |   |   input8 <= 57: 4 (19.0/1.0)
|   |   |   |   |   |   |   |   input8 > 57
|   |   |   |   |   |   |   |   |   input12 <= 81: 9 (385.0/4.0)
|   |   |   |   |   |   |   |   |   input12 > 81: 4 (4.0)
|   |   |   |   |   input3 > 63
|   |   |   |   |   |   input2 <= 81: 9 (142.0)
|   |   |   |   |   |   input2 > 81
|   |   |   |   |   |   |   input10 <= 74
|   |   |   |   |   |   |   |   input4 <= 89: 9 (19.0)
|   |   |   |   |   |   |   |   input4 > 89: 5 (215.0)
|   |   |   |   |   |   |   input10 > 74: 9 (57.0)
|   |   input7 > 68
|   |   |   input1 <= 34
|   |   |   |   input4 <= 87
|   |   |   |   |   input6 <= 39: 0 (28.0/1.0)
|   |   |   |   |   input6 > 39
|   |   |   |   |   |   input5 <= 41
|   |   |   |   |   |   |   input6 <= 94: 1 (61.0/1.0)
|   |   |   |   |   |   |   input6 > 94: 7 (87.0)
|   |   |   |   |   |   input5 > 41
|   |   |   |   |   |   |   input9 <= 39: 9 (10.0)
|   |   |   |   |   |   |   input9 > 39: 1 (323.0/1.0)
|   |   |   |   input4 > 87
|   |   |   |   |   input3 <= 60
|   |   |   |   |   |   input15 <= 74
|   |   |   |   |   |   |   input11 <= 84
|   |   |   |   |   |   |   |   input15 <= 18
|   |   |   |   |   |   |   |   |   input13 <= 38
|   |   |   |   |   |   |   |   |   |   input7 <= 87: 4 (2.0)
|   |   |   |   |   |   |   |   |   |   input7 > 87: 7 (3.0)
|   |   |   |   |   |   |   |   |   input13 > 38: 3 (28.0)
|   |   |   |   |   |   |   |   input15 > 18: 7 (117.0/1.0)
|   |   |   |   |   |   |   input11 > 84: 3 (70.0)
|   |   |   |   |   |   input15 > 74
|   |   |   |   |   |   |   input4 <= 96: 2 (37.0)
|   |   |   |   |   |   |   input4 > 96: 7 (8.0)
|   |   |   |   |   input3 > 60: 1 (25.0/1.0)
|   |   |   input1 > 34
|   |   |   |   input6 <= 60: 4 (23.0/1.0)
|   |   |   |   input6 > 60
|   |   |   |   |   input1 <= 60
|   |   |   |   |   |   input14 <= 1: 3 (45.0/1.0)
|   |   |   |   |   |   input14 > 1
|   |   |   |   |   |   |   input4 <= 85: 4 (2.0/1.0)
|   |   |   |   |   |   |   input4 > 85: 1 (3.0)
|   |   |   |   |   input1 > 60
|   |   |   |   |   |   input11 <= 49: 1 (3.0)
|   |   |   |   |   |   input11 > 49
|   |   |   |   |   |   |   input10 <= 36: 3 (2.0)
|   |   |   |   |   |   |   input10 > 36: 9 (100.0/1.0)
input16 > 25
|   input16 <= 30
|   |   input2 <= 82
|   |   |   input4 <= 82: 8 (6.0/1.0)
|   |   |   input4 > 82
|   |   |   |   input2 <= 79: 3 (4.0)
|   |   |   |   input2 > 79: 2 (8.0)
|   |   input2 > 82
|   |   |   input7 <= 42: 6 (129.0)
|   |   |   input7 > 42
|   |   |   |   input1 <= 57: 7 (5.0)
|   |   |   |   input1 > 57: 5 (14.0)
|   input16 > 30
|   |   input1 <= 1
|   |   |   input4 <= 81
|   |   |   |   input2 <= 17: 9 (27.0)
|   |   |   |   input2 > 17: 0 (8.0/1.0)
|   |   |   input4 > 81: 7 (65.0)
|   |   input1 > 1
|   |   |   input8 <= 3
|   |   |   |   input9 <= 49
|   |   |   |   |   input15 <= 68: 8 (22.0)
|   |   |   |   |   input15 > 68
|   |   |   |   |   |   input6 <= 51: 5 (183.0/1.0)
|   |   |   |   |   |   input6 > 51: 6 (29.0/1.0)
|   |   |   |   input9 > 49
|   |   |   |   |   input3 <= 34: 0 (60.0)
|   |   |   |   |   input3 > 34: 6 (12.0)
|   |   |   input8 > 3
|   |   |   |   input7 <= 24
|   |   |   |   |   input13 <= 49
|   |   |   |   |   |   input2 <= 95: 8 (59.0)
|   |   |   |   |   |   input2 > 95
|   |   |   |   |   |   |   input1 <= 53: 7 (14.0)
|   |   |   |   |   |   |   input1 > 53: 6 (3.0)
|   |   |   |   |   input13 > 49
|   |   |   |   |   |   input4 <= 66: 8 (11.0)
|   |   |   |   |   |   input4 > 66
|   |   |   |   |   |   |   input15 <= 20: 6 (20.0)
|   |   |   |   |   |   |   input15 > 20
|   |   |   |   |   |   |   |   input1 <= 57: 2 (2.0/1.0)
|   |   |   |   |   |   |   |   input1 > 57
|   |   |   |   |   |   |   |   |   input2 <= 81: 0 (88.0)
|   |   |   |   |   |   |   |   |   input2 > 81
|   |   |   |   |   |   |   |   |   |   input13 <= 92: 6 (3.0)
|   |   |   |   |   |   |   |   |   |   input13 > 92: 0 (21.0)
|   |   |   |   input7 > 24
|   |   |   |   |   input12 <= 85
|   |   |   |   |   |   input3 <= 51
|   |   |   |   |   |   |   input11 <= 78
|   |   |   |   |   |   |   |   input14 <= 77
|   |   |   |   |   |   |   |   |   input16 <= 43
|   |   |   |   |   |   |   |   |   |   input1 <= 29: 7 (3.0)
|   |   |   |   |   |   |   |   |   |   input1 > 29: 2 (2.0/1.0)
|   |   |   |   |   |   |   |   |   input16 > 43: 8 (150.0)
|   |   |   |   |   |   |   |   input14 > 77
|   |   |   |   |   |   |   |   |   input15 <= 39: 8 (9.0)
|   |   |   |   |   |   |   |   |   input15 > 39: 5 (47.0)
|   |   |   |   |   |   |   input11 > 78
|   |   |   |   |   |   |   |   input1 <= 92: 6 (2.0)
|   |   |   |   |   |   |   |   input1 > 92: 5 (40.0)
|   |   |   |   |   |   input3 > 51
|   |   |   |   |   |   |   input2 <= 78: 8 (196.0)
|   |   |   |   |   |   |   input2 > 78
|   |   |   |   |   |   |   |   input16 <= 64
|   |   |   |   |   |   |   |   |   input10 <= 39: 7 (29.0)
|   |   |   |   |   |   |   |   |   input10 > 39: 9 (2.0)
|   |   |   |   |   |   |   |   input16 > 64: 8 (3.0)
|   |   |   |   |   input12 > 85: 0 (25.0)

Number of Leaves  : 	116

Size of the tree : 	231


Weight: 3.94

J48 pruned tree
------------------

input16 <= 16
|   input14 <= 20
|   |   input15 <= 39
|   |   |   input4 <= 90
|   |   |   |   input2 <= 78
|   |   |   |   |   input2 <= 29: 8 (15.0)
|   |   |   |   |   input2 > 29
|   |   |   |   |   |   input16 <= 6
|   |   |   |   |   |   |   input6 <= 89: 9 (12.0)
|   |   |   |   |   |   |   input6 > 89
|   |   |   |   |   |   |   |   input1 <= 35: 1 (124.0)
|   |   |   |   |   |   |   |   input1 > 35: 9 (10.0)
|   |   |   |   |   |   input16 > 6: 3 (11.0)
|   |   |   |   input2 > 78
|   |   |   |   |   input8 <= 55: 6 (20.0)
|   |   |   |   |   input8 > 55: 9 (158.0)
|   |   |   input4 > 90
|   |   |   |   input5 <= 69
|   |   |   |   |   input12 <= 7
|   |   |   |   |   |   input1 <= 50: 1 (19.0)
|   |   |   |   |   |   input1 > 50: 6 (17.0)
|   |   |   |   |   input12 > 7
|   |   |   |   |   |   input10 <= 69
|   |   |   |   |   |   |   input8 <= 79
|   |   |   |   |   |   |   |   input2 <= 82: 9 (29.0)
|   |   |   |   |   |   |   |   input2 > 82
|   |   |   |   |   |   |   |   |   input7 <= 60
|   |   |   |   |   |   |   |   |   |   input15 <= 30
|   |   |   |   |   |   |   |   |   |   |   input6 <= 72
|   |   |   |   |   |   |   |   |   |   |   |   input1 <= 56: 3 (6.0)
|   |   |   |   |   |   |   |   |   |   |   |   input1 > 56: 5 (10.0)
|   |   |   |   |   |   |   |   |   |   |   input6 > 72: 5 (195.0/2.0)
|   |   |   |   |   |   |   |   |   |   input15 > 30: 3 (10.0)
|   |   |   |   |   |   |   |   |   input7 > 60
|   |   |   |   |   |   |   |   |   |   input8 <= 69: 3 (18.0)
|   |   |   |   |   |   |   |   |   |   input8 > 69
|   |   |   |   |   |   |   |   |   |   |   input1 <= 89: 9 (17.0)
|   |   |   |   |   |   |   |   |   |   |   input1 > 89: 5 (6.0)
|   |   |   |   |   |   |   input8 > 79
|   |   |   |   |   |   |   |   input1 <= 22: 3 (7.0)
|   |   |   |   |   |   |   |   input1 > 22: 9 (50.0)
|   |   |   |   |   |   input10 > 69: 9 (81.0)
|   |   |   |   input5 > 69
|   |   |   |   |   input13 <= 26: 1 (23.0)
|   |   |   |   |   input13 > 26
|   |   |   |   |   |   input8 <= 81
|   |   |   |   |   |   |   input3 <= 96
|   |   |   |   |   |   |   |   input2 <= 76
|   |   |   |   |   |   |   |   |   input2 <= 75
|   |   |   |   |   |   |   |   |   |   input8 <= 73: 3 (9.0)
|   |   |   |   |   |   |   |   |   |   input8 > 73: 1 (7.0)
|   |   |   |   |   |   |   |   |   input2 > 75: 5 (22.0)
|   |   |   |   |   |   |   |   input2 > 76
|   |   |   |   |   |   |   |   |   input15 <= 21
|   |   |   |   |   |   |   |   |   |   input10 <= 57: 3 (350.0)
|   |   |   |   |   |   |   |   |   |   input10 > 57
|   |   |   |   |   |   |   |   |   |   |   input1 <= 31: 5 (2.0)
|   |   |   |   |   |   |   |   |   |   |   input1 > 31: 3 (9.0)
|   |   |   |   |   |   |   |   |   input15 > 21
|   |   |   |   |   |   |   |   |   |   input5 <= 96: 1 (5.0/1.0)
|   |   |   |   |   |   |   |   |   |   input5 > 96: 3 (14.0)
|   |   |   |   |   |   |   input3 > 96
|   |   |   |   |   |   |   |   input6 <= 83: 3 (12.0)
|   |   |   |   |   |   |   |   input6 > 83: 5 (38.0)
|   |   |   |   |   |   input8 > 81
|   |   |   |   |   |   |   input15 <= 7: 5 (116.0)
|   |   |   |   |   |   |   input15 > 7: 3 (6.0)
|   |   input15 > 39
|   |   |   input11 <= 64
|   |   |   |   input4 <= 91
|   |   |   |   |   input7 <= 93
|   |   |   |   |   |   input9 <= 29: 2 (10.0/1.0)
|   |   |   |   |   |   input9 > 29
|   |   |   |   |   |   |   input1 <= 46: 1 (227.0/1.0)
|   |   |   |   |   |   |   input1 > 46: 2 (9.0)
|   |   |   |   |   input7 > 93: 2 (22.0)
|   |   |   |   input4 > 91
|   |   |   |   |   input14 <= 13
|   |   |   |   |   |   input11 <= 30
|   |   |   |   |   |   |   input2 <= 85
|   |   |   |   |   |   |   |   input7 <= 81
|   |   |   |   |   |   |   |   |   input5 <= 40: 1 (82.0/1.0)
|   |   |   |   |   |   |   |   |   input5 > 40
|   |   |   |   |   |   |   |   |   |   input3 <= 40
|   |   |   |   |   |   |   |   |   |   |   input5 <= 55
|   |   |   |   |   |   |   |   |   |   |   |   input3 <= 29: 2 (52.0)
|   |   |   |   |   |   |   |   |   |   |   |   input3 > 29
|   |   |   |   |   |   |   |   |   |   |   |   |   input2 <= 66: 1 (33.0)
|   |   |   |   |   |   |   |   |   |   |   |   |   input2 > 66: 2 (3.0/1.0)
|   |   |   |   |   |   |   |   |   |   |   input5 > 55: 2 (138.0)
|   |   |   |   |   |   |   |   |   |   input3 > 40
|   |   |   |   |   |   |   |   |   |   |   input6 <= 72
|   |   |   |   |   |   |   |   |   |   |   |   input9 <= 25: 2 (31.0)
|   |   |   |   |   |   |   |   |   |   |   |   input9 > 25
|   |   |   |   |   |   |   |   |   |   |   |   |   input7 <= 65: 1 (7.0)
|   |   |   |   |   |   |   |   |   |   |   |   |   input7 > 65: 2 (3.0)
|   |   |   |   |   |   |   |   |   |   |   input6 > 72
|   |   |   |   |   |   |   |   |   |   |   |   input5 <= 75: 1 (147.0)
|   |   |   |   |   |   |   |   |   |   |   |   input5 > 75
|   |   |   |   |   |   |   |   |   |   |   |   |   input9 <= 44: 2 (22.0/1.0)
|   |   |   |   |   |   |   |   |   |   |   |   |   input9 > 44: 1 (27.0)
|   |   |   |   |   |   |   |   input7 > 81: 2 (69.0/1.0)
|   |   |   |   |   |   |   input2 > 85
|   |   |   |   |   |   |   |   input5 <= 93
|   |   |   |   |   |   |   |   |   input13 <= 41: 3 (5.0)
|   |   |   |   |   |   |   |   |   input13 > 41: 2 (5.0)
|   |   |   |   |   |   |   |   input5 > 93: 2 (45.0)
|   |   |   |   |   |   input11 > 30: 2 (159.0)
|   |   |   |   |   input14 > 13
|   |   |   |   |   |   input9 <= 69
|   |   |   |   |   |   |   input15 <= 76: 1 (21.0)
|   |   |   |   |   |   |   input15 > 76: 2 (2.0)
|   |   |   |   |   |   input9 > 69: 7 (6.0)
|   |   |   input11 > 64
|   |   |   |   input6 <= 77: 4 (25.0/1.0)
|   |   |   |   input6 > 77
|   |   |   |   |   input11 <= 90
|   |   |   |   |   |   input3 <= 15: 7 (18.0)
|   |   |   |   |   |   input3 > 15: 1 (30.0)
|   |   |   |   |   input11 > 90: 3 (31.0)
|   input14 > 20
|   |   input8 <= 70
|   |   |   input14 <= 50
|   |   |   |   input16 <= 0
|   |   |   |   |   input13 <= 22: 6 (13.0)
|   |   |   |   |   input13 > 22
|   |   |   |   |   |   input6 <= 81
|   |   |   |   |   |   |   input1 <= 81: 4 (444.0/2.0)
|   |   |   |   |   |   |   input1 > 81
|   |   |   |   |   |   |   |   input1 <= 91: 9 (19.0)
|   |   |   |   |   |   |   |   input1 > 91: 4 (24.0/1.0)
|   |   |   |   |   |   input6 > 81: 9 (13.0)
|   |   |   |   input16 > 0
|   |   |   |   |   input2 <= 86: 2 (8.0)
|   |   |   |   |   input2 > 86: 6 (7.0)
|   |   |   input14 > 50
|   |   |   |   input9 <= 84: 6 (6.0)
|   |   |   |   input9 > 84: 0 (32.0)
|   |   input8 > 70
|   |   |   input9 <= 54
|   |   |   |   input14 <= 23
|   |   |   |   |   input2 <= 75: 1 (8.0)
|   |   |   |   |   input2 > 75: 3 (7.0)
|   |   |   |   input14 > 23: 9 (147.0)
|   |   |   input9 > 54
|   |   |   |   input1 <= 35
|   |   |   |   |   input2 <= 60: 1 (81.0)
|   |   |   |   |   input2 > 60
|   |   |   |   |   |   input15 <= 76
|   |   |   |   |   |   |   input3 <= 38: 7 (143.0/1.0)
|   |   |   |   |   |   |   input3 > 38: 1 (2.0)
|   |   |   |   |   |   input15 > 76: 1 (22.0)
|   |   |   |   input1 > 35
|   |   |   |   |   input5 <= 34: 9 (50.0)
|   |   |   |   |   input5 > 34
|   |   |   |   |   |   input14 <= 26
|   |   |   |   |   |   |   input1 <= 75: 4 (10.0)
|   |   |   |   |   |   |   input1 > 75: 1 (4.0/1.0)
|   |   |   |   |   |   input14 > 26: 7 (14.0)
input16 > 16
|   input10 <= 47
|   |   input16 <= 65
|   |   |   input1 <= 33
|   |   |   |   input2 <= 60: 8 (24.0)
|   |   |   |   input2 > 60
|   |   |   |   |   input7 <= 19: 6 (12.0)
|   |   |   |   |   input7 > 19
|   |   |   |   |   |   input14 <= 2
|   |   |   |   |   |   |   input15 <= 50: 3 (3.0)
|   |   |   |   |   |   |   input15 > 50: 2 (3.0)
|   |   |   |   |   |   input14 > 2
|   |   |   |   |   |   |   input9 <= 1
|   |   |   |   |   |   |   |   input4 <= 94: 7 (15.0)
|   |   |   |   |   |   |   |   input4 > 94: 2 (16.0)
|   |   |   |   |   |   |   input9 > 1
|   |   |   |   |   |   |   |   input3 <= 23: 2 (4.0/1.0)
|   |   |   |   |   |   |   |   input3 > 23: 7 (280.0)
|   |   |   input1 > 33
|   |   |   |   input5 <= 85
|   |   |   |   |   input11 <= 4
|   |   |   |   |   |   input1 <= 56: 2 (8.0)
|   |   |   |   |   |   input1 > 56: 8 (38.0)
|   |   |   |   |   input11 > 4
|   |   |   |   |   |   input10 <= 24
|   |   |   |   |   |   |   input15 <= 79: 6 (158.0)
|   |   |   |   |   |   |   input15 > 79: 2 (3.0)
|   |   |   |   |   |   input10 > 24
|   |   |   |   |   |   |   input16 <= 32
|   |   |   |   |   |   |   |   input10 <= 27
|   |   |   |   |   |   |   |   |   input1 <= 75: 3 (2.0)
|   |   |   |   |   |   |   |   |   input1 > 75: 6 (10.0)
|   |   |   |   |   |   |   |   input10 > 27: 5 (9.0)
|   |   |   |   |   |   |   input16 > 32: 0 (57.0/1.0)
|   |   |   |   input5 > 85: 8 (124.0)
|   |   input16 > 65
|   |   |   input7 <= 17
|   |   |   |   input11 <= 84: 8 (12.0/1.0)
|   |   |   |   input11 > 84
|   |   |   |   |   input10 <= 30: 0 (77.0)
|   |   |   |   |   input10 > 30: 8 (3.0)
|   |   |   input7 > 17
|   |   |   |   input11 <= 24
|   |   |   |   |   input14 <= 71
|   |   |   |   |   |   input10 <= 12: 8 (109.0/1.0)
|   |   |   |   |   |   input10 > 12: 5 (7.0)
|   |   |   |   |   input14 > 71
|   |   |   |   |   |   input2 <= 99
|   |   |   |   |   |   |   input15 <= 61: 8 (2.0)
|   |   |   |   |   |   |   input15 > 61: 5 (176.0)
|   |   |   |   |   |   input2 > 99
|   |   |   |   |   |   |   input14 <= 97: 5 (44.0)
|   |   |   |   |   |   |   input14 > 97: 6 (11.0)
|   |   |   |   input11 > 24
|   |   |   |   |   input11 <= 94
|   |   |   |   |   |   input15 <= 95: 8 (191.0/1.0)
|   |   |   |   |   |   input15 > 95
|   |   |   |   |   |   |   input1 <= 4: 7 (2.0)
|   |   |   |   |   |   |   input1 > 4: 8 (10.0)
|   |   |   |   |   input11 > 94
|   |   |   |   |   |   input14 <= 92: 8 (14.0)
|   |   |   |   |   |   input14 > 92: 0 (25.0)
|   input10 > 47
|   |   input8 <= 60
|   |   |   input7 <= 41
|   |   |   |   input4 <= 41: 8 (19.0)
|   |   |   |   input4 > 41: 5 (62.0)
|   |   |   input7 > 41: 0 (65.0)
|   |   input8 > 60
|   |   |   input9 <= 79
|   |   |   |   input8 <= 77
|   |   |   |   |   input2 <= 82: 3 (18.0)
|   |   |   |   |   input2 > 82: 5 (12.0)
|   |   |   |   input8 > 77
|   |   |   |   |   input12 <= 41: 8 (45.0/1.0)
|   |   |   |   |   input12 > 41: 9 (2.0)
|   |   |   input9 > 79: 9 (113.0)

Number of Leaves  : 	119

Size of the tree : 	237


Weight: 4.19

J48 pruned tree
------------------

input16 <= 20
|   input11 <= 43
|   |   input6 <= 28: 0 (42.0)
|   |   input6 > 28
|   |   |   input10 <= 54
|   |   |   |   input2 <= 96
|   |   |   |   |   input9 <= 10
|   |   |   |   |   |   input2 <= 66
|   |   |   |   |   |   |   input8 <= 32: 1 (16.0)
|   |   |   |   |   |   |   input8 > 32
|   |   |   |   |   |   |   |   input14 <= 3
|   |   |   |   |   |   |   |   |   input14 <= 1: 2 (8.0)
|   |   |   |   |   |   |   |   |   input14 > 1: 1 (8.0)
|   |   |   |   |   |   |   |   input14 > 3: 2 (50.0/1.0)
|   |   |   |   |   |   input2 > 66: 2 (205.0)
|   |   |   |   |   input9 > 10
|   |   |   |   |   |   input2 <= 86
|   |   |   |   |   |   |   input5 <= 62
|   |   |   |   |   |   |   |   input8 <= 69
|   |   |   |   |   |   |   |   |   input6 <= 77
|   |   |   |   |   |   |   |   |   |   input10 <= 3: 1 (34.0)
|   |   |   |   |   |   |   |   |   |   input10 > 3: 2 (6.0)
|   |   |   |   |   |   |   |   |   input6 > 77: 1 (182.0)
|   |   |   |   |   |   |   |   input8 > 69: 2 (12.0)
|   |   |   |   |   |   |   input5 > 62
|   |   |   |   |   |   |   |   input3 <= 71
|   |   |   |   |   |   |   |   |   input4 <= 83: 1 (19.0)
